2.137901955720762290e-02
-5.602116401483042685e-02
1.005312725668353196e-01
2.414162932590867630e-02
3.649643746738693434e-02
-2.495134883390981093e-02
4.233347470588214728e-02
4.061673829000223696e-02
-3.237781435900199956e-02
2.351696587751331280e-02
1.724171165873516001e-02
-6.130461802652804187e-02
-5.705543870058593647e-02
7.382130214599764984e-02
-3.392027001818067548e-03
-2.043583604917838942e-02
9.973160968891350842e-03
9.672897475859357219e-02
6.628761118598258673e-02
-6.060178587353352853e-02
7.520393885933313689e-04
3.052912752953249043e-02
-5.174590627591403591e-02
2.173329325710315549e-02
2.184548345870665140e-02
4.449090891975224747e-03
6.015619124981747001e-02
-4.448295086591736586e-02
-4.232395478605825018e-02
2.100556989108638001e-02
-1.890785120163494815e-02
2.167459584777301287e-02
-5.440515524011177440e-02
-2.802503583618275521e-02
-9.680169018885421972e-02
7.263747790723342791e-03
-1.589434436704590184e-02
-3.089240097729871806e-02
-7.717117955227990878e-02
-2.470350067156514007e-02
-1.817119906316753269e-02
4.715729966603730144e-02
1.633970511812463458e-02
1.275141203004835633e-02
-3.215902397535066320e-02
-4.123113671665622204e-02
-4.599007650484480264e-02
-6.146141341349913717e-02
2.215776220827365625e-02
-5.310383118482647768e-02
5.849322520203764642e-02
3.503872618505077946e-02
-4.272134239617494250e-02
7.994346549676131786e-02
5.244951401438818078e-02
2.122011777725459417e-02
-3.704171821308326062e-02
1.870670440597194464e-02
-5.320152682413693823e-02
-2.521922182618829139e-02
-8.175699819236321997e-02
-8.996430255021366576e-03
7.181083396279765163e-02
2.921507226143246760e-02
-1.569784694897244717e-02
-1.509418962728678419e-02
-2.885499229986885489e-02
-2.206052193252633700e-02
-6.450863551301622145e-02
-6.267257307254028853e-02
-3.139603614070995974e-02
-5.899981994350115416e-02
8.604530061623304540e-03
-2.943163770584991332e-02
1.369958904353139537e-02
-3.336399692782803655e-02
-2.054904274304353642e-02
-4.033418845613589293e-02
6.252338934118294167e-02
2.667945585914961726e-02
-9.446916273996960184e-03
-6.557972397180299173e-02
-5.769071865975559238e-02
-3.000388849457455431e-02
3.991298323769391226e-02
-3.086308801594526974e-02
-2.651679950426594559e-02
1.575713563491968477e-02
-7.585627066941498520e-02
5.016935463862365330e-02
6.350241073073477349e-02
8.905375996877817890e-02
5.552691289892949106e-02
1.881765246349278303e-02
3.065966084672658298e-02
1.366111463235250394e-02
3.101399477053231810e-02
-4.987277939005590327e-02
1.533181876823064456e-02
-5.080505183481930781e-02
-5.780912599997626439e-02
6.859327568199326264e-02
2.668856001730693719e-02
4.268616718130273380e-02
9.072825089251484315e-03
-7.971887490241716390e-02
3.917008063334984080e-02
2.861726202748916814e-02
-3.241341378202532153e-02
-8.672800067020514092e-02
1.625237904973410655e-02
-1.626788663996470152e-02
4.171377896349504587e-03
2.829282859551920937e-02
-6.114085079276062457e-02
3.160195613540785903e-02
-5.286463566567448785e-02
-3.853560714837128698e-02
-2.598602803304230976e-02
3.482946462235372159e-03
1.550188069990285876e-02
6.285892594950943935e-02
-3.553631463624979531e-02
3.765351100641928239e-02
-2.433547847755407334e-02
-4.788372261758887943e-03
-9.686463297418056520e-03
-3.037942528080162310e-02
-6.073487222096003724e-02
-1.055243574659991412e-01
3.908999872141428328e-02
-6.144133437980572876e-02
-3.433609909811758537e-02
-4.469202347880307791e-02
-5.749357067325233661e-02
-2.935195051064454913e-02
1.399968156424197425e-02
-3.751863267416350595e-02
-9.653867267780576189e-02
-5.163797554639620174e-02
5.931055140819596616e-03
-1.148488137204978221e-02
4.103501427068131924e-02
-3.477179421089832828e-02
6.420759323190655676e-02
-4.087846340161727099e-02
-3.551198579709003572e-02
3.596244425357969510e-02
-1.928961114088795920e-02
-9.098974812527445624e-03
