-2.817728488184663080e-02
3.579841378991457240e-02
1.304476152399464406e-01
1.076638961197645857e-02
8.587940470511588875e-02
9.303119554831529303e-02
9.093184571769062641e-02
1.471963219322193483e-01
-2.412131496674677425e-02
-2.876231235279501103e-03
4.360483287126359214e-02
5.337182007151226870e-02
-4.125904586912709088e-02
7.939513643068271675e-02
4.228362717446169233e-02
6.799332210051795000e-02
-6.447957000890070824e-03
1.788256235349064025e-03
-2.010966687690584134e-02
-1.199970959991718961e-02
1.384705487965041254e-02
1.031254988947079981e-01
-2.003549598699719617e-02
7.195175464683897792e-02
3.525842710721244222e-02
1.318969812778408579e-01
1.946916938373860761e-01
-2.372753866461721137e-02
7.086778472169420751e-02
7.889633487053518413e-02
2.092919963151328167e-02
1.168202880431130769e-01
5.479005117286665782e-02
4.613449104944877810e-02
8.752283275947879415e-02
9.008247392877352655e-02
5.066379116337292599e-02
9.291031686380696319e-02
-4.072367552246069534e-03
5.494768292924370745e-02
6.685931840854844599e-02
-4.353383877116160511e-02
9.778677961275676622e-02
7.263700391332446327e-02
1.036316563121624235e-01
9.770984653127881558e-02
-9.162724145062728018e-03
5.812184579957238584e-02
1.824434786794481775e-02
9.384616931367945059e-02
6.549497763104766834e-02
6.777403891882225612e-03
-7.587923718888811564e-02
8.896810706183293227e-02
9.892070929684637637e-02
7.626893177152778425e-02
5.208494779352668830e-02
-4.383555446538957984e-02
4.184826624761664449e-02
-4.118168768017348852e-02
1.439753052584686601e-03
-5.521078284885554133e-02
8.434173791204283011e-02
6.635854151349959706e-02
-1.500509737396013912e-02
-4.440198895514085170e-02
-3.469088856814757371e-02
-6.106208834734481311e-02
5.134398217678159959e-02
5.464078940755644903e-02
8.419178317699527181e-02
7.659456106101672490e-02
2.446489343389976479e-02
9.875513982942209223e-02
5.895767872306326152e-02
2.000213850288815737e-02
1.206835044685851677e-01
-1.143009810832494762e-02
9.042126321922451526e-02
4.845677684855424772e-02
5.472682752880987656e-02
3.032411318150319071e-02
9.051769864305607427e-02
1.812809317322173000e-02
-3.192936603157202347e-02
1.050410241063845646e-01
1.065294867926843969e-01
5.649138816189791523e-02
-4.072345230093371571e-02
5.221839072024098138e-02
1.063574772643987448e-01
4.199989302018650866e-02
1.335994344493385000e-01
-6.353646187629759939e-03
8.661231186443350480e-03
-3.481087962883186449e-02
5.389160695637297549e-02
-6.212013972215228025e-02
3.535863145282300279e-02
2.620063527126518035e-02
1.071919819269207680e-02
-5.344641534801478772e-02
-1.673171833034431399e-02
4.735748137162568150e-02
8.527585606833680554e-02
1.084976420811579606e-01
4.061272787072243290e-02
-6.248852319943941358e-02
-8.918291855986826625e-03
6.632104460339686980e-02
-7.253750176839621720e-03
2.595880647440048164e-02
2.753528816200227075e-02
3.540753899587053416e-02
6.966391812983388498e-02
-6.418844592697847337e-03
1.775290666915382495e-02
5.848010430075263610e-02
1.218807043477905944e-01
7.955513402702284187e-02
8.531516432054714327e-02
6.033528361328886758e-02
2.795876921319024200e-03
1.143173551837408514e-01
4.375889564052747038e-02
-1.766712559277431585e-03
-3.138413269170555603e-02
-7.163604148582881741e-03
3.466761208718273195e-03
3.116853939864870984e-02
2.798041210388263825e-02
-5.784142435533228682e-02
-9.894106178706622151e-03
1.103433908211240572e-01
5.268581536816440564e-02
3.453288710019992991e-02
3.162472458140628412e-02
2.257043826732753333e-02
-1.420011358368346473e-02
7.547214080019611082e-02
2.681882307704518478e-02
5.362947088127353185e-02
6.164780576062733886e-02
9.613647538315809801e-03
3.930658157468393255e-02
9.592228240141086049e-02
2.270454994069669510e-02
6.733747621594259047e-02
3.129667406256013418e-02
7.749318687496714597e-02
