-1.540817553845916787e-01 4.319110309410402193e-01 -2.158839928697999511e-01 -3.521529804544094033e-01
-2.730383384130691815e-01 3.560760883587185677e-01 -6.133708604913620799e-02 -2.998987634364159161e-01
-5.400714703339509759e-01 4.071848225061663884e-01 -3.711590192247784525e-01 4.781667567999244306e-01
3.637304651184377624e-01 3.458485362088503101e-01 1.818368290671002752e-01 -5.583484764628101615e-01
1.720220735606904361e-01 -2.548897683374100609e-01 -1.139579738115753110e-01 2.300153962483583170e-01
-2.789377180219498320e-01 -3.822011826466450435e-01 3.732608652088666989e-01 2.367975846065240586e-01
6.096290052488555489e-01 -1.440508200680876982e-01 -5.262304949371954255e-01 -2.787653984150577635e-01
5.514695457661898843e-03 -7.564465969076848706e-02 -1.412289265827067338e-03 1.123434877051393554e-01
3.844638744403059971e-01 -2.777445882641371711e-01 2.149230562640720987e-01 -2.016250796374770282e-01
-1.289317255109401483e-01 -1.485431535629844479e-01 5.085707378325316635e-02 1.597103223086457913e-01
1.949042659923485854e-01 2.009415341905810282e-01 3.713589652651579920e-01 -3.680994346205336831e-01
-3.328753132481181432e-01 -1.117353579222130633e-01 4.138976977935533430e-01 2.712359367474134197e-01
2.922475616948428945e-01 -7.917260495944758447e-02 -3.845801744907140218e-01 3.676873982251537831e-01
-2.320459373933801348e-02 -3.665132375999728964e-01 -7.694760008732787204e-02 3.617335081303441058e-01
-1.585537418698156065e-01 -1.034261470637320851e-01 -4.894513100307795739e-01 5.680632455831750027e-01
6.598128401841584292e-03 -8.797254959432312948e-02 1.201613654678681670e-01 -8.312942251680495442e-02
-8.658005509566688018e-02 1.169299623510074854e-01 1.665489827181816651e-02 -2.040979422891636350e-02
5.630415802359665239e-02 -3.434346518750880928e-01 -4.003298419602300817e-01 5.009805894881368404e-01
-2.176204098283415211e-01 -3.908902414191975927e-01 1.028835652644459614e-01 1.017745426958296950e-01
4.989461532230323737e-01 1.084790243929351361e-01 -5.670100494264447288e-01 -2.992045117806529375e-01
-5.581841529685538372e-01 -3.939248258348208021e-01 6.614454418559411186e-01 1.859117844660278795e-01
-2.580159093568305459e-02 -3.942498540990812539e-01 4.906766417566834626e-01 -7.389489220610141740e-02
8.723586511816579236e-02 -3.252995939689478505e-02 6.041856466428009026e-02 7.531257593428862009e-03
1.394564456209703707e-01 -1.182570602542046406e-01 -6.694866770397842060e-02 -8.319447104080386624e-02
-6.291476359020810316e-02 -4.304615451375916613e-01 4.559420532614876787e-01 1.625826556108180831e-01
2.387614255669892049e-01 1.494798688054056225e-02 -1.046062796112081361e-01 -2.007930595645901761e-01
1.427200213618298914e-02 -8.173428003628056826e-02 -9.136913024026395436e-02 -1.030247401906725507e-01
5.991060838793527132e-01 -2.115006794519101729e-01 -1.581016017109024008e-01 -1.941293353692838952e-01
1.293464338694549076e-01 3.396368268619199271e-01 -1.108001533084722601e-01 -1.931201438402525283e-01
-2.002910536443450185e-01 -2.075341189721664481e-01 -1.203313447172243804e-02 2.083938099145195011e-01
-2.203787710210149964e-01 -2.420650503069468329e-01 -1.117240744153183835e-01 2.328372330702635218e-01
-1.468456730959306622e-01 -1.107398636076868947e-01 3.134176198281204417e-01 -2.721045375694544632e-01
3.600609825455788893e-01 1.477329853921914848e-01 1.434627196553623085e-01 -3.391993284885986837e-01
2.844960229461301546e-02 4.054128171380260159e-01 2.379900553562198928e-02 -1.552108216331738177e-01
5.373291318374745495e-01 -5.939978813369170552e-02 -2.987166648632402777e-01 -4.232172235552650319e-01
-7.098542992239345595e-02 4.049731508653601347e-02 -2.924135238062297235e-02 -1.558098059957352122e-01
-1.708592305003890921e-01 -1.298650201630514867e-01 1.510585125085559810e-01 6.503753947581768224e-02
-1.539115200887257728e-01 1.752415149533136374e-01 -3.838590832391342023e-02 -1.301673502073457389e-01
1.145384602723951706e-01 -3.092495349110322422e-01 1.082282777456266762e-02 4.161896554890125860e-02
-1.232436653030044155e-01 2.634936446624974379e-02 -7.895181305300593214e-03 1.204654115432012562e-01
-3.103584726547274544e-03 -1.015104505230828291e-01 -1.944335647924167187e-01 8.901410126050353366e-02
1.184641497672552363e-01 -1.670407284136834480e-01 -9.086168505625343006e-02 -1.618016795920046158e-01
-1.531374142887187983e-01 -2.303002905154346858e-01 -4.617968280727035441e-02 1.295797336612753425e-01
-1.681849715025779124e-01 1.186390720277835376e-01 -1.582520056936722597e-01 8.455984970303162540e-02
-9.514360258010345905e-02 2.996555527707901040e-02 -3.111209704166941967e-02 6.444708219073896557e-03
-3.617429132880666670e-02 -1.104221721824585611e-01 2.530598161469623797e-01 -1.840650292582035955e-02
-4.296030214216451926e-01 4.598054652236172601e-01 -2.477914781499609143e-01 2.307933183396184557e-02
7.398660419687214107e-02 4.247525014035019031e-01 -3.845567478290252139e-01 -1.558682145895155802e-01
1.194375740535330299e-01 -5.379805889337093555e-02 -1.390222751926230571e-01 -1.181074476916195160e-01
1.612477121049218642e-01 1.324629694919463030e-01 1.055492293615414717e-01 1.568037701683983043e-01
1.052170600578534038e-01 6.866242672493684529e-02 1.574631442737735865e-01 5.350003993491441595e-02
1.937124445879834789e-01 1.242329489294982797e-01 1.440345880457137573e-01 6.026476132351853143e-02
-8.408397819696429576e-02 -8.486146020896691289e-02 -9.205899212783495711e-02 1.158138505453524536e-01
-5.096285230479962181e-01 1.223227675153496785e-01 5.511838383619850346e-01 -3.433331168902741815e-01
-1.124622915840996912e-01 1.195705733444662328e-01 -3.837596319419060431e-01 1.573876146194548020e-01
2.454071438557794693e-01 3.726128854190567941e-01 -7.861162668955332111e-02 -5.308990059723739385e-01
1.036607336260796236e-01 -1.805977478277931425e-01 -5.849821294277350592e-02 -3.504471302930375204e-02
-1.875643200599078630e-01 9.724925804608471058e-02 -1.617072403052242646e-01 -4.421435448698425585e-02
1.646910557516983731e-01 -1.226115410168229086e-01 -1.280516451554009061e-01 4.108711231990515578e-01
-1.453211468986481403e-01 3.508483484164404698e-01 -3.687118080387035562e-02 -9.050319158378304640e-02
1.059138296876357688e-01 -9.890584587781988887e-03 3.273787075589409401e-01 -2.458248167193726186e-01
3.255020214266454714e-01 -3.445173025750608575e-01 -1.473260917689271643e-01 -1.791113446332976422e-01
-5.780223154974439836e-01 3.379026338427799231e-02 1.199485076873624961e-02 5.477708083517897064e-01
9.054840690677318227e-02 -4.647838063126252112e-03 -1.143954987914960059e-02 -8.207353903840688969e-02
-5.889282346349373337e-02 2.498476745957120548e-01 1.196523650615372719e-02 2.512008793594511236e-01
1.635375160699933383e-01 8.607190273097055366e-02 4.192165971270265384e-02 1.194369811783027729e-01
-6.418284301426719317e-03 -4.571632162644798797e-02 -1.572590344782820171e-01 -3.225409313264518962e-01
3.505699626855968698e-01 -2.151130929240710477e-01 -4.629289671652115912e-01 2.678075059441424322e-01
1.717558637074694805e-01 -1.277214464161269547e-01 2.553787053189093270e-01 1.080844504835983683e-01
7.981250680990313595e-02 1.321360623742910967e-01 4.512692681611595036e-02 8.689148482642769511e-02
1.200561510320687642e-01 1.952067988077939020e-01 -2.975683465778344305e-01 2.904656134407591628e-01
-1.891559987829608547e-01 -1.175057790131314728e-01 1.814684234259595352e-01 5.507165653096363772e-02
-2.746879848796329737e-01 1.742681369981003425e-01 3.108249726098917254e-01 9.956616132231528582e-02
-4.321165925377737360e-01 -1.984059228582605028e-01 4.422933948663775316e-01 1.086110301947178503e-01
-1.800960653473460682e-01 -8.978923054162153694e-02 1.830742713963379731e-01 -4.736879896424264769e-02
-2.206429399609679265e-01 4.954084394894412990e-01 -4.146020766076446984e-02 -1.932379441733747261e-01
2.038292134841755976e-01 -1.916789999243330156e-01 -4.306272622739947681e-02 9.827729650662862457e-03
2.543466611843701042e-01 5.883271247177835478e-02 -3.875792947680989364e-01 3.103655768118299130e-01
-9.122932879723144595e-02 2.631179337927402537e-02 -3.117222482426812089e-02 1.545016872469700230e-02
3.156682931636491385e-01 2.623645233256375886e-01 -4.004340716361193819e-01 -8.033180429508282594e-02
3.039708388238874792e-01 -4.648359189156398563e-01 3.819968702769539481e-01 1.821175559319760662e-01
-2.379154870443762060e-01 6.816903793282940160e-01 -3.013387085695556356e-01 -3.918543376205379514e-01
-2.531040080343381349e-01 4.559917670760839647e-01 -1.564509832406122125e-01 3.139715604547681227e-02
2.687004351657220069e-01 -1.044291331114465815e-01 -3.006226082043900738e-01 -2.189396547970061946e-01
-5.222211945642561692e-02 1.405080923043686147e-01 -1.621456877390826667e-01 1.364704697828910199e-02
1.200846013596588852e-01 -4.504414655611710394e-01 3.015029810949739764e-01 -1.250178491660539903e-01
-3.719685268538089340e-01 3.369358995586120287e-01 -2.307655976680516030e-01 3.632497103786009873e-01
1.922817781902651235e-01 -8.255572029639331177e-02 1.935411283341633426e-01 -5.287353448237853797e-03
-3.094799844754476670e-01 -3.922892668909639946e-01 2.293194744661688766e-01 4.064397687905029616e-02
-1.186485887597543837e-01 1.083593505462503680e-02 -9.558939205180326526e-02 1.940782433012283592e-01
-2.462843972449151320e-01 2.548657546002128238e-01 3.215258607775778876e-01 -2.019113323574465435e-01
3.058530247517006750e-01 -4.059135905860173366e-01 3.601217529203511181e-02 4.075256865360358249e-01
2.816845966891103337e-01 -1.813539290007779858e-01 -9.778047727680412582e-02 1.753409053185888689e-01
3.040305652046615958e-01 7.273408940035896997e-02 1.318944532070352449e-01 -4.089773288375119220e-01
-2.404308181403911893e-01 3.456163923469896537e-01 4.635357820629179559e-01 -5.306921942021204375e-01
3.003613793920362207e-01 -9.727631681596053681e-02 1.763136886404012005e-01 -3.532894762012752099e-01
-1.576495566920948221e-01 1.048608467657065613e-01 -1.855860683867145700e-01 -1.466298057768708196e-01
-3.009465989912681327e-01 3.897372437225518627e-01 2.564805912861939929e-01 -3.503372247914953164e-01
-4.960289117953151083e-02 -3.838879492181664077e-02 4.727240310242415700e-02 -1.305324989119368284e-01
2.365362847276828717e-01 -3.265061988244877256e-02 -5.307944707463826406e-01 2.237981400822411926e-01
7.727424569700019896e-02 -8.474002178072345681e-02 -1.693540906969106252e-01 1.909113152210414194e-02
-2.382141646261318746e-01 2.408499569835514664e-01 8.453519287757295039e-03 -2.314268727556098304e-01
4.580234903604446517e-01 1.402075012466630632e-01 -4.100871942580657237e-01 -1.851144092919294049e-01
-3.140572831065981396e-01 1.591811644219285060e-01 2.224120429383585340e-01 -2.120318129718547495e-01
3.278880171346442718e-01 -1.512828168955954455e-01 6.668122892502130472e-02 1.307384096574592813e-01
2.367818674625334074e-01 5.328699489949307450e-02 -3.895638912290202982e-01 3.228343469123902132e-01
1.831720232721072150e-02 -5.200264209336129539e-01 3.195430368433930246e-01 2.036310138781642354e-01
-2.295139627565461471e-01 1.120538409180214801e-01 -3.009397922277039922e-02 -1.978063625590690544e-01
-1.176776786202392983e-01 -1.900140692069720860e-01 -1.666711340103868566e-01 2.852999503542041557e-02
-3.367882394980459826e-01 3.959232328723216038e-02 4.463753632062102961e-01 -2.705540321766883305e-01
1.804439599643959946e-01 2.326100240866624258e-01 1.162169195890556672e-01 -3.247572519956974935e-01
2.512131413722997753e-01 -2.881687620137237879e-02 1.839320780982495740e-01 -3.661058828774947371e-01
-1.209113277020606031e-01 -7.234992395357925377e-02 -2.448459871978718172e-01 3.688340785269744737e-01
1.324509698636501254e-01 -1.965355571142305691e-01 -1.215358132897078336e-01 -1.301740270282442102e-01
-1.077881970666117600e-01 1.556555910408954357e-01 -2.944560014145369484e-02 -2.830938238496850667e-01
5.264839215837134878e-01 -4.254740937693291536e-01 -3.979069986226315137e-01 3.607095344345436772e-01
-1.933260143052103475e-01 -5.183807707142230881e-02 4.993738914258220515e-03 -2.856789822317970517e-02
-5.378004374963653300e-02 -1.147662452852270670e-01 1.343270134704925012e-01 1.239722165687497241e-01
5.499026352017369335e-02 -5.366546446484998789e-02 1.586968845692159624e-01 -1.740937810089554505e-01
3.363476705438816494e-01 3.274788588926573207e-01 -4.736390721842493878e-01 -9.457696753901083386e-02
1.379438589833117401e-01 -2.995144768093127574e-02 6.566810103940109999e-02 -4.470800938908673361e-01
-2.768339763502922768e-01 2.354261540311119172e-01 2.488210269899340243e-01 -1.541800970009919169e-01
-1.155916670894462511e-01 -2.447625902306665990e-02 -3.268084771196690802e-03 -9.356074822033622063e-02
-2.360774662296727389e-01 1.351475822019637119e-01 2.031792352375930699e-01 -2.194981194641006661e-01
3.753238267856522925e-01 -3.045166421172043059e-01 -1.429367403761705457e-01 -2.092249625679425962e-01
-8.076359610667181721e-02 -3.365547296003951194e-01 3.249713411357446069e-01 -2.131265924636563391e-01
1.050021003656907842e-01 -3.897585150821093053e-02 -2.963056215695024087e-01 -1.383314762460343128e-01
-1.725455467625366390e-01 3.635510229497838641e-01 -1.929615920707851151e-01 -2.643175372073840457e-01
3.244875111409425972e-02 1.275634852335013475e-02 1.334538446415844126e-01 1.780486637166099340e-01
-2.974956305381849520e-01 -1.745588719799338606e-01 -4.827314600692198532e-01 7.764698385552308846e-01
-3.006036196951891726e-01 -1.224046048613078030e-01 -1.295338733113908236e-01 -9.101539724237069084e-02
-1.649803250223611656e-02 9.140029915733659249e-02 -7.822068288754170651e-02 -1.842038610214912636e-02
-1.624884520384558273e-01 -1.217330885237257743e-01 7.052831777398836134e-03 -5.170516409596692675e-02
1.498096542843094514e-01 1.837536202878881364e-01 4.687049560893311040e-02 -5.276690090471532896e-02
1.458363731312634637e-01 1.328046255818804422e-01 -6.785558320106481467e-02 1.090284178866088721e-01
-2.498717850169249743e-01 -1.023364117206399942e-01 -1.088599059542365993e-02 5.540347124918788835e-02
-6.786073412086318646e-02 1.943539411473378109e-01 -8.740922065428294654e-03 1.800702821432610679e-02
-1.599723004002499838e-01 -2.472860670667258870e-02 -1.865947194222666583e-01 1.447243244498176229e-03
8.704945608517447586e-02 -4.554950563346661652e-02 5.291114243928389804e-01 -4.103253066807410754e-01
1.590501933131192591e-01 -7.098889029101722314e-02 9.888123074237160220e-03 -1.701289535146970067e-01
-2.593283837461922148e-01 -2.296573209582743191e-02 2.882938339938320715e-01 1.366141140684679067e-01
-1.124599135553927542e-01 7.790234764344207419e-02 -1.661061142565226634e-01 1.428485193467954051e-01
1.595670648472404807e-01 1.256966398871882384e-01 -1.576201465526727297e-01 1.196703118267780225e-01
4.684250750547046538e-01 -2.676821809145196185e-01 -2.535876971904016397e-01 7.718995711497213252e-02
-1.499806139674921268e-01 -2.473287008365230022e-01 9.279712468067261022e-02 3.425166462346826979e-01
-1.036096458249779750e-01 -5.960777033103805550e-02 2.080571746346543405e-02 7.348254769697366851e-02
6.635236768259172857e-02 1.142973628026494326e-01 -2.637276005978471671e-01 2.230918041180560141e-01
-5.065190821412255406e-01 1.300922455905795250e-01 5.360912630670425782e-01 1.059291625535002807e-01
2.797413661929342155e-01 -3.072960160902877755e-02 -1.480978786443055695e-01 -3.737277079905025334e-01
1.873585402126115296e-01 1.077800301860367283e-03 -1.614402336627855997e-02 1.951533278124187865e-01
