-1.900657826225859992e-01 -5.813350883089167011e-03 7.630564645115862910e-03 -1.803109228216390747e-01
-2.951425633429762690e-02 4.560925354973329182e-01 -2.863732388359002679e-01 -3.497034323735804806e-01
-2.183705478149011170e-01 4.866531566523303876e-01 -2.695734672071427585e-01 1.678795590766165025e-01
-2.524529157906824639e-01 1.609662641754892598e-01 2.650338633302187219e-01 -1.794268023072216611e-01
-1.943101600727772937e-01 -2.374679409078694070e-01 2.932989703760326416e-01 2.931539360815165196e-01
1.636463313279630238e-01 3.775044364892502502e-01 -3.973698850044877218e-01 -2.248234054245037972e-02
-9.564938793608125656e-02 1.944292234615944692e-01 -4.804869755457684410e-02 5.793056302638541905e-02
7.380408671937593867e-02 4.130747100280512396e-01 -3.294798218531412304e-01 -3.660050799029927054e-03
-8.616850299892650500e-02 -1.403528846904694531e-02 3.482045200159010201e-01 -6.326386484243780306e-02
1.943276382171138517e-01 -1.923532615265785006e-01 -3.482028175035455086e-02 -3.701128034291324698e-02
-1.888687934332184959e-01 3.286348304061931236e-01 -9.547325532914334445e-02 -2.294547895453060982e-01
-2.027377924106877893e-01 1.383000623645570248e-01 -3.076433157005618035e-01 2.921590243725774028e-01
4.407839874365489241e-02 -1.735075808448588719e-01 1.573416882489297730e-01 -1.366297590835234277e-01
1.038533511077783661e-01 1.446231860988956841e-01 -4.138499916467687223e-01 1.672965683043413365e-01
3.380544697623674710e-01 -3.045133903287401411e-01 3.641902831225772852e-01 -3.043514583777482962e-01
3.758444990997591995e-01 -3.626232631564605957e-01 3.430610495680851413e-01 -3.314632459300953515e-01
4.797980451570579841e-01 -1.881301416547349337e-01 -2.682225535906631042e-01 1.992656017104776217e-02
4.819526564695775922e-02 1.220042782884619842e-01 1.474040153130216635e-01 -1.296941505353619573e-01
-2.721415812158685388e-02 2.345187533059744089e-01 1.412535097376580451e-01 2.506978789067087002e-02
-1.105444090683659203e-01 8.644597101830014951e-02 -1.104025597340551057e-01 4.392213328939089112e-01
6.666175490382411639e-02 7.641171278979402501e-03 3.797278869982720906e-01 -2.127291751892009253e-01
-1.432157335863881442e-01 6.043482335638056258e-01 -1.036937411005184884e-01 -3.781283598091117470e-01
-3.901679189155553285e-02 -1.639277400833290543e-01 -1.429814178252372669e-01 2.276172651355856669e-01
5.957494856545082484e-01 -3.511492683231111633e-01 3.788670648651161488e-03 -2.710197967122803253e-01
5.839861709845133725e-02 1.088265600855345683e-01 -1.128718895813363987e-01 1.715765148958011688e-01
5.042766024425908711e-01 -2.936903729582244771e-01 -5.279353939620968772e-01 3.545636382021401523e-01
-2.318973012798090094e-01 2.923657473352757052e-01 -4.102236363769047878e-01 3.758161949202511454e-01
3.306796243974407523e-01 1.086821355854610330e-02 -2.888369969274147131e-01 -2.939788928317915717e-01
-8.433087012684339911e-02 2.968992233843590900e-01 8.013553549905906570e-02 -9.881738099227013739e-02
2.775602300502987840e-01 -2.092480258472245169e-01 -2.952522788228204020e-01 2.651937862470673535e-01
2.460997633734937906e-01 -7.278603062415112124e-02 2.448516717403134424e-01 -3.623203105931419032e-01
1.830088677354169968e-01 5.649660293583151638e-02 -4.770476441767234066e-01 1.782511823382638139e-01
-1.618949276512202107e-01 3.577775020710681764e-01 1.703039542974873477e-01 -1.393982938573531394e-01
-5.639324965935978845e-02 -2.901830192488749072e-01 5.694752153090782559e-02 1.846987984220098133e-01
2.579207652051330180e-01 -3.149357202261671151e-01 2.477459942214921551e-01 -2.722400628610687767e-01
-7.961248146826034600e-02 -1.006724510367445896e-01 -5.516274787040297278e-01 7.234069113848280441e-01
-3.553543156162102812e-01 4.365499777569671336e-01 5.857839354027649659e-02 3.174128885872794514e-01
-4.662257711980166697e-01 3.104226650144933375e-01 2.272716855603935243e-02 4.131996525129732478e-01
-4.083078424593767353e-01 2.556787508358518424e-01 2.028187695185142692e-01 2.478398096703879616e-01
-1.014529204295715886e-01 -1.638551672854254571e-01 -1.931300107884945105e-01 2.385412871025991144e-01
6.064014939871642529e-01 -1.154864625154890106e-01 -4.879862596314227807e-01 5.043930244534420432e-02
2.212599469241251574e-02 1.720125180759313546e-02 7.450574811026060285e-02 1.507599066001280297e-01
-4.019562660838249535e-01 8.074636231726144420e-01 -2.664508105359798540e-01 -3.047453604722928922e-01
-1.603010481731618475e-01 -1.469253076370676814e-01 -4.039342940303526364e-01 4.861669322959066286e-01
3.520033341740843036e-01 -4.888332522240889100e-01 2.257080814125830837e-02 2.675066361730326636e-01
-4.983106906204164410e-01 1.901259415026597954e-01 1.208324167178212866e-01 4.467219101207968168e-01
8.294023554988748381e-02 -5.573627083703658336e-02 -2.782862816334976674e-01 5.267506284834008734e-02
-2.516549993294790455e-01 2.481189803580146624e-01 -1.054672048940677453e-01 -1.766768680947650716e-01
-3.980480589706066330e-01 -1.957717522632834717e-01 3.134249335844682127e-01 1.344647625009758041e-01
3.634781110374175062e-01 4.569708222605473047e-01 -3.687908046642568993e-01 -4.272711555033415487e-01
-3.055510388321124038e-02 2.084450095216188736e-01 -2.739360431316790745e-01 4.032204538800643889e-01
-2.060806425232264150e-01 -2.341082470558965289e-01 -1.728122394270392992e-01 2.186745183513044699e-01
-1.225304498921045010e-01 -6.666779153916443240e-03 6.027292622561704338e-02 -1.140250684140243081e-01
-4.663660608918862582e-01 4.306167506196038608e-01 1.907095186110373264e-01 -1.644318092807461607e-01
5.217531182834307391e-01 -4.488254182139508330e-01 -1.217519360029246517e-01 9.017741699144977974e-02
3.574534381371040626e-01 1.611971494888074230e-01 -2.586874502806325027e-01 -2.752802528412501282e-01
2.372713217576653544e-01 1.946722293290403805e-01 -1.188447698870751940e-01 -5.775737632889094142e-02
1.109456763402940083e-01 8.308505143147669469e-02 4.661205020903701896e-02 1.870330165631219344e-01
-1.165323221811849913e-01 2.467348600979811860e-02 -7.784592915455736291e-03 -1.747473098677053138e-01
3.668608710531957168e-02 6.800517923274386478e-02 4.010510825476087948e-02 -2.173967036458105129e-01
1.633209215539579151e-01 5.975019202256223738e-02 -1.411918084289386366e-01 -1.213354971060508301e-03
-1.383471369723913158e-01 -1.761580452864849322e-01 1.280222274528903248e-01 -1.572533119300899840e-01
-2.492196734116628176e-01 -4.269363882528709464e-01 2.892675594616244128e-01 1.403150559361504013e-01
-1.242940039319132516e-02 -1.133176942830972783e-01 -1.350275181593545426e-01 2.147631733803716803e-01
8.826635580639520529e-02 1.090695055146727321e-01 3.171190535511275166e-01 -2.267311682079561630e-01
1.171279913880790141e-01 -1.898883384435788024e-01 2.848960279536605911e-01 -1.503592387804952302e-01
-1.727378048588643078e-02 -1.030714449854604337e-01 -9.681258862411845634e-02 1.699626200133397824e-01
-4.297123104835540858e-02 2.709252512967357668e-02 3.411101332509459960e-02 -5.358556811441695517e-02
3.061441182758929402e-01 -2.219996993039843047e-01 -1.823158870033381451e-01 -2.649813446407884299e-01
3.658789375765261753e-01 -3.815027840183196073e-01 2.891090248376831928e-01 -4.060485231197612510e-01
2.745450748791113393e-01 -1.749070353618794038e-01 -3.170129489614947338e-01 -1.675995679463047894e-01
5.097899265666806096e-02 5.249782877635862134e-03 -1.666980290338560267e-01 2.095880568118661802e-01
-2.432599067135817750e-01 2.612131252441542151e-02 -1.404435462532037382e-01 5.145099221491064578e-02
-3.822280521416264731e-01 2.414186980899011570e-01 3.688698687223237460e-01 3.164069188657029491e-02
-1.007125352456819667e-01 -2.654780437150170980e-01 -1.632981228087860837e-01 3.020441592783776885e-01
5.643584629478311243e-02 8.286566753785491735e-02 1.110955359838507357e-02 3.302350429967310097e-01
1.788141061368265783e-01 4.604552159346818052e-01 -2.565003960250669124e-01 -3.079483389775563018e-01
-3.351326303301486731e-01 3.617398313862865700e-02 2.614077788519497125e-01 2.660313372051153480e-01
-3.583434809849700975e-01 -1.525186551987911809e-01 -2.313496995637310816e-01 5.894947319549260767e-01
-1.906148903122147908e-01 -8.949656690758367450e-02 -2.174742574052582200e-01 2.820300881275740190e-01
1.036134532498951405e-01 -3.143372451505945242e-01 -1.031516473228001746e-01 -3.184981273330156348e-02
2.059088545850936702e-01 5.576965482637463722e-02 -8.748165403290310282e-02 1.329737584576444753e-01
-3.361660555496728819e-01 3.601663804105290079e-01 8.246332985034654506e-02 -9.488782244800481047e-02
2.479201565376569216e-01 -2.586440193802059806e-01 1.744181182846451239e-01 -4.938609762189998670e-02
3.068171035181612161e-01 -5.105961190983153430e-02 -2.702957397540864393e-01 9.239201497638248328e-02
-2.242257048953481824e-01 3.086810802604827431e-01 2.818237879738379192e-02 -1.427819009860924367e-02
-2.843945884628935709e-03 -3.206590192656105232e-01 3.280668588140198683e-01 1.672486196967983701e-02
-4.076476273539805240e-01 -1.869073096839715675e-01 2.961106394707887501e-01 2.199278247113289064e-01
3.310398677708144555e-01 2.611636427611538358e-02 1.435500522836292148e-01 -2.954242103274187792e-01
6.934092023486428070e-04 -7.421856788794541082e-02 -3.394555027544114423e-01 2.000312104033291072e-01
2.948740895818152685e-01 2.274828375002050929e-01 -4.108482002377542575e-01 2.205579066169994773e-01
-2.380185018762516203e-01 -1.306815248573909294e-01 5.086998942360215770e-01 -1.062718210932261237e-01
-5.741932484473768472e-01 -5.410848218729403802e-01 6.569447897432930672e-01 5.543529433703631160e-01
2.980766478761105454e-01 -1.580340601655667865e-01 -1.287816801429570446e-01 2.453549597514501079e-01
1.266140472957908228e-02 -3.560492160805760198e-02 -1.168274959158381726e-01 -7.481132209672999855e-02
-2.033272979437702743e-01 -1.493914139638004845e-01 4.524133061856887017e-01 -3.231293060455410204e-01
1.744754673302683634e-01 -1.488953759881262232e-02 -2.456418607305636270e-01 -7.726922475598423101e-02
3.187964490448546434e-02 -8.687666051635364525e-03 1.948901140973102741e-01 -5.093534249341936243e-03
2.139986497630641249e-01 1.541525846992106152e-01 2.089156424516017130e-01 -2.538230355660344162e-01
2.040645729350548110e-01 1.798631302891044031e-02 1.950221732505147687e-01 1.579504948124097752e-01
1.506309343344410800e-01 -4.100849130435175183e-01 3.482959507630596363e-01 5.834607785095895227e-02
-7.697288783492074737e-02 -3.578721177811532844e-02 -1.327521239086595917e-01 1.764385549384120400e-02
1.786526855622688412e-02 5.671071467159785216e-04 -1.242039597555091440e-01 2.357543443023435437e-01
7.918479813632109399e-02 6.674234036902448874e-02 6.059138234428626535e-02 -5.948905582207828641e-02
4.044224267127651262e-01 4.029833848705319244e-02 -9.963033443478949702e-02 -1.255007450276356962e-01
-2.611295675387504400e-01 1.332034583444993425e-01 -5.312286729080365477e-01 4.706975685386486918e-01
-2.427200626211425405e-01 -2.056346719330173489e-01 9.652661471453596528e-03 -4.579022901338031942e-02
1.317233165309643480e-03 6.630800725556607045e-02 3.965909788955261639e-02 -5.584689000067732945e-02
-3.431492386287885998e-01 -1.245688556031142591e-01 4.602744178068287617e-01 2.266580100416369925e-01
-1.176405817597912934e-01 1.353400182400097407e-01 -2.722747671182047524e-01 -3.479483949530343123e-01
6.620405344644794687e-02 5.405908253222797832e-03 -2.637113944954132538e-01 1.993693431528608395e-01
-9.270243148947376888e-02 3.355364917311711576e-02 2.177995856251410678e-01 -3.694923307745455743e-01
3.517294820696662550e-01 1.146504613377294091e-01 -2.358042419152629465e-01 -1.954996638668890507e-01
3.117634762227505241e-01 -2.107174556477746652e-01 4.547958462542096569e-01 -4.675617876064857015e-01
1.962572400558872387e-01 2.122865937922548407e-01 -2.096273971639044664e-01 -3.064829380377882551e-01
2.239542855801068474e-02 1.018552658740818073e-01 1.561281762748028545e-01 -7.569568018650504881e-02
2.351385579611503518e-01 8.622000819407582561e-02 8.488636827445121547e-02 -7.700111019573234461e-02
1.656921386040033084e-01 -1.269363651846341368e-01 -3.567299978512124548e-01 3.352802951398642373e-02
2.126254833963327762e-01 -2.617239003909084261e-01 -2.187700307181982273e-01 3.689559677285617068e-01
-4.435015102379161883e-02 4.247792576791368235e-01 6.727150146377902651e-02 -1.114606998899692752e-01
3.945078566192750102e-01 -4.927002550121953872e-01 4.009389494811329002e-01 -4.689487564136000097e-01
1.444919050661616355e-01 -3.937202408272946481e-04 -1.110897982819594593e-01 -4.837314681356292417e-02
-1.439559934559549170e-01 2.737430563051381216e-01 1.248666431411582095e-01 1.524256378008049806e-01
-2.769174214293113057e-01 4.852904784740959543e-01 -3.223610098694176807e-01 -1.161412963417865207e-01
-3.320265445677303973e-01 -2.662788095746270178e-01 4.435148405327302146e-01 -1.869176646644347406e-01
-4.122747048444490130e-03 -1.877964573768628812e-02 -6.678386406500330663e-02 -1.594356785255451048e-01
-1.921799455666306222e-01 -1.783032865099448139e-01 3.747613183906935985e-01 -3.643863276532086776e-02
-5.950123538944869506e-02 1.282355771621327967e-01 9.173286321245172070e-02 -2.833784707398361302e-01
-2.065826895763638038e-01 -4.661043171251184197e-02 9.917940693734318691e-02 -1.775761851904036348e-01
3.259832431039159650e-01 -4.961267250956372110e-02 -4.383007552182739963e-01 -1.227350250671700588e-01
3.416023725552470580e-01 -2.668261213222358763e-01 -2.797472513322146193e-01 2.234955195495719193e-01
1.449685792075233390e-02 2.621574325711343439e-02 -1.984287219842171823e-01 1.568774793380758592e-01
2.897879761821443578e-01 4.369660705090445268e-03 -1.819854736390771888e-01 -7.874532275455771446e-02
1.315511150350719971e-01 5.845818533489929303e-01 -1.823585381134834038e-01 -4.295458487301079264e-01
-5.656280100295922597e-02 -2.925291855302171173e-01 3.795210822000684714e-01 6.828343880118555032e-02
3.669323429784717705e-01 1.657786488209961329e-01 -1.750112617202690957e-01 -6.931818308339476875e-02
-8.514307778303278895e-02 -2.655144100463924239e-01 5.751346865716229217e-01 -2.319761609390614404e-02
3.625302603470784146e-01 5.552407117831823641e-02 8.160663573749038502e-02 -4.737760905959262914e-01
-1.070684640805020932e-01 -2.242666640908640430e-01 -2.360873618154276377e-01 2.468897778295055245e-01
-3.609915504972001643e-01 2.477156591217212767e-01 -2.761322197350592547e-02 -1.532394478429842388e-01
-3.589294610661496882e-02 -1.728310778230185418e-01 2.881133536785267513e-01 4.276892652274889156e-02
5.123260766459094423e-02 -2.831026990561826828e-01 -1.516268148411216432e-01 4.916572910598815405e-01
2.698491166661899365e-01 -2.157476337308043557e-01 1.631613584632271227e-02 2.931175521604786338e-01
2.617288816176381872e-01 2.562116691758352660e-01 1.252350466814422525e-01 -9.884599480878571154e-02
-3.406987773685413723e-01 1.145363982180517236e-02 1.848655505667464727e-01 8.717583494207280237e-02
5.750308524532223853e-01 -3.059798134396713998e-01 -3.039345930343845259e-01 -4.156394280543514869e-02
1.434928275279914178e-01 9.814611901630628660e-03 -2.017898739273125408e-01 -1.127123944960145979e-01
3.279760123127615778e-01 -3.512421769764055846e-01 3.556060036407552860e-01 -1.343706266815201389e-01
-6.195633982112370985e-02 5.801280068271261886e-02 3.311690711147412536e-01 -1.066481442583816670e-02
5.168513706202202407e-01 -8.607602817983379950e-02 -3.697369817181606622e-01 -3.132842806691922277e-01
