-2.485854327678680420e-01 -1.318524032831192017e-01 -2.109366096556186676e-02 8.784153312444686890e-02 -1.752874813973903656e-02 5.263246223330497742e-02 1.400436908006668091e-01 -4.310233891010284424e-02 5.566230043768882751e-02 -8.906230330467224121e-02 -1.758693903684616089e-02 1.475327759981155396e-01 -4.021162912249565125e-02 -5.089032463729381561e-03 -4.559017252177000046e-03 3.810479771345853806e-03 1.008208319544792175e-01 1.896440610289573669e-02 3.088812343776226044e-02 2.322460711002349854e-02 1.608173921704292297e-02 -1.159309688955545425e-02 3.285182174295186996e-03 7.770472019910812378e-02 3.307714685797691345e-02 4.439231008291244507e-03 -5.332152172923088074e-02 6.078044883906841278e-03 9.898253716528415680e-03 1.790934801101684570e-02 6.612347066402435303e-02 -1.855858485214412212e-03 -3.430883213877677917e-02 6.654863059520721436e-02 -1.594406366348266602e-02 1.271994877606630325e-02 2.397155947983264923e-02 -4.039048217236995697e-03 -2.876858040690422058e-02 -6.643004249781370163e-03 -3.027366474270820618e-02 -2.604762464761734009e-02 4.678950458765029907e-02 3.022544272243976593e-02 6.446379423141479492e-02 7.577034831047058105e-02 1.677830144762992859e-02 -2.335223369300365448e-02 2.847697585821151733e-02 -1.423593144863843918e-02 -2.443580515682697296e-02 2.755510061979293823e-02 -3.219379857182502747e-02 -3.563080355525016785e-02 4.028353467583656311e-02 2.155518718063831329e-02 4.338219389319419861e-02 4.004570096731185913e-02 -1.603170298039913177e-02 5.406934767961502075e-03 -6.909499410539865494e-03 -1.536289323121309280e-02 6.112376227974891663e-02 2.550350502133369446e-03 -1.335200108587741852e-02 2.771263476461172104e-03 -1.392185384986241448e-13 -2.634525531902909279e-03 -2.635512268170714378e-03 3.288113977760076523e-03 1.245930470759049058e-04 1.637697452679276466e-03 -1.000164534525893600e-10 -1.319803530350327492e-03 7.296932162716984749e-04 9.691461455076932907e-04 -4.652715753763914108e-03 -1.034553814679384232e-02 1.861452125012874603e-02 1.342792878858745098e-03 2.560472814366221428e-03 -5.352710373699665070e-03 1.333900494500994682e-03 9.605126979295164347e-05 5.138556844030972570e-06 3.386624157428741455e-03 -1.202768646180629730e-03 -4.295884864404797554e-04 -5.756666418164968491e-03 6.578988977707922459e-04 -6.844852468930184841e-04 3.344981698319315910e-03 7.572125643491744995e-03 1.301848533330485225e-04 -1.541039819130674005e-04 1.004906487651169300e-03 2.917345263995230198e-04 3.496854566037654877e-03 -6.691887974739074707e-03 1.221233047544956207e-03 4.746151971630752087e-04 1.066377735696732998e-03 -2.797378692775964737e-03 -5.565255880355834961e-03 1.532909111119806767e-03 1.687895855866372585e-04 2.296338556334376335e-03 7.937742338981479406e-05 -1.610481645911931992e-03 -4.789543761596348759e-10 9.820134982962969161e-11 -7.827095687389373779e-03 -3.905639797449111938e-02 -1.427086652256548405e-03 1.579371616128311118e-12 5.913127679377794266e-04 -1.247923239134252071e-03 -1.270534121431410313e-03 -2.420960925519466400e-03 1.174378267023712397e-04 1.802276965463533998e-04 4.331705739951284204e-15 4.199478309601545334e-03 1.015225750689019435e-11 4.206430166959762573e-03 -3.251108108088374138e-03 2.839904045686125755e-03 3.127745119854807854e-03 1.638081273995339870e-03 -3.117420397887905870e-14 9.507222101092338562e-03 2.838859707117080688e-02 -4.291321383789181709e-04 -2.536054817028343678e-04 1.551375972130841774e-10 5.246970686130225658e-04 1.572672650218009949e-02 1.721858116157659602e-12 -1.296995822373803176e-13 5.519459489732980728e-03 -3.123384667560458183e-03 8.111879578791558743e-04 5.142300855368375778e-03 7.254434141075460918e-13 3.359690017532557249e-04 -2.435583248734474182e-02 -1.007671188563108444e-02 1.977163988087227153e-10 7.934702560305595398e-03 -1.049545098794624209e-04 6.730488035827875137e-03 -5.344329401850700378e-04 7.574512623250484467e-03 4.195023328065872192e-03 1.093113562092185020e-03 -1.402708003297448158e-03 1.094133243896067142e-03 -3.763288779993351207e-14 -1.822322083171457052e-04 1.338255358859896660e-03 -2.796432934701442719e-03 6.719340104609727859e-03 -1.002301345579326153e-03 -9.610851492425354081e-08 3.429316348046995699e-05 8.194481022655963898e-03 2.560041139076929539e-05 5.123287929423465947e-14 2.878936356864869595e-04 -5.671730581935721660e-14 -1.101533137261867523e-02 -1.175385608070608767e-13 -2.156308037228882313e-04 8.256653323769569397e-03 -7.337522110901772976e-04 1.636733300983905792e-03 7.866361178457736969e-03 -1.431771204806864262e-03 -2.093910006806254387e-03 -1.025366503745317459e-02 -5.408611614257097244e-03 -1.668716315180063248e-03 6.946942303329706192e-04 -8.351065480383113027e-05 6.687472923658788204e-04 2.890550604206509888e-05 2.137605845928192139e-02 1.635720022022724152e-03 9.750827215611934662e-03 -1.901999488472938538e-02 5.917187081649899483e-04 7.883893325924873352e-03 -1.534537761472165585e-03 -7.124969503280453864e-10 -1.815824210643768311e-02 2.456333860754966736e-02 -2.521543938200920820e-04 7.473010857589161560e-15 -1.572531415149569511e-03 2.653196861501783133e-04 -1.479270402342081070e-03 -9.238798171281814575e-03 1.683265436440706253e-04 -3.688745666295289993e-03 -1.090812891944327456e-13 -7.610788084824737787e-13 -7.513164891861379147e-04 9.724341362016275525e-05 9.510682895779609680e-03 -3.858078543054685450e-14 1.704259030520915985e-02 -3.109615761786699295e-03 7.979666325494752521e-14 -2.746308036148548126e-02 -1.007352862507104874e-02 9.837715087002152359e-10 3.313566267024725676e-04 7.556202035630121827e-05 5.032920744270086288e-03 -1.377717384620780194e-10 -1.965185627341270447e-02 -6.401057180482894182e-05 4.057280602864921093e-04 -3.481370222289115191e-04 -1.247507985681295395e-03 1.275286544114351273e-03 2.987623913213610649e-03 -2.268957206979393959e-03 -3.358386456966400146e-03 1.638231216929852962e-03 6.709799054078757763e-04 1.178815029561519623e-02 -9.593070484697818756e-03 -2.118415897712111473e-03 -2.244928154482295213e-08 -1.132580824196338654e-02 1.064986572600901127e-03 -3.901434538420289755e-04 2.150791697204113007e-03 8.009174489416182041e-04 7.998945075087249279e-04 1.276412699371576309e-02 -8.872020058333873749e-03 -1.537759919401082698e-09 -2.481907978653907776e-02 -5.445466842502355576e-03 1.111523434519767761e-02 1.378107408527284861e-04 -8.826109568411174416e-15 -9.384183213114738464e-03 -2.084779831407201911e-14 -1.636198023334145546e-03 3.760748586500994861e-05 7.229025941342115402e-03 -1.578538096509873867e-03 3.805290674790740013e-03 -9.447012416785582900e-05 2.217437140643596649e-03 -1.149564655706508676e-13 -4.662257153540849686e-03 -1.751332171261310577e-02 3.314912901259958744e-04 -5.605467262234653525e-13 2.915176155511289835e-04 -5.037504597567021847e-04 2.913928765337914228e-04 -3.280444085861436432e-14 -4.731169882948860206e-13 -1.395666915371407413e-10 -1.901419716121566239e-10 -8.999229612527415156e-05 1.583166158525273204e-04 1.512042479589581490e-03 -1.000852417200803757e-02 -9.123084135353565216e-03 -1.383785391226410866e-03 -3.299715969212746458e-12 1.856039889389649034e-04 2.916397061198949814e-04 1.542989257723093033e-02 -2.052283147349953651e-03 1.623766380362212658e-03 1.926490658661350608e-04 3.369348414707928896e-04 -1.177883605123497546e-04 4.279950371710583568e-05 -1.098147220909595490e-02 3.428244963288307190e-05 2.041836502030491829e-03 5.068841576576232910e-02 6.779514951631426811e-04 5.866790888831019402e-05 1.361889066174626350e-03 -3.659471403807401657e-04 -7.270654896274209023e-05 -1.007720362395048141e-02 7.578857912449166179e-05 2.229320027191672438e-12 -6.742718396708369255e-04 -3.202596213668584824e-03 -1.040097419172525406e-02 1.976758940145373344e-03 -3.628980525371278132e-14 8.975242424269502806e-13 2.574076410382986069e-03 8.908257819712162018e-03 1.801007601898163557e-04 -1.944474581350164044e-09 1.834911955711504561e-08 -2.452519838698208332e-04 4.786583184934051216e-17 1.697219908237457275e-02 9.490552358329296112e-03 -9.317944641225039959e-04 -1.204358320683240891e-02 -3.199594095349311829e-03 9.674773900769650936e-04 1.770390756428241730e-02 2.609802651765136261e-11 9.665001416578888893e-04 2.221697242930531502e-03 -3.001325239893049002e-04 7.273246301338076591e-04 6.775191868655383587e-04 -2.586468122899532318e-03 2.629934751894325018e-04 2.006686525419354439e-03 1.807146705687046051e-02 5.402225433485952077e-13 -1.175565485027618706e-04 -1.024290097184632486e-10 -2.632108749821782112e-03 -3.068204270675778389e-03 2.913349890150129795e-04 -1.060391194187104702e-03 -1.427590148523449898e-03 -9.676331654191017151e-03 -9.512722776378393363e-14 -7.861339836381375790e-04 -3.101868554949760437e-03 9.952088930731406435e-09 -7.773181423544883728e-03 -9.768561460077762604e-03 -4.527439534385280240e-10 4.194627050310373306e-03 -2.446247381158173084e-04 1.129401568323373795e-02 -2.304104444132010210e-13 8.769316482357680798e-04 8.180201984941959381e-03 -6.243726966204121709e-05 4.191045882180333138e-04 1.443802193534793332e-05 4.153036421705724734e-14 2.441289834678173065e-03 3.359570982865989208e-04 1.769732916727662086e-03 -2.452047774568200111e-03 -1.768883876502513885e-02 -1.518192730145528913e-04 9.563777721155464207e-13 -2.786687109619379044e-03 -1.034367457032203674e-02 6.994717288762331009e-03 -3.162606287965274987e-11 2.967116655781865120e-03 -3.647854318842291832e-03 -3.735324367880821228e-03 9.034748072735965252e-04 6.238077185116708279e-04 -2.797880209982395172e-03 8.302620337118440941e-15 -1.037630790960974991e-04 -1.839039988002499904e-14 6.270338053582236171e-05 -1.022637022670335946e-14 -1.035839668475091457e-04 -1.746349968016147614e-02 1.240149285877123475e-04 -1.674543507397174835e-02 4.192318767309188843e-03 1.817282463889569044e-04 1.166481670225039124e-04 6.775944493710994720e-04 -9.912441018968820572e-04 -4.413641057908535004e-03 -1.719509192150969756e-12 1.171849295496940613e-02 -9.529277449473738670e-04 2.902677224483340979e-04 -2.176614194871612229e-13 1.083738519810140133e-03 -2.127708011745465567e-15 8.192406035959720612e-03 -6.410044717242158185e-11 -1.316816732287406921e-02 5.330354906618595123e-04 1.165693375160259393e-10 1.901612151414155960e-03 -1.197164994664490223e-03 5.985697235175863051e-14 5.597778945229947567e-04 -1.688527525402605534e-03 -8.030548448445529175e-10 -1.136644929647445679e-02 -7.346052655066159787e-08 -4.255268722772598267e-04 -3.357650246471166611e-03 2.093948982656002045e-02 -4.685870289879157102e-14 -1.307733473367989063e-03 -3.366554679473665601e-08 -2.577196482889121398e-07 8.195079863071441650e-03 -1.007711328566074371e-02 2.463152166455984116e-03 -5.169125739485025406e-03 6.304566244064169211e-13 3.421278204768896103e-03 4.865465220063924789e-03 -9.100495837628841400e-03 4.080087691545486450e-02 9.837327146996512062e-15 -3.099858929545007413e-07 -1.007755938917398453e-02 -2.450302243232727051e-03 4.454386071301996708e-04 -9.451854974031448364e-02 6.837375988739263777e-14 -5.585575557631727861e-09 -1.426783506758511066e-03 -1.321340329013764858e-03 1.034794375300407410e-03 1.825790629794710185e-10 -1.567436149343848228e-03 1.479102415032684803e-03 5.707113384309514537e-13 -3.616014029830694199e-03 1.933774740336957620e-07 1.403446402400732040e-02 1.171619445085525513e-02 5.386798176914453506e-03 6.730810739099979401e-03 1.603316329419612885e-02 -1.046356186270713806e-02 7.055313278048203074e-11 5.647347425110638142e-04 3.293261164799332619e-03 4.550138488411903381e-03 -1.007779501378536224e-02 -2.419758820906281471e-04 -2.522783371095016491e-11 1.550392434000968933e-02 1.174262652057223022e-04 1.066146884113550186e-03 8.994147065095603466e-04 -4.910860607054701177e-11 4.754928406327962875e-03 2.153144029986685942e-14 -1.322980752727076492e-10 -7.461876375600695610e-04 -2.572864759713411331e-04 -4.724661010731615041e-14 9.755422449128810236e-15 7.660223388938902644e-08 4.965976346284151077e-03 1.816114090615883470e-04 3.278464739270292583e-14 -2.995207096126266400e-14 -1.256268614797332456e-14 -1.189016475109383464e-04 6.289751734584569931e-03 4.350286442786455154e-03 2.326871734112501144e-03 1.302292657783254981e-04 7.575538940727710724e-03 1.657293736934661865e-02 -2.987207844853401184e-04 3.126909432467073202e-04 4.363050684332847595e-03 9.542280167806893587e-05 3.522429848089814186e-03 9.636941365897655487e-03 5.927388090640306473e-03 -1.823716447688639164e-03 -1.426438393536955118e-04 -7.704016461232421342e-13 2.671787980943918228e-03 5.130111965659725493e-14 8.191205561161041260e-03 -4.523143172264099121e-03 1.174022618215531111e-04 3.299708943814039230e-03 -1.826462103053927422e-03 8.042272180318832397e-03 5.632666870951652527e-04 3.655644036371086258e-07 -2.716364459753872751e-13 -1.422477979212999344e-02 -1.333753671497106552e-02 -3.758098162092576855e-14 -7.269572961376979947e-05 3.829596098512411118e-03 -3.458442028852343197e-13 8.191014640033245087e-03 4.317204729886725545e-05 -1.322889365461482961e-14 5.099340807646512985e-03 -9.295625521491684973e-14 3.471469260055842776e-13 1.478570234030485153e-02 1.468807645142078400e-02 -3.368037578184157610e-04 4.118081182241439819e-03 8.783558383584022522e-03 -2.663903497159481049e-02 4.684349574901602864e-10 -1.019860245287418365e-02 -1.011854596436023712e-02 -1.268188585527241230e-03 -1.103352842619642615e-04 5.543191917240619659e-03 8.097148500382900238e-03 -6.262701936066150665e-03 -1.627051358227271649e-14 -7.811698131263256073e-03 2.948051551356911659e-03 -3.366900908194272318e-15 -3.397444961592555046e-03 4.237153434106383232e-13 1.545854378491640091e-03 -1.386812800774350762e-04 2.126834949475742143e-12 -6.492193788290023804e-03 5.754003766924142838e-03 1.029739389196038246e-03 1.636039116419851780e-03 -3.913159016519784927e-04 -1.426075614290311933e-04 -1.975398045033216476e-04 1.637962181121110916e-03 -5.744673311710357666e-03 -1.905813068151473999e-02 -7.413027342408895493e-04 -1.046192273497581482e-02 -1.582601107656955719e-02 -2.587458584457635880e-03 -2.451112726703286171e-03 -6.927491049282252789e-04 -6.711535621434450150e-03 8.148220431714037204e-10 2.797793224453926086e-02 -1.278629060834646225e-02 -1.214065775275230408e-02 -4.290722777078315175e-10 2.650631492073785012e-09 -1.177378348074853420e-03 4.350193776190280914e-03 1.637833658605813980e-03 -4.188766237348318100e-03 1.091101899585930624e-13 -2.015518024563789368e-03 1.011632964946329594e-03 -1.190361363114789128e-04 1.711689122021198273e-02 8.224421180784702301e-03 4.302366141928359866e-05 -8.783508092164993286e-03 2.223097719252109528e-03 -2.869691327214241028e-02 6.279096851358190179e-05 -4.191365092992782593e-03 1.524165156297385693e-03 1.564846024848520756e-03 -2.207454526796936989e-03 -2.577866544015705585e-04 -8.415821357630193233e-04 -3.431496769189834595e-02 2.916011435445398092e-04 -1.401884015649557114e-02 -1.096842437982559204e-02 -3.359748283401131630e-03 -7.512274314649403095e-04 -2.777729649096727371e-03 -2.038557315245270729e-03 -2.093878998139786507e-15 -3.304874291643500328e-03 -1.160837648228607577e-09 1.725438103505894105e-08 2.563470843597315252e-05 -3.525880698518335521e-10 -1.679176681599128806e-13 -1.487887115217745304e-03 -2.446713391691446304e-03 3.373359213583171368e-04 1.169937584311053769e-11 -8.004759438335895538e-03 -1.567201339639723301e-03 6.565803778357803822e-04 -2.412373200058937073e-03 2.748584083747118711e-04 -2.221562899649143219e-03 1.356409396976232529e-03 -2.226374112069606781e-03 -6.981903221458196640e-03 -1.328952517360448837e-02 1.338132424280047417e-03 3.055332927033305168e-04 8.233898319303989410e-03 -2.208789996802806854e-02 -1.007611956447362900e-02 2.017959952354431152e-03 1.582363271154463291e-03 -8.275054395198822021e-03 -3.005831968039274216e-03 -5.014784364132905681e-14 -9.757002815604209900e-03 1.293406094191595912e-04 -1.453417935408651829e-03 -2.011478354688733816e-04 3.580097915172053558e-14 2.883773995563387871e-03 5.862196121597662568e-05 6.992719601839780807e-03 -5.025410900675979231e-14 1.546057173982262611e-03 -2.524263691157102585e-04 2.926314191427081823e-04 5.908355815336108208e-04 8.038705914259480778e-07 9.605301602277904749e-05 -4.375419471180919118e-10 6.567093660123646259e-04 -2.234238309029024094e-05 -5.467465380206704140e-04 4.355659242719411850e-03 -6.802427815273404121e-04 -2.268554829061031342e-02 -1.097110752016305923e-02 2.880860120058059692e-04 2.077969352143327342e-09 1.812992395100465615e-10 2.923671272583305836e-04 1.330084400251507759e-03 2.751903608441352844e-03 1.816802250687032938e-04 1.236394420266151428e-02 9.314547292888164520e-03 -1.019483339041471481e-02 1.631945022381842136e-03 1.066847937181591988e-03 1.209513283799423800e-12 3.935851855203509331e-04 -3.513447707518935204e-03 3.853140398859977722e-03 -2.709343563765287399e-03 -1.228796597570180893e-02 2.392076536850140656e-09 1.065837917849421501e-03 -2.182562311645597219e-04 -4.486136604100465775e-03 -3.704814233174147375e-10 -2.930171904154121876e-04 7.763329423760012560e-10 -2.450018655508756638e-03 -1.628063386306166649e-03 6.023025140166282654e-03 1.811516412999480963e-04 1.439798506908118725e-03 -2.526308817323297262e-04 -1.019157562404870987e-02 6.230872590094804764e-03 -3.059730224777013063e-04 3.301936434581875801e-03 1.248367247171700001e-03 -5.059466300777470948e-13 2.915652876254171133e-04 -3.830529982224106789e-03 -5.639441777020692825e-03 -1.610518782399594784e-03 -4.404812119901180267e-03 4.314455873100087047e-05 -3.763102052189992719e-10 -8.573611249120330347e-14 -2.290456928312778473e-02 -1.644259828026406467e-05 -5.033318884670734406e-04 1.610487513244152069e-02 7.575636846013367176e-05 -1.166248600929975510e-02 2.021477790549397469e-03 -4.172940272837877274e-03 -3.776860423386096954e-03 -3.234776435419917107e-03 1.089778821915388107e-02 8.231923915445804596e-03 1.682801375864073634e-04 -7.138218643376603723e-05 4.263464827090501785e-03 2.766772732138633728e-02 -1.297849958064034581e-04 2.362051891395822167e-04 4.339527338743209839e-03 2.928315370809286833e-04 1.401865505613386631e-03 2.915990480687469244e-04 2.361143851885572076e-04 -1.105042546987533569e-02 2.220068871974945068e-02 -1.063123461790382862e-03 -2.410422079265117645e-03 -6.326886172088042049e-14 -1.092783641070127487e-03 5.899603012949228287e-03 -1.673714444041252136e-02 1.520099322078749537e-04 -6.544254254549741745e-03 6.788240862078964710e-04 -9.801832027733325958e-03 2.928050234913825989e-04 9.690521401353180408e-04 1.949656172655522823e-03 -2.522137074265629053e-04 -1.906323805451393127e-02 1.507118809968233109e-03 4.043010063469409943e-03 5.911519983783364296e-04 -6.267967633903026581e-03 1.693029605398521653e-10 4.715872462838888168e-03 1.847992092370986938e-02 2.352550654904916883e-04 5.048856604844331741e-03 2.917151432484388351e-04 -2.678467426449060440e-03 9.440403664484620094e-04 -9.208568371832370758e-03 2.499064430594444275e-03 8.511684834957122803e-03 1.296000391448615119e-06 -1.356106437742710114e-02 5.871133907930925488e-05 -1.923200348974418716e-10 3.390402765944600105e-03 -5.117506418628181564e-10 -1.047216239385306835e-03 -5.757580976933240891e-03 -2.267363248392939568e-03 -3.687717253342270851e-03 -2.900666790083050728e-03 -3.102348186075687408e-03 -6.686648703180253506e-04 6.935320561751723289e-05 1.400929968804121017e-02 2.579318592324852943e-03 4.191569052636623383e-03 2.491541206836700439e-03 -2.988593747477175100e-12 -2.942071529105305672e-03 -1.176069126813672483e-04 3.217008430510759354e-03 -2.187050704378634691e-04 -9.143791138751383718e-14 6.585860392078757286e-04 -3.357316367328166962e-03 -3.633867949247360229e-02 8.047319863431490194e-14 -3.210558446702094226e-14 3.707148134708404541e-03 -6.753829266681332655e-13 -2.276869863271713257e-02 -1.075005709449960989e-10 6.730910856276750565e-03 1.645115390419960022e-02 -7.239206461235880852e-04 -1.248352811671793461e-03 -1.770913042128086090e-02 3.104015951976180077e-03 2.462644828483462334e-03 -1.247852342203259468e-03 1.167399926726986337e-10 2.404043334536254406e-05 -9.166997624561190605e-04 3.780990277812978917e-13 5.906799165457735090e-14 1.547457883134484291e-03 -1.363492757081985474e-02 -1.579228416085243225e-02 -1.380631234496831894e-03 -6.642242311727386550e-10 2.073990664538255535e-14 2.250070974696427584e-04 -8.803984150290489197e-03 -1.055277534760534763e-03 8.233554661273956299e-03 -1.007417682558298111e-02 -1.379901543259620667e-03 -2.675866009667515755e-03 2.843855880200862885e-02 2.177868196895360597e-08 -1.204177178442478180e-02 -3.806727007031440735e-02 5.020035430788993835e-03 -2.194434404373168945e-03 1.893977448344230652e-02 1.749033108353614807e-02 2.675906522199511528e-03 -1.572920531886859430e-13 3.212958108633756638e-03 -1.426171656930819154e-04 -9.068367259369713995e-14 -6.750870379619300365e-04 5.901090335100889206e-03 -1.863618497736752033e-03 5.378135479986667633e-03 -3.697313950397074223e-04 -1.771408319473266602e-02 -4.406677326187491417e-04 1.872004009783267975e-02 2.325139008462429047e-03 -8.050563046708703041e-04 2.652513096109032631e-03 4.333741031587123871e-03 4.239381814841181040e-04 -2.130988426506519318e-02 8.599336724728345871e-04 -7.531335577368736267e-04 1.936536651522824393e-12 -4.323405213654041290e-03 -7.568411994725465775e-03 -8.616379462182521820e-03 4.000737331807613373e-03 1.760359591571614146e-04 5.114752426743507385e-02 -1.317252055741846561e-03 1.311879837885499001e-03 -2.064125146716833115e-04 -2.452456625178456306e-03 1.305704351063641244e-12 1.973137259483337402e-03 4.968727938830852509e-03 -7.564252591691911221e-04 -1.131750395870767534e-04 2.492595091462135315e-02 3.412600606679916382e-02 2.881108375731855631e-04 -8.137959056631061117e-11 2.361935185035690665e-04 -2.090937201160159020e-08 3.780527971684932709e-03 1.662619644775986671e-03 -7.762840141367632896e-06 5.858124699443578720e-03 2.869977324735373259e-04 -2.486761077307164669e-04 5.015602218918502331e-04 7.831281254766508937e-05 -7.524359389208257198e-04 7.886351619489084808e-13 1.055344708649451346e-13 -1.605551806278526783e-03 2.319392724756119684e-12 2.562528788985218853e-05 1.923531592253752143e-13 3.854399546980857849e-03 -2.243286979786152102e-11 4.916540347039699554e-03 3.370529739186167717e-04 4.191944841295480728e-03 2.037137277442757632e-14 8.411326462010038085e-07 -2.085670363157987595e-03 -2.353655936815357563e-09 4.657565732486546040e-04 1.638008398003876209e-03 2.473018830642104149e-03 -9.720772504806518555e-04 6.284848786890506744e-03 -7.066944817779585719e-05 5.679218098521232605e-03 1.462365500628948212e-03 1.699113752692937851e-03 8.964508579900609675e-10 7.403782854810067593e-14 -3.757745726034045219e-03 -2.682039281353354454e-03 -1.442727074027061462e-02 6.775258807465434074e-04 -6.411809474229812622e-03 -1.849929103627800941e-03 3.658649045974016190e-03 1.179961953312158585e-02 -1.905666105449199677e-02 -6.278702057898044586e-03 6.346278241835534573e-04 3.248775692910044199e-10 9.563616476953029633e-03 2.116947621107101440e-02 -9.007513313008530531e-08 3.776143072172999382e-03 -1.613548374734818935e-03 -6.749132298864424229e-04 -1.125515159219503403e-02 -1.286042243009433150e-04 2.909174654632806778e-04 2.855813945643603802e-04 4.195706453174352646e-03 8.437500335276126862e-03 2.551463199779391289e-03 3.586965426802635193e-02 2.208992103819307218e-12 -1.176989026134833694e-04 5.543206352740526199e-03 7.775164674967527390e-03 2.570929937064647675e-03 -2.064435742795467377e-02 1.931912032887339592e-03 1.512834860477596521e-04 7.618817035108804703e-03 -3.055947017855942249e-04 -2.185125194955617189e-04 1.658373075770214200e-04 -6.741689983755350113e-03 8.193813264369964600e-03 -1.065391698473749926e-12 9.832669049501419067e-03 1.510169077664613724e-02 2.784456824883818626e-03 2.487464227651781101e-12 9.422184441085917905e-15 5.261631449684500694e-04 -2.257502588727880455e-13 4.582433612085878849e-04 3.933439074899069965e-05 1.145924348384141922e-02 4.698671773076057434e-02 9.992875857278704643e-04 -1.310843508690595627e-03 1.470572128891944885e-02 7.892371155321598053e-03 -1.065009080924994578e-09 -5.254254792816936970e-04 -9.951879270374774933e-03 1.657877146499231458e-04 -2.719926834106445312e-02 -6.367781315930187702e-05 1.930564641952514648e-03 -1.173644958996078458e-09 -1.308022649027407169e-03 -2.981181442737579346e-02 -4.123014805372804403e-04 -2.727941051125526428e-02 -7.792160250374990937e-10 3.537464514374732971e-02 4.865716211497783661e-03 2.192185641998120604e-15 -2.155806496739387512e-02 9.373487229458188352e-13 -3.339243326294649705e-09 -5.767762660980224609e-03 1.635184627957642078e-03 5.986392807244556025e-06 -3.825904428958892822e-02 -2.741754986345767975e-02 2.481734554748982191e-04 8.366320282220840454e-03 1.694696032811249253e-12 -1.416223589330911636e-03 -1.644926378503441811e-03 -3.069423604756593704e-03 6.775677902624011040e-04 -2.637976035475730896e-02 -9.529245086014270782e-03 4.509805701673030853e-03 6.602536886930465698e-04 1.669508975510325399e-09 -9.213901124894618988e-03 3.514257958158850670e-03 1.667001328371341823e-14 1.034474582411348820e-03 7.850239853723905981e-07 2.319542504847049713e-02 -1.477116439491510391e-02 1.830279092347730785e-13 1.513750175945460796e-04 2.537487307563424110e-03 -1.034953352063894272e-02 1.712674088776111603e-02 -1.676169224083423615e-03 3.360318951308727264e-04 1.947975135408341885e-03 3.916368819773197174e-03 8.260689675807952881e-03 3.377288812771439552e-04 3.163241315633058548e-03 -2.377569471718743443e-04 4.331715404987335205e-03 2.360890357522293925e-04 -4.756499361047161756e-11 -2.128281258046627045e-02 1.627922863178810076e-08 -7.778407909095341743e-14 -3.280593028134881628e-13 4.846645146608352661e-02 2.325505251064896584e-03 -9.986281394958496094e-03 3.363390455035641935e-09 6.276192609220743179e-03 -4.021229397039860487e-04 -3.880320873577147722e-04 5.130919627845287323e-03 -1.013507414609193802e-02 -1.635119551792740822e-03 -3.362926072441041470e-04 1.029021572321653366e-03 6.352517521008849144e-04 8.221375755965709686e-03 2.848458010703325272e-03 5.289183463901281357e-04 -1.465681756193139285e-14 5.888248793780803680e-03 9.467074996791779995e-04 -1.029304601252079010e-02 -1.534812618046998978e-04 -1.377687673084437847e-03 -1.836419251048937440e-04 -6.473984569311141968e-03 4.342028405517339706e-03 -4.299180291127413511e-04 -2.689014887437224388e-03 4.193611908704042435e-03 1.637304318137466908e-03 4.828729666769504547e-03 7.108161807991564274e-04 2.030034363269805908e-02 3.213552990928292274e-03 6.706636631861329079e-04 1.245473162271082401e-03 2.953177080655677855e-08 5.526135209947824478e-03 5.495536751359830774e-13 4.151847865074137500e-13 -1.049492741003632545e-03 -7.221483827590802207e-12 -1.253638916309286755e-14 1.066836877726018429e-03 2.309502102434635162e-03 3.104529871025829557e-12 5.042938511223837850e-08 -3.923020220307493755e-14 -3.321359632536768913e-03 3.684552391924195147e-13 9.681254159659147263e-04 -5.312680732458829880e-03 1.764353420308228948e-11 -7.861415105047189766e-14 4.668122855946421623e-04 6.370731307943355848e-14 4.917589481920003891e-03 -7.337423157878220081e-04 -2.085844287648797035e-03 -4.357252910267561674e-04 -2.371055772528052330e-03 4.418381955474615097e-03 -1.007735915482044220e-02 1.620096201290777138e-13 -9.441472939215600491e-04 -8.331909339176490903e-05 3.790711751207709312e-03 -3.487964108620129899e-14 -1.379444496706128120e-03 -9.160591289401054382e-04 -1.089800964109599590e-03 1.564949867315590382e-03 2.812841208651661873e-03 -1.710170616231465601e-10 -1.612746855244040489e-03 -2.681699581444263458e-03 8.189244195818901062e-03 -1.769548840820789337e-02 6.096554372447826609e-10 6.485061720013618469e-03 -2.069411333650350571e-03 1.637868816033005714e-03 1.172107586171478033e-04 2.849430078640580177e-03 2.955398987978696823e-03 -2.148622414097189903e-03 5.870164386578835547e-05 -1.425510126864537597e-04 -2.967126201838254929e-04 -4.498222377151250839e-03 6.987707689404487610e-03 -3.560761688277125359e-04 1.632260507903993130e-03 1.115885446779429913e-03 3.167411778122186661e-03 1.239578053355216980e-02 2.878149738535284996e-03 -4.099524393677711487e-02 -2.184674667660146952e-04 4.494881068239919841e-05 2.928430913016200066e-04 1.546517596580088139e-03 2.602488500997424126e-03 3.279394004493951797e-04 2.903338463511317968e-04 -7.504459354095160961e-04 -2.897485853678438694e-13 6.775897345505654812e-04 -5.133754532593570730e-10 -6.473876535892486572e-03 -3.357157576829195023e-03 -7.270625792443752289e-05 1.862349547445774078e-02 -1.007790770381689072e-02 -1.037631518556736410e-04 2.777653513476252556e-03 7.553276605904102325e-03 4.966429434716701508e-03 3.139691762044094503e-05 5.009158048778772354e-03 -7.127790013328194618e-04 -1.622622591845868101e-10 -6.451214849948883057e-02 -1.332775107584893703e-03 -1.898192540650267546e-11 5.795697255450704688e-11 3.323741837313320957e-10 -6.594871133566715393e-14 6.045484333299100399e-04 6.744830869138240814e-03 8.206345140933990479e-03 -3.788664937019348145e-02 3.778310958296060562e-03 -2.447712235152721405e-03 7.349709630943834782e-04 -7.792152609908953309e-05 1.288910675793886185e-02 -7.616561924805864692e-05 -3.558561147656291723e-04 5.510255100783182508e-15 -1.509868656285107136e-03 3.696492349263280630e-04 -7.890727138146758080e-04 1.573172630742192268e-03 8.189178071916103363e-03 3.342350479215383530e-03 1.804011553758755326e-04 2.913828939199447632e-04 2.359459849721190494e-10 -1.175349112600088120e-02 4.429437841361495709e-14 -8.193145622499287128e-04 1.206617921897801260e-12 -1.877994160167872906e-03 -4.268370968902712032e-15 -1.132656936533749104e-03 -1.614913903176784515e-02 -9.730124729685485363e-04 -3.726253472446927617e-10 1.804913369370803045e-14 -3.258566580086573461e-14 -3.893771208822727203e-04 1.704259557300247252e-05 6.108288187533617020e-03 -9.433294646441936493e-03 -1.465577804074687501e-15 -9.060502348390286897e-10 5.674425978213548660e-03 -4.545546407265683986e-15 4.571805766317993402e-05 -1.021619187667965889e-03 -1.676804153248667717e-03 -2.888187300413846970e-04 1.250209403224289417e-03 3.724023932591080666e-03 3.831536276265978813e-03 7.693451431478592895e-11 -1.649320125579833984e-02 -1.035975801642052829e-04 5.894874688237905502e-03 2.305602189153432846e-03 -2.074661897495388985e-03 1.728287651880933140e-13 -9.181402856484055519e-05 9.473515992942244113e-14 -8.803174830973148346e-03 4.327767062932252884e-03 6.244970485568046570e-03 -2.371458336710929871e-03 -9.499053099659704458e-09 6.776088266633450985e-04 1.097145741368876770e-06 -3.178784623742103577e-03 -1.691002210219699764e-13 9.916468989104032516e-04 1.637951587326824665e-03 8.032853365875780582e-04 -6.474022287875413895e-03 5.870624227100051939e-05 5.805010877373006917e-13 -7.527698762714862823e-04 3.281267618726602109e-12 -4.185706842690706253e-03 2.914128126576542854e-04 -1.259811699405588570e-10 5.461506941140115146e-11 2.764834971483599163e-14 -9.847270557656884193e-04 2.930864575318992138e-04 2.041261177510023117e-03 -9.984146803617477417e-03 -1.226511336938074237e-09 1.923187170177698135e-03 -6.521465256810188293e-03 -1.110512576997280121e-02 -1.140128541737794876e-02 -7.228657486848533154e-04 -2.839856713503230434e-13 2.503317082300782204e-03 4.676610988099128008e-04 3.695927187800407410e-02 -2.712680492550134659e-03 -5.913750934262440584e-14 -3.238348290324211121e-03 -6.280014349613338709e-05 -5.081645678728818893e-03 -9.026677347719669342e-03 -6.419237363886054482e-11 3.830454312264919281e-03 1.856116141425445676e-04 3.668387886136770248e-03 5.773595068603754044e-03 1.522848615422844887e-04 -1.007902249693870544e-02 6.692269893630864441e-13 -8.200957090593874454e-04 1.307088969042524695e-04 -7.516245823353528976e-04 -3.125111339613795280e-03 2.789953257888555527e-03 -6.203503289725631475e-05 1.275555579923093319e-03 1.306774647673591971e-04 -1.559406518936157227e-04 1.820127654355019331e-04 -6.421376424299227170e-14 -4.704952925741259784e-15 3.354694636072963476e-04 6.932937730852462010e-12 1.338518573902547359e-03 1.354430456679267536e-10 -8.220370727434617164e-14 4.284821386590920156e-08 -1.731480704620480537e-03 -1.170176133769018634e-08 8.770948275923728943e-03 9.437490371055901051e-04 -3.174504730850458145e-03 1.978857762878760695e-04 -2.746275067329406738e-02 9.308474672488353807e-14 1.550557091832160950e-02 4.700668621808290482e-03 8.783879689872264862e-03 5.866378705832175910e-05 1.896044705063104630e-04 1.461167354136705399e-03 -1.274594003204589793e-14 3.546934412845814677e-10 1.244817976839840412e-04 1.518271164968609810e-04 2.659459837680427929e-14 3.743761451914906502e-03 2.512224251404404640e-03 -2.925584849435836077e-04 8.187769912183284760e-03 -2.550337768931782573e-14 -6.089557243876830839e-12 5.658770678564906120e-04 2.522084978409111500e-04 8.548583835363388062e-03 6.122770253568887711e-03 -1.210010144859552383e-02 -1.610811341379303485e-05 2.852748613804578781e-03 1.816525036701932549e-04 3.699899825733155012e-04 1.264366554096341133e-03 6.792030762881040573e-04 -3.059036195602856181e-15 7.620423566550016403e-04 -5.609482469455182030e-15 1.170710893347859383e-04 -6.713589653372764587e-03 -2.553745405748486519e-03 -1.757159955734222123e-13 -9.197549894452095032e-03 -1.226858980953693390e-02 -8.287798003436819272e-09 3.831204492598772049e-03 -2.234509214758872986e-03 -2.587634837254881859e-03 -7.321347366087138653e-04 -4.224679898470640182e-03 6.137516168035206388e-13 -4.156744762440212071e-05 -3.301637712866067886e-03 4.721226578112691641e-04 -1.122112479060888290e-02 -1.672384453144104555e-11 5.658403388224542141e-04 -1.007767207920551300e-02 -2.130674384534358978e-02 -1.480021746829152107e-04 -2.506494335830211639e-02 3.512781811878085136e-03 -5.950647871941328049e-03 8.193889632821083069e-03 -4.725755786694207927e-09 -4.112246446311473846e-03 -1.883349753916263580e-02 5.859448720002546906e-05 -6.425281753763556480e-05 -1.427962444722652435e-03 -3.149193944409489632e-03 -7.337848190218210220e-03 8.022864931263029575e-04 4.711422370746731758e-04 -3.475568357419467347e-12 3.832707414403557777e-03 1.439260435290634632e-03 1.711188699118793011e-03 2.559355227276682854e-03 1.658470719121396542e-04 -3.367393277585506439e-03 2.520713314879685640e-04 -7.881849305704236031e-04 3.369508194737136364e-04 -9.300720194005407393e-10 -2.435400383546948433e-03 -1.125010362645895157e-10 1.340483315289020538e-02 -1.347279362380504608e-02 -4.093382740393280983e-04 4.149729851633310318e-03 1.148768607527017593e-02 9.954298718639620347e-09 2.084869774989783764e-04 4.026737995445728302e-03 1.754873432219028473e-02 7.277911063283681870e-03 -7.691310602240264416e-04 -3.069977043196558952e-03 3.002846380695700645e-03 -2.089966722363008345e-14 3.955423831939697266e-03 1.936568128080295992e-10 3.777993842959403992e-03 -1.318679278483614326e-05 6.779132527299225330e-04 1.642649061977863312e-03 5.022693372325193195e-11 -1.037731635733507574e-05 -1.479554630350321531e-04 1.393936015665531158e-02 5.654688575305044651e-04 2.575559075921773911e-03 1.638029934838414192e-03 -1.535014715045690536e-02 -2.792291052173823118e-04 1.004608930088579655e-03 7.568286266177892685e-03 3.401457215659320354e-04 3.273749025538563728e-03 -2.590482763480395079e-04 -1.234282316110724143e-13 8.622855879366397858e-03 8.755053973463766681e-12 -2.187250502174720168e-04 2.195943088736385107e-04 -6.931765237823128700e-04 9.691212326288223267e-04 3.771879523992538452e-02 1.150136999785900116e-02 1.029722392559051514e-03 -2.293607452884316444e-03 2.881551627069711685e-04 -1.007719896733760834e-02 -3.505597996991127729e-04 -2.491832419764250517e-04 3.716035746037960052e-03 -2.486791345290839672e-04 2.721940167248249054e-03 -3.177201142534613609e-03 -1.862364448606967926e-02 2.910157293081283569e-02 2.925909939222037792e-04 2.249705372378230095e-03 5.897293798625469208e-03 1.637614797800779343e-03 -1.175871511804871261e-04 1.658007677178829908e-04 1.509460899978876114e-02 4.549195524305105209e-03 -2.689030952751636505e-03 -1.379885477945208549e-03 2.041859552264213562e-03 4.363514308352023363e-04 1.043907849052061465e-09 -4.116075579077005386e-04 1.225608224392389645e-14 -6.474487949162721634e-03 -1.050605864241424547e-13 -1.153957215137779713e-03 -1.870786903168664139e-08 4.418378739501349628e-05 5.900631983024595684e-09 -1.291156368097290397e-04 4.702818579971790314e-03 6.782884593121707439e-04 1.172618940472602844e-04 6.775250076316297054e-04 -1.006920263171195984e-02 -4.918849751340062526e-14 -1.638856832869350910e-03 3.269505919888615608e-03 1.814467977965250611e-04 1.306792546529322863e-04 1.039028633385896683e-02 9.235735051333904266e-03 4.384893657061184058e-07 -1.006683800369501114e-02 -1.377130160108208656e-03 2.453850349411368370e-03 -9.060571845749543218e-14 -2.587739378213882446e-03 6.529133345090087914e-10 -7.342149910982698202e-05 4.555486084427684546e-04 -4.776327405124902725e-03 1.129361102357506752e-03 1.988555533346397786e-13 1.369274593889713287e-02 1.028861268423497677e-03 7.233152864500880241e-04 -4.511271137744188309e-03 -8.018041262403130531e-04 1.088796742260456085e-02 -1.243926590177579783e-06 -4.750486028853861953e-15 3.778658574447035789e-03 -3.595560265239328146e-04 3.948128490804947432e-10 -3.378188703209161758e-03 2.389546483755111694e-03 -5.349649582058191299e-04 9.563742205500602722e-03 -8.379427017644047737e-04 1.181594002991914749e-02 2.041135740000754595e-04 2.164962352253496647e-04 3.773658070713281631e-03 9.101739153265953064e-03 1.733107306063175201e-02 -2.926120650954544544e-04 -1.508024288341403008e-03 -3.088144585490226746e-03 -4.745224723592400551e-04 -3.291796660050749779e-03 -1.172293195850215852e-04 -9.729994926601648331e-04 4.238290712237358093e-03 -2.345340210290012412e-14 4.333936143666505814e-03 1.890123799662413173e-13 -6.157289026305079460e-04 -3.273059427738189697e-02 -1.379359280690550804e-03 -2.469183504581451416e-02 -6.621607113629579544e-03 -3.195855766534805298e-03 2.195254609205221641e-07 1.677088555879890919e-03 2.824553474783897400e-02 1.976691419258713722e-03 1.279832504224032164e-04 -6.745260907337069511e-04 3.403312875889241695e-04 -3.873245557770133018e-03 7.886863313615322113e-03 1.392266806215047836e-02 3.875462803989648819e-03 -4.317320883274078369e-03 -1.889800070784986019e-03 1.432154840586008504e-05 5.656357388943433762e-04 -3.198117017745971680e-03 -6.731521571055054665e-04 -3.998627420514822006e-03 3.037350252270698547e-03 1.545954728499054909e-03 3.513701260089874268e-03 -7.561972364783287048e-03 -5.778544116765260696e-03 2.250409452244639397e-04 -7.872965652495622635e-04 4.660640552174299955e-04 1.241910356020517470e-13 -2.363119255832657473e-09 -1.917785266414284706e-04 7.451722209119229778e-14 1.136273844167590141e-03 6.791541818529367447e-04 -6.327073788270354271e-05 1.639557071030139923e-03 -1.013720128685235977e-02 2.090651541948318481e-03 -4.530063830316066742e-03 1.011117082089185715e-02 -6.413978058844804764e-03 1.588378334417939186e-03 1.054486446082592010e-02 1.771541894413530827e-03 -1.573493005707859993e-03 -1.007765065878629684e-02 -1.155943493358790874e-03 -1.320347771979868412e-03 -8.152225422497494378e-11 2.222473704023286700e-04 3.756864882121374594e-14 -9.941547177731990814e-04 -1.014285441488027573e-02 1.820190664147958159e-04 5.868585867574438453e-05 -3.357898443937301636e-03 -2.148431714650567148e-13 6.796870147809386253e-04 2.493880921974778175e-03 -8.167146705090999603e-03 8.011618047021329403e-04 -4.273356869816780090e-03 -1.684101857244968414e-02 6.692364066839218140e-02 2.506559831090271473e-04 2.297123149037361145e-02 3.331891447305679321e-02 -8.983062580227851868e-03 2.551740966737270355e-03 2.510891761630773544e-03 -3.776754951104521751e-03
2.371870875358581543e-01 1.230532582849264145e-02 -2.147176116704940796e-02 8.386341854929924011e-03 1.164217665791511536e-01 -1.597544993273913860e-03 -4.656537994742393494e-02 2.515684813261032104e-02 -3.860518708825111389e-02 1.052867323160171509e-01 7.565400004386901855e-02 -8.278632909059524536e-02 4.757003858685493469e-02 -6.378985010087490082e-03 4.073978587985038757e-02 1.690125465393066406e-02 -1.176449656486511230e-02 -2.308480627834796906e-02 1.246065087616443634e-02 1.086263079196214676e-02 3.819533810019493103e-02 4.760107398033142090e-02 4.432603344321250916e-02 -3.440564870834350586e-02 1.190504338592290878e-02 1.397057436406612396e-02 5.142110213637351990e-02 4.705242812633514404e-02 -3.539003804326057434e-02 -3.985376097261905670e-03 -4.211730137467384338e-02 2.701957337558269501e-02 9.489928185939788818e-02 -3.745039552450180054e-02 3.690238296985626221e-02 5.682591814547777176e-03 -1.126009318977594376e-02 3.932382166385650635e-02 5.298835039138793945e-02 2.714827656745910645e-02 5.284709483385086060e-02 3.839246183633804321e-02 1.083011459559202194e-02 6.227790843695402145e-03 -4.857917129993438721e-02 1.588165527209639549e-03 1.343675795942544937e-02 1.438516471534967422e-02 -1.309592649340629578e-02 1.465701032429933548e-02 5.464133247733116150e-02 1.024452317506074905e-02 4.663186892867088318e-02 2.906429953873157501e-02 2.114642038941383362e-02 -1.002331916242837906e-02 -1.081342622637748718e-02 -4.503220319747924805e-03 4.020708799362182617e-02 -1.490065362304449081e-02 1.134359557181596756e-02 3.603886440396308899e-02 1.674057915806770325e-02 -1.681230263784527779e-03 4.213871434330940247e-02 3.811289090663194656e-03 -3.224682586733251810e-05 2.721342025324702263e-03 2.725119935348629951e-03 -3.441711654886603355e-03 -1.345784112345427275e-04 -1.266171922907233238e-03 8.258690650109201670e-05 1.076699933037161827e-03 5.051857196458620081e-11 -1.625937232074825545e-11 4.321990534663200378e-03 1.194240059703588486e-02 -1.383733097463846207e-02 -6.094053213445693729e-12 -1.725170062854886055e-03 4.120865836739540100e-03 -1.024062512442469597e-03 -6.861481233499944210e-05 -4.997587562424569974e-16 -2.430502558127045631e-03 3.924098331481218338e-03 3.926764766220003366e-04 4.361446481198072433e-03 -4.192347987554967403e-04 7.263933657668530941e-04 -7.455292507074773312e-04 -7.496897131204605103e-03 -2.949537532617729774e-12 1.260066637769341469e-04 -1.047962228767573833e-03 -3.463050525169819593e-04 -2.554428065195679665e-03 3.864376340061426163e-03 1.550075248815119267e-04 -3.308903193101286888e-03 -3.439067804720252752e-04 2.690618624910712242e-03 5.539076868444681168e-03 -1.178874052129685879e-03 -7.861636549932882190e-05 1.455251392480649830e-13 -2.023158129304647446e-03 1.019503627569876003e-13 6.787608435843139887e-05 8.292894926853477955e-05 8.449953980743885040e-03 5.125685781240463257e-02 1.401102636009454727e-03 -5.055845249444246292e-04 -3.984704671893268824e-04 1.010954147204756737e-03 1.018618117086589336e-03 1.893602660857141018e-03 -1.429438416380435228e-04 -5.793963209725916386e-04 3.775021468754857779e-06 -2.944557229056954384e-03 6.971543189138174057e-05 -5.889077670872211456e-03 3.819442121312022209e-03 -1.967705553397536278e-03 -2.131983637809753418e-03 -1.266663079150021076e-03 -8.667137080919928849e-06 -9.503913111984729767e-03 -1.625906117260456085e-02 5.164485191926360130e-04 2.162335586035624146e-04 1.017462127492763102e-04 5.602249293588101864e-04 -4.000456247013062239e-04 2.434445050312206149e-04 1.084195682778954506e-04 -6.074386183172464371e-03 3.035730216652154922e-03 -8.728172979317605495e-04 -2.962284022942185402e-03 1.255444367416203022e-04 -3.674995969049632549e-04 2.123863436281681061e-02 8.061790838837623596e-03 1.740621519275009632e-04 -7.641419768333435059e-03 7.534979584722378831e-12 -4.784979857504367828e-03 4.828255914617329836e-04 -7.487548049539327621e-03 -4.185132216662168503e-03 -9.698495850898325443e-04 1.037287642247974873e-03 -1.027409569360315800e-03 4.189232276985421777e-05 4.943445674143731594e-04 -1.024069497361779213e-03 2.939748577773571014e-03 -8.871083147823810577e-03 -3.727588336914777756e-04 3.284047415945678949e-04 -7.113644932442084179e-14 -6.467995233833789825e-03 -1.069611182936101856e-15 1.428591494914144278e-04 -2.056827215710654855e-04 8.270787475339602679e-06 9.640526026487350464e-03 6.446016486734151840e-04 6.900255102664232254e-04 -6.463240366429090500e-03 6.044670590199530125e-04 -1.266048988327383995e-03 -3.956648521125316620e-03 1.420660177245736122e-03 1.613491564057767391e-03 7.691422011703252792e-03 4.172317683696746826e-03 1.889289822429418564e-03 -7.303268066607415676e-04 8.351077849511057138e-05 -6.172360735945403576e-04 8.127530766455226541e-13 -1.797988452017307281e-02 -1.268686610274016857e-03 -8.143955841660499573e-03 1.576333120465278625e-02 -3.978597524110227823e-04 -5.388434510678052902e-03 1.924508484080433846e-03 1.029975130222737789e-03 1.530580781400203705e-02 -1.314682420343160629e-02 1.770835486240684986e-03 1.868605759227648377e-04 1.545383129268884659e-03 -4.664150765165686607e-04 -2.551062789279967546e-04 7.690649945288896561e-03 5.654720589518547058e-04 2.830243203788995743e-03 8.281623195216525346e-06 1.645888987695798278e-04 6.125564104877412319e-04 -9.276865748688578606e-04 -9.504759684205055237e-03 1.311420346610248089e-04 -1.907110586762428284e-02 2.865561516955494881e-03 1.478803460486233234e-04 2.400606498122215271e-02 8.063997142016887665e-03 1.019549163174815476e-04 1.486755991209065542e-05 -7.787720096530392766e-05 -3.166096750646829605e-03 1.819716271711513400e-04 1.723252795636653900e-02 -5.914297653362154961e-04 -5.960419657640159130e-04 3.643996606115251780e-04 1.152729615569114685e-03 -7.888653199188411236e-04 -3.466339316219091415e-03 1.985337585210800171e-03 2.966416999697685242e-03 -1.266740728169679642e-03 -6.177148898132145405e-04 -9.019432589411735535e-03 9.607015177607536316e-03 6.858847104012966156e-03 1.389159355312585831e-03 1.000162679702043533e-02 -3.054159947168955114e-07 -2.788000052041583396e-15 -3.980508772656321526e-04 6.875122758424889735e-13 4.926861327768372600e-13 -7.097442634403705597e-03 6.144601851701736450e-03 1.021716743707656860e-04 2.302686311304569244e-02 5.633190274238586426e-03 -1.117531955242156982e-02 -5.881239673044547089e-08 -8.883466762199532241e-06 9.117409586906433105e-03 4.519510257523506880e-04 1.501764403656125069e-03 -2.906164282205463134e-14 -6.591816432774066925e-03 1.740415114909410477e-03 -4.523305688053369522e-03 2.087621251121163368e-04 -1.951127545908093452e-03 3.785090302699245512e-05 4.751931875944137573e-03 1.371967419981956482e-02 9.235018296749331057e-06 1.083966853911988437e-04 -3.460492298472672701e-04 1.552680274471640587e-03 -3.465611371211707592e-04 7.482155342586338520e-05 4.679802805185317993e-05 2.756448520813137293e-05 1.406645169481635094e-04 1.405484799761325121e-04 4.573972837533801794e-04 -8.760747732594609261e-04 8.531244471669197083e-03 7.465593982487916946e-03 1.171529525890946388e-03 1.794212585082277656e-04 -2.090366102436291840e-09 2.402781537966802716e-04 -1.608693599700927734e-02 1.976429717615246773e-03 -1.665518502704799175e-03 -5.785991088487207890e-04 -8.867188802880524023e-14 6.124100764282047749e-05 7.145464220315034254e-09 7.305126171559095383e-03 -1.655989256311996005e-13 -1.377837848849594593e-03 -5.757916718721389771e-03 3.279450322413168806e-11 9.300775820624170021e-15 -5.743450019508600235e-04 1.680371575218941871e-08 -1.625248114578425884e-04 8.163454942405223846e-03 -7.778277358738705516e-05 2.385116968071088195e-04 6.920205778442323208e-04 2.587709808722138405e-03 8.924322202801704407e-03 -1.147778588347136974e-03 5.331828651833347976e-05 2.533725819375831634e-05 -1.098157488740980625e-03 -6.298822816461324692e-03 -5.797653575427830219e-04 8.368278213310986757e-05 5.947744939476251602e-04 1.519126526545733213e-04 1.054573585861362517e-04 -2.733380068093538284e-03 -2.839182037860155106e-03 3.615380730479955673e-03 1.040131505578756332e-02 2.588910050690174103e-03 -1.016191556118428707e-03 -7.650423329323530197e-03 3.874503599945455790e-04 -1.015399582684040070e-03 -1.681569847278296947e-03 -1.857896102592349052e-03 -4.384456686601367892e-11 -1.499319557396461278e-10 2.240913454443216324e-03 -7.587244092548128815e-14 -4.350038245320320129e-03 -2.651527058333158493e-03 2.526687967474572361e-05 6.121519254520535469e-05 8.279781468445435166e-05 2.725312719121575356e-03 2.764302305877208710e-03 -3.466654743533581495e-04 8.988083573058247566e-04 1.400157460011541843e-03 7.902495563030242920e-03 8.230188541347160935e-06 6.817667162977159023e-04 2.870930358767509460e-03 1.280420256080105901e-04 4.624203313142061234e-03 8.276582695543766022e-03 9.305483545176684856e-04 -4.182687494903802872e-03 -1.669386983849108219e-03 -1.145042479038238525e-02 2.700491459108889103e-04 -2.585844486020505428e-04 -6.459912750869989395e-03 -5.923432181589305401e-04 -8.869156008586287498e-04 6.315947393886744976e-04 4.972802707925438881e-05 -3.361466806381940842e-03 1.633173436857759953e-03 -4.645603476092219353e-04 2.726854989305138588e-03 1.558017544448375702e-02 2.936064556706696749e-04 6.904293695697560906e-05 2.226610668003559113e-03 1.165230944752693176e-02 -5.030721426010131836e-03 3.872055967804044485e-04 8.921951521188020706e-04 3.279026132076978683e-03 2.045652829110622406e-03 -6.675086915493011475e-04 -4.899186315014958382e-04 2.690451219677925110e-03 3.931534229195676744e-05 7.754720718367025256e-05 6.908101931912824512e-05 -1.982099456654395908e-05 -8.820587936497759074e-06 7.754821854177862406e-05 1.779380440711975098e-02 -1.350766542600467801e-04 1.529943756759166718e-02 -4.173435270786285400e-03 -5.044700228609144688e-04 -1.428711111657321453e-04 2.469727041898295283e-05 1.603763434104621410e-03 3.753352677449584007e-03 1.795812131604179740e-04 -6.476461887359619141e-03 4.083066713064908981e-03 -3.454803081694990396e-04 7.855805451981723309e-04 -3.021212294697761536e-03 2.070881964755244553e-05 -6.468387320637702942e-03 4.295383580029010773e-03 1.078655198216438293e-02 -9.916616836562752724e-04 3.871296648867428303e-04 6.107435183366760612e-05 1.640533329918980598e-03 2.975604147650301456e-04 -5.970294005237519741e-04 1.409741700626909733e-03 1.740497245918959379e-04 1.031381916254758835e-02 2.086856839014217257e-04 6.919783190824091434e-04 2.966542728245258331e-03 -1.478208508342504501e-02 5.743774818256497383e-05 1.094775507226586342e-03 3.391585312783718109e-03 -6.990033667534589767e-03 -6.468281615525484085e-03 8.158018812537193298e-03 3.528859815560281277e-04 5.180296488106250763e-03 6.973307608859613538e-05 -2.481858944520354271e-03 -3.237440483644604683e-03 1.029597036540508270e-02 -1.004357263445854187e-02 7.513088348787277937e-05 5.384963515098206699e-05 8.048503659665584564e-03 2.078377641737461090e-03 8.097007493743785256e-14 9.349421411752700806e-02 6.437253905460238457e-04 7.714664679951965809e-04 1.401551649905741215e-03 -8.100904524326324463e-03 -9.800773113965988159e-04 7.465467206202447414e-04 1.385428244248032570e-03 2.483070986238761213e-13 1.994630729313939810e-04 2.872505225241184235e-03 5.375900218496099114e-05 -9.875202551484107971e-03 -6.465738173574209213e-03 -2.402273705229163170e-03 -4.800989292562007904e-03 -1.978783123195171356e-02 1.171358022838830948e-02 2.338220074307173491e-04 -6.838822155259549618e-04 -3.435736754909157753e-03 -3.543379018083214760e-03 8.062864653766155243e-03 -4.897156031802296638e-04 4.468703991733491421e-05 -7.725490257143974304e-03 -1.430157863069325686e-04 -6.966156797716394067e-05 -1.616750261746346951e-03 -4.990245543012861162e-06 -1.744646724546328187e-04 -7.522976375184953213e-05 1.411328557878732681e-04 2.024965127930045128e-03 1.147020491771399975e-03 9.941511234501376748e-05 7.883499165473040193e-06 6.996387674007564783e-05 -4.892838653177022934e-03 -5.796762416139245033e-04 5.775006866315379739e-05 3.931368337362073362e-05 1.477982295909896493e-04 1.114871216179036395e-11 -3.857957897707819939e-03 -3.367282217368483543e-03 -2.405619481578469276e-03 9.982166392845208402e-15 -7.485981099307537079e-03 -1.684882119297981262e-02 -1.854372909292578697e-03 -3.518119046930223703e-04 -4.652929026633501053e-03 -6.145319202914834023e-04 -2.555721905082464218e-03 -6.477315910160541534e-03 -7.768274750560522079e-03 1.500695943832397461e-03 1.426459348294883966e-04 2.982324222102761269e-04 1.368194989481708035e-05 6.612259312532842159e-05 -6.489313673228025436e-03 3.797820070758461952e-03 -1.429621770512312651e-04 -3.212381852790713310e-03 1.498266821727156639e-03 -3.031201893463730812e-03 -2.469790051691234112e-04 2.454243949614465237e-04 5.350575665943324566e-04 1.207719929516315460e-02 1.156433857977390289e-02 9.314261260442435741e-04 -1.625212898943573236e-04 -4.276745021343231201e-03 2.979440032504498959e-04 -6.468212697654962540e-03 -7.897931197931029601e-09 5.860926466993987560e-04 -5.280442535877227783e-03 -2.372986273257993162e-05 1.454539160476997495e-04 -1.187642011791467667e-02 -1.271790452301502228e-02 2.687177911866456270e-04 -2.382427267730236053e-02 -5.957846529781818390e-03 2.853357791900634766e-02 1.738571882015094161e-04 8.057079277932643890e-03 7.420340087264776230e-03 1.026834594085812569e-03 -2.382140606641769409e-03 -5.718520842492580414e-03 -5.618303548544645309e-03 5.141008179634809494e-03 -8.951606105256360024e-06 6.303339730948209763e-03 -1.613670727238059044e-03 -7.524296961491927505e-05 2.897495869547128677e-03 6.715323252137750387e-05 -1.681388937868177891e-03 1.103474351111799479e-04 4.152892215643078089e-04 6.361375562846660614e-03 -6.000241264700889587e-03 -1.554718619445338845e-04 -1.313263899646699429e-03 1.954221899862391976e-15 1.426390663255006075e-04 2.091336064040660858e-04 -1.265837694518268108e-03 7.673797663301229477e-03 1.571803912520408630e-02 7.172984187491238117e-04 8.406650274991989136e-03 1.294655725359916687e-02 2.240831730887293816e-03 2.083105966448783875e-03 2.880794694647192955e-03 3.859453601762652397e-03 1.737870334181934595e-04 -3.439984098076820374e-02 1.068801991641521454e-02 1.830410398542881012e-02 1.738073915475979447e-04 -4.214458749629557133e-04 8.476743241772055626e-04 -1.829834887757897377e-03 -1.266574487090110779e-03 3.588015446439385414e-03 3.005975486303213984e-05 1.694023609161376953e-03 -6.025183945894241333e-03 -1.240549416664515903e-11 -1.307542156428098679e-02 -8.910152129828929901e-03 5.832203164857219235e-09 7.955489680171012878e-03 -1.219694646930474802e-13 2.706396393477916718e-02 -2.668053184606833383e-06 3.591137239709496498e-03 -1.167280366644263268e-03 -1.197590725496411324e-03 3.119224915280938148e-03 1.515155017841607332e-04 5.486298468895256519e-04 3.380575776100158691e-02 -3.463550820015370846e-04 1.947288215160369873e-02 1.000985503196716309e-02 2.966432133689522743e-03 6.124358624219894409e-04 5.706267256755381823e-05 2.246294869109988213e-03 2.255931940453592688e-05 3.002126235514879227e-03 1.252643996849656105e-03 2.086001913994550705e-03 7.777354030702367943e-15 1.662998110987246037e-04 2.708090469241142273e-04 -2.566633920650929213e-04 2.079658908769488335e-03 -3.661240625660866499e-04 1.654257939662784338e-04 1.024705171585083008e-02 1.822803984396159649e-03 4.857387685434574887e-14 2.083436585962772369e-03 1.306888880208134651e-03 2.499299822375178337e-03 -3.850671517757753293e-12 2.495266729965806007e-03 -3.597492468543350697e-04 9.909684769809246063e-03 -1.029014121741056442e-03 -4.286489565856754780e-04 -4.718293901532888412e-03 2.002105489373207092e-02 8.062789216637611389e-03 2.306203839008702516e-10 -5.457174032926559448e-03 7.246372289955615997e-03 4.772729706019163132e-03 5.038568051531910896e-04 7.787561509758234024e-03 -4.252167059215147815e-14 1.513121742755174637e-02 1.234864583238959312e-03 5.909675383009016514e-04 -8.016261563170701265e-05 -1.591835285818816309e-14 -5.030659493058919907e-03 6.921419844729825854e-05 -1.683139125816524029e-03 7.986885029822587967e-04 -3.451312950346618891e-04 -3.964937059208750725e-04 -1.760502782417461276e-04 -6.884600588819012046e-05 1.739135914249345660e-04 -9.243323269877805337e-15 1.307706465013325214e-03 2.033198950812220573e-03 -4.696450196206569672e-03 2.738053211942315102e-03 2.095839008688926697e-02 1.051631290465593338e-02 -8.858420187607407570e-04 -7.599057280458509922e-04 2.756429785222280771e-05 -3.447076014708727598e-04 -1.023444812744855881e-03 -3.010564250871539116e-03 -5.803600652143359184e-04 -1.126858778297901154e-02 -8.263587951660156250e-03 8.124378509819507599e-03 -1.266554929316043854e-03 -5.191775271669030190e-04 2.532922553655225784e-05 2.683610222931065437e-09 1.519972574897110462e-03 -3.825047286227345467e-03 2.945309272035956383e-03 9.989169426262378693e-03 7.728483760729432106e-04 -5.199947045184671879e-04 1.474295859225094318e-04 3.839810611680150032e-03 4.476120375329628587e-05 -1.232196107842954691e-14 5.612219683825969696e-04 2.082721795886754990e-03 1.076522376388311386e-02 -3.366890363395214081e-03 -5.789962015114724636e-04 -6.784675642848014832e-04 1.064446289092302322e-03 8.121534250676631927e-03 -6.216018460690975189e-03 -1.852825167588889599e-03 -3.595001529902219772e-03 -7.563001709058880806e-04 -2.708731591701507568e-02 -3.462659078650176525e-04 2.387471497058868408e-03 4.461665172129869461e-03 -4.756671402247891756e-14 3.606781130656599998e-03 5.128615310212580880e-09 1.735928235575556755e-04 5.970343772787600756e-05 1.337466947734355927e-02 2.088865294354036450e-04 4.489809216465801001e-04 -1.229562982916831970e-02 -7.791546522639691830e-05 1.281480025500059128e-02 -4.034439449185356352e-10 5.627495236694812775e-03 4.714942071586847305e-03 2.942385850474238396e-03 5.994443316012620926e-03 -6.468670442700386047e-03 -5.886804444518028978e-14 -1.628177851671352983e-04 -6.036138627678155899e-03 -2.315971441566944122e-02 -1.480189228293942588e-15 -3.096064319834113121e-04 -3.378497902303934097e-03 -3.459124127402901649e-04 -2.250603633001446724e-03 4.248348341207019985e-05 -3.086483047809451818e-04 8.787127211689949036e-03 6.809804122895002365e-03 9.019062854349613190e-04 2.533805323764681816e-03 7.514839671785011888e-05 1.009136671200394630e-03 -4.512703511863946915e-03 1.738354936242103577e-02 -2.343774241353457910e-08 5.922855343669652939e-03 -7.983431624114523117e-12 9.215692058205604553e-03 -3.469558141659945250e-04 -1.015159650705754757e-03 -7.120732334442436695e-04 7.995801861397922039e-04 1.569556258618831635e-02 -1.588785788044333458e-03 -3.259181743487715721e-03 -4.069593851454555988e-04 3.909030556678771973e-02 5.004216800443828106e-04 -5.141479428857564926e-03 -2.998105715960264206e-03 -3.088391094934195280e-04 -1.817400334402918816e-03 -3.430616925470530987e-04 1.311203749743139468e-13 8.272802066869658355e-14 7.647085934877395630e-03 -1.836980576626956463e-03 -9.569568559527397156e-03 -1.755121047608554363e-04 1.069200411438941956e-02 4.022011266787209327e-14 2.756909270829055458e-05 -2.443025587126612663e-03 1.735731202643364668e-04 -1.266585313715040684e-03 4.360924940556287766e-03 1.983593218028545380e-03 2.952463692054152489e-03 2.512396080419421196e-03 2.864694222807884216e-03 5.460380925796926022e-04 -7.637986109473166030e-14 -5.379418376833200455e-03 -1.341842580586671829e-03 -4.186426755040884018e-03 1.385765150189399719e-03 6.980149919399991632e-05 6.323345471173524857e-03 1.886676473077386618e-04 -2.522346097975969315e-03 1.473971788072958589e-04 1.097453241527546197e-05 -4.211251798551529646e-04 2.973151160404086113e-03 3.555009514093399048e-02 8.257165063696447760e-06 -9.164717084786389023e-06 -8.947969181463122368e-04 3.781339910347014666e-05 2.081990242004394531e-02 -1.700070424703881145e-04 -4.796317312866449356e-03 -2.209373190999031067e-02 6.138070020824670792e-04 1.011331565678119659e-03 1.557890698313713074e-02 -1.345495227724313736e-03 -2.597721293568611145e-03 1.014369889162480831e-03 1.409527176292613149e-04 1.538289352669142129e-13 7.534337346442043781e-04 1.995314232772216201e-04 9.942407632479444146e-05 -1.682329690083861351e-03 1.214650832116603851e-02 1.363536622375249863e-02 1.171585172414779663e-03 1.737846469040960073e-04 8.271517799585126340e-06 2.325845916415544140e-14 1.029267348349094391e-02 3.280841978266835213e-03 -5.382820498198270798e-03 8.055550046265125275e-03 1.171975280158221722e-03 1.187292350210162467e-14 -2.079242281615734100e-02 2.171097090467810631e-03 1.460796315222978592e-02 3.842329978942871094e-02 -5.013331770896911621e-03 -3.866428742185235023e-04 -1.750061288475990295e-02 -1.040254160761833191e-02 9.183406364172697067e-04 -3.229427602491341531e-05 -2.522389637306332588e-03 2.535718667786568403e-04 1.917610643431544304e-05 7.750568985437703007e-14 -4.012948367744684219e-03 8.135112002491950989e-03 -4.855778999626636505e-03 7.484963862225413322e-04 1.564172469079494476e-02 7.230383343994617462e-04 -1.758212596178054810e-02 -2.405493287369608879e-03 7.155486964620649815e-04 -1.586095546372234821e-03 -3.308384679257869720e-03 -3.591804124880582094e-04 1.888271234929561615e-02 -1.728761999402195215e-04 6.134471623227000237e-04 4.990000888938084245e-05 3.290883498266339302e-03 6.949050817638635635e-03 5.687795113772153854e-03 -7.917332113720476627e-04 -1.764027110766619444e-04 -5.396687239408493042e-02 1.076509011909365654e-03 -1.498709898442029953e-03 1.558141229907050729e-04 2.083484781906008720e-03 2.652672701515257359e-04 -1.143950619734823704e-03 -5.006847903132438660e-03 7.221323903650045395e-04 -1.268133171834051609e-03 -1.267718896269798279e-02 -1.826909743249416351e-02 -2.051712363027036190e-04 -5.279450560919940472e-04 -3.092279075644910336e-04 4.664926673285663128e-04 3.083919000346213579e-05 -1.700082793831825256e-04 -2.110327186528593302e-04 -5.103169474750757217e-03 -2.056099474430084229e-04 1.803499326342716813e-04 1.680027344264090061e-03 -4.088029394166969865e-12 6.145244115032255650e-04 1.256007235497236252e-04 2.706075902096927166e-04 1.334378379397094250e-03 1.811169640859588981e-04 5.906795099699588270e-14 3.466081034275703132e-05 -4.708041436970233917e-03 2.950422349385917187e-04 -2.915361837949603796e-04 -3.658535715658217669e-04 -4.184991121292114258e-03 1.084385876310989261e-04 2.439733070787042379e-04 1.892343861982226372e-03 -2.791067163343541324e-05 -3.428972850088030100e-04 -1.264042221009731293e-03 -2.599390922114253044e-03 8.090693736448884010e-04 -3.858160227537155151e-03 -3.614700981415808201e-04 -5.657276138663291931e-03 -1.058860216289758682e-03 5.783930599008099693e-16 2.199783484684303403e-04 -2.421582757961004972e-05 4.697876982390880585e-03 -4.360224068735915615e-14 1.223728433251380920e-02 2.629205533843936848e-11 5.612158216536045074e-03 1.422364613972604275e-03 -2.857937011867761612e-03 -3.957481123507022858e-03 1.571165025234222412e-02 5.316974129527807236e-03 -6.158239557407796383e-04 8.564679883420467377e-04 -8.796641603112220764e-03 -1.628765836358070374e-02 2.205541124567389488e-03 -4.675628617405891418e-03 5.962067048826541482e-14 2.713328151569827096e-13 2.289728447794914246e-02 1.667847175472469967e-14 -3.469896910246461630e-04 -4.738912684842944145e-04 -4.151835106313228607e-03 -6.635252851992845535e-03 -1.724568544887006283e-03 -2.802926115691661835e-02 -1.882060605566948652e-04 6.124675564933568239e-05 -5.551942158490419388e-03 -4.644944332540035248e-03 -1.750474795699119568e-03 2.047657780349254608e-02 -1.269739237613976002e-03 -1.743627508403733373e-04 -5.601753015071153641e-03 -1.857640570960938931e-03 1.474588352721184492e-04 -2.862448500451364453e-09 6.008972879499197006e-03 -6.468207575380802155e-03 5.179622094146907330e-04 -7.734692189842462540e-03 -1.194082852452993393e-02 -3.305254504084587097e-03 6.863730231998488307e-05 6.620003841817378998e-05 -1.264938386157155037e-03 3.260424709878861904e-04 -1.675950043136253953e-04 -9.956701533132134019e-14 6.280339322984218597e-03 -2.727604098618030548e-02 -6.625607618104822905e-09 1.076320419088006020e-03 -7.518750149756669998e-03 -4.246400203555822372e-03 3.777705132961273193e-04 5.880171665921807289e-04 8.020367473363876343e-03 3.259121683640842093e-08 2.572310902178287506e-02 4.922653170069679618e-05 -1.266635255888104439e-03 2.998661075253039598e-04 1.154435425996780396e-02 -2.748313359916210175e-03 2.681631594896316528e-04 2.933327667415142059e-02 8.521937706973403692e-05 -2.375691197812557220e-02 -3.242761129513382912e-03 4.534923573373816907e-05 1.860758289694786072e-02 2.526466778363101184e-05 7.471708813682198524e-04 3.360135480761528015e-02 -1.266686012968420982e-03 -7.615794354474871714e-15 1.899299398064613342e-02 3.047927469015121460e-02 -1.870926498668268323e-04 -7.048390340059995651e-03 4.679320045397616923e-05 2.462048316374421120e-03 1.617102301679551601e-03 8.254940621554851532e-03 6.934818229638040066e-04 2.410583198070526123e-02 4.953538533300161362e-03 2.340383881702448599e-14 4.645084872301197265e-10 1.169755007140338421e-03 1.143242511898279190e-02 -2.551777288317680359e-03 1.388350501656532288e-04 -8.830304141156375408e-04 -1.754056138452142477e-04 -2.465634606778621674e-02 1.623704284429550171e-02 1.078299319487996399e-04 3.163529882499460655e-08 8.487043087370693684e-04 8.552692830562591553e-03 -1.447030063718557358e-02 1.391694066114723682e-03 -2.571960503701120615e-04 -1.266581472009420395e-03 -1.385070616379380226e-03 -6.511615589261054993e-03 -7.705381471767580592e-14 -1.757150283083319664e-03 1.945630647242069244e-04 -3.304003505036234856e-03 -3.102169139310717583e-04 5.001987447030842304e-04 2.161692455410957336e-02 1.498970523243770003e-04 4.535738480626605451e-05 3.573059075279161334e-05 -5.640899762511253357e-02 -2.404844155535101891e-03 8.530272170901298523e-03 2.016787766478955746e-04 -4.712110385298728943e-03 1.893553126137703657e-04 4.150365421082824469e-04 -2.132980152964591980e-03 7.742819376289844513e-03 1.055432134307920933e-03 3.314250207040458918e-04 -1.500625512562692165e-04 -6.173354922793805599e-04 -6.468317005783319473e-03 -1.986133167520165443e-03 -8.473978377878665924e-04 5.322806100593879819e-05 -4.467195365577936172e-03 -2.073554554954171181e-03 1.519338414072990417e-02 1.254096132470294833e-04 -3.092290135100483894e-04 1.086134579963982105e-04 6.404824089258909225e-03 -3.309218678623437881e-03 3.930489765480160713e-04 5.786295514996833700e-14 -4.187046550214290619e-03 -1.266719424165785313e-03 -9.078430943191051483e-03 -9.298450204253683182e-11 -1.413891278207302094e-02 -3.011285094544291496e-03 -8.437559008598327637e-04 -7.519018254242837429e-04 2.165310084819793701e-03 -4.951093811541795731e-03 5.669381425832398236e-05 9.854180825641378760e-05 8.816678891889750957e-04 7.236067904159426689e-05 -8.185419574147090316e-05 -5.205521592870354652e-04 -2.342448802664875984e-03 2.651271061040461063e-04 2.086662716465070844e-04 2.303525252500548959e-05 7.082568015903234482e-03 2.552001504227519035e-03 1.902352234073312331e-11 5.173545796424150467e-03 8.510387269780039787e-04 1.478463236708194017e-04 -3.430938522797077894e-04 3.565973383956588805e-05 -6.790289771743118763e-04 6.034588441252708435e-04 1.707780058495700359e-03 3.883370955009013414e-04 2.165911719202995300e-03 -3.488633316010236740e-03 8.059281855821609497e-03 2.071180497296154499e-04 3.212762530893087387e-04 8.363993401871994138e-05 -4.756881855428218842e-03 8.281755981442984194e-06 1.168766058981418610e-03 7.532106246799230576e-04 1.009410014376044273e-03 -1.202792976982891560e-03 -2.190766157582402229e-03 1.018756593111902475e-04 -1.106635670686945128e-14 -2.203784572364642091e-14 -6.466993596404790878e-03 1.557136513292789459e-02 1.019795308820903301e-04 -1.482349704019725323e-03 1.428702671546489000e-04 -1.268173218704760075e-03 -1.427111128577962518e-04 -1.991348573938012123e-03 -3.078389214351773262e-03 2.078199991956353188e-03 -1.002180922884260417e-14 1.426738890586420894e-04 -1.860792748630046844e-03 3.701506881043314934e-03 -5.030166357755661011e-03 -4.803992051165550947e-04 -1.272402121685445309e-03 -2.628682879731059074e-03 -1.761234831064939499e-03 -5.871074739843606949e-03 -2.312742639333009720e-03 3.920175507664680481e-02 1.805611536838114262e-04 -2.083944794506464859e-09 -3.454225952737033367e-04 -1.682988950051367283e-03 4.137663345318287611e-04 -4.608140807249583304e-05 -3.466677444521337748e-04 5.045676371082663536e-04 6.144195504020899534e-05 1.212241695913718331e-10 1.018990515149198472e-04 6.344178225845098495e-03 2.966734347864985466e-03 -1.625796721782535315e-04 -1.383037026971578598e-02 8.064558729529380798e-03 7.749617361696437001e-05 -3.302131779491901398e-03 -3.619568888098001480e-03 -5.007050000131130219e-03 -8.046306473213395150e-15 -6.464478559792041779e-03 1.341192517429590225e-03 1.407086238032206893e-04 7.773195207118988037e-02 4.172606393694877625e-03 2.475217625033110380e-04 9.333170019090175629e-04 1.254114089533686638e-03 1.927073026308789849e-05 -4.542550013866275549e-04 -5.984584335237741470e-03 -6.467614322900772095e-03 3.144472464919090271e-02 -4.687237553298473358e-03 2.083486178889870644e-03 -3.566241357475519180e-03 -4.111342714168131351e-04 -1.541082747280597687e-02 -4.160504613537341356e-04 -4.797326109837740660e-04 6.915733683854341507e-05 1.470979303121566772e-03 -4.227294266456738114e-05 1.683094887994229794e-03 -1.200858969241380692e-03 -6.468394305557012558e-03 -6.486852653324604034e-04 -5.786560941487550735e-04 -3.466988564468920231e-04 8.560849819332361221e-04 1.540124602615833282e-02 2.650982423801906407e-05 1.319919480010867119e-03 3.375778906047344208e-04 1.716704689897596836e-03 -2.417121322650928050e-05 2.511471102479845285e-04 1.366410590708255768e-02 6.841503782197833061e-04 8.562381844967603683e-04 5.047729937359690666e-04 8.285982403322122991e-06 6.702957958647226544e-14 1.332747488049790263e-04 -5.022919271141290665e-03 8.062789216637611389e-03 6.264910552999936044e-06 3.773649805225431919e-04 -5.658079404383897781e-03 5.318265903042629361e-05 1.307889237068593502e-03 1.006290083751082420e-03 1.178040285594761372e-03 2.382177335675805807e-04 -7.580881356261670589e-04 -3.786650951951742172e-03 -4.277176689356565475e-03 9.318933007307350636e-04 1.550036948174238205e-02 7.744727918179705739e-05 -4.465824458748102188e-03 -2.346822293475270271e-03 5.764421058540580844e-13 1.809319073799997568e-04 1.307633821852505207e-03 5.869178567081689835e-04 1.031629834324121475e-02 -3.302864264696836472e-03 -5.226963199675083160e-03 2.165690064430236816e-03 3.998135216534137726e-03 -7.881237329421253435e-12 -1.754481636453419924e-04 2.794560045003890991e-03 1.937735214596614242e-05 -3.121232439298182726e-04 -1.266650273464620113e-03 -8.436660864390432835e-04 6.335325539112091064e-03 5.920727690539090080e-15 1.083354509319178760e-04 6.128353998064994812e-04 4.295899532735347748e-03 3.202245570719242096e-03 -3.464986511971801519e-04 8.350450661964714527e-05 2.143569727195426822e-04 2.076833152386825532e-05 3.624502802267670631e-03 -3.468928043730556965e-04 -1.374929677695035934e-03 8.011559955775737762e-03 1.184952780022285879e-04 1.516716438345611095e-03 7.242018822580575943e-03 1.161657460033893585e-02 1.230091135948896408e-02 6.123976781964302063e-04 1.482936204411089420e-03 -1.018824870698153973e-03 -3.423928574193269014e-04 -1.847098581492900848e-02 2.942876424640417099e-03 2.030132418440189213e-05 2.979736309498548508e-03 -5.928748869337141514e-04 5.893674679100513458e-03 9.852130897343158722e-03 1.022103460854850709e-04 -4.271069541573524475e-03 4.609657100473896207e-11 -2.298116451129317284e-03 -1.143627741839736700e-04 -2.536842913514192333e-08 8.057930506765842438e-03 2.687310734472703189e-05 6.830227794125676155e-04 3.561862312257205176e-14 9.710633312352001667e-04 3.078501205891370773e-03 -3.304978832602500916e-03 -5.658785812556743622e-04 -7.903039222583174706e-04 7.979815403293469278e-14 2.089410700136795640e-04 -5.796712357550859451e-04 1.428772229701280594e-04 1.479465281590819359e-04 -3.676463384181261063e-04 3.019308904185891151e-03 -1.027672667987644672e-03 2.078755933325737715e-04 1.867095124907791615e-04 4.859304171986877918e-04 -2.913844721064151599e-09 1.280385040445253253e-04 -1.301653496921062469e-02 -1.202339128188482584e-14 2.795774489641189575e-03 3.856377617239559186e-08 2.402099221944808960e-02 8.286044248961843550e-06 -6.784547120332717896e-03 -3.201031824573874474e-03 -7.069613784551620483e-03 5.932004833088949658e-14 1.388537464663386345e-03 -8.043409325182437897e-04 5.865091807208955288e-04 1.737924758344888687e-04 -1.350064412690699100e-04 6.920150190126150846e-05 6.436603143811225891e-04 -1.403163651048089378e-06 -9.961740193322170950e-15 -5.982960895239758034e-15 -6.463043857365846634e-03 5.877420189790427685e-04 1.200477854581549764e-04 -6.840414134785532951e-04 -1.740885199978947639e-04 -5.073592532426118851e-03 -3.630972700193524361e-03 1.461515109986066818e-02 -9.272860479541122913e-04 -1.986240502446889877e-03 -5.791265866719186306e-04 -1.581478980369865894e-03 -4.549761069938540459e-04 -1.133265634112312625e-10 1.098824668588349596e-05 -9.046648521450484370e-13 1.100576992030255497e-05 -1.430198608431965113e-04 5.708310753107070923e-03 2.249320736154913902e-03 6.442717276513576508e-04 9.139767847955226898e-03 1.109063625335693359e-02 1.669114426476880908e-04 -4.222410731017589569e-03 1.880945987068116665e-03 2.239325316622853279e-03 6.042565219104290009e-04 3.513806732371449471e-03 2.980927820317447186e-04 -1.374422921799123287e-03 3.004430793225765228e-03 -6.006423114955639075e-13 1.118307095021009445e-02 1.019147894112393260e-04 -6.840894930064678192e-04 8.059816434979438782e-03 2.597333677113056183e-02 9.787776798475533724e-05 2.117023244500160217e-02 -2.553772879764437675e-03 4.516431596130132675e-03 -6.466710474342107773e-03 1.387568656355142593e-03 4.753741435706615448e-03 1.933006383478641510e-02 3.811653683655213953e-14 -5.932813510298728943e-04 1.399998436681926250e-03 3.217615885660052299e-03 6.246947683393955231e-03 -6.749267486040599895e-13 5.349623196683472859e-13 1.795853895600885153e-04 -4.277832340449094772e-03 -9.056490380316972733e-04 -5.927323363721370697e-04 -1.728741452097892761e-03 -4.510389928213953681e-08 2.412349451333284378e-03 -1.740305015118792653e-04 6.828682380728423595e-04 -3.658111963886767626e-04 1.018364855553954840e-04 3.865856910124421120e-03 8.296498708659783006e-05 1.775964396074414253e-03 5.832012742757797241e-02 2.029629191383719444e-03 -4.323784261941909790e-03 -4.261485766619443893e-03 4.028804600238800049e-03 2.650357964739669114e-05 -2.569018630310893059e-03 -9.628812782466411591e-03 -6.700586061924695969e-03 2.231817925348877907e-03 4.993111360818147659e-03 -2.315606456249952316e-03 6.956602737773209810e-05 3.601402509957551956e-03 3.871166554745286703e-04 -4.688334651291370392e-03 1.309900078922510147e-03 -4.057769398269073235e-11 -1.260561984963715076e-03 8.254576823674142361e-05 1.307565602473914623e-03 9.823471191339194775e-05 -9.457094594836235046e-03 -6.840741261839866638e-04 -8.546356111764907837e-03 -1.266291248612105846e-03 2.853947505354881287e-02 -4.138584941415501817e-08 -1.021801028400659561e-03 -7.498573511838912964e-03 -5.884361601498147576e-14 -1.074959407560527325e-03 1.282835844904184341e-03 -1.996649516513571143e-04 -5.162556190043687820e-03 6.971071707084774971e-05 1.475429744459688663e-04 -2.988172054756432772e-04 1.606739358976483345e-03 4.664485459215939045e-06 -4.086187109351158142e-02 -8.974888361990451813e-03 -1.652889914112165570e-04 2.669021487236022949e-03 -2.047521702479571104e-04 8.064805530011653900e-03 6.900774897076189518e-04 1.803035993361845613e-04 -3.785207634791731834e-03 1.798606826923787594e-04 6.919297912411082052e-10 2.978056669235229492e-03 1.643199287354946136e-02 -2.042918838560581207e-02 -3.465223999228328466e-04 -2.625862136483192444e-02 -4.510352853685617447e-03 -1.266301143914461136e-03 6.090608439990319312e-05 -1.211657529864851313e-08 -1.194641273468732834e-02 -4.108471795916557312e-03 4.396030861921786104e-14 1.171344891190528870e-03 -1.385177019983530045e-03 -3.261488454882055521e-04 3.772760683204978704e-04 2.679986937437206507e-04 1.429345575161278248e-04 6.333565339446067810e-03 2.975550887640565634e-04 1.062443829141557217e-03 -2.486317045986652374e-02 -6.870174207307400138e-09 1.480879494920372963e-03 -2.038419177105132291e-14 -3.198462538421154022e-03 -5.652110723897152411e-11 -1.429277326678857207e-04 1.283443906707759652e-10 8.062779903411865234e-03 2.229022356914356351e-05 1.973713049665093422e-03 -1.599328941665589809e-03 -5.789171555079519749e-04 4.439316469984078140e-09 -3.901384305208921432e-03 -2.443262608721852303e-03 -7.016787305474281311e-03 8.091845549643039703e-03 1.168949645943939686e-03 -9.844595333561301231e-04 5.330573185347020626e-05 2.240607049316167831e-03 6.786677840864285827e-05 -1.623443240532651544e-04 5.045217112638056278e-04 6.179797928780317307e-03 -8.277776521962293410e-14 1.237444957951083779e-04 -6.615812424570322037e-03 -6.413106166291981936e-05 -1.035796827636659145e-03 3.899022703990340233e-03 7.156003266572952271e-04 -1.118023693561553955e-02 2.445062564220279455e-04 2.533459883125033230e-05 -4.688278771936893463e-03 5.868177395313978195e-04 4.480437928577885032e-05 4.757219285238534212e-04 -4.023329354822635651e-03 4.819894675165414810e-04 -8.806027472019195557e-03 2.289166441187262535e-03 -9.199370630085468292e-03 -2.242241316707804799e-04 -9.199444320984184742e-05 -2.860439475625753403e-03 -3.574624657630920410e-03 -1.165989693254232407e-02 1.069333864349170798e-14 1.260971068404614925e-03 4.782138857990503311e-03 1.737954444251954556e-04 3.003440331667661667e-03 6.123926868895068765e-05 1.030445215292274952e-03 -5.070722661912441254e-03 -8.859882655087858438e-06 -3.310142550617456436e-03 2.687074447749182582e-05 1.772176910890266299e-04 3.112138807773590088e-02 1.175895100459456444e-03 2.389546670019626617e-02 5.377896130084991455e-03 2.587099792435765266e-03 2.068889094516634941e-03 -1.261195400729775429e-03 -1.775830052793025970e-02 -1.147851464338600636e-03 -3.322601696709170938e-05 3.094582532933709551e-12 -1.536627372382675522e-14 6.603870075196027756e-03 -6.782173644751310349e-03 3.323159180581569672e-03 -3.998211584985256195e-03 3.249513916671276093e-03 1.713549951091408730e-03 6.089462159346303860e-14 -6.843049195595085621e-04 2.582515589892864227e-03 5.855334457010030746e-04 3.094501793384552002e-03 -3.863517660647630692e-03 -1.681814901530742645e-03 -2.553297439590096474e-03 6.257327273488044739e-03 8.614875376224517822e-03 -1.604956944255275797e-13 6.822684081271290779e-04 -6.579990731552243233e-04 6.923118780832737684e-05 7.809725502738729119e-05 1.714724385237786919e-05 6.445903563871979713e-04 3.225454362109303474e-03 -1.878284333622914914e-11 -5.929797771386802197e-04 -1.269780332222580910e-03 7.427898701280355453e-03 4.662825376726686954e-04 3.788592526689171791e-03 -6.706167943775653839e-03 6.867836695164442062e-03 1.899007173733480158e-09 6.475139525718986988e-04 -1.097479718737304211e-03 1.372543512843549252e-03 8.151301182806491852e-03 1.063234638422727585e-03 1.267670886591076851e-03 2.419408119749277830e-04 -2.761804498732089996e-04 4.508506390266120434e-04 8.714569848962128162e-04 8.173287846148014069e-03 -5.789088900201022625e-04 1.032386659884435010e-13 2.965122228488326073e-03 5.992112564854323864e-04 -5.130643839947879314e-04 -1.267488696612417698e-03 7.251749280840158463e-03 -2.898421249102750563e-13 1.818992942571640015e-02 1.362921018153429031e-02 -4.788522794842720032e-02 -1.674373925197869539e-04 -1.433149725198745728e-02 -2.514571510255336761e-02 5.851192865520715714e-03 1.057251240126788616e-03 -1.818498829379677773e-03 3.164200810715556145e-03
1.504108905792236328e-01 7.721352390944957733e-03 -3.811080532614141703e-04 4.579699039459228516e-02 5.421000719070434570e-02 -8.575257845222949982e-03 -6.078897044062614441e-02 1.553012337535619736e-02 -5.141930654644966125e-02 7.024109363555908203e-02 9.145939350128173828e-02 -1.799319870769977570e-02 6.306292116641998291e-02 -9.227409958839416504e-03 8.150159567594528198e-02 1.401453465223312378e-02 -4.586329683661460876e-02 -3.817154467105865479e-02 -2.318262122571468353e-02 -1.995887048542499542e-02 6.339013576507568359e-02 1.334864795207977295e-01 7.075302302837371826e-02 2.007644250988960266e-02 1.209158822894096375e-02 1.455817557871341705e-02 -1.415153127163648605e-02 5.818428099155426025e-02 -1.150891464203596115e-02 -5.051163025200366974e-03 -2.632019110023975372e-02 4.086675122380256653e-02 5.681479722261428833e-02 -2.550993300974369049e-02 3.327744081616401672e-02 3.219966962933540344e-02 2.793282037600874901e-03 3.399985283613204956e-02 2.865867875516414642e-02 5.206525698304176331e-02 3.779289871454238892e-02 3.642350435256958008e-03 -1.986202038824558258e-02 1.590009406208992004e-02 1.790322549641132355e-02 8.560849353671073914e-03 3.319303318858146667e-02 1.937124505639076233e-02 -2.021332038566470146e-03 3.256513923406600952e-02 1.286902837455272675e-02 1.181258121505379677e-04 1.040789950639009476e-02 -1.807353110052645206e-03 1.031375396996736526e-02 2.516585774719715118e-02 6.446985155344009399e-02 -1.312866620719432831e-02 6.296586245298385620e-02 2.419487386941909790e-02 4.163684695959091187e-02 3.047432005405426025e-02 -4.038226604461669922e-02 -2.992575522512197495e-03 2.502383105456829071e-02 -6.601193308597430587e-05 -1.977895444724708796e-04 2.473545027896761894e-03 2.481621690094470978e-03 -7.105673430487513542e-04 1.319410102951223962e-06 -1.810769783332943916e-03 1.092278907890431583e-04 1.368747907690703869e-03 3.387346653171974253e-11 -2.337669720873236656e-03 4.181360825896263123e-03 3.814532421529293060e-03 -1.957389526069164276e-02 1.551625027786940336e-04 -3.036689711734652519e-03 6.513080094009637833e-03 -1.480036182329058647e-03 -2.368746610534669395e-14 -8.233839906548676146e-14 -2.402262296527624130e-03 5.677133332937955856e-03 4.881208587903529406e-04 1.275527523830533028e-03 -7.079819915816187859e-04 -2.811206213664263487e-04 -3.900750307366251945e-04 -1.520221703685820103e-03 6.545821815961971879e-05 -2.086333324768929742e-06 -3.860539072775281966e-05 1.049173588398844004e-04 -4.283727612346410751e-03 -6.022542715072631836e-03 -2.181845949962735176e-03 9.318314492702484131e-03 -3.021128708496689796e-03 3.069471335038542747e-03 7.073697634041309357e-03 -1.677504857070744038e-03 -5.774233521882443654e-11 -3.390773432329297066e-03 -4.978383731213398278e-05 4.824461881071329117e-03 2.359406062169000506e-05 1.089303987100720406e-04 1.131981238722801208e-02 5.143285542726516724e-02 1.150221331045031548e-03 -3.879662835970520973e-03 -7.928388658910989761e-04 -2.430644817650318146e-04 -3.794602889684028924e-05 2.855177153833210468e-04 3.618053960963152349e-05 9.025306208059191704e-04 -1.219753467012196779e-04 3.265809034928679466e-03 -2.039935861830599606e-05 5.477524828165769577e-03 3.285622457042336464e-03 -3.257911419495940208e-03 -3.927223850041627884e-03 -1.812916598282754421e-03 -2.704375074245035648e-04 7.236488745547831059e-04 -3.475007414817810059e-02 6.589939584955573082e-04 2.616084821056574583e-04 9.141147165792062879e-05 3.492726013064384460e-03 -2.275784499943256378e-02 1.838392017816659063e-05 -2.952419745270162821e-04 2.193833934143185616e-03 3.144796704873442650e-03 -1.446176611352711916e-04 -4.532503895461559296e-03 -6.168869731482118368e-05 1.082093294826336205e-04 2.471051923930644989e-02 1.058882568031549454e-02 2.518662367947399616e-04 -1.674674102105200291e-03 1.169220893643796444e-03 -8.444231003522872925e-03 4.853249411098659039e-04 -1.521481433883309364e-03 2.818369248416274786e-04 -9.642096847528591752e-05 1.733187091303989291e-04 -6.872927042422816157e-05 -1.552653520775493234e-05 -2.136378316208720207e-03 -1.480036298744380474e-03 3.425200469791889191e-03 6.763125769793987274e-03 5.144743714481592178e-03 9.943074110196903348e-05 1.119133012252859771e-04 -8.752856403589248657e-03 3.404154631425626576e-05 -6.294681224972009659e-05 1.075876245189809344e-13 -1.933092107719858177e-06 1.150446385145187378e-02 9.936222340911626816e-04 1.028568367473781109e-03 -8.753053843975067139e-03 7.478230982087552547e-04 -1.814463292248547077e-03 -3.154099918901920319e-03 -1.705599599517881870e-03 -5.356282927095890045e-04 1.523239631205797195e-02 -1.502403290942311287e-03 1.238840981386601925e-03 -1.803498598746955395e-04 7.049929990898817778e-05 1.468435802962630987e-04 1.316749840043485165e-04 -1.328579150140285492e-02 -1.814097980968654156e-03 -8.507401682436466217e-03 1.929670758545398712e-02 -7.911553839221596718e-04 -5.050041247159242630e-03 4.423293750733137131e-03 1.531232963316142559e-03 1.912188716232776642e-02 -3.884795308113098145e-02 2.047833520919084549e-03 2.512090431991964579e-04 1.770558534190058708e-03 -4.408315755426883698e-03 5.216694436967372894e-03 9.100591763854026794e-03 8.386293193325400352e-04 1.523342216387391090e-03 -1.932883378685801290e-06 -1.106292329495772719e-04 7.691356586292386055e-04 2.210205188021063805e-03 7.242044666782021523e-04 -2.810123987728729844e-05 3.206846071407198906e-03 4.087609238922595978e-03 2.265326620545238256e-04 2.420230396091938019e-02 1.057799160480499268e-02 9.161963680526241660e-05 5.546314241655636579e-06 -3.931858373107388616e-06 -4.899077117443084717e-03 -1.009502375381998718e-04 1.276566414162516594e-03 1.672294223681092262e-03 9.157988824881613255e-04 -9.493434336036443710e-04 -5.482215783558785915e-04 -1.607958110980689526e-03 3.742563072592020035e-03 2.582304412499070168e-03 3.294723574072122574e-03 -1.815276453271508217e-03 1.475247263442724943e-04 -1.285079959779977798e-02 1.015005912631750107e-02 8.868939243257045746e-03 1.018857001326978207e-03 1.096511352807283401e-02 -1.711889402940869331e-03 1.307402737438678741e-03 -4.506873432546854019e-03 -1.168464769385479940e-10 -4.759107552487762405e-10 -1.553919073194265366e-02 9.270463138818740845e-03 -1.775290184014011174e-05 2.556463703513145447e-02 8.416967466473579407e-03 4.039267369080334902e-04 4.195209767203778028e-04 -2.702100900933146477e-04 2.028781734406948090e-02 6.655951146967709064e-04 1.046478864736855030e-03 -9.407806565026044510e-14 -5.735023878514766693e-03 2.270278288051486015e-03 -2.833796315826475620e-04 2.526490134187042713e-04 -5.418719258159399033e-03 -5.685559699486475438e-06 -7.912745350040495396e-04 7.533146534115076065e-03 8.292051916214404628e-07 -2.952655486296862364e-04 1.048343183356337249e-04 1.792437862604856491e-03 1.042494550347328186e-04 9.893483365885913372e-05 -9.267059795092791319e-05 -1.930707730934955180e-05 -3.051105013582855463e-04 -3.247242711950093508e-04 1.802226644940674305e-03 -2.230220939964056015e-03 1.048915274441242218e-02 1.008040551096200943e-02 1.370973768644034863e-03 2.587068593129515648e-04 5.561346603502256847e-14 3.899473231285810471e-04 -6.483491510152816772e-03 2.220310503616929054e-03 -4.519968933891505003e-04 9.918464347720146179e-04 1.889480336103588343e-04 -1.043598749674856663e-04 8.142328006215393543e-04 4.810379352420568466e-03 1.127013965742662549e-04 -2.118276199325919151e-03 5.646728444844484329e-03 -1.404557260684669018e-03 -4.648419236336076565e-14 -7.864169310778379440e-04 2.255834173411130905e-03 6.484895129688084126e-04 1.058011688292026520e-02 -3.774611968765384518e-06 2.934524090960621834e-04 1.028564176522195339e-03 3.328478429466485977e-03 1.132272277027368546e-02 -3.084033494815230370e-03 -6.574779399670660496e-05 -2.767165424302220345e-04 -2.566729439422488213e-03 -1.118981745094060898e-02 9.030356886796653271e-04 -2.453757333569228649e-04 -4.226383171044290066e-04 -2.598541032057255507e-04 -5.770839561591856182e-05 -1.169417984783649445e-02 -1.029707863926887512e-02 6.853086873888969421e-03 1.206003222614526749e-02 3.315655747428536415e-03 2.113584196195006371e-04 -2.034985460340976715e-02 6.320804241113364697e-04 2.122803707607090473e-04 -1.154892845079302788e-03 6.627419963479042053e-03 2.149763526915204892e-11 -1.402134657837450504e-03 -1.579874515300616622e-04 -7.246919129242149205e-14 8.193861693143844604e-03 -1.330863032490015030e-02 -2.771225990727543831e-04 -1.043924930854700506e-04 1.092162347049452364e-04 2.481403062120079994e-03 3.293791553005576134e-03 1.049766869982704520e-04 8.313016151078045368e-04 1.148001523688435555e-03 1.079047378152608871e-02 -1.932833129103528336e-06 8.781824726611375809e-04 4.087691660970449448e-03 2.026139782174141146e-06 1.350918505340814590e-02 6.480963435024023056e-03 1.323061645962297916e-03 2.864275884348899126e-04 8.341368287801742554e-03 -4.275099840015172958e-03 4.685356980189681053e-04 2.722032368183135986e-04 -8.752630092203617096e-03 1.665414078161120415e-03 1.027488498948514462e-03 -5.975082749500870705e-04 1.953100763785187155e-06 5.599257419817149639e-04 1.334282802417874336e-03 -3.239747835323214531e-03 8.488008170388638973e-04 1.545701641589403152e-02 5.021399192628450692e-05 -5.265586078166961670e-04 -2.615714911371469498e-04 4.226862452924251556e-03 -8.547469042241573334e-03 6.335646030493080616e-04 -1.167062949389219284e-02 8.837883360683917999e-04 -2.540049841627478600e-03 -1.039618160575628281e-03 1.410938566550612450e-04 3.070186823606491089e-03 -3.886704143951646984e-05 -3.161029235343448818e-05 -1.164345812867395580e-04 -1.385054722823075846e-15 -2.705253427848219872e-04 -3.144995935144834220e-05 2.161096408963203430e-02 1.342952486993453931e-06 1.534129958599805832e-02 2.831213932950049639e-04 1.004338730126619339e-03 3.612038199207745492e-05 -1.681513967923820019e-03 1.976414583623409271e-03 4.093269817531108856e-03 2.586989139672368765e-04 -1.594666019082069397e-02 4.048331174999475479e-03 1.049629499902948737e-04 1.057124580256640911e-03 -7.056203321553766727e-05 -7.000675395829603076e-05 -8.753096684813499451e-03 7.382018491625785828e-03 -1.725019188597798347e-03 1.492790877819061279e-03 6.321991095319390297e-04 -2.327018650248646736e-03 1.816800213418900967e-03 3.836346731986850500e-04 1.269394706469029188e-04 1.627803198061883450e-03 2.519086410757154226e-04 1.076592039316892624e-02 -5.508932372322306037e-05 1.028679427690804005e-03 3.290097229182720184e-03 -2.173876948654651642e-02 -2.717089591897092760e-05 1.367461285553872585e-03 2.307341434061527252e-03 -1.142432447522878647e-02 -8.756047114729881287e-03 1.058595441281795502e-02 -7.948041311465203762e-04 4.903106484562158585e-03 -2.049561589956283569e-05 -4.961270373314619064e-03 -6.621195934712886810e-03 1.054763887077569962e-02 -5.389260128140449524e-02 9.917058196151629090e-05 -1.238276126969140023e-06 1.058839540928602219e-02 -1.433254510629922152e-04 4.444665100891143084e-04 1.148552596569061279e-01 9.934626286849379539e-04 -7.325931801460683346e-04 1.147342380136251450e-03 6.172847468405961990e-03 -5.546821921598166227e-05 3.129014803562313318e-04 1.810862217098474503e-03 -2.529845340177416801e-03 3.480629529803991318e-04 6.307005416601896286e-03 -1.187897623822209425e-06 -1.565461605787277222e-02 -1.594234071671962738e-02 -5.843937862664461136e-03 -8.439205586910247803e-03 7.410175167024135590e-03 4.118530545383691788e-03 -1.476839388487860560e-04 2.440079697407782078e-05 -7.105738040991127491e-04 -4.315743222832679749e-03 1.057887077331542969e-02 2.146844519302248955e-03 4.333066681283526123e-05 -2.279356680810451508e-02 3.616063986555673182e-05 -1.221454935148358345e-03 1.686782110482454300e-03 -2.172852255171164870e-04 -1.093071233481168747e-02 -4.298282437957823277e-04 -3.051104140467941761e-04 1.378145301714539528e-03 1.148172072134912014e-03 -2.772091465885750949e-05 -3.190220377291552722e-05 7.038083276711404324e-05 -2.039148937910795212e-03 9.022680460475385189e-04 -2.979317796416580677e-04 -3.884894613292999566e-05 2.267720847157761455e-04 2.185793127864599228e-03 -8.595960214734077454e-03 -4.733528941869735718e-03 -8.587340707890689373e-04 1.690417848294600844e-04 -1.518287113867700100e-03 2.264361828565597534e-04 6.630436051636934280e-03 -3.213977324776351452e-04 -2.680020115803927183e-04 1.509637455455958843e-03 -4.197036847472190857e-03 -8.984759449958801270e-03 2.411678899079561234e-03 1.880596508271992207e-03 1.327965728705748916e-04 3.830965433735400438e-04 -3.292353823781013489e-03 -1.887827602331526577e-05 -8.750689215958118439e-03 4.461711738258600235e-03 3.618043047026731074e-05 -4.169939784333109856e-04 1.874544541351497173e-03 -4.572468809783458710e-03 -5.760784260928630829e-04 -6.666472763754427433e-04 9.839881677180528641e-04 1.342649478465318680e-02 1.325864810496568680e-02 1.527775777503848076e-03 6.479464354924857616e-04 3.095382126048207283e-03 3.839352575596421957e-04 -8.752559311687946320e-03 8.154840907081961632e-04 2.849101729225367308e-04 1.536294119432568550e-03 -5.481003317981958389e-04 2.179420152970124036e-05 -1.498041581362485886e-02 -1.070351898670196533e-02 1.033980006468482316e-04 1.109617669135332108e-02 -4.625599831342697144e-03 8.059028536081314087e-03 2.516966778784990311e-04 1.057476922869682312e-02 6.417633034288883209e-03 1.406335155479609966e-03 6.757011637091636658e-03 -4.099928773939609528e-04 -8.820259012281894684e-03 1.352713094092905521e-03 -2.702663477975875139e-04 7.982880808413028717e-03 -5.223122891038656235e-03 -4.297066770959645510e-04 2.279716136399656534e-04 -1.080190340871922672e-04 2.485288423486053944e-04 -2.109813613060396165e-05 -6.392691284418106079e-04 4.388273693621158600e-03 -5.798017373308539391e-04 -1.511243404820561409e-03 -1.642745803110301495e-03 1.309929299168288708e-03 1.329496735706925392e-04 2.525626332499086857e-04 -1.815194962546229362e-03 6.669106427580118179e-03 1.925000920891761780e-02 -2.755367895588278770e-04 1.100039016455411911e-02 1.622355543076992035e-02 -1.589158200658857822e-04 -1.430436968803405762e-04 1.702967332676053047e-03 -6.007398478686809540e-03 2.521371934562921524e-04 -1.851153187453746796e-02 -5.861294455826282501e-03 1.271605119109153748e-02 2.520973212085664272e-04 -4.123526159673929214e-03 -1.864552032202482224e-04 -4.739002324640750885e-03 -1.812661997973918915e-03 4.281656350940465927e-03 -7.536709017585963011e-05 1.944796415045857430e-03 1.384978462010622025e-02 2.185435499995946884e-03 -1.854428462684154510e-02 1.092617399990558624e-03 8.128228946588933468e-04 7.296096300706267357e-04 -5.297382671409778254e-11 2.052289247512817383e-02 6.878677992873741265e-14 4.291066899895668030e-03 -1.686722971498966217e-03 -1.742121647112071514e-03 2.252576872706413269e-03 -1.244176964974030852e-04 -5.896091926842927933e-03 1.602391898632049561e-02 1.047720797942019999e-04 2.052461355924606323e-02 1.155729033052921295e-02 3.286045975983142853e-03 7.692557410337030888e-04 8.108211681246757507e-03 -3.046269994229078293e-03 -5.321188382367836311e-06 2.825228963047266006e-03 1.468422124162316322e-03 3.260014578700065613e-03 3.404010567464865744e-05 2.035952784353867173e-04 4.690160276368260384e-04 5.212012212723493576e-03 -1.427700481144711375e-04 1.084978357539512217e-04 -2.920943079516291618e-04 7.453728932887315750e-03 2.408179687336087227e-03 -3.291119064670056105e-04 1.363866176689043641e-04 -7.433445425704121590e-04 2.941608428955078125e-03 -1.360912164211081077e-11 2.953411545604467392e-03 2.759384363889694214e-02 -4.892661236226558685e-03 -1.479325117543339729e-03 9.267452696803957224e-05 -9.630529209971427917e-03 2.425364032387733459e-02 1.058718375861644745e-02 -2.774472581222653389e-03 -2.772155494312755764e-05 1.020852103829383850e-02 6.062506698071956635e-03 9.044900070875883102e-04 1.024646684527397156e-02 1.702180161373689771e-04 8.693244308233261108e-03 -1.873527769930660725e-03 2.335226890863850713e-04 -3.358804155141115189e-03 -1.605908060611088706e-14 -8.540458045899868011e-03 -1.165031062555499375e-04 2.455572830513119698e-04 6.827372126281261444e-04 1.052696898113936186e-04 -7.915724418126046658e-04 4.413668357301503420e-04 -5.632561576169019951e-15 2.520790440030395985e-04 -3.807629905816511950e-11 -7.435968727804720402e-04 2.525855554267764091e-03 1.575144269736483693e-04 5.699068424291908741e-04 2.245730347931385040e-02 1.112295128405094147e-02 -9.102422744035720825e-03 -6.577783264219760895e-03 -1.933634848683141172e-05 1.049409329425543547e-04 -1.480356324464082718e-03 -1.845071325078606606e-03 9.037942509166896343e-04 1.073696883395314217e-03 1.364823692711070180e-04 1.047628559172153473e-02 -1.815085299313068390e-03 -1.890550483949482441e-03 -2.758068731054663658e-04 -7.411958067677915096e-04 -3.164341207593679428e-03 -6.763622513972222805e-04 3.823545295745134354e-03 1.302162278443574905e-02 -7.322423043660819530e-04 -1.888866303488612175e-03 -1.450118288630619645e-04 5.170912947505712509e-03 4.333483957452699542e-05 9.800932602956891060e-04 8.847279823385179043e-04 -1.426655799150466919e-04 -2.543847309425473213e-03 -6.862021051347255707e-03 9.034599061124026775e-04 -1.793090137653052807e-03 1.128493458963930607e-03 1.047717966139316559e-02 -1.186988200061023235e-03 6.618210580199956894e-03 7.155179046094417572e-04 -1.873094588518142700e-03 -3.337894752621650696e-02 1.051659855875186622e-04 1.910723047330975533e-03 3.204771783202886581e-03 4.830075427889823914e-03 4.649594891816377640e-03 8.133820956572890282e-04 2.520680427551269531e-04 -2.629657101351767778e-04 9.597641415894031525e-03 2.525830059312283993e-04 5.085411248728632927e-04 -1.800305768847465515e-02 -3.957396074838470668e-06 5.978859961032867432e-03 -2.774666296318173409e-03 9.212473407387733459e-03 7.077774964272975922e-03 5.973393563181161880e-03 -4.017787054181098938e-03 -8.752998895943164825e-03 2.093191433232277632e-04 6.478714640252292156e-04 5.777484271675348282e-03 -1.749850809574127197e-02 7.420775946229696274e-04 1.219378100358881056e-04 -4.708958324044942856e-03 1.047670593834482133e-04 1.577605027705430984e-03 7.387281511910259724e-04 1.216369782923720777e-04 1.230771839618682861e-02 4.791188053786754608e-03 1.047864789143204689e-03 3.353213192895054817e-03 9.904701437335461378e-05 8.981528226286172867e-04 -6.575012113898992538e-03 1.119936257600784302e-02 -3.262568600698179111e-12 6.641240790486335754e-03 -1.402136869728565216e-03 1.163340266793966293e-02 1.045684839482419193e-04 2.115949755534529686e-04 -1.063121482729911804e-03 6.835522362962365150e-04 1.922798901796340942e-02 -5.423165857791900635e-04 -6.106389220803976059e-03 -1.062219380401074886e-03 5.195134505629539490e-02 6.649096030741930008e-04 -1.454464858397841454e-03 -6.941549479961395264e-03 1.215257434523664415e-04 -8.116556331515312195e-03 -1.687745680101215839e-05 8.129562251269817352e-03 1.138293527090574603e-14 -2.527960343286395073e-03 -1.175502780824899673e-03 1.386559219099581242e-03 4.419759497977793217e-04 3.800212871283292770e-03 -5.007650313837951062e-14 -1.932578015839681029e-05 -4.205306991934776306e-03 2.519053814467042685e-04 6.323624402284622192e-03 1.275717280805110931e-03 2.581640612334012985e-03 1.125428942032158375e-03 5.090172635391354561e-04 4.092485178261995316e-03 7.491058204323053360e-05 3.127913078060373664e-05 -1.765887252986431122e-02 -2.953994320705533028e-03 2.821059024427086115e-04 4.235313273966312408e-03 -2.049255999736487865e-05 1.527406042441725731e-03 -6.117763405200093985e-05 -3.458813764154911041e-03 -1.448614202672615647e-04 -2.358899655519053340e-05 -7.101445225998759270e-04 3.292853711172938347e-03 4.188821837306022644e-02 -1.938292143677244894e-06 -2.700267941690981388e-04 -2.033591968938708305e-03 -5.692717422789428383e-06 2.280005812644958496e-02 -1.749868621118366718e-03 -8.440529927611351013e-03 1.661446690559387207e-02 7.457869942300021648e-04 -2.430910681141540408e-04 1.547103840857744217e-02 -5.539041012525558472e-03 1.232701761182397604e-04 -2.430518652545288205e-04 -3.051093954127281904e-04 4.575621278490871191e-05 9.866212494671344757e-04 3.478964790701866150e-04 -2.772182961052749306e-05 2.429995220154523849e-04 2.076759468764066696e-03 1.728007197380065918e-02 1.373692648485302925e-03 2.520781126804649830e-04 -1.936761918841511942e-06 1.280898401668367770e-13 9.624741971492767334e-03 1.297843758948147297e-03 -1.236935332417488098e-02 1.058961264789104462e-02 1.374137937091290951e-03 8.126520551741123199e-03 -2.974489331245422363e-02 2.798625733703374863e-03 1.957965269684791565e-02 2.283916994929313660e-02 -4.487955302465707064e-04 7.934669964015483856e-03 -4.627071786671876907e-03 -1.808495633304119110e-02 -3.170181531459093094e-03 -1.976096828002482653e-04 -3.457572311162948608e-03 2.887986483983695507e-04 -1.220081030623987317e-04 3.016738919541239738e-03 -4.730654880404472351e-03 -1.661952584981918335e-02 -1.967356773093342781e-03 -3.607124672271311283e-04 1.550969947129487991e-02 3.638567286543548107e-04 -7.355744484812021255e-03 -8.584207389503717422e-04 5.670277096214704216e-05 -2.497846726328134537e-03 -4.879399202764034271e-03 2.320431231055408716e-04 2.081953547894954681e-02 