-9.053898602724075317e-02 -1.688127368688583374e-01 2.853952161967754364e-02 2.821299433708190918e-02 7.564380019903182983e-02 7.736499607563018799e-02 -1.159235015511512756e-01 1.562333554029464722e-01 -6.180096045136451721e-02 -7.333124428987503052e-02 1.127249896526336670e-01 2.649377100169658661e-03 1.004745811223983765e-01 2.210831455886363983e-02 2.903041429817676544e-02 3.507284820079803467e-02 1.045852079987525940e-01 1.067635342478752136e-01 9.585057944059371948e-02 6.274461746215820312e-02 -9.291331470012664795e-02 -8.825851231813430786e-02 3.876460716128349304e-02 4.085925593972206116e-02 7.837750017642974854e-02 1.224208772182464600e-01 1.015445962548255920e-01 1.247994825243949890e-01 1.218577325344085693e-01 8.134932070970535278e-02 -4.670441150665283203e-02 -6.792628020048141479e-02 4.509434103965759277e-02 6.281848996877670288e-02 2.136463299393653870e-02 1.166524887084960938e-01 8.629516512155532837e-02 1.369834840297698975e-01 -9.297823160886764526e-02 -5.831922963261604309e-02 -8.080095052719116211e-02 6.909307092428207397e-02 9.663102030754089355e-02 9.934669733047485352e-02 6.834372133016586304e-02 8.102180063724517822e-02 -3.527748631313443184e-03 1.007947549223899841e-01 6.005239114165306091e-02 1.172901242971420288e-01 1.171471625566482544e-01 4.158510267734527588e-02 5.969227105379104614e-02 8.006186038255691528e-02 7.277931272983551025e-02 7.900454849004745483e-02 1.413692682981491089e-01 7.341720908880233765e-02 9.601014107465744019e-02 9.095240384340286255e-02 1.188853755593299866e-02 -3.951256722211837769e-02 5.561660230159759521e-02 2.073382399976253510e-02 -3.796045854687690735e-02 1.093291044235229492e-01 4.600987583398818970e-02 -1.603861921466886997e-03 -9.238515794277191162e-02 7.550535351037979126e-02 7.938191294670104980e-02 -8.451753109693527222e-02 1.821269840002059937e-01 1.165604665875434875e-01 7.373968511819839478e-02 6.813284754753112793e-02 -9.147629886865615845e-02 5.341165140271186829e-02 2.356662787497043610e-02 6.033370271325111389e-02 1.014174222946166992e-01 -1.360718607902526855e-01 1.795850135385990143e-02 1.189637407660484314e-01 9.893999993801116943e-02 7.236088067293167114e-02 2.299623377621173859e-02 9.291981905698776245e-02 7.703457027673721313e-02 1.312406361103057861e-01 7.050935178995132446e-02 6.396592408418655396e-02 2.049429267644882202e-01 9.818973392248153687e-02 1.130231022834777832e-01 8.494576066732406616e-02 -7.900387048721313477e-02 -1.345386803150177002e-01 1.565483212471008301e-01 1.026886776089668274e-01 1.114582270383834839e-01 4.699918255209922791e-02 7.455212622880935669e-02 9.064719080924987793e-02 -3.210711292922496796e-03 -1.619768142700195312e-01 -4.758603125810623169e-02 -5.200765281915664673e-02 2.105496376752853394e-01 8.838092535734176636e-02 1.216732040047645569e-01 1.317640244960784912e-01 3.568091243505477905e-02 1.207590475678443909e-01 1.075678616762161255e-01 1.031388994306325912e-02 1.027424335479736328e-01 -6.397482007741928101e-02 8.451614528894424438e-02 8.699956536293029785e-02 1.387009322643280029e-01 1.060813739895820618e-01 -5.199233442544937134e-02 -3.659418225288391113e-02 -1.783208176493644714e-02 -1.973655447363853455e-02 4.178832471370697021e-02 1.336024794727563858e-02 5.164107307791709900e-02 -6.038369610905647278e-02 5.785112455487251282e-02 8.195816725492477417e-02 1.136929914355278015e-01 8.009506762027740479e-02 -1.227251440286636353e-01 -3.018681146204471588e-02 -9.329342283308506012e-03 4.828413948416709900e-02 7.746363431215286255e-02 -7.034318894147872925e-02 8.612080663442611694e-02 7.801700383424758911e-02 4.424471780657768250e-02 1.447719633579254150e-01 8.058542013168334961e-02 1.157003939151763916e-01 7.533683627843856812e-02 8.535060286521911621e-02 -3.646204993128776550e-02 1.165159493684768677e-01 1.084803119301795959e-01 2.687315456569194794e-02 2.543026395142078400e-02 8.371812105178833008e-02 1.341379135847091675e-01 4.977617785334587097e-02 -1.584190279245376587e-01 -4.954880475997924805e-02 2.930635353550314903e-03 2.278915792703628540e-02 -6.322019547224044800e-02 1.084317564964294434e-01 5.475055053830146790e-02 1.096559539437294006e-01 5.127994343638420105e-02 3.217041864991188049e-02 -8.192645758390426636e-02 9.328588098287582397e-02 -2.675156295299530029e-02 6.341324746608734131e-02 1.255078613758087158e-01 5.750596895813941956e-02 -5.201018974184989929e-02 4.294921085238456726e-02 -3.575933631509542465e-03 -4.194908216595649719e-02 -1.716935336589813232e-01 9.492844343185424805e-02 -8.987389504909515381e-02 -5.659415945410728455e-02 -3.248694166541099548e-02 1.631752997636795044e-01 5.579848587512969971e-02 -1.123875603079795837e-01 8.130535483360290527e-02 1.056706234812736511e-01 -3.580372408032417297e-02 9.387130290269851685e-02 1.764599680900573730e-01 1.378730386495590210e-01 -1.054182499647140503e-01 6.232434418052434921e-03 -4.664428532123565674e-02 -2.413240075111389160e-02 6.489141285419464111e-02 7.786155492067337036e-02 1.013312041759490967e-01 1.151803880929946899e-01 5.127316713333129883e-02 8.358625322580337524e-02 4.478261619806289673e-02 7.562175393104553223e-02 8.186991512775421143e-02 6.273923814296722412e-02 -1.292570680379867554e-01 -5.343816429376602173e-02 1.413244456052780151e-01 -1.013128980994224548e-01 -8.607080578804016113e-02 -4.888664558529853821e-02 -9.944076836109161377e-02 6.027234718203544617e-02 9.412745386362075806e-02 8.007121831178665161e-02 7.011738419532775879e-02 1.435251832008361816e-01 6.719482690095901489e-02 1.415296643972396851e-01 -1.166874244809150696e-01 -4.788127541542053223e-02 7.885137945413589478e-02 6.641195714473724365e-02 -1.900547929108142853e-02 -5.039961263537406921e-02 -8.857747167348861694e-02 3.528657928109169006e-02 1.484298706054687500e-01 -9.372119605541229248e-02 1.469607949256896973e-01 3.511569276452064514e-02 9.819664806127548218e-02 1.355324685573577881e-01 1.827610582113265991e-01 1.046056449413299561e-01 -4.472073167562484741e-02 -4.424513131380081177e-02 1.529276669025421143e-01 7.325900346040725708e-02 1.295307129621505737e-01 1.121794059872627258e-01 1.702993549406528473e-02 1.089035943150520325e-01 -9.423208981752395630e-02 -1.432088762521743774e-01 -3.594563808292150497e-03 1.355095114558935165e-02 1.079621911048889160e-01 2.339556813240051270e-01 -1.136938631534576416e-01 1.115597262978553772e-01 5.724090710282325745e-02 7.622663676738739014e-02 7.606820017099380493e-02 6.736709922552108765e-02 1.999408453702926636e-01 -2.811685949563980103e-02 8.255402743816375732e-02 5.085632950067520142e-02 6.362160295248031616e-02 -7.155267056077718735e-03 6.230881810188293457e-02 7.115101814270019531e-02 -6.053911894559860229e-02 2.846303954720497131e-02 -3.580219298601150513e-02 -1.250718603841960430e-03 1.371989585459232330e-02 -1.341839879751205444e-01 1.489688307046890259e-01 5.715703219175338745e-02 8.986087888479232788e-02 1.089464426040649414e-01 3.716582804918289185e-02 4.771659150719642639e-02 1.646746546030044556e-01 1.183014735579490662e-01 1.280295252799987793e-01 -9.979040920734405518e-02 -1.963659375905990601e-02 -1.520792245864868164e-01 -8.908502757549285889e-02 -2.109579183161258698e-02 5.602343752980232239e-02 -5.663978680968284607e-02 2.714081853628158569e-02 7.251440733671188354e-02 1.800636202096939087e-02 5.222947522997856140e-02 1.140069067478179932e-01 -1.158731281757354736e-01 5.391066521406173706e-02 5.865312740206718445e-02 -1.282906346023082733e-02 -8.126617968082427979e-02 -4.108787328004837036e-02 -2.182517386972904205e-02 -7.572457194328308105e-02 -5.746391788125038147e-02 -8.276756107807159424e-02 5.800336599349975586e-02 -1.085630729794502258e-01 1.125291436910629272e-01 1.035738140344619751e-01 8.321919292211532593e-02 2.224862277507781982e-01 -6.681275367736816406e-02 7.796965539455413818e-02 6.251444667577743530e-02 4.354632645845413208e-02 6.029289960861206055e-02 1.191996112465858459e-01 1.269540041685104370e-01 1.156617552042007446e-01 1.058100312948226929e-01 -4.701953381299972534e-02 -1.278215497732162476e-01 1.280994713306427002e-01 1.035359799861907959e-01 1.581296622753143311e-01 1.797206252813339233e-01 9.944579005241394043e-02 -5.268052965402603149e-02 1.661393046379089355e-01 -3.669559210538864136e-02 1.281655430793762207e-01 8.095262944698333740e-02 1.065115481615066528e-01 -7.880973815917968750e-02 8.396187424659729004e-02 9.974078088998794556e-02 3.040319494903087616e-02 6.216128543019294739e-02 1.019069403409957886e-01 -1.043711006641387939e-01 5.176441371440887451e-02 -1.162075325846672058e-01 8.553147315979003906e-02 -5.528833717107772827e-03 4.973493516445159912e-02 -6.241283565759658813e-02 -7.162206619977951050e-02 -1.290833018720149994e-02 8.478754758834838867e-02 -1.085571721196174622e-01 -8.384878933429718018e-02 7.568564265966415405e-02 9.013794362545013428e-02 3.204961493611335754e-02 1.431973129510879517e-01 8.657129108905792236e-02 -5.377196520566940308e-02 8.631373196840286255e-02 -2.984134852886199951e-02 1.299372017383575439e-01 -1.066010817885398865e-01 -6.587811745703220367e-03 -6.925717741250991821e-02 1.428272724151611328e-01 -3.745962306857109070e-02 -8.916626870632171631e-02 7.975755631923675537e-02 9.839171916246414185e-02 3.303450345993041992e-02 -7.435949891805648804e-02 1.264412105083465576e-01 5.528831854462623596e-02 -1.679152250289916992e-02 -1.205406500957906246e-03 -6.076442450284957886e-02 2.680102735757827759e-02 5.328142270445823669e-02 1.219872087240219116e-01 -3.296201303601264954e-02 5.536018684506416321e-02 -7.300816942006349564e-04 -4.566796869039535522e-02 9.626725316047668457e-02 -1.434575915336608887e-01 -3.427093848586082458e-02 2.001263648271560669e-01 -4.170711711049079895e-02 1.141928136348724365e-01 5.846692994236946106e-02 1.241198647767305374e-02 -2.998293004930019379e-02 1.353541612625122070e-01 -7.862884551286697388e-02 -2.769206883385777473e-03 1.088358908891677856e-01 1.227449625730514526e-01 1.326247453689575195e-01 1.324018687009811401e-01 1.507183909416198730e-01 1.667226701974868774e-01 3.040320053696632385e-02 9.160553663969039917e-02 -3.040762059390544891e-02 5.608585476875305176e-02 1.176787316799163818e-01 -3.498354554176330566e-02 8.719582110643386841e-02 6.431353837251663208e-02 3.102893941104412079e-02 1.757100075483322144e-01 1.140763610601425171e-01 1.480817422270774841e-02 -7.512864470481872559e-02 1.092741042375564575e-01 8.912750333547592163e-02 4.457424860447645187e-03 3.170131938531994820e-03 4.934842139482498169e-02 1.718838214874267578e-01 -1.133497990667819977e-02 4.706316068768501282e-02 8.649890869855880737e-02 1.183846071362495422e-01 6.684564054012298584e-02 7.609345018863677979e-02 7.818597555160522461e-02 7.833709567785263062e-02 7.431698590517044067e-02 6.488514691591262817e-02 6.081413850188255310e-02 7.850682735443115234e-02 1.376958340406417847e-01 -1.191366091370582581e-01 -2.797885611653327942e-02 1.073541566729545593e-01 9.468182921409606934e-02 1.732547394931316376e-02 -3.506024554371833801e-02 -7.328514009714126587e-02 -1.289388388395309448e-01 5.518576130270957947e-02 1.164273694157600403e-01 -2.134933322668075562e-02 -2.173726074397563934e-02 -1.016886681318283081e-01 -9.797886759042739868e-02 -1.227194666862487793e-01 7.470616698265075684e-02 5.742555484175682068e-02 -3.318167850375175476e-02 2.644286118447780609e-02 4.954525083303451538e-02 7.883497327566146851e-02 1.206627860665321350e-02 1.488821208477020264e-01 1.000248864293098450e-01 1.050678268074989319e-01 7.577657699584960938e-02 6.626415252685546875e-02 1.553927510976791382e-01 9.050349146127700806e-02 -1.889082342386245728e-01 2.647158922627568245e-03 -4.627846181392669678e-02 -3.701883181929588318e-02 -3.732006996870040894e-02 8.164814114570617676e-02 9.141635894775390625e-02 8.643316477537155151e-02 6.648524850606918335e-02 4.516439884901046753e-02 6.943400204181671143e-02 5.728555098176002502e-02 1.589265465736389160e-01 1.649640500545501709e-01 1.195956096053123474e-01 1.640624105930328369e-01 -4.236615449190139771e-02 7.193145155906677246e-02 4.663731530308723450e-02 1.336544752120971680e-01 -3.702727705240249634e-02 -3.954228758811950684e-02 1.249930784106254578e-01 -1.032701879739761353e-01 -1.297289729118347168e-01 7.118370383977890015e-02 1.046871542930603027e-01 2.182407230138778687e-01 -1.064760703593492508e-02 5.272097513079643250e-02 2.250814288854598999e-01 -1.273031681776046753e-01 -3.759587882086634636e-03 2.083526849746704102e-01 1.491472572088241577e-01 1.168516725301742554e-01 -8.839253336191177368e-02 1.226562485098838806e-01 -7.095011323690414429e-02 9.635303169488906860e-02 5.374914780259132385e-02 1.462595313787460327e-01 5.752092227339744568e-02 4.906709492206573486e-02 7.836928963661193848e-02 -9.133793413639068604e-02 6.381281465291976929e-02 -1.200236901640892029e-01 1.596337258815765381e-01 6.698212772607803345e-02 -1.053344905376434326e-01 1.260470449924468994e-01 1.939011663198471069e-01 -2.080757170915603638e-01 -1.200709193944931030e-01 -1.126433759927749634e-01 -5.481182038784027100e-02 -4.586851969361305237e-02 7.466870546340942383e-02 1.760409772396087646e-01 1.312163919210433960e-01 -6.535540521144866943e-02 -2.542395843192934990e-03 -1.922193914651870728e-01 4.062669351696968079e-02 -6.329746544361114502e-02 -6.452327966690063477e-02 4.759959131479263306e-02 5.133713036775588989e-02 1.450036019086837769e-01 -4.834124818444252014e-02 -6.929451227188110352e-02 8.671699464321136475e-02 9.183868020772933960e-02 -9.152232855558395386e-02 8.417274057865142822e-02 -1.112747341394424438e-01 -7.165339589118957520e-02 2.999283671379089355e-01 6.343797594308853149e-02 5.770962312817573547e-02 1.148373484611511230e-01 -1.523948460817337036e-01 -3.986499458551406860e-02 5.844165012240409851e-02 1.136271283030509949e-01 -1.676410436630249023e-01 -2.989781275391578674e-02 -7.498534023761749268e-02 5.492195487022399902e-02 9.895195811986923218e-02 1.025402620434761047e-01 1.146709620952606201e-01 9.040521085262298584e-02 6.078002974390983582e-02 1.223226487636566162e-01 6.567215919494628906e-02 -9.395118802785873413e-03 1.417195424437522888e-02 5.348591506481170654e-02 3.752031829208135605e-03 6.908301264047622681e-02 6.070347875356674194e-02 -3.598020598292350769e-02 7.817066460847854614e-02 1.035305559635162354e-01 -7.533890008926391602e-02 8.592978119850158691e-02 7.397724688053131104e-02 -9.014593064785003662e-02 7.645903527736663818e-02 4.782217368483543396e-02 8.998855203390121460e-02 7.412740588188171387e-02 4.318181425333023071e-02 8.086802065372467041e-02 -1.155683025717735291e-02 4.735368862748146057e-02 7.208240777254104614e-02 6.349781155586242676e-02 1.710307449102401733e-01 7.585596293210983276e-02 -5.527386814355850220e-02 -1.285538971424102783e-01 1.933869272470474243e-01 7.210901379585266113e-02 3.986923769116401672e-02 -1.161307469010353088e-01 7.983282953500747681e-02 -8.327683806419372559e-02 8.475257456302642822e-02 6.900047510862350464e-02 3.376102447509765625e-02 6.823334842920303345e-02 -3.463359922170639038e-02 -3.462621197104454041e-02 8.971649408340454102e-02 6.777024269104003906e-02 5.114926025271415710e-02 2.184588313102722168e-01 -9.736473113298416138e-02 -1.606040596961975098e-01 6.611706316471099854e-02 -7.098760455846786499e-02 4.811934381723403931e-02 -1.349885296076536179e-02 9.250621497631072998e-02 -1.264715194702148438e-01 -1.166880056262016296e-01 9.129851311445236206e-02 5.019883438944816589e-02 1.215260773897171021e-01 9.888027608394622803e-02 7.894247770309448242e-02 -1.093997582793235779e-01 5.813246965408325195e-02 2.217438630759716034e-02 5.942311137914657593e-02 1.049875840544700623e-01 -9.149599820375442505e-02 6.756585836410522461e-02 8.422233909368515015e-02 -5.591092631220817566e-02 4.042714834213256836e-02 -1.125639155507087708e-01 2.574459277093410492e-02 -1.276495903730392456e-01 -6.183717027306556702e-02 -3.673282265663146973e-02 1.062866076827049255e-01 -1.863458305597305298e-01 3.531311452388763428e-02 -9.007854014635086060e-02 4.015468433499336243e-02 -1.256410330533981323e-01 -1.306766085326671600e-02 -1.028942875564098358e-02 -7.990337908267974854e-02 1.250447183847427368e-01 7.436961680650711060e-02 -8.462481945753097534e-02 -6.677261739969253540e-02 1.182662397623062134e-01 1.377304345369338989e-01 5.550539121031761169e-02 1.381925195455551147e-01 1.045038029551506042e-01 6.275738775730133057e-02 7.713042944669723511e-02 1.051582545042037964e-01 6.007046625018119812e-02 1.126465648412704468e-01 3.360182046890258789e-02 1.605600565671920776e-01 5.616452172398567200e-02 3.974535316228866577e-02 6.073480471968650818e-02 -2.565403655171394348e-02 5.064613744616508484e-02 1.191984862089157104e-01 -9.330882877111434937e-02 1.527351886034011841e-01 8.851845562458038330e-02 -9.243427217006683350e-02 1.354085206985473633e-01 6.445512920618057251e-02 7.437089830636978149e-02 6.092850863933563232e-02 7.458762079477310181e-02 2.194588258862495422e-02 2.745118923485279083e-03 7.849460095167160034e-02 4.146695882081985474e-02 8.244717121124267578e-02 6.645984202623367310e-02 6.229636818170547485e-02 7.090942561626434326e-02 -5.833313614130020142e-02 -1.051888167858123779e-01 5.967788025736808777e-02 7.215607911348342896e-02 9.950070083141326904e-02 -1.125542446970939636e-01 1.356078535318374634e-01 8.873245120048522949e-02 -2.615128457546234131e-02 7.366856187582015991e-02 -1.257323920726776123e-01 6.528658419847488403e-02 1.094962581992149353e-01 6.608866155147552490e-02 1.267271190881729126e-01 7.198782265186309814e-02 -6.421950459480285645e-02 1.163629889488220215e-01 -7.616344094276428223e-02 -1.285895407199859619e-01 -1.538622751832008362e-02 -3.251126734539866447e-03 5.926520004868507385e-02 -7.760725915431976318e-02 2.625671960413455963e-02 1.634926795959472656e-01 -2.527564764022827148e-02 -2.231519296765327454e-02 7.313655316829681396e-02 1.029381006956100464e-01 -1.131112799048423767e-01 -1.217897832393646240e-01 -1.069508939981460571e-01 -6.438083946704864502e-02 3.660337626934051514e-02 1.101295873522758484e-01 4.004852473735809326e-02 -8.777906000614166260e-02 8.398436009883880615e-02 1.016933321952819824e-01 -3.787479177117347717e-02 6.222483888268470764e-02 4.269702732563018799e-02 1.742449402809143066e-01 8.374924957752227783e-02 -4.821639508008956909e-02 -1.182667165994644165e-01 -3.946221619844436646e-02 7.405773550271987915e-02 1.042824760079383850e-01 1.273481547832489014e-01 9.117724746465682983e-02 1.126196905970573425e-01 4.556726291775703430e-02 -1.770419329404830933e-01 -4.833973944187164307e-02 -3.341238200664520264e-02 1.462216824293136597e-01 1.611901670694351196e-01 -5.191508680582046509e-02 1.212454736232757568e-01 5.776187032461166382e-02 8.838216960430145264e-02 1.195526272058486938e-01 -6.688547879457473755e-02 9.294885396957397461e-02 1.372221857309341431e-01 -2.001415565609931946e-02 2.691507153213024139e-02 -6.199816614389419556e-02 -1.231704503297805786e-01 6.130666285753250122e-02 9.765715152025222778e-02 7.263001054525375366e-02 2.049385458230972290e-01 6.942148506641387939e-02 1.004897579550743103e-01 3.077858686447143555e-02 -2.199267037212848663e-02 1.276858597993850708e-01 9.611176699399948120e-02 5.909215286374092102e-02 9.760683029890060425e-02 -2.654704265296459198e-02 6.743241846561431885e-02 -6.066030263900756836e-02 1.475989222526550293e-01 -8.556157350540161133e-02 1.908051818609237671e-01 -4.775259643793106079e-02 3.839888423681259155e-02 1.117334440350532532e-01 1.671076519414782524e-03 8.120279014110565186e-02 7.452708482742309570e-02 9.656263142824172974e-02 -1.321267709136009216e-02 -4.176333546638488770e-02 8.310074359178543091e-02 7.608221471309661865e-02 1.259513199329376221e-01 8.701250702142715454e-02 2.657610923051834106e-02 1.314419955015182495e-01 9.152720868587493896e-02 7.324001938104629517e-02 1.595317423343658447e-01 4.044417664408683777e-02 -1.177133321762084961e-01 3.032950125634670258e-02 -1.034142151474952698e-01 6.387370079755783081e-02 7.099898904561996460e-02 6.754409056156873703e-03 -4.182095453143119812e-02 -1.278660148382186890e-01 -5.937513336539268494e-02 8.272548764944076538e-02 2.670129537582397461e-01 7.592933624982833862e-02 5.912931635975837708e-02 5.476944521069526672e-02 -9.267816692590713501e-02 8.150608837604522705e-02 8.414603769779205322e-02 7.752742618322372437e-02 7.818883657455444336e-02 1.124704852700233459e-01 1.768733710050582886e-01 6.505901366472244263e-02 1.118495315313339233e-01 7.228861004114151001e-02 1.276248693466186523e-01 -1.363630145788192749e-01 8.710476011037826538e-02 9.414158761501312256e-02 1.184849292039871216e-01 3.723023459315299988e-02 8.534775674343109131e-02 -4.319472610950469971e-02 4.035658016800880432e-02 -1.078597158193588257e-01 1.455531362444162369e-02 1.172441989183425903e-01 8.325044810771942139e-02 1.392801254987716675e-01 9.613538533449172974e-02 1.070761904120445251e-01 -8.304788917303085327e-02 4.860996827483177185e-02 2.704959362745285034e-02 7.191614806652069092e-02 5.652628839015960693e-02 1.295336782932281494e-01 -2.117506861686706543e-01 8.466011285781860352e-02 -5.018474534153938293e-02 -7.755181193351745605e-02 -1.298629641532897949e-01 8.972375094890594482e-02 -9.037319570779800415e-02 1.300449818372726440e-01 1.068904921412467957e-01 -7.364881783723831177e-02 1.495066471397876740e-02 -2.882267720997333527e-02 9.942997992038726807e-02 -1.887178122997283936e-01 1.477600336074829102e-01 1.151128560304641724e-01 8.488059788942337036e-02 -1.485501825809478760e-01 5.062071233987808228e-02 -1.613295520655810833e-03 5.715653300285339355e-02 4.494746401906013489e-02 -1.415712237358093262e-01 -1.189221739768981934e-01 2.228318527340888977e-02 7.690225541591644287e-02 1.212318018078804016e-01 1.180532872676849365e-01 1.056810691952705383e-01 -1.067398786544799805e-01 -2.516662143170833588e-02 1.328664948232471943e-03 -9.832552820444107056e-02 1.699803471565246582e-01 -1.163338273763656616e-01 5.785655602812767029e-02 9.259076416492462158e-02 9.445776790380477905e-02 1.029284223914146423e-01 3.156171739101409912e-02 1.520865857601165771e-01 -4.214046895503997803e-02 6.310491263866424561e-02 1.118519306182861328e-01 -1.059872210025787354e-01 1.322748661041259766e-01 -4.037169367074966431e-02 2.892770059406757355e-02 7.528474181890487671e-02 5.136745050549507141e-02 9.813234955072402954e-02 8.381158113479614258e-02 7.011473178863525391e-02 1.040200144052505493e-01 6.611434370279312134e-02 -6.089643761515617371e-02 -2.281709909439086914e-01 1.117012873291969299e-01 1.222827136516571045e-01 1.550319939851760864e-01 1.147181689739227295e-01 1.001605316996574402e-01 -1.122770234942436218e-01 1.136317849159240723e-01 7.276169210672378540e-02 1.393429338932037354e-01 1.452533602714538574e-01 1.314700096845626831e-01 1.353880167007446289e-01 5.489142239093780518e-02 1.135929673910140991e-01 3.986318036913871765e-02 4.632648453116416931e-02 4.429517686367034912e-02 7.499455660581588745e-02 1.367160379886627197e-01 1.078535616397857666e-01 9.792058914899826050e-02 -1.369574368000030518e-01 1.222875490784645081e-01 8.533542603254318237e-02 -8.679369091987609863e-02 9.376771748065948486e-02 2.427995204925537109e-03 6.550832837820053101e-02 7.738491892814636230e-02 8.907033503055572510e-02 9.040147066116333008e-02 5.321986600756645203e-02 1.175672188401222229e-01 8.509439975023269653e-02 8.653907477855682373e-02 -9.841268509626388550e-02 1.215750500559806824e-01 1.079165413975715637e-01 1.021786034107208252e-01 -1.135854274034500122e-01 9.774459153413772583e-02 1.621185690164566040e-01 9.253755211830139160e-02 -1.022216957062482834e-02 1.470659077167510986e-01 9.103712439537048340e-02 -6.127777323126792908e-02 -6.078742444515228271e-02 4.300119727849960327e-02 -1.268669664859771729e-01 -7.373440265655517578e-02 8.634674362838268280e-03 1.703549772500991821e-01 1.496067941188812256e-01 -2.950645051896572113e-02 -4.566040635108947754e-02 -7.675409317016601562e-02 8.867622911930084229e-02 -2.436920814216136932e-02 -7.266129553318023682e-02 -5.942285805940628052e-02 -1.360218971967697144e-02 1.315049976110458374e-01 -3.111651912331581116e-02 1.172406226396560669e-01 -8.627955801784992218e-03 7.724244147539138794e-02 4.214143007993698120e-02 5.777961388230323792e-02 -1.015363931655883789e-01 -2.403626916930079460e-03 -7.484119385480880737e-02 9.057290107011795044e-02 4.429318010807037354e-02 1.508629298768937588e-03 5.174763873219490051e-02 5.004225298762321472e-02 -1.424837112426757812e-01 7.158879190683364868e-02 2.071108967065811157e-01 5.823326855897903442e-02 7.978908717632293701e-02 1.253781467676162720e-01 1.539066135883331299e-01 -1.714509278535842896e-01 1.303809732198715210e-01 2.549346722662448883e-02 -1.356532052159309387e-02 1.269232183694839478e-01 1.172765940427780151e-01 1.333556324243545532e-01 3.489952906966209412e-02 1.345586497336626053e-02 -6.025724858045578003e-02 -9.042380750179290771e-02 3.416144847869873047e-02 1.091985478997230530e-01 -6.251341849565505981e-02 9.224963188171386719e-02 9.856268763542175293e-02 1.150439530611038208e-01 3.636132180690765381e-02 1.265229433774948120e-01 1.070582270622253418e-01 1.120739281177520752e-01 -1.406233310699462891e-01 -6.719322502613067627e-02 -2.673854492604732513e-02 -1.358804255723953247e-01 -2.562880143523216248e-02 7.273587584495544434e-02 6.650353223085403442e-02 2.094951458275318146e-02 1.892143934965133667e-01 5.864064022898674011e-02 8.662457764148712158e-02 -1.037551760673522949e-01 1.090842559933662415e-01 -5.911155417561531067e-02 2.007114291191101074e-01 6.160565465688705444e-02 -1.230063736438751221e-01 7.228589057922363281e-02 -5.214407294988632202e-02 7.300986349582672119e-02 2.173981070518493652e-02 1.144164428114891052e-01 5.083645507693290710e-02 -7.958443462848663330e-02 1.093895733356475830e-01 -1.433826237916946411e-01 1.602193713188171387e-01 -8.148259669542312622e-02 1.514343917369842529e-01 2.521481215953826904e-01 1.061454638838768005e-01 -8.231429755687713623e-02 -3.518352657556533813e-02 -4.876352474093437195e-02 -5.949411541223526001e-03 -4.677699878811836243e-02 5.931253731250762939e-02 1.345803588628768921e-01 6.560438126325607300e-02 1.057417094707489014e-01 4.453681781888008118e-02 1.750262081623077393e-01 7.648330181837081909e-02 -1.382390111684799194e-01 5.586495995521545410e-02 1.062486469745635986e-01 7.287602126598358154e-02 -6.330069154500961304e-02 9.836474061012268066e-02 1.150517910718917847e-01 -7.015016674995422363e-02 8.955089002847671509e-02 1.221532300114631653e-01 -7.753824442625045776e-02 -8.885592222213745117e-02 2.284722961485385895e-02 5.163374915719032288e-02 -1.429653912782669067e-01 4.409210011363029480e-02 8.505877852439880371e-02 -6.286153942346572876e-02 2.276181057095527649e-02 -4.852342233061790466e-02 -9.315298497676849365e-02 3.822162747383117676e-02 3.550128266215324402e-02 1.231059581041336060e-01 -1.372093707323074341e-01 -5.143344402313232422e-03 -1.524224281311035156e-01 -3.091830387711524963e-02 -5.893930792808532715e-02 -1.374689936637878418e-01 -1.027698069810867310e-01 -1.059313341975212097e-01 -3.327526524662971497e-02 -9.054411947727203369e-02 6.614589691162109375e-02 8.532607555389404297e-02 -6.932121515274047852e-02 6.587246060371398926e-02 4.661903902888298035e-02 3.996585309505462646e-02 1.469247341156005859e-01 1.271640360355377197e-01 7.352828979492187500e-02 1.464093476533889771e-01 -6.520090997219085693e-02 4.100493341684341431e-02 -5.842576920986175537e-02 7.432743906974792480e-02 -2.169124223291873932e-02 -7.568884640932083130e-02 1.027074754238128662e-01 3.873135149478912354e-02 9.943703562021255493e-02 6.827071309089660645e-02 5.218671634793281555e-02 1.238481700420379639e-01 -2.567693218588829041e-02 3.316781297326087952e-02 5.550830438733100891e-02 1.185073330998420715e-01 -6.220374256372451782e-02 1.147900819778442383e-01 6.737523525953292847e-02 9.693267941474914551e-02 1.082672327756881714e-01 5.508197844028472900e-02 -1.075307056307792664e-01 6.990806013345718384e-02 -1.074080616235733032e-01 1.070466637611389160e-01 1.472581773996353149e-01 7.345855236053466797e-02 -9.693284332752227783e-02 8.884973078966140747e-02 1.172141432762145996e-01 -2.487513981759548187e-02 4.450261965394020081e-02 8.968663215637207031e-02 -3.774300962686538696e-02 9.060528129339218140e-02 9.319361299276351929e-02 7.361371070146560669e-02 5.890360102057456970e-02 1.036031767725944519e-01 7.090791314840316772e-02 7.646119594573974609e-02 7.990858703851699829e-02 7.435236126184463501e-02 -9.296511858701705933e-02 5.564982071518898010e-02 8.975254744291305542e-02 4.675758257508277893e-02 9.689100086688995361e-02 8.766871690750122070e-02 4.002374783158302307e-02 8.876216411590576172e-02 8.564890176057815552e-02 -5.674131959676742554e-02 -6.780333071947097778e-02 -1.602448076009750366e-01 -1.091868728399276733e-01 1.165857017040252686e-01 9.530593454837799072e-02 2.545402012765407562e-02 8.187886327505111694e-02 -6.207116320729255676e-02 -8.171582967042922974e-02 -1.708170771598815918e-02 7.788887619972229004e-02 -9.523749351501464844e-02 2.688444219529628754e-02 -1.400984916836023331e-02 5.683426931500434875e-02 -4.516750574111938477e-02 -5.583762750029563904e-02 -1.346549689769744873e-01 7.909824699163436890e-02 -6.855878978967666626e-02 6.042932346463203430e-02 -5.902226641774177551e-02 -8.943405747413635254e-02 -1.284617483615875244e-01 6.776676326990127563e-02 3.162192925810813904e-02 -5.949980765581130981e-02 -1.056886911392211914e-01 -9.022361040115356445e-02 7.703030109405517578e-02 -4.437079653143882751e-03 -1.357246562838554382e-02 4.341022670269012451e-02 1.307246983051300049e-01 -1.501480489969253540e-01 9.049611538648605347e-02 7.730391621589660645e-02 -9.541884809732437134e-02 5.359495058655738831e-02 -4.549202695488929749e-02 6.616175174713134766e-02 -2.302071952726691961e-04 -2.211334556341171265e-02 -3.386609256267547607e-02 2.300726622343063354e-02 -1.791509799659252167e-02 -4.552281275391578674e-02 2.673604339361190796e-02 9.402024745941162109e-02 -1.037782430648803711e-01 1.054425016045570374e-01 5.481700971722602844e-02 1.216195225715637207e-01 1.743827201426029205e-02 -6.040936708450317383e-02 -8.440196514129638672e-03 1.410121172666549683e-01 -3.172824159264564514e-02 7.941432297229766846e-02 -8.895923942327499390e-02 8.580674231052398682e-02 6.516411900520324707e-02 5.060882121324539185e-02 -1.227416563779115677e-02 8.092075586318969727e-02 1.737077981233596802e-01 7.552360743284225464e-02 5.220467597246170044e-02 -7.148636132478713989e-02 8.835797011852264404e-02 7.793603092432022095e-02 1.223211288452148438e-01 6.808913499116897583e-02 1.068350896239280701e-01 -1.333989799022674561e-01 1.863161623477935791e-01 9.083930402994155884e-02 9.408011101186275482e-03 8.897872269153594971e-02 -1.062889583408832550e-02 -2.942435815930366516e-02 5.860653892159461975e-02 1.478264927864074707e-01 9.636197984218597412e-02 4.316112771630287170e-02 -6.078743189573287964e-02 -1.284714788198471069e-01 -4.810293018817901611e-02 4.096211399883031845e-03 8.825633674860000610e-02 1.706423014402389526e-01 7.227028161287307739e-02 1.659414619207382202e-01 1.667911708354949951e-01 1.452542543411254883e-01 1.648868769407272339e-01 6.766131520271301270e-02 4.569548368453979492e-02 5.316222831606864929e-02 1.183831170201301575e-01 1.000461280345916748e-01 3.241349011659622192e-02 2.379660028964281082e-03 1.086697541177272797e-02 5.651648342609405518e-02 -8.019495755434036255e-02 1.041462942957878113e-01 1.169911473989486694e-01 -6.152106449007987976e-02 -3.458155319094657898e-02 -1.152040511369705200e-01 1.621219813823699951e-01 2.779080532491207123e-02 -1.105116158723831177e-01 6.263548880815505981e-02 1.159861236810684204e-01 2.267692238092422485e-02 2.841719798743724823e-02 -6.058068573474884033e-02 5.428330972790718079e-02 -1.063574180006980896e-01 1.104921251535415649e-01 4.947042092680931091e-02 -8.503294736146926880e-02 -4.317186772823333740e-02 9.976164996623992920e-02 -1.217304822057485580e-02 -1.634841226041316986e-02 7.240897417068481445e-02 1.753246486186981201e-01 6.677181273698806763e-02 9.280009567737579346e-02 5.016137659549713135e-02 6.964951753616333008e-02 -4.173090681433677673e-02 -3.022101148962974548e-02 2.966474741697311401e-03 5.583969503641128540e-02 9.212478995323181152e-02 1.821794062852859497e-01 1.078529581427574158e-01 1.033862084150314331e-01 5.361853982321918011e-04 8.805727213621139526e-02 5.739975720643997192e-02 -3.142307698726654053e-02 1.113554760813713074e-01 1.306463479995727539e-01 -5.297762528061866760e-02 -2.347209677100181580e-02 1.099044829607009888e-01 7.140301167964935303e-02 8.204866945743560791e-02 7.993169873952865601e-02 9.161629527807235718e-02 1.148245781660079956e-01 8.273553103208541870e-02 -8.330976217985153198e-02 9.856879711151123047e-02 6.930863857269287109e-02 -4.833541065454483032e-02 5.919079855084419250e-02 -1.885576872155070305e-03 -2.820520661771297455e-02 5.341566726565361023e-02 9.718856960535049438e-02 -9.286411851644515991e-02 8.704575151205062866e-02 -4.083124920725822449e-02 -1.622105985879898071e-01 -1.044994741678237915e-01 -1.336141861975193024e-02 1.281400620937347412e-01 4.606708139181137085e-02 1.338297575712203979e-01 8.121821284294128418e-02 8.850536495447158813e-02 3.453308343887329102e-02 8.584722876548767090e-02 5.450077354907989502e-02 4.854661226272583008e-02 -6.406360864639282227e-02 -1.396805979311466217e-02 7.010710239410400391e-02 6.269247084856033325e-02 -3.003477305173873901e-02 -1.391656249761581421e-01 -8.803334087133407593e-02 9.156426787376403809e-02 -6.991187483072280884e-02 8.432713896036148071e-02 5.304810404777526855e-02 -3.489183634519577026e-02 8.929725736379623413e-02 8.103366196155548096e-02 1.174851357936859131e-01 4.959298297762870789e-02 -4.499004781246185303e-02 -4.480996355414390564e-02 5.207185074687004089e-02 4.586347937583923340e-02 -2.036386914551258087e-02 1.622926592826843262e-01 -8.620537072420120239e-02 3.492174670100212097e-02 -8.104915916919708252e-02 6.470447778701782227e-02 1.746717654168605804e-02 6.307865679264068604e-02 -2.861280925571918488e-02 -5.991287529468536377e-02 -1.058814078569412231e-01 -7.899680733680725098e-02 1.954331994056701660e-01 8.577519655227661133e-02 -6.196105107665061951e-02 -1.609907113015651703e-02 5.388069152832031250e-02 6.068279966711997986e-02 -7.199369370937347412e-02 -6.912116706371307373e-02 4.333261772990226746e-02 8.060566335916519165e-02 8.314291387796401978e-02 6.144248321652412415e-02 2.626244723796844482e-01 1.403598934412002563e-01 9.151096642017364502e-02 8.020215481519699097e-02 1.252995282411575317e-01 1.556957513093948364e-01 5.943526979535818100e-03 -1.394149661064147949e-01 5.154693126678466797e-02 1.744551509618759155e-01
-9.630822390317916870e-02 9.927194565534591675e-03 1.064462307840585709e-02 6.099784001708030701e-02 1.132891774177551270e-01 9.675431251525878906e-02 -9.558641910552978516e-02 1.856034249067306519e-01 1.064581125974655151e-01 -5.812247842550277710e-02 3.662991151213645935e-02 -6.402380764484405518e-02 1.326983869075775146e-01 -8.033790439367294312e-02 -6.222689524292945862e-02 5.447612702846527100e-02 1.262895613908767700e-01 7.543993741273880005e-02 9.663920104503631592e-02 1.710312254726886749e-02 -1.564919948577880859e-01 -1.846307963132858276e-01 -8.510509133338928223e-02 7.394731044769287109e-02 6.284806877374649048e-02 1.298504024744033813e-01 1.295491307973861694e-01 1.904762387275695801e-01 1.435046494007110596e-01 8.312431722879409790e-02 2.951062098145484924e-02 -3.419323265552520752e-02 7.806114107370376587e-02 1.585119636729359627e-03 -2.988841012120246887e-02 6.039806827902793884e-02 6.338261812925338745e-02 9.622214734554290771e-02 -7.721592485904693604e-02 6.312876194715499878e-02 5.434117838740348816e-02 9.912323206663131714e-02 5.926430970430374146e-02 -4.436845332384109497e-02 1.120112016797065735e-01 6.725365668535232544e-02 -6.807372719049453735e-02 6.978523731231689453e-02 3.310799365863204002e-03 8.459854871034622192e-02 9.542004764080047607e-02 1.221388727426528931e-01 8.512670546770095825e-02 9.746460616588592529e-02 -1.855912618339061737e-02 -1.042173057794570923e-01 1.096995472908020020e-01 5.801413208246231079e-02 -5.560215562582015991e-02 -6.449411809444427490e-02 6.222091615200042725e-03 9.320317953824996948e-02 6.874646991491317749e-02 6.055144593119621277e-02 -3.410929441452026367e-02 5.233359709382057190e-02 -2.182515710592269897e-02 -4.942799732089042664e-02 -7.272203266620635986e-02 7.868078351020812988e-02 6.794525682926177979e-02 8.219903707504272461e-02 1.045196354389190674e-01 1.103260219097137451e-01 9.420012682676315308e-02 1.016022786498069763e-01 -1.069701388478279114e-01 4.083617031574249268e-02 2.656632848083972931e-02 3.383257240056991577e-02 7.559430599212646484e-02 -1.490673273801803589e-01 -5.905722081661224365e-02 1.330538243055343628e-01 4.126623272895812988e-02 9.833518415689468384e-02 3.479361534118652344e-02 -7.108575105667114258e-02 -1.398913413286209106e-01 9.360618144273757935e-02 -6.028022989630699158e-02 5.684177950024604797e-02 1.903019845485687256e-01 1.073925197124481201e-01 -9.863479435443878174e-02 8.973781764507293701e-02 -8.789481967687606812e-02 -1.143833324313163757e-01 5.899376794695854187e-02 6.501695513725280762e-02 1.458592563867568970e-01 -1.059263199567794800e-01 -9.125607460737228394e-02 5.747495219111442566e-02 -5.081202462315559387e-02 -1.884137541055679321e-01 -8.367964625358581543e-02 -2.734705060720443726e-02 1.686310619115829468e-01 3.540549427270889282e-02 8.300146460533142090e-02 9.429752826690673828e-02 1.961806323379278183e-03 7.725239545106887817e-02 -1.085007190704345703e-01 4.650101065635681152e-02 -1.168252825736999512e-01 -7.862051576375961304e-02 2.077978849411010742e-02 6.336985528469085693e-02 -1.810258328914642334e-01 9.670826792716979980e-02 -7.936396449804306030e-02 -8.580586872994899750e-03 -1.051421836018562317e-02 -8.922825008630752563e-02 7.124935090541839600e-02 3.361622616648674011e-02 -8.937773853540420532e-02 -9.103141725063323975e-02 -5.885165557265281677e-02 -1.694319844245910645e-01 1.081293672323226929e-01 -3.987789526581764221e-02 -1.140476167201995850e-01 -3.763217478990554810e-02 -4.213912412524223328e-03 -4.281258210539817810e-02 -8.464173227548599243e-02 -6.274648010730743408e-02 -6.630071997642517090e-02 -4.905648529529571533e-02 -2.022087760269641876e-02 1.234046444296836853e-01 -5.986139550805091858e-02 1.069590300321578979e-01 5.952970683574676514e-02 5.274655297398567200e-02 -6.486653536558151245e-02 -8.058484643697738647e-02 -1.644014567136764526e-01 1.194073781371116638e-01 2.011399529874324799e-02 -4.751206934452056885e-02 1.146739870309829712e-01 4.731513187289237976e-02 -1.530231535434722900e-01 -7.133903354406356812e-02 -4.203260689973831177e-02 3.003686293959617615e-02 -4.106185585260391235e-02 7.746600359678268433e-02 7.676871865987777710e-02 1.057561784982681274e-01 -1.885013580322265625e-01 9.488022327423095703e-02 -5.837200582027435303e-02 -8.254437148571014404e-02 -6.859552860260009766e-02 -1.290085315704345703e-01 1.024373620748519897e-01 4.514882713556289673e-02 2.592035010457038879e-02 -2.836926653981208801e-02 -7.130914181470870972e-02 -5.050618201494216919e-02 -1.402421295642852783e-01 1.298809796571731567e-01 -6.759215891361236572e-02 -1.648684963583946228e-02 8.315609395503997803e-02 1.010670885443687439e-01 -1.182876527309417725e-01 -1.201669424772262573e-01 5.652875453233718872e-02 8.226191997528076172e-02 -2.058279234915971756e-03 -1.907041221857070923e-01 1.093248650431632996e-01 -1.959275305271148682e-01 -8.458133786916732788e-02 -6.738713383674621582e-02 -3.305003046989440918e-02 -8.544796146452426910e-03 7.793331146240234375e-02 -5.195163562893867493e-02 7.637439668178558350e-02 1.227544248104095459e-01 -8.777625858783721924e-02 -6.876382231712341309e-02 5.541716143488883972e-02 6.345117092132568359e-02 9.652153402566909790e-02 -8.060894161462783813e-02 -1.319616436958312988e-01 -6.702519208192825317e-02 1.773562878370285034e-01 -1.047151014208793640e-01 -8.471366763114929199e-02 -4.393414035439491272e-02 -4.717816039919853210e-02 5.448255687952041626e-02 1.229552254080772400e-01 6.695487350225448608e-02 8.140363544225692749e-02 8.676673471927642822e-02 8.724932372570037842e-02 5.505129694938659668e-02 -1.213944852352142334e-01 -9.311836957931518555e-02 -1.227927953004837036e-01 3.349458426237106323e-02 -8.318141847848892212e-02 -6.938517093658447266e-02 -1.777546107769012451e-02 4.052658751606941223e-02 5.144681036472320557e-02 -5.476778000593185425e-02 1.211277674883604050e-02 6.471409648656845093e-02 8.623499423265457153e-02 1.056078374385833740e-01 1.351760923862457275e-01 8.199632912874221802e-02 -7.016740739345550537e-02 -2.488418854773044586e-02 1.074038892984390259e-01 7.966940850019454956e-02 7.969552278518676758e-02 8.544012904167175293e-02 -5.879990290850400925e-03 1.436237245798110962e-01 -1.226898804306983948e-01 -1.505228877067565918e-01 -3.257865086197853088e-02 -1.667563617229461670e-02 5.969224870204925537e-02 -1.243992298841476440e-01 -1.280208528041839600e-01 -1.715696975588798523e-02 -4.240586608648300171e-02 -6.654652208089828491e-02 3.000213764607906342e-02 -4.845753312110900879e-02 9.952808171510696411e-02 6.545171141624450684e-02 -3.848246484994888306e-02 6.597144156694412231e-02 2.339397929608821869e-02 -1.998758688569068909e-02 -2.198033407330513000e-02 -9.395490586757659912e-02 -3.385820612311363220e-02 -3.651619702577590942e-02 1.999895088374614716e-03 -1.402396615594625473e-02 -6.919402512721717358e-04 -1.353626400232315063e-01 1.145444661378860474e-01 2.853318676352500916e-02 9.707129001617431641e-02 1.201954036951065063e-01 -9.865875355899333954e-03 3.265392035245895386e-02 9.716606140136718750e-02 1.032193005084991455e-01 8.210847526788711548e-02 -5.916741862893104553e-02 -3.880186378955841064e-02 -1.435910314321517944e-01 -8.849568665027618408e-02 -3.083404526114463806e-02 8.444545418024063110e-02 -5.477692186832427979e-02 4.538077116012573242e-02 1.063725724816322327e-01 2.787089161574840546e-02 9.767876565456390381e-02 -1.569749414920806885e-01 1.370518207550048828e-01 2.263913303613662720e-02 5.596191063523292542e-02 -4.369809851050376892e-02 2.369022741913795471e-02 -7.269021868705749512e-02 -5.213233828544616699e-02 -9.913177043199539185e-02 -1.131609901785850525e-01 -9.902874380350112915e-02 4.095117002725601196e-02 -1.360373646020889282e-01 1.079386621713638306e-01 -8.449699729681015015e-02 -8.388654887676239014e-02 -1.195566356182098389e-01 -2.887831069529056549e-02 1.029655560851097107e-01 4.277044162154197693e-02 -8.257402479648590088e-02 -6.413767114281654358e-03 8.169504255056381226e-02 6.785292923450469971e-02 1.607876569032669067e-01 9.359737485647201538e-02 -5.281293764710426331e-02 -8.636403828859329224e-02 6.561683863401412964e-02 6.884988397359848022e-02 1.096339598298072815e-01 1.228574588894844055e-01 1.043920069932937622e-01 -6.149576604366302490e-02 1.249519661068916321e-01 -9.478259831666946411e-02 1.090663149952888489e-01 8.188752830028533936e-02 8.054222911596298218e-02 -7.977267354726791382e-02 6.157362833619117737e-02 5.062120035290718079e-02 7.249931246042251587e-02 4.687517508864402771e-02 7.133564352989196777e-02 -6.852190196514129639e-02 4.380552098155021667e-03 -1.437151730060577393e-01 -5.770983546972274780e-02 -5.330828577280044556e-02 5.257946997880935669e-02 -9.138794988393783569e-02 -7.296702265739440918e-02 -1.171973161399364471e-02 1.324940025806427002e-01 -5.425342172384262085e-02 -1.244489401578903198e-01 -6.564213335514068604e-02 5.644632503390312195e-02 1.447577867656946182e-02 9.066287428140640259e-02 -1.403253972530364990e-01 -5.590643733739852905e-02 1.115043386816978455e-01 -4.398237168788909912e-02 -4.547405242919921875e-02 -1.131810471415519714e-01 -2.079168707132339478e-02 -7.032494992017745972e-02 7.256457209587097168e-02 -4.052978381514549255e-02 -6.734511256217956543e-02 4.320456832647323608e-02 6.233445554971694946e-02 -1.565581746399402618e-02 6.720700114965438843e-02 9.935168176889419556e-02 2.853135392069816589e-02 -5.193451046943664551e-02 5.548512935638427734e-02 -3.138995543122291565e-02 4.584219679236412048e-02 6.404975056648254395e-02 8.721309900283813477e-02 -6.783840060234069824e-02 9.477416425943374634e-02 -3.032323345541954041e-02 -2.337598055601119995e-02 -4.285249114036560059e-02 -1.276596039533615112e-01 -6.315331906080245972e-02 1.229555830359458923e-01 -7.493288069963455200e-02 -1.996400952339172363e-01 -6.035535782575607300e-02 7.055184245109558105e-02 -5.146462842822074890e-02 1.215395256876945496e-01 -9.453435242176055908e-02 -1.031387150287628174e-01 1.172406300902366638e-01 1.470491141080856323e-01 1.238423809409141541e-01 -1.019733995199203491e-01 1.247347816824913025e-01 9.388428181409835815e-02 -3.283296898007392883e-02 3.124943189322948456e-02 -2.399746701121330261e-02 -1.231730058789253235e-01 1.401833891868591309e-01 -2.250363864004611969e-02 -6.383502483367919922e-02 5.542422831058502197e-02 7.908300310373306274e-02 8.911687135696411133e-02 7.497259229421615601e-02 -6.739556789398193359e-02 -1.128435060381889343e-01 7.821813970804214478e-02 5.828388035297393799e-02 -2.936110645532608032e-02 -4.642882570624351501e-02 3.315795911476016045e-03 8.805090188980102539e-02 -6.470696628093719482e-02 -1.448759585618972778e-01 1.213226988911628723e-01 -3.464410454034805298e-02 -9.896007366478443146e-03 -5.123903229832649231e-02 -6.854391843080520630e-02 5.787929147481918335e-02 -8.303297311067581177e-02 1.936060958541929722e-03 7.262595742940902710e-02 8.400190621614456177e-02 -1.580729931592941284e-01 -1.293920427560806274e-01 -7.052778452634811401e-02 8.234708756208419800e-02 6.784743070602416992e-02 2.549973875284194946e-02 -4.540868476033210754e-02 -9.034884721040725708e-02 -1.134277209639549255e-01 8.770070970058441162e-02 8.779924362897872925e-02 8.970895409584045410e-02 -3.651127964258193970e-02 -1.198410689830780029e-01 -1.013523042201995850e-01 -1.241228654980659485e-01 -8.179052174091339111e-02 -5.584202334284782410e-02 -5.590689554810523987e-02 2.397711202502250671e-02 -4.825705289840698242e-02 8.726783841848373413e-02 -1.210414692759513855e-01 1.033215224742889404e-01 9.598548710346221924e-02 1.397872418165206909e-01 1.244642511010169983e-01 7.984755933284759521e-02 -1.323343962430953979e-01 -8.189631998538970947e-02 -6.551316939294338226e-03 2.685222961008548737e-02 -3.607862815260887146e-02 5.860520526766777039e-02 -4.001514613628387451e-02 -1.584738641977310181e-01 -6.608029454946517944e-02 4.619698598980903625e-02 8.530949056148529053e-02 4.452593252062797546e-02 4.489707574248313904e-02 7.881572842597961426e-02 1.315917670726776123e-01 1.446682959794998169e-01 5.718634277582168579e-02 1.263808161020278931e-01 -6.407783180475234985e-02 -4.080480709671974182e-02 7.671827077865600586e-02 7.590719312429428101e-02 2.338851429522037506e-02 3.166885301470756531e-02 1.046993955969810486e-01 -1.108857467770576477e-01 -1.166412457823753357e-01 8.051167428493499756e-02 5.403345823287963867e-02 2.009240835905075073e-01 1.558823324739933014e-02 -6.742124445736408234e-03 1.184938102960586548e-01 -1.051988899707794189e-01 5.405506119132041931e-03 1.504283100366592407e-01 1.013325974345207214e-01 1.246044188737869263e-01 -1.059911102056503296e-01 8.785127103328704834e-02 -7.391853630542755127e-02 -9.496371448040008545e-02 -1.049100235104560852e-01 1.666312515735626221e-01 -9.700992703437805176e-02 -6.635168939828872681e-02 1.416647583246231079e-01 1.287563592195510864e-01 2.742668800055980682e-02 -1.005372852087020874e-01 5.521653220057487488e-02 1.009407415986061096e-01 -4.382915049791336060e-02 1.001709103584289551e-01 1.318683028221130371e-01 -2.345711365342140198e-02 -1.555027663707733154e-01 -1.415887624025344849e-01 -5.361634492874145508e-02 -4.587484151124954224e-02 -9.999863803386688232e-02 1.483399569988250732e-01 7.539664208889007568e-02 -4.478565976023674011e-02 -5.470063537359237671e-02 -1.623353958129882812e-01 -4.385024309158325195e-02 -8.971726894378662109e-02 -3.589240089058876038e-02 -1.415778845548629761e-01 -2.286409772932529449e-02 1.136546209454536438e-01 -7.446315884590148926e-02 -5.485714599490165710e-02 8.327623456716537476e-02 7.479260116815567017e-02 -1.230916455388069153e-01 1.097427159547805786e-01 -1.261388212442398071e-01 -9.002614021301269531e-02 2.303780466318130493e-01 7.935348898172378540e-02 -7.719635963439941406e-02 1.132640689611434937e-01 -1.389216035604476929e-01 -5.143619328737258911e-02 9.003821760416030884e-02 1.705494076013565063e-01 -1.532797217369079590e-01 -7.254298031330108643e-02 -1.163293644785881042e-01 -4.469678550958633423e-02 1.802904754877090454e-01 1.230500862002372742e-01 8.733551949262619019e-02 1.320959627628326416e-01 6.461372226476669312e-02 9.224937111139297485e-02 7.970341295003890991e-02 -2.822508476674556732e-02 -7.035418599843978882e-02 2.128984965384006500e-02 -2.177659608423709869e-02 8.856555074453353882e-02 9.519628435373306274e-02 -7.806450873613357544e-02 -9.168355911970138550e-02 1.124683469533920288e-01 -1.092887371778488159e-01 6.506771594285964966e-02 3.808876872062683105e-02 -9.466470032930374146e-02 7.890148460865020752e-02 4.245410859584808350e-02 2.982111275196075439e-02 -6.927538197487592697e-04 -6.388550251722335815e-02 3.061718307435512543e-02 -4.964048042893409729e-02 9.160233289003372192e-02 3.884446620941162109e-02 5.846011638641357422e-02 1.782004833221435547e-01 -4.448371380567550659e-02 -8.524070680141448975e-02 -1.635581851005554199e-01 1.344961374998092651e-01 8.189805597066879272e-02 3.119323216378688812e-02 -1.538253128528594971e-01 -1.052754297852516174e-01 -4.644707590341567993e-02 8.374495059251785278e-02 4.657296091318130493e-02 -1.108809094876050949e-02 1.148616299033164978e-01 -1.648613251745700836e-02 -6.238499656319618225e-02 -7.594358175992965698e-02 -5.646080523729324341e-02 8.275758475065231323e-02 2.209219783544540405e-01 3.243977949023246765e-02 -1.581317335367202759e-01 -7.085874676704406738e-02 -7.407107949256896973e-02 -4.939967393875122070e-02 -3.198767080903053284e-03 5.820832028985023499e-02 9.176624007523059845e-03 -8.571456372737884521e-02 8.693609386682510376e-02 -6.137964874505996704e-02 1.014806106686592102e-01 9.233906865119934082e-02 7.271426171064376831e-02 -1.019568443298339844e-01 6.413865089416503906e-02 4.855586960911750793e-02 -7.235264033079147339e-02 -1.333524435758590698e-01 -1.075317151844501495e-03 -5.588066205382347107e-02 2.806164789944887161e-03 -6.086622923612594604e-02 -7.292460184544324875e-03 -9.621292352676391602e-02 3.277437761425971985e-02 -8.613146841526031494e-02 -9.795493632555007935e-02 -3.380111977458000183e-02 1.046066209673881531e-01 -1.155574694275856018e-01 6.509944796562194824e-02 -1.090363860130310059e-01 4.257608205080032349e-02 -1.586367934942245483e-01 5.275429040193557739e-02 -1.342460862360894680e-03 3.450586274266242981e-02 5.069967731833457947e-02 3.305269405245780945e-02 -1.022337749600410461e-01 -4.709996283054351807e-02 -1.295969337224960327e-01 1.159394234418869019e-01 -2.581977099180221558e-02 1.001713499426841736e-01 7.202132046222686768e-02 -1.105492338538169861e-01 1.159766986966133118e-01 9.584765881299972534e-02 -2.489814534783363342e-02 -1.723347455263137817e-01 -7.458867132663726807e-02 1.465553790330886841e-01 3.585502505302429199e-02 6.432657688856124878e-02 1.033314093947410583e-01 -1.611178182065486908e-02 -9.007626771926879883e-02 1.094760969281196594e-01 -1.116261109709739685e-01 8.576589077711105347e-02 1.204662173986434937e-01 -7.712323218584060669e-02 1.077332198619842529e-01 4.711498622782528400e-04 9.801428020000457764e-02 5.477059632539749146e-02 -4.417275637388229370e-02 4.720555990934371948e-02 5.719389766454696655e-02 8.816514909267425537e-02 1.719397865235805511e-02 9.950032830238342285e-02 2.952447161078453064e-02 5.713637173175811768e-02 5.060815066099166870e-02 -4.849161207675933838e-02 -1.476719975471496582e-01 4.892036318778991699e-02 -2.752467244863510132e-02 8.062747120857238770e-02 -8.890932053327560425e-02 1.090061143040657043e-01 -1.264030635356903076e-01 7.994791492819786072e-03 7.068551331758499146e-02 -9.521231800317764282e-02 1.837456077337265015e-01 -5.324298888444900513e-02 6.554168462753295898e-02 8.633733540773391724e-02 -8.148442208766937256e-02 -4.922924190759658813e-02 8.024783432483673096e-02 1.992056369781494141e-01 -1.070659980177879333e-01 5.302228964865207672e-03 -1.047666557133197784e-02 6.991153210401535034e-02 -6.471937149763107300e-02 7.573553919792175293e-02 1.515471935272216797e-01 -3.428959846496582031e-02 -8.292394690215587616e-03 -8.557645231485366821e-02 1.107424870133399963e-01 -9.437240660190582275e-02 -8.124768733978271484e-02 5.233411490917205811e-02 -9.866762161254882812e-02 -1.546729654073715210e-01 -6.597446650266647339e-02 3.311878442764282227e-02 -7.699101418256759644e-02 4.272649437189102173e-02 6.975401937961578369e-02 -1.319742854684591293e-02 -9.248866140842437744e-02 -3.780275955796241760e-02 1.711437404155731201e-01 8.302970975637435913e-02 -1.062779920175671577e-03 -8.220536261796951294e-02 7.126651704311370850e-02 -1.107833534479141235e-01 -2.029512263834476471e-02 1.179803013801574707e-01 3.149018809199333191e-02 8.723279088735580444e-02 -4.012576863169670105e-02 -1.444876343011856079e-01 4.795141145586967468e-02 -2.988299541175365448e-02 8.235239982604980469e-02 1.156855002045631409e-01 -1.089237630367279053e-01 5.354367196559906006e-03 5.152738839387893677e-02 -1.288665235042572021e-01 -1.336665451526641846e-01 -9.239061176776885986e-02 -7.456324994564056396e-02 7.000964879989624023e-02 -4.325251281261444092e-02 -3.016677685081958771e-02 -1.471417117863893509e-02 -1.714980453252792358e-01 6.699605286121368408e-02 9.938531368970870972e-02 3.705600276589393616e-02 1.769770234823226929e-01 -1.088304072618484497e-02 6.474575400352478027e-02 6.864728033542633057e-02 9.070959687232971191e-02 1.020083054900169373e-01 9.159272164106369019e-02 6.835407018661499023e-02 8.685151487588882446e-02 2.893699146807193756e-02 7.988241314888000488e-02 -2.424525097012519836e-02 9.774537384510040283e-02 -3.075120970606803894e-02 1.199724301695823669e-01 -5.158412083983421326e-02 -1.628648489713668823e-02 -8.345006406307220459e-02 5.507793743163347244e-03 8.763016760349273682e-02 -5.517897754907608032e-02 -8.633586019277572632e-02 4.624043777585029602e-02 -6.587681919336318970e-02 6.251344829797744751e-02 -6.062652170658111572e-02 9.278541803359985352e-02 1.163843572139739990e-01 -2.801304310560226440e-02 1.322691142559051514e-01 1.136654168367385864e-01 1.120576709508895874e-01 1.016061156988143921e-01 -7.505121082067489624e-02 -1.061841100454330444e-01 1.878870278596878052e-02 -4.245886579155921936e-03 6.521438807249069214e-02 8.291869610548019409e-02 4.243040829896926880e-02 -1.082751806825399399e-02 -1.176045238971710205e-01 -4.131199419498443604e-02 1.718722581863403320e-01 2.368403226137161255e-01 -4.283725470304489136e-02 -6.361637264490127563e-02 -1.068808361887931824e-01 -6.020607054233551025e-02 -3.677175566554069519e-02 -4.220357909798622131e-02 8.942063152790069580e-02 9.059780836105346680e-02 1.326765716075897217e-01 1.582757830619812012e-01 5.017564818263053894e-02 -5.572281032800674438e-02 9.364335983991622925e-02 1.096722036600112915e-01 -2.450422756373882294e-02 9.791106730699539185e-02 -2.237991243600845337e-02 9.653373807668685913e-02 6.090115010738372803e-02 8.045036345720291138e-02 -1.009858921170234680e-01 2.432708069682121277e-02 -6.697171181440353394e-02 1.330159418284893036e-02 1.217893734574317932e-01 -1.232300773262977600e-01 1.081202924251556396e-01 9.770739078521728516e-02 8.634129911661148071e-02 -1.293357759714126587e-01 -7.001368328928947449e-03 6.968978047370910645e-02 1.039621904492378235e-01 8.619250357151031494e-02 1.032128185033798218e-01 -1.846630126237869263e-01 1.206127777695655823e-01 -5.518516525626182556e-02 -9.674022346735000610e-02 -1.418500840663909912e-01 6.278073042631149292e-02 3.827151283621788025e-02 1.058074533939361572e-01 1.165542900562286377e-01 -2.786877937614917755e-02 5.372691154479980469e-02 -1.008933112025260925e-01 5.317091196775436401e-02 -7.875336706638336182e-02 1.410324871540069580e-01 9.821396321058273315e-02 9.567518532276153564e-02 -1.145325005054473877e-01 2.459204755723476410e-02 6.965362280607223511e-02 3.319872915744781494e-02 1.108509767800569534e-02 2.308131009340286255e-02 -1.532028317451477051e-01 2.057944983243942261e-02 2.158605121076107025e-02 1.190071851015090942e-01 1.276283711194992065e-01 5.245352163910865784e-02 -2.823741361498832703e-02 4.238015040755271912e-02 8.274941891431808472e-02 -1.382253617048263550e-01 1.287715882062911987e-01 -1.366810798645019531e-01 4.981577396392822266e-02 6.561517715454101562e-02 9.521536529064178467e-02 -8.029671013355255127e-02 -6.302210688591003418e-02 -1.429711282253265381e-01 -5.964148417115211487e-02 6.347060203552246094e-02 6.536994874477386475e-02 -1.218233257532119751e-01 1.890734583139419556e-01 8.146657794713973999e-02 6.755069643259048462e-02 6.957261264324188232e-02 2.598337642848491669e-02 -4.631547257304191589e-02 8.548797667026519775e-02 1.072552502155303955e-01 1.094013825058937073e-01 -1.530457084299996495e-04 -3.020558506250381470e-02 -1.571968495845794678e-01 9.473100304603576660e-02 9.049586206674575806e-02 1.295860409736633301e-01 -1.269386261701583862e-01 -1.540330331772565842e-02 -1.118903011083602905e-01 7.620850205421447754e-02 1.075191721320152283e-01 4.131052643060684204e-03 1.218341290950775146e-01 1.383064985275268555e-01 1.179270744323730469e-01 -3.322409838438034058e-02 8.721227198839187622e-02 8.521850407123565674e-02 5.386603623628616333e-02 6.988862901926040649e-02 -1.106384247541427612e-01 1.297759860754013062e-01 1.240119412541389465e-01 -1.506366133689880371e-01 -1.057915836572647095e-01 7.605006545782089233e-02 -4.046805575489997864e-02 -4.985261335968971252e-02 1.195178776979446411e-01 -6.841737776994705200e-02 -7.970167696475982666e-02 -5.284742265939712524e-02 8.570219576358795166e-02 8.578328788280487061e-02 1.132410019636154175e-01 1.213029865175485611e-02 -3.714442253112792969e-02 1.000890582799911499e-01 -9.944611787796020508e-02 9.507359564304351807e-02 6.747285276651382446e-02 7.233684509992599487e-02 -1.006229594349861145e-01 6.023502349853515625e-02 8.566996455192565918e-02 6.868376582860946655e-02 -2.404029015451669693e-03 1.025240868330001831e-01 8.213263750076293945e-02 -6.145668774843215942e-02 -1.634684763848781586e-02 8.810410648584365845e-02 -1.191270798444747925e-01 -1.307663507759571075e-02 -2.977661974728107452e-02 1.195046752691268921e-01 1.179022639989852905e-01 -5.182780697941780090e-02 7.763320580124855042e-03 -9.564766660332679749e-03 8.445071429014205933e-02 -5.610151961445808411e-02 -1.124554276466369629e-01 -1.024023517966270447e-01 -5.606672912836074829e-02 -4.644629731774330139e-02 -2.705900929868221283e-02 1.102877184748649597e-01 5.300013814121484756e-03 -8.436286449432373047e-02 -1.118316203355789185e-01 4.515156894922256470e-02 -1.281816512346267700e-01 6.975417491048574448e-03 -1.286711543798446655e-01 -1.573687344789505005e-01 5.207705870270729065e-02 -1.648277640342712402e-01 1.582140028476715088e-01 2.233015559613704681e-02 -1.753269135951995850e-01 1.090412959456443787e-01 1.571910828351974487e-01 -7.473081350326538086e-02 7.419279217720031738e-02 1.071911379694938660e-01 1.304905414581298828e-01 -1.294741928577423096e-01 9.925231337547302246e-02 -3.567519783973693848e-02 -6.372603029012680054e-02 1.118519306182861328e-01 9.874790161848068237e-02 8.465167880058288574e-02 3.082051128149032593e-02 -3.888095170259475708e-02 -7.960525155067443848e-02 -8.927769213914871216e-02 -5.525268614292144775e-02 1.186781376600265503e-01 -4.716857895255088806e-02 3.957583755254745483e-02 -8.301626890897750854e-02 1.238974109292030334e-01 -2.440023981034755707e-02 -1.612660586833953857e-01 5.629326030611991882e-02 5.284595489501953125e-02 -1.056331172585487366e-01 -1.098735481500625610e-01 -3.586964681744575500e-02 -1.173810064792633057e-01 -4.746388643980026245e-02 6.269095093011856079e-02 4.353317618370056152e-02 3.393944725394248962e-02 1.063249036669731140e-01 -6.644305586814880371e-02 -1.699880361557006836e-01 -1.081302911043167114e-01 -1.626842468976974487e-01 -8.524104952812194824e-02 1.869279146194458008e-01 4.642096534371376038e-02 -1.201949194073677063e-01 5.619764700531959534e-02 -8.775895088911056519e-02 1.063663288950920105e-01 2.192641235888004303e-02 -8.385165035724639893e-02 -1.132228132337331772e-02 -5.753689259290695190e-02 2.181955613195896149e-02 -1.031124368309974670e-01 1.140699386596679688e-01 -7.900255173444747925e-02 1.271728277206420898e-01 1.658671796321868896e-01 1.142142266035079956e-01 -5.358301103115081787e-02 -5.084814131259918213e-02 -6.658681482076644897e-02 1.145967748016119003e-03 -2.515794895589351654e-02 7.628335058689117432e-02 6.215921416878700256e-02 6.860100477933883667e-02 1.050970256328582764e-01 9.620566666126251221e-02 -2.008618973195552826e-02 -7.460525631904602051e-02 3.432871017139405012e-04 8.433201164007186890e-02 9.415145963430404663e-02 -1.234370023012161255e-01 -7.713995873928070068e-02 7.655286043882369995e-02 8.415795117616653442e-02 -4.057946428656578064e-02 8.911895751953125000e-02 1.984581351280212402e-02 -1.798044145107269287e-02 -1.291585862636566162e-01 6.034857779741287231e-02 -6.441064178943634033e-02 -1.247658655047416687e-01 4.103739187121391296e-02 3.153167665004730225e-03 -5.404682084918022156e-02 1.795666478574275970e-02 -3.872706368565559387e-02 -1.306395828723907471e-01 2.894787862896919250e-02 9.187436103820800781e-02 5.678019300103187561e-02 -1.332953721284866333e-01 6.918757408857345581e-02 -1.381789296865463257e-01 6.824025884270668030e-03 -1.102229505777359009e-01 -1.172993257641792297e-01 -1.168815940618515015e-01 -6.814594566822052002e-02 -4.148291423916816711e-02 -1.624916940927505493e-01 6.629920005798339844e-02 6.441941112279891968e-02 -8.699043095111846924e-02 8.418727666139602661e-02 -9.442196786403656006e-02 1.277436465024948120e-01 1.093770340085029602e-01 1.025667637586593628e-01 -6.795237213373184204e-02 2.029125541448593140e-01 -1.109696645289659500e-02 7.664427161216735840e-02 -4.897998273372650146e-02 -1.167003647424280643e-03 7.880943268537521362e-02 -6.656136363744735718e-02 -1.178698614239692688e-01 -7.625181227922439575e-02 7.493945211172103882e-02 -2.515569329261779785e-03 -2.110920660197734833e-02 7.447050511837005615e-02 -5.163669586181640625e-02 -2.033925615251064301e-02 5.366113036870956421e-02 6.764755398035049438e-02 -2.893550321459770203e-03 8.494674414396286011e-02 -1.226793378591537476e-01 6.300550699234008789e-02 7.485977560281753540e-02 7.233345508575439453e-02 -1.378955245018005371e-01 5.534939095377922058e-02 1.075405105948448181e-01 1.272368133068084717e-01 9.947523474693298340e-02 2.768012322485446930e-02 -1.364811062812805176e-01 9.643899649381637573e-02 5.094286426901817322e-02 1.747683621942996979e-02 -1.068291626870632172e-02 4.448645189404487610e-02 -4.621342569589614868e-02 7.364937663078308105e-02 2.062535434961318970e-01 -8.611720055341720581e-02 1.596331782639026642e-02 6.568413227796554565e-02 -4.071360453963279724e-03 7.439652830362319946e-02 4.245077073574066162e-02 6.911323219537734985e-02 -1.127436459064483643e-01 -1.802058964967727661e-01 5.585325136780738831e-02 9.056832641363143921e-03 5.422753840684890747e-02 5.485341697931289673e-02 3.876900300383567810e-02 5.634266883134841919e-02 7.231719791889190674e-02 -9.935516864061355591e-02 -7.924491167068481445e-02 -1.571411490440368652e-01 -3.839049488306045532e-02 8.090184628963470459e-02 -4.092656075954437256e-03 9.091019630432128906e-02 1.106982752680778503e-01 -7.076895236968994141e-02 -9.777261316776275635e-02 -4.241508617997169495e-02 -1.055517345666885376e-01 -9.516452997922897339e-02 9.883903712034225464e-02 -1.411446137353777885e-04 -7.390815881080925465e-04 -3.862812370061874390e-02 8.581878617405891418e-03 -1.014137640595436096e-01 6.317145377397537231e-02 1.034974083304405212e-01 1.445246860384941101e-02 -2.488580532371997833e-02 -7.290514558553695679e-02 -1.401668041944503784e-01 3.910869359970092773e-02 -5.490141734480857849e-02 -3.120991401374340057e-02 -1.110196039080619812e-01 -1.263382285833358765e-01 4.526676982641220093e-02 6.128527969121932983e-02 -1.101250573992729187e-02 -6.808868050575256348e-02 9.465811401605606079e-02 -9.711824357509613037e-02 9.189633280038833618e-02 9.120826423168182373e-02 -6.626314669847488403e-02 3.249100968241691589e-02 -9.741660207509994507e-02 -4.675526544451713562e-02 7.771023083478212357e-03 -9.524265676736831665e-02 -6.219700723886489868e-02 6.886915117502212524e-02 -1.616265065968036652e-02 -5.589966848492622375e-02 -3.140746057033538818e-02 4.492491856217384338e-02 -9.412202239036560059e-02 8.956523984670639038e-02 6.244161352515220642e-02 1.339793950319290161e-01 1.487968768924474716e-02 -6.492531299591064453e-02 -1.055750325322151184e-01 1.364891082048416138e-01 -6.109727546572685242e-03 1.151943430304527283e-01 -8.131916821002960205e-02 -1.118663027882575989e-01 5.196270346641540527e-02 2.437699586153030396e-02 -5.799018591642379761e-02 7.908178120851516724e-02 1.066036820411682129e-01 -1.556429918855428696e-02 6.972295045852661133e-02 -9.935022331774234772e-03 -3.819549828767776489e-02 2.146406099200248718e-02 -4.970608651638031006e-02 7.811477035284042358e-02 9.404403716325759888e-02 -1.477606743574142456e-01 1.634319275617599487e-01 1.097239628434181213e-01 4.063310101628303528e-02 6.012363731861114502e-02 -2.494787983596324921e-02 -7.695251703262329102e-02 8.714479207992553711e-02 -1.405412405729293823e-01 1.744078397750854492e-01 5.876733362674713135e-02 -4.930751025676727295e-02 -1.209593191742897034e-01 -4.814258217811584473e-02 -5.486206710338592529e-02 3.950017690658569336e-02 -1.443073339760303497e-02 8.767274767160415649e-02 1.416818797588348389e-01 1.621012538671493530e-01 1.359104216098785400e-01 1.635075509548187256e-01 1.062798798084259033e-01 6.474026292562484741e-02 8.048272132873535156e-02 1.202162876725196838e-01 1.523907855153083801e-02 -8.410961180925369263e-02 -1.465253718197345734e-02 5.797443166375160217e-02 6.398247182369232178e-02 -1.420708280056715012e-02 8.546358346939086914e-02 8.132299780845642090e-02 -7.805776596069335938e-02 -3.195862099528312683e-02 -9.157478809356689453e-02 1.957111954689025879e-01 -4.420711100101470947e-02 -3.562698513269424438e-02 -3.102403506636619568e-02 1.334925889968872070e-01 4.343696683645248413e-02 6.639721989631652832e-02 -4.195528477430343628e-02 6.627880781888961792e-02 -3.359670983627438545e-03 1.161969527602195740e-01 -1.856895349919795990e-02 -8.986094594001770020e-02 -7.969530671834945679e-02 8.006940782070159912e-02 -5.310809612274169922e-02 -2.884115092456340790e-03 6.287860870361328125e-02 7.413522899150848389e-02 8.373621106147766113e-02 7.211767137050628662e-02 -6.359263509511947632e-02 6.807035952806472778e-02 -9.554719924926757812e-02 -8.607122302055358887e-02 1.112499907612800598e-01 8.100704848766326904e-02 -7.662954926490783691e-02 1.394244581460952759e-01 1.392645239830017090e-01 -1.179513484239578247e-01 4.901478812098503113e-02 4.778931289911270142e-02 -9.548833221197128296e-02 -5.005894228816032410e-03 -1.013467237353324890e-01 -1.490260064601898193e-01 -9.465889632701873779e-02 -7.601715624332427979e-02 1.491788476705551147e-01 -7.837112247943878174e-02 3.293364122509956360e-02 5.427196621894836426e-02 9.013764560222625732e-02 1.013259366154670715e-01 -6.288199871778488159e-02 -1.125127151608467102e-01 8.913765847682952881e-02 -9.319853037595748901e-02 -9.056871384382247925e-02 4.449832066893577576e-02 -9.800163097679615021e-03 -6.944895535707473755e-02 5.442271754145622253e-02 7.907298952341079712e-02 -6.702949851751327515e-02 -6.962560117244720459e-02 7.928666658699512482e-03 -1.493441462516784668e-01 -9.902203083038330078e-02 -3.095649182796478271e-02 1.055018901824951172e-01 9.721376001834869385e-02 7.086962461471557617e-02 -1.110469996929168701e-01 6.978581100702285767e-02 3.281676769256591797e-02 1.363007444888353348e-02 6.644120812416076660e-02 -9.152292273938655853e-03 8.709671348333358765e-02 -7.709153462201356888e-03 -1.165261343121528625e-01 -2.808724064379930496e-03 -2.568014664575457573e-03 -1.282037049531936646e-01 -4.783088341355323792e-02 5.226633325219154358e-02 1.585423387587070465e-02 8.563365787267684937e-02 4.476053267717361450e-02 -9.700891375541687012e-02 -7.591760903596878052e-02 6.702768057584762573e-02 9.822165220975875854e-02 -3.944892808794975281e-02 -7.795976847410202026e-02 6.608553975820541382e-02 6.358604133129119873e-02 -5.859551951289176941e-02 4.169890657067298889e-02 1.630203872919082642e-01 -1.117176469415426254e-02 1.086522117257118225e-01 -7.813648134469985962e-02 7.135749608278274536e-02 1.661497517488896847e-03 1.118204966187477112e-01 1.333426916971802711e-03 -2.189523540437221527e-02 -9.876815974712371826e-02 -9.520921111106872559e-02 1.398508399724960327e-01 -1.482857167720794678e-01 -8.000319451093673706e-02 -3.143098577857017517e-02 9.174074977636337280e-03 3.256149590015411377e-02 -4.120629653334617615e-02 -1.055471077561378479e-01 3.667499870061874390e-02 1.003532931208610535e-01 7.828081399202346802e-02 6.302284449338912964e-02 2.454170435667037964e-01 1.601506620645523071e-01 1.123991906642913818e-01 1.105603501200675964e-01 4.250605404376983643e-02 1.286004930734634399e-01 6.961973011493682861e-02 -1.166787818074226379e-01 5.770066287368535995e-03 1.624575704336166382e-01
1.100745350122451782e-01 3.297065943479537964e-02 -4.092243313789367676e-02 1.306698471307754517e-01 -4.707884788513183594e-02 -1.354906857013702393e-01 1.001176834106445312e-01 -1.374085694551467896e-01 1.547762751579284668e-01 1.113176345825195312e-01 -1.141282841563224792e-01 7.308277487754821777e-02 6.958854943513870239e-02 7.073280960321426392e-02 8.308193832635879517e-02 -3.155029937624931335e-02 -2.991413511335849762e-02 3.907405585050582886e-02 8.004620671272277832e-03 8.835456520318984985e-02 1.155790314078330994e-01 6.315814703702926636e-02 -7.444867491722106934e-02 1.484202295541763306e-01 4.552825167775154114e-02 1.303294450044631958e-01 -3.939236700534820557e-02 -6.215851008892059326e-02 -8.020561188459396362e-02 -9.879948943853378296e-02 7.749282568693161011e-02 5.824458226561546326e-02 2.796661853790283203e-02 7.479929924011230469e-02 6.449018418788909912e-02 -2.951833978295326233e-02 8.971656858921051025e-02 7.073267549276351929e-02 7.265678793191909790e-02 1.008242592215538025e-01 5.255111679434776306e-02 1.367680579423904419e-01 -3.577974811196327209e-02 -8.304918557405471802e-02 9.511885233223438263e-03 2.937798947095870972e-02 8.714466542005538940e-02 7.891032844781875610e-02 8.270812779664993286e-02 1.154407560825347900e-01 2.552670426666736603e-02 8.758202940225601196e-02 1.113737374544143677e-01 5.510013177990913391e-02 -3.320306539535522461e-02 -7.417521625757217407e-02 -7.171140611171722412e-02 2.862697467207908630e-02 -6.181950494647026062e-02 -6.746409833431243896e-02 4.412506148219108582e-02 6.481661647558212280e-02 -1.437532603740692139e-01 1.049436256289482117e-01 4.312894120812416077e-02 5.830244347453117371e-02 -2.431588433682918549e-02 3.594348952174186707e-02 1.071648970246315002e-01 -8.618935197591781616e-02 -6.157140806317329407e-02 1.141071841120719910e-01 1.383751481771469116e-01 -1.295911967754364014e-01 -1.204478889703750610e-01 -1.216233521699905396e-01 1.149687841534614563e-01 -4.439588263630867004e-02 -3.851438313722610474e-02 -1.483287382870912552e-02 -6.675160676240921021e-02 1.503787934780120850e-01 7.480200380086898804e-02 1.999794542789459229e-01 -1.053049117326736450e-01 4.779745638370513916e-02 4.421974997967481613e-03 -1.190145015716552734e-01 -9.578684717416763306e-02 9.535731375217437744e-02 -4.352014884352684021e-02 -7.643370330333709717e-02 2.151179611682891846e-01 -7.572279870510101318e-02 -8.992769569158554077e-02 -4.376528412103652954e-02 7.955251634120941162e-02 7.221039384603500366e-02 -1.369866281747817993e-01 -8.824136108160018921e-02 -1.969643533229827881e-01 -7.706615328788757324e-02 -2.324962615966796875e-02 8.322972059249877930e-02 4.633226990699768066e-02 1.380531787872314453e-01 9.747638553380966187e-02 5.532956868410110474e-02 1.620713025331497192e-01 9.478620439767837524e-02 8.986499905586242676e-02 1.664854586124420166e-01 -5.546033009886741638e-02 1.649910658597946167e-01 -5.068542808294296265e-02 7.385234534740447998e-02 -1.084999367594718933e-01 7.387870550155639648e-02 -6.804932653903961182e-02 2.363687939941883087e-02 -1.503647118806838989e-01 -1.417122185230255127e-01 6.881127506494522095e-02 6.174866855144500732e-02 3.756220266222953796e-02 4.227241873741149902e-02 -4.371086508035659790e-02 3.555335849523544312e-02 -4.468636587262153625e-02 1.312175542116165161e-01 -4.789826273918151855e-02 -1.617656946182250977e-01 1.391371637582778931e-01 -1.376745849847793579e-02 1.059754788875579834e-01 2.104559540748596191e-02 2.557531557977199554e-02 -1.001093760132789612e-01 -9.742780774831771851e-02 9.033092111349105835e-02 -8.555933833122253418e-02 -8.311366289854049683e-02 -2.953267470002174377e-02 1.922043114900588989e-01 -2.047788538038730621e-02 1.199256926774978638e-01 -8.047322183847427368e-02 -1.564233563840389252e-02 5.978960916399955750e-02 -9.770834445953369141e-02 -4.698755964636802673e-02 9.907027333974838257e-02 -5.276734381914138794e-02 -2.180608361959457397e-02 1.376524567604064941e-01 -7.407175004482269287e-02 1.261812597513198853e-01 3.707934916019439697e-02 5.695602670311927795e-02 -7.157645374536514282e-02 3.997654467821121216e-02 -1.336450427770614624e-01 1.130378022789955139e-01 9.611693769693374634e-02 -2.458846941590309143e-02 7.662075012922286987e-02 5.670931190252304077e-02 -4.952070489525794983e-02 4.807736352086067200e-02 -6.938877701759338379e-02 -1.769340485334396362e-01 -6.204798072576522827e-02 5.459661409258842468e-02 -2.111659571528434753e-02 -7.008384168148040771e-02 5.606324225664138794e-02 1.163892000913619995e-01 -1.148435324430465698e-01 8.182710409164428711e-02 6.641981750726699829e-02 9.356261789798736572e-02 4.551774822175502777e-03 -4.961485415697097778e-02 1.126951649785041809e-01 1.328282356262207031e-01 8.315468579530715942e-02 2.914984337985515594e-02 -1.415465623140335083e-01 1.764616966247558594e-01 -1.852514743804931641e-01 7.797117531299591064e-02 5.858954042196273804e-02 4.884070903062820435e-02 5.015126988291740417e-02 -1.259857863187789917e-01 -3.335303813219070435e-02 -9.775899350643157959e-02 1.890872716903686523e-01 -5.637947097420692444e-02 -3.996975347399711609e-02 7.213279604911804199e-02 8.004502207040786743e-02 -7.512310892343521118e-02 -7.529038190841674805e-02 1.105236113071441650e-01 6.429125368595123291e-02 -1.041547060012817383e-01 9.031553566455841064e-02 1.266347020864486694e-01 7.394079118967056274e-02 1.278563141822814941e-01 -1.025298386812210083e-01 -1.022705137729644775e-01 -9.451273083686828613e-02 -8.571451902389526367e-02 -1.598912775516510010e-01 -4.317646380513906479e-03 1.210223957896232605e-01 7.922965288162231445e-02 6.633415818214416504e-02 -6.631831824779510498e-02 6.527389585971832275e-02 1.084710806608200073e-01 8.930028975009918213e-02 6.964313238859176636e-02 -1.576130837202072144e-02 -1.226304545998573303e-01 1.813321709632873535e-01 -1.084694489836692810e-01 6.229293346405029297e-02 9.053938090801239014e-02 1.149076893925666809e-01 1.679408699274063110e-01 -1.064553931355476379e-01 9.617880731821060181e-02 5.641921237111091614e-02 1.517805457115173340e-01 8.344800770282745361e-02 7.157219946384429932e-02 3.206008672714233398e-02 4.180259257555007935e-02 -1.338128298521041870e-01 8.742772042751312256e-02 1.523318588733673096e-01 6.928612291812896729e-02 8.225676417350769043e-02 1.021173745393753052e-01 -1.883992850780487061e-01 1.172937825322151184e-01 -1.155273541808128357e-01 -4.612633585929870605e-02 -1.899004355072975159e-02 3.033775277435779572e-02 -3.559917956590652466e-02 2.054014801979064941e-01 5.339664220809936523e-02 -6.710431724786758423e-02 -1.453184895217418671e-02 -4.301284253597259521e-02 4.985800758004188538e-02 -6.194639205932617188e-02 -5.858487635850906372e-02 3.335028141736984253e-02 -1.820283941924571991e-02 7.763347774744033813e-02 2.961271815001964569e-02 9.053046256303787231e-02 1.031887456774711609e-01 1.151055768132209778e-01 3.914470225572586060e-02 -1.000864133238792419e-01 -1.175878047943115234e-01 -3.822849690914154053e-02 9.570950269699096680e-02 1.058336272835731506e-01 8.533306419849395752e-02 8.705046027898788452e-02 8.941378444433212280e-02 1.105601433664560318e-02 1.020996645092964172e-01 9.289291501045227051e-02 6.368792057037353516e-02 -9.199329465627670288e-02 6.311049312353134155e-02 -2.416680939495563507e-02 -8.602360635995864868e-02 -3.215118497610092163e-02 1.361316740512847900e-01 -7.488764822483062744e-02 2.242713421583175659e-01 3.748963028192520142e-02 6.246399134397506714e-02 5.006694048643112183e-02 8.190821856260299683e-02 1.058102995157241821e-01 7.789714634418487549e-02 1.021325737237930298e-01 6.959517300128936768e-02 1.049102023243904114e-01 1.039934307336807251e-01 1.970449239015579224e-01 1.397294998168945312e-01 -7.978158444166183472e-02 -9.040311723947525024e-02 -2.024296075105667114e-01 6.580580025911331177e-02 -8.220475167036056519e-02 -6.635930389165878296e-02 -1.584418676793575287e-02 -4.045045375823974609e-02 -2.602521143853664398e-02 6.080453097820281982e-02 4.595950990915298462e-02 -1.043132394552230835e-01 5.980113148689270020e-02 9.978588670492172241e-02 1.003673747181892395e-01 4.963707178831100464e-02 1.498693376779556274e-01 1.671763211488723755e-01 -8.931751549243927002e-02 5.017618834972381592e-02 9.388388693332672119e-02 9.252107888460159302e-02 7.887850701808929443e-02 -1.451270096004009247e-02 -7.340779900550842285e-02 6.510607153177261353e-02 6.553526967763900757e-02 8.350002765655517578e-02 -6.985145062208175659e-02 4.803658649325370789e-02 4.579309001564979553e-02 8.348118513822555542e-02 -1.552263926714658737e-02 1.120428070425987244e-01 -6.608930230140686035e-02 6.519853323698043823e-02 -1.244563888758420944e-02 4.875816032290458679e-02 8.321580290794372559e-02 5.699503421783447266e-02 -1.760023683309555054e-01 1.018123701214790344e-01 1.128991022706031799e-01 -4.260151088237762451e-02 5.318318307399749756e-02 -4.264901205897331238e-02 1.226602401584386826e-02 -9.082625806331634521e-02 6.008556485176086426e-02 -1.383420377969741821e-01 6.038575991988182068e-02 -9.605304151773452759e-02 8.662321418523788452e-02 1.935816369950771332e-02 1.058672219514846802e-01 9.120456129312515259e-02 7.996733486652374268e-02 4.298833385109901428e-02 -3.769949078559875488e-02 4.630119726061820984e-02 2.968103438615798950e-02 9.255358576774597168e-02 -1.282961070537567139e-01 -2.943894453346729279e-02 6.424684077501296997e-02 6.814741343259811401e-02 9.535844624042510986e-02 7.072912156581878662e-02 -1.802099496126174927e-02 -1.257570385932922363e-01 5.919983983039855957e-02 -8.166182786226272583e-02 6.414210051298141479e-02 7.322874665260314941e-02 -2.375843748450279236e-02 1.117038950324058533e-01 3.075164370238780975e-02 6.738090515136718750e-02 9.282247722148895264e-02 -1.791231483221054077e-01 -1.008354350924491882e-01 8.403650671243667603e-02 7.169061154127120972e-02 -2.364344336092472076e-02 5.238039791584014893e-02 -6.655912101268768311e-02 -1.092371791601181030e-01 -1.510890424251556396e-01 -1.585426330566406250e-01 -9.261602908372879028e-02 1.551490873098373413e-01 1.238381862640380859e-01 -1.224745623767375946e-02 -7.908842712640762329e-02 3.432293981313705444e-02 -6.381041556596755981e-02 -1.519588381052017212e-01 9.855213016271591187e-02 -1.051990762352943420e-01 7.786528766155242920e-02 -3.803042322397232056e-02 1.200231388211250305e-01 1.061612963676452637e-01 1.059756726026535034e-01 8.826284110546112061e-02 1.017806977033615112e-01 5.716085806488990784e-02 5.006336048245429993e-02 9.945537149906158447e-02 -5.826641991734504700e-02 1.312544941902160645e-01 5.999798327684402466e-02 -4.448383301496505737e-02 -1.531313508749008179e-01 -6.611090898513793945e-02 -1.942575164139270782e-02 -7.786480337381362915e-02 -5.958729982376098633e-02 -5.271436646580696106e-02 -8.749420940876007080e-02 -5.260235443711280823e-02 -3.737812861800193787e-02 3.479474410414695740e-02 -1.361440122127532959e-01 1.471911370754241943e-01 8.879530429840087891e-02 -1.081906855106353760e-01 1.214726939797401428e-01 -5.203337222337722778e-02 5.675311386585235596e-02 9.296196699142456055e-02 1.045210063457489014e-01 2.936085313558578491e-02 -1.215565353631973267e-01 1.577603816986083984e-01 7.087343931198120117e-02 1.136192008852958679e-01 1.053054481744766235e-01 1.145270988345146179e-01 -4.678683727979660034e-02 -8.783055096864700317e-02 8.222737908363342285e-02 -6.152188405394554138e-02 -7.319904118776321411e-02 7.680982351303100586e-02 -9.409596771001815796e-02 1.266876310110092163e-01 1.533105373382568359e-01 -1.143068373203277588e-01 -1.749808192253112793e-01 1.164810508489608765e-01 -1.797297149896621704e-01 -1.122498065233230591e-01 2.374999225139617920e-01 2.876640297472476959e-02 4.057104513049125671e-02 1.463331729173660278e-01 2.066741138696670532e-02 -1.128899380564689636e-01 -8.977471292018890381e-02 -6.074307486414909363e-02 9.604463726282119751e-02 6.450238823890686035e-02 -8.920564141590148211e-05 -1.110824570059776306e-01 9.315396845340728760e-02 2.002719938755035400e-01 4.328008741140365601e-02 1.397746205329895020e-01 7.548359036445617676e-02 -6.560751050710678101e-02 -4.933711513876914978e-02 -1.032501533627510071e-01 5.095902830362319946e-02 1.192918568849563599e-01 8.763335645198822021e-02 6.490312516689300537e-02 1.596456617116928101e-01 1.262461394071578979e-01 1.321735680103302002e-01 2.146124839782714844e-01 2.891412936151027679e-02 -9.372480213642120361e-02 1.796796023845672607e-01 1.100233420729637146e-01 4.143088683485984802e-02 1.437439173460006714e-01 1.375486552715301514e-01 -2.238288223743438721e-01 1.213151067495346069e-01 9.681977331638336182e-02 6.436444818973541260e-02 -7.116164267063140869e-02 -3.784152120351791382e-02 -1.724253892898559570e-01 -5.935940891504287720e-02 -5.320560187101364136e-02 -5.164372175931930542e-02 1.327421069145202637e-01 -6.323137879371643066e-02 8.749917149543762207e-02 -1.295832693576812744e-01 -9.618356823921203613e-02 9.148978441953659058e-02 1.133692637085914612e-01 1.763028055429458618e-01 2.300951033830642700e-01 1.415083855390548706e-01 1.463906615972518921e-01 7.385087013244628906e-02 6.926074624061584473e-02 -5.765206739306449890e-02 1.743517220020294189e-01 6.465120613574981689e-02 5.760357528924942017e-02 7.573801279067993164e-02 1.300351023674011230e-01 -5.857032537460327148e-02 1.075414717197418213e-01 8.655294030904769897e-02 -4.085586965084075928e-02 -4.071127995848655701e-02 1.330336630344390869e-01 7.874904572963714600e-02 5.841857194900512695e-02 -7.322563230991363525e-02 -6.899578869342803955e-02 1.024150326848030090e-01 -1.266435384750366211e-01 8.736126869916915894e-02 3.459572046995162964e-02 1.328143477439880371e-01 -1.856128498911857605e-02 -1.596600562334060669e-02 -1.364862471818923950e-01 1.346318572759628296e-01 5.041339248418807983e-02 -7.282406836748123169e-02 -4.749366268515586853e-02 1.507739573717117310e-01 1.052588522434234619e-01 6.089565530419349670e-02 -2.613324904814362526e-04 -7.576987147331237793e-02 -4.257325455546379089e-02 6.321255117654800415e-02 -1.292067468166351318e-01 -3.803837671875953674e-02 -1.045857444405555725e-01 5.975787341594696045e-02 7.216987758874893188e-02 -3.548094257712364197e-02 5.948113743215799332e-03 3.306136652827262878e-02 -6.115655973553657532e-02 8.826373517513275146e-02 5.191984400153160095e-02 -6.964936107397079468e-02 1.032845452427864075e-01 1.157900467514991760e-01 -9.910416603088378906e-02 1.859129592776298523e-02 1.140768453478813171e-01 6.237299367785453796e-02 -4.477769508957862854e-02 -4.922888055443763733e-02 -5.702548101544380188e-02 -6.618411839008331299e-02 7.058344781398773193e-02 4.989429935812950134e-02 -8.316203206777572632e-02 5.764348432421684265e-02 -1.312366575002670288e-01 5.295085534453392029e-02 -7.855755090713500977e-02 6.768740713596343994e-02 1.323429197072982788e-01 9.219291061162948608e-02 -8.451380580663681030e-02 3.872099146246910095e-02 1.142870858311653137e-01 -4.463091492652893066e-02 7.671263068914413452e-02 -1.311670839786529541e-01 -3.667291253805160522e-02 -3.807153552770614624e-02 -3.418616205453872681e-02 8.464695513248443604e-02 5.155036970973014832e-02 -8.961237967014312744e-02 -5.756008625030517578e-02 -8.559560775756835938e-02 -2.707921564579010010e-01 1.199322193861007690e-01 1.447650790214538574e-01 -1.641254499554634094e-02 8.724475651979446411e-02 -5.377639085054397583e-02 5.362452939152717590e-02 1.139210537075996399e-01 1.527729332447052002e-01 1.073474064469337463e-01 -8.815313130617141724e-02 -5.404767021536827087e-02 -5.983399599790573120e-02 -7.036443054676055908e-02 -8.785912394523620605e-02 1.395109742879867554e-01 -7.772464305162429810e-02 -4.497220367193222046e-02 -4.468822106719017029e-02 -1.522661000490188599e-01 9.402952343225479126e-02 -9.908732026815414429e-03 -7.313001900911331177e-02 8.130668103694915771e-02 -7.750529050827026367e-02 1.096904352307319641e-01 7.278672605752944946e-02 1.177678257226943970e-01 9.356985241174697876e-02 3.099568374454975128e-02 -1.427612900733947754e-01 1.303741186857223511e-01 -9.009701758623123169e-02 6.838539242744445801e-02 -2.352887578308582306e-02 1.030648574233055115e-01 1.116695031523704529e-01 5.884363874793052673e-02 1.050079166889190674e-01 -1.362424045801162720e-01 3.069868311285972595e-02 7.399832457304000854e-02 7.134335488080978394e-02 -1.220498085021972656e-01 -6.135348603129386902e-02 -5.523158237338066101e-02 -8.861056715250015259e-02 1.212927103042602539e-01 -2.773443609476089478e-02 -8.297135680913925171e-02 1.181683242321014404e-01 -2.246250025928020477e-02 -8.690542727708816528e-02 -3.773086145520210266e-02 1.893719732761383057e-01 -1.603274233639240265e-02 8.415810763835906982e-02 -1.110419332981109619e-01 4.719614610075950623e-02 -2.696603536605834961e-02 2.328541874885559082e-01 1.057500541210174561e-01 1.152766942977905273e-01 1.796558052301406860e-01 1.116086468100547791e-01 1.221314147114753723e-01 -6.174591928720474243e-02 -9.198123961687088013e-02 -7.850740849971771240e-02 -8.456469327211380005e-02 -5.451707169413566589e-02 9.500251710414886475e-02 -1.405710726976394653e-01 5.632502585649490356e-02 -1.390616744756698608e-01 2.660529129207134247e-02 8.844987303018569946e-02 -8.279572427272796631e-02 8.078835904598236084e-02 1.056605726480484009e-01 4.318051412701606750e-02 1.063941717147827148e-01 8.591952919960021973e-02 9.799716621637344360e-02 1.789233684539794922e-01 -7.578671723604202271e-02 9.580480307340621948e-02 4.270661622285842896e-02 9.305090457201004028e-02 5.137313157320022583e-02 -8.141648024320602417e-02 9.466437250375747681e-02 1.082727909088134766e-01 -7.835250347852706909e-02 8.901452273130416870e-02 8.717108517885208130e-02 2.324152886867523193e-01 9.401014447212219238e-02 6.996788829565048218e-02 4.637373238801956177e-02 -7.275748252868652344e-02 7.298147678375244141e-02 6.960934400558471680e-02 -6.713106483221054077e-02 6.209345534443855286e-02 1.792660169303417206e-02 -4.593976214528083801e-02 -1.585911214351654053e-01 1.194744035601615906e-01 7.196120917797088623e-02 1.542670130729675293e-01 7.929863035678863525e-02 -4.884283989667892456e-02 -1.272798329591751099e-01 -7.565397769212722778e-02 7.955232262611389160e-02 5.093347653746604919e-02 -1.315674781799316406e-01 9.448635578155517578e-02 -8.548375964164733887e-02 7.731883227825164795e-02 -6.182124838232994080e-02 -6.331888586282730103e-02 9.776195138692855835e-02 1.342159807682037354e-01 1.344246268272399902e-01 -8.255510032176971436e-02 -9.434221684932708740e-02 1.271266937255859375e-01 -9.740812331438064575e-02 -8.984874933958053589e-02 5.244075879454612732e-02 1.316007226705551147e-01 3.649040684103965759e-02 6.399815529584884644e-02 1.351273506879806519e-01 1.210212111473083496e-01 -4.109548777341842651e-02 -5.567353591322898865e-02 -6.617917865514755249e-02 -1.210212707519531250e-01 -1.023096516728401184e-01 7.258018106222152710e-02 -1.087999269366264343e-01 1.264594048261642456e-01 8.687742054462432861e-02 -5.021803081035614014e-02 1.036751046776771545e-01 7.581878453493118286e-02 5.300280824303627014e-02 -8.151321113109588623e-02 -9.758291393518447876e-02 1.887125670909881592e-01 -5.145189166069030762e-02 1.114040538668632507e-01 6.764609366655349731e-02 1.234124302864074707e-01 1.476130038499832153e-01 -6.896553933620452881e-02 -7.644966989755630493e-02 9.270779043436050415e-02 7.198246568441390991e-02 -1.000493988394737244e-01 6.880850344896316528e-02 1.575390547513961792e-01 7.603964954614639282e-02 1.821019649505615234e-01 7.410815358161926270e-02 -6.819333136081695557e-02 -6.779641658067703247e-02 8.413230627775192261e-02 2.092872560024261475e-02 -9.926700964570045471e-03 -1.000996902585029602e-01 1.280084401369094849e-01 7.682495564222335815e-02 6.683668494224548340e-02 -8.663169294595718384e-02 1.068268045783042908e-01 -1.431667059659957886e-01 1.172301992774009705e-01 -1.666613668203353882e-01 -8.908846229314804077e-02 1.482528746128082275e-01 1.541552543640136719e-01 -4.178929701447486877e-02 8.748035877943038940e-02 -2.098583802580833435e-02 9.521501511335372925e-02 -1.293932497501373291e-01 -1.025477871298789978e-01 1.180538162589073181e-02 9.626672416925430298e-02 1.333263218402862549e-01 7.149638235569000244e-02 -4.985870048403739929e-02 2.349174618721008301e-01 -9.061834961175918579e-02 6.709794979542493820e-03 -4.971273243427276611e-02 7.376164942979812622e-02 -7.518164813518524170e-03 -4.366265609860420227e-02 -1.065789833664894104e-01 -1.289314776659011841e-01 -1.234753355383872986e-01 1.476808637380599976e-02 3.594781830906867981e-02 -8.166252076625823975e-02 -1.046491339802742004e-01 -1.279111504554748535e-01 1.185410171747207642e-01 -1.078210100531578064e-01 -5.918034911155700684e-02 -1.393348574638366699e-01 2.489872090518474579e-02 -8.222234994173049927e-02 9.170076996088027954e-02 -3.297779709100723267e-02 1.068110316991806030e-01 -5.073340982198715210e-02 -1.694433540105819702e-01 -7.568050920963287354e-02 7.127014547586441040e-02 8.377474546432495117e-02 7.050009816884994507e-02 8.466473221778869629e-02 -6.817568093538284302e-02 8.153957873582839966e-02 -1.168400198221206665e-01 -7.771386951208114624e-02 1.041186451911926270e-01 2.096957415342330933e-01 -1.399012058973312378e-01 6.166672334074974060e-02 1.076971888542175293e-01 1.481669396162033081e-01 -1.090382263064384460e-01 1.244647353887557983e-01 1.251064985990524292e-01 -1.484556198120117188e-01 1.350126564502716064e-01 4.869598895311355591e-02 8.447346091270446777e-02 1.212728396058082581e-01 1.286425292491912842e-01 -1.776891648769378662e-01 -8.880147337913513184e-02 8.470709621906280518e-02 1.047968789935112000e-01 6.267843395471572876e-02 8.279613405466079712e-02 -2.958275005221366882e-02 -2.739351242780685425e-02 2.324848920106887817e-01 9.965636581182479858e-02 6.587165873497724533e-03 -6.441026926040649414e-02 1.493604779243469238e-01 1.644254177808761597e-01 1.305255442857742310e-01 8.639413118362426758e-02 4.322401434183120728e-02 7.195559889078140259e-02 9.147460758686065674e-02 -1.829982995986938477e-01 1.262891143560409546e-01 7.204844057559967041e-02 -6.935919076204299927e-02 1.337017118930816650e-01 -7.546195387840270996e-02 -3.557077795267105103e-02 -1.233187168836593628e-01 1.006844341754913330e-01 -6.175876036286354065e-02 -5.849173292517662048e-02 1.135317832231521606e-01 -2.054883837699890137e-01 9.312968701124191284e-02 -5.775962024927139282e-02 -1.141939535737037659e-01 -2.609668113291263580e-02 -4.125597886741161346e-03 -8.488280326128005981e-02 1.092625707387924194e-01 -1.173298433423042297e-01 -7.896656543016433716e-02 6.318353861570358276e-02 2.529234886169433594e-01 1.395261585712432861e-01 9.167453646659851074e-02 1.206582188606262207e-01 -1.173990294337272644e-01 -1.097085326910018921e-01 1.199659109115600586e-01 1.586368829011917114e-01 -1.355152577161788940e-01 7.872822135686874390e-02 1.246987581253051758e-01 1.819108575582504272e-01 1.435411721467971802e-01 5.496188998222351074e-02 1.042873784899711609e-01 -9.028432518243789673e-02 -3.080148994922637939e-02 -8.841453492641448975e-02 -7.845762185752391815e-03 1.689000427722930908e-01 -1.545813828706741333e-01 -6.216463446617126465e-02 1.334507912397384644e-01 7.612039148807525635e-02 -3.269860148429870605e-02 8.522564917802810669e-02 -7.594719529151916504e-02 5.178706720471382141e-02 -3.878272697329521179e-02 -7.336080819368362427e-02 -1.198763996362686157e-01 -7.701222598552703857e-02 4.225145280361175537e-02 -1.009100452065467834e-01 -7.946677505970001221e-02 -8.231813460588455200e-02 1.268575489521026611e-01 -1.622105091810226440e-01 1.034009978175163269e-01 1.144695430994033813e-01 6.833974272012710571e-02 -3.586984798312187195e-02 3.074596263468265533e-02 -1.010972335934638977e-01 7.927896082401275635e-02 1.194363236427307129e-01 2.958309091627597809e-02 9.468511492013931274e-02 1.017529889941215515e-01 -6.664869189262390137e-02 1.191435083746910095e-01 7.303122431039810181e-02 6.677118688821792603e-02 9.084901213645935059e-02 -5.349416285753250122e-02 6.159409880638122559e-02 5.805360153317451477e-02 9.038653224706649780e-02 -9.942923486232757568e-02 2.873257920145988464e-02 9.927022457122802734e-02 -2.393089700490236282e-03 5.744296684861183167e-02 -1.321008503437042236e-01 2.586071752011775970e-02 -1.288436055183410645e-01 6.351944804191589355e-02 1.900135655887424946e-03 -5.150086805224418640e-02 -3.432090207934379578e-02 1.071867570281028748e-01 4.162899777293205261e-02 1.154420301318168640e-01 -8.071815222501754761e-02 -1.009189113974571228e-01 -2.717676945030689240e-02 1.826019585132598877e-02 -8.686437271535396576e-03 1.319697946310043335e-01 -1.140931248664855957e-01 -5.910376831889152527e-02 -5.556645244359970093e-02 -9.101572632789611816e-02 -1.369079798460006714e-01 -1.299930512905120850e-01 1.533318608999252319e-01 1.137616932392120361e-01 -7.237193733453750610e-02 9.285686910152435303e-02 -5.517834424972534180e-02 1.317458897829055786e-01 1.207851544022560120e-01 -3.313244134187698364e-02 6.550318747758865356e-02 6.975679099559783936e-02 6.525971740484237671e-02 -4.950345307588577271e-02 -1.344280689954757690e-01 7.165453583002090454e-02 6.149686872959136963e-02 -1.221556067466735840e-01 -1.487856209278106689e-01 -4.979064315557479858e-02 -1.534451693296432495e-01 9.249765425920486450e-02 1.097998172044754028e-01 9.738986194133758545e-02 1.143985092639923096e-01 7.083490490913391113e-02 1.020922288298606873e-01 6.922137737274169922e-02 -8.304699510335922241e-02 -9.989742189645767212e-02 -5.320201441645622253e-02 2.019981294870376587e-01 -1.018745005130767822e-01 -1.234133020043373108e-01 1.160768643021583557e-01 -9.585867822170257568e-02 8.682563155889511108e-02 -5.394510552287101746e-02 9.266550838947296143e-02 1.426998972892761230e-01 -1.160810291767120361e-01 1.166022866964340210e-01 -1.296777278184890747e-01 -3.163132444024085999e-02 -8.306667208671569824e-02 -4.117681086063385010e-02 9.561190009117126465e-02 -1.277280300855636597e-01 7.692503184080123901e-02 1.459907442331314087e-01 8.654666692018508911e-02 1.144824549555778503e-01 1.388371735811233521e-01 1.628571003675460815e-01 8.459542691707611084e-02 8.297851681709289551e-02 8.075299859046936035e-02 3.194919601082801819e-02 5.139699950814247131e-02 6.449656933546066284e-02 6.891029328107833862e-02 7.776144146919250488e-02 1.126091480255126953e-01 -4.542950913310050964e-02 -1.230189576745033264e-01 -4.961942881345748901e-02 1.052359044551849365e-01 7.321055233478546143e-02 -1.142841130495071411e-01 -8.588835597038269043e-02 4.514436796307563782e-02 7.422869652509689331e-02 8.094084262847900391e-02 7.055754959583282471e-02 -8.793764561414718628e-02 -1.177154928445816040e-01 8.538115769624710083e-02 1.317555159330368042e-01 -5.420872196555137634e-02 -5.026037618517875671e-02 1.513618677854537964e-01 -1.012273952364921570e-01 -1.176040545105934143e-01 8.533648401498794556e-02 -1.246199104934930801e-02 2.914163656532764435e-02 1.245471090078353882e-01 6.705087423324584961e-02 9.509578347206115723e-02 6.745875626802444458e-02 1.029897406697273254e-01 3.897517919540405273e-02 1.258223503828048706e-01 1.008484512567520142e-01 1.070438101887702942e-01 1.043042093515396118e-01 1.352246701717376709e-01 1.116915419697761536e-01 5.033365264534950256e-02 1.239919885993003845e-01 -8.534591645002365112e-02 -6.642716377973556519e-02 9.804693609476089478e-02 4.203504323959350586e-02 -5.246786400675773621e-02 8.216405659914016724e-02 6.322245299816131592e-02 9.796535223722457886e-02 -5.898668989539146423e-02 -1.108795180916786194e-01 1.093168184161186218e-01 -6.412487477064132690e-02 7.080576568841934204e-02 -9.885333478450775146e-03 4.146047681570053101e-02 9.447047114372253418e-02 -1.194992959499359131e-01 -3.540807962417602539e-02 -1.079755872488021851e-01 -1.491326931864023209e-02 -4.549681022763252258e-02 9.337493777275085449e-02 3.240878880023956299e-02 -5.031768232583999634e-03 -2.770966850221157074e-02 8.380950242280960083e-02 8.777625113725662231e-02 9.220737963914871216e-02 -7.097006589174270630e-02 7.763723284006118774e-02 -1.622472703456878662e-01 -1.028997153043746948e-01 1.324050128459930420e-01 -9.124799072742462158e-02 1.720781177282333374e-01 -1.166765242815017700e-01 -6.689942628145217896e-02 -2.041816897690296173e-02 7.402583211660385132e-02 -4.474114999175071716e-02 1.024244874715805054e-01 2.046976424753665924e-02 -3.212705999612808228e-02 -5.399388819932937622e-02 5.338612198829650879e-02 -1.282100975513458252e-01 -2.179076336324214935e-02 -2.555001340806484222e-02 -4.309641942381858826e-02 8.673430979251861572e-02 -1.910708099603652954e-02 -3.918668627738952637e-02 -5.855682864785194397e-02 -7.387737184762954712e-02 1.134625673294067383e-01 -1.076128240674734116e-02 -1.120638549327850342e-01 -7.721855491399765015e-02 -1.080332919955253601e-01 -5.903006345033645630e-02 -1.597750559449195862e-02 4.978397488594055176e-02 5.560761690139770508e-02 6.655666977167129517e-02 2.883700095117092133e-02 1.393213868141174316e-01 1.622657030820846558e-01 1.177348867058753967e-01 7.637215312570333481e-03 8.552446216344833374e-02 9.719086438417434692e-02 8.885590732097625732e-02 1.203658357262611389e-01 5.538085848093032837e-02 -7.903471589088439941e-02 8.247374743223190308e-02 -1.338062584400177002e-01 3.049127757549285889e-02 -2.149727195501327515e-02 2.539622038602828979e-02 8.648728579282760620e-02 1.344692558050155640e-01 -1.017076298594474792e-01 1.049001067876815796e-01 -3.418551385402679443e-02 9.272879362106323242e-02 1.068447604775428772e-01 7.962378114461898804e-02 -1.361749717034399509e-03 -4.762429371476173401e-02 7.436435669660568237e-02 1.025195643305778503e-01 1.008855849504470825e-01 -6.938301026821136475e-02 -1.565088927745819092e-01 4.891262575984001160e-02 -4.531451687216758728e-02 -1.460776478052139282e-01 1.131874024868011475e-01 -1.022061035037040710e-01 -8.084280043840408325e-02 1.238094121217727661e-01 -5.322397127747535706e-02 9.917578101158142090e-02 -7.349953986704349518e-03 4.127702489495277405e-02 5.236229673027992249e-02 3.149312362074851990e-02 1.338215451687574387e-02 1.226569861173629761e-01 5.593518540263175964e-02 -4.800098389387130737e-02 -1.091874390840530396e-01 1.074402332305908203e-01 -8.403223007917404175e-03 -1.017455086112022400e-01 1.902814209461212158e-02 -7.560907304286956787e-02 8.108154684305191040e-02 4.221464693546295166e-02 -1.534384191036224365e-01 3.935515135526657104e-02 1.584658920764923096e-01 8.377163112163543701e-02 -7.610555738210678101e-02 9.037581086158752441e-02 -4.681570455431938171e-02 8.280627429485321045e-02 7.594594359397888184e-02 -7.504797726869583130e-02 -2.235129848122596741e-02 9.191846102476119995e-02 1.111158728599548340e-01 -8.930684626102447510e-02 -4.072527214884757996e-02 -8.990254998207092285e-02 -1.865475997328758240e-02 -1.857754141092300415e-01 1.284645497798919678e-01 -1.019522771239280701e-01 -1.479718983173370361e-01 5.574209988117218018e-02 