1.133139654994010925e-01 -6.103063747286796570e-02 -3.626352548599243164e-02 9.380811452865600586e-02 5.535307899117469788e-02 -5.030683800578117371e-02 5.027374252676963806e-02 1.153377592563629150e-01 8.666554838418960571e-02 1.017893701791763306e-01 -1.161120012402534485e-01 8.120730519294738770e-02 9.254069626331329346e-02 6.439688056707382202e-02 6.410554796457290649e-02 -1.109563410282135010e-01 4.572905227541923523e-02 9.418898075819015503e-02 7.517298310995101929e-02 4.896923899650573730e-02 -7.875911146402359009e-02 -1.652426570653915405e-01 -1.246057376265525818e-01 6.290109455585479736e-02 6.772290170192718506e-02 1.091192513704299927e-01 9.050248563289642334e-02 7.972909510135650635e-02 1.475261747837066650e-01 -6.882825493812561035e-02 -1.309818476438522339e-01 -1.073742881417274475e-01 -9.100473672151565552e-02 9.253625175915658474e-04 -8.360356092453002930e-02 6.252732127904891968e-02 8.496220409870147705e-02 1.066486388444900513e-01 -2.001313716173171997e-01 1.453077327460050583e-02 1.170186847448348999e-01 8.619829267263412476e-02 7.330004125833511353e-02 -2.668756293132901192e-03 -6.795693933963775635e-02 -6.711921095848083496e-02 -8.372411876916885376e-02 9.293118119239807129e-02 8.419974148273468018e-02 6.398529559373855591e-02 1.214343234896659851e-01 1.100012212991714478e-01 9.610199928283691406e-02 4.532433301210403442e-02 2.643823809921741486e-02 -9.170580655336380005e-02 9.354417771100997925e-02 1.062381789088249207e-01 1.078919544816017151e-01 9.948704391717910767e-02 -2.654419653117656708e-02 -1.749501228332519531e-01 -1.353886127471923828e-01 1.422460284084081650e-02 9.167771786451339722e-02 -9.655859321355819702e-03 -1.571952924132347107e-02 -2.033498324453830719e-02 -6.796099990606307983e-02 -4.628713801503181458e-02 9.353265166282653809e-02 -5.580355599522590637e-02 -7.489862386137247086e-03 -2.263945043087005615e-01 -1.170782954432070255e-03 1.619867235422134399e-01 -1.924523338675498962e-02 -1.093649864196777344e-02 6.172949448227882385e-02 -1.343684792518615723e-01 5.468137562274932861e-02 -2.261832170188426971e-02 -2.939129248261451721e-02 -9.195259958505630493e-02 2.115335501730442047e-02 1.363985240459442139e-03 -1.085125803947448730e-01 8.186224848031997681e-02 -7.904113084077835083e-02 1.221100427210330963e-02 -6.928322464227676392e-02 -1.033774688839912415e-01 -3.324053436517715454e-02 -1.592654176056385040e-02 -1.222466584295034409e-02 -1.561244204640388489e-02 -1.709264516830444336e-01 -8.756908029317855835e-02 1.392461210489273071e-01 5.789138376712799072e-03 6.391894072294235229e-02 4.372351244091987610e-02 -6.519775092601776123e-02 -9.203685820102691650e-02 4.335761815309524536e-02 -5.171426758170127869e-02 1.148301288485527039e-01 -2.937770821154117584e-02 1.514541208744049072e-01 5.468474701046943665e-02 4.109710454940795898e-02 8.005355298519134521e-02 -5.972278490662574768e-02 -1.610969603061676025e-01 -2.621903270483016968e-02 -6.500558927655220032e-03 -1.356484275311231613e-02 -7.631738483905792236e-02 -1.752386614680290222e-02 7.307831197977066040e-02 -2.985856961458921432e-03 -1.478171162307262421e-02 9.586910158395767212e-02 -5.956712737679481506e-02 6.150493770837783813e-02 1.458913087844848633e-01 4.925883933901786804e-02 5.892455205321311951e-02 9.788681566715240479e-02 -1.136200502514839172e-02 8.627693355083465576e-02 -4.441816359758377075e-02 4.744444414973258972e-02 -8.361051231622695923e-02 -5.687757954001426697e-02 -4.274453595280647278e-02 6.083728373050689697e-02 -1.352316439151763916e-01 -4.803372919559478760e-02 -9.200650453567504883e-02 -6.101033091545104980e-02 -2.346833795309066772e-02 -4.267691448330879211e-02 -7.288831472396850586e-02 1.783495023846626282e-02 7.404215633869171143e-02 -8.098438382148742676e-02 -7.311552017927169800e-02 -4.512231796979904175e-02 -1.443732976913452148e-01 6.201819330453872681e-02 -7.207795977592468262e-02 1.015448942780494690e-01 -2.752056531608104706e-02 -1.267173886299133301e-02 5.186362937092781067e-02 -8.291522413492202759e-02 6.064860895276069641e-02 -3.789905458688735962e-02 -7.929205894470214844e-02 -7.319578528404235840e-02 1.947307027876377106e-02 8.469428122043609619e-02 1.174808219075202942e-01 8.741836063563823700e-04 -3.901924192905426025e-02 6.388910859823226929e-02 8.119178563356399536e-02 -2.963138930499553680e-02 -9.346994012594223022e-02 -1.210120618343353271e-01 -5.480207130312919617e-02 -1.226455941796302795e-01 1.221331581473350525e-01 9.011574089527130127e-02 6.338037550449371338e-02 1.344342064112424850e-02 -1.066382229328155518e-02 7.335951179265975952e-02 -4.853966238442808390e-04 -1.736998111009597778e-01 -9.655019640922546387e-02 -9.132879204116761684e-04 -1.765672676265239716e-02 -2.692149765789508820e-02 6.425800174474716187e-02 5.868557095527648926e-02 8.639109134674072266e-02 6.990417093038558960e-02 7.989822328090667725e-02 -8.402190357446670532e-02 -6.333272904157638550e-02 -1.653485372662544250e-02 -6.442219018936157227e-02 -8.577267825603485107e-02 -2.110335789620876312e-02 -1.511756479740142822e-01 6.971415132284164429e-03 8.218491822481155396e-02 -9.288290143013000488e-02 -2.257538214325904846e-02 -1.998827420175075531e-02 1.525472849607467651e-01 -6.111078336834907532e-02 -8.888445794582366943e-03 -6.296733394265174866e-03 7.225192338228225708e-02 1.095667034387588501e-01 -7.145542651414871216e-03 -1.488881465047597885e-02 9.205770492553710938e-02 1.422225236892700195e-01 9.039252251386642456e-02 -5.410849582403898239e-03 -1.663160622119903564e-01 1.195565462112426758e-01 -1.903803795576095581e-01 -1.619084477424621582e-01 -5.342928692698478699e-02 -3.050691448152065277e-02 -2.616262063384056091e-02 -4.803702980279922485e-02 -3.323133662343025208e-02 -1.454239152371883392e-02 6.389232724905014038e-02 8.242223411798477173e-02 -5.629051476716995239e-02 -7.143593579530715942e-02 7.418609410524368286e-02 5.012450367212295532e-02 5.301360040903091431e-03 -7.682403922080993652e-02 -3.417440876364707947e-02 -7.946232706308364868e-02 -7.054466009140014648e-02 -6.276903301477432251e-02 -8.277119696140289307e-02 -4.171220585703849792e-02 4.638614133000373840e-03 6.456310302019119263e-02 -9.228122234344482422e-02 -1.585964411497116089e-01 1.067303400486707687e-02 1.445449702441692352e-02 5.209915339946746826e-03 -9.309680759906768799e-02 9.681522846221923828e-02 6.164592504501342773e-02 -6.626997143030166626e-02 -1.003627479076385498e-01 -1.008058115839958191e-01 2.768391557037830353e-02 -8.475659787654876709e-02 -1.079457551240921021e-01 6.576231867074966431e-02 7.370183244347572327e-03 -7.653431594371795654e-02 5.594157800078392029e-02 -1.004801392555236816e-01 1.051308736205101013e-01 1.058651208877563477e-01 7.894752919673919678e-02 9.072023630142211914e-02 1.139226555824279785e-01 1.396424621343612671e-01 8.520632982254028320e-02 -5.476817488670349121e-02 -4.835891351103782654e-02 -4.077350348234176636e-02 9.612809866666793823e-02 5.021093785762786865e-02 5.688119307160377502e-02 7.816165685653686523e-02 -9.731128811836242676e-02 1.665921323001384735e-02 -9.293429553508758545e-02 -1.838072091341018677e-01 -1.236396469175815582e-02 -3.874065726995468140e-02 1.096711456775665283e-01 6.174373626708984375e-02 -4.937491565942764282e-02 -1.437395811080932617e-03 -1.059707179665565491e-01 -8.997516334056854248e-02 -1.659491471946239471e-02 -4.505203664302825928e-02 3.531781211495399475e-02 -1.787825115025043488e-02 1.150986999273300171e-01 -1.269984096288681030e-01 -4.343646392226219177e-02 -4.492431133985519409e-02 -2.368971891701221466e-02 6.189854070544242859e-02 9.385406039655208588e-03 1.805705367587506771e-03 -5.332393571734428406e-02 -2.017632871866226196e-02 -5.890923552215099335e-03 -5.731377005577087402e-02 1.877397671341896057e-02 8.477915078401565552e-03 -1.517262868583202362e-02 -6.675349175930023193e-02 9.753961116075515747e-02 5.077433586120605469e-02 -1.636014133691787720e-02 -1.020331401377916336e-02 -8.171329274773597717e-03 5.769247561693191528e-02 9.343367815017700195e-02 8.950667828321456909e-02 5.580461397767066956e-02 -1.006060913205146790e-01 -6.358309835195541382e-02 -1.740982532501220703e-01 3.990710899233818054e-02 -2.443358302116394043e-02 -1.187648158520460129e-02 -1.158762499690055847e-01 2.562093315646052361e-03 1.841555349528789520e-02 -7.312758825719356537e-03 8.246351033449172974e-02 -1.216134354472160339e-01 1.197237595915794373e-01 6.084436178207397461e-02 2.432858198881149292e-02 -3.862641379237174988e-02 3.503974154591560364e-02 -6.409478932619094849e-02 5.797050520777702332e-02 -8.164377510547637939e-02 5.394610762596130371e-02 -1.195252686738967896e-01 -1.167702302336692810e-01 8.798585087060928345e-02 -6.798389554023742676e-02 9.161296486854553223e-02 8.017314225435256958e-02 -5.304051563143730164e-02 -5.101316794753074646e-02 -8.840219676494598389e-02 -9.788335114717483521e-02 -1.046273931860923767e-01 -2.283088676631450653e-02 1.250913483090698719e-04 -2.127542346715927124e-02 3.134212238364852965e-05 7.664842903614044189e-02 8.138576149940490723e-02 1.218456029891967773e-01 9.629242867231369019e-02 -4.944010451436042786e-02 -3.095644339919090271e-02 5.808925628662109375e-02 4.869922250509262085e-02 1.117984429001808167e-01 9.459649026393890381e-02 -2.115948684513568878e-02 -7.680323719978332520e-02 8.236105740070343018e-02 7.369419932365417480e-02 5.957744643092155457e-02 -1.371252164244651794e-02 -4.999034851789474487e-02 -8.645159751176834106e-02 6.487664580345153809e-02 3.976005315780639648e-02 -1.151862367987632751e-02 7.219723612070083618e-02 2.773712575435638428e-02 -9.715318679809570312e-02 -1.979855634272098541e-02 -1.477079838514328003e-01 -4.894540831446647644e-02 -8.071239106357097626e-03 2.162417210638523102e-02 -1.013914793729782104e-01 8.429960161447525024e-02 -3.904984146356582642e-02 -1.171007230877876282e-01 -1.361990571022033691e-01 -1.021087989211082458e-01 -9.186623990535736084e-02 7.971113175153732300e-02 2.668552799150347710e-03 5.260775983333587646e-02 7.358191907405853271e-02 1.607401221990585327e-01 -9.565353393554687500e-02 -1.158595755696296692e-01 2.718775905668735504e-02 4.317795857787132263e-03 -8.934017270803451538e-02 9.020624309778213501e-02 -3.445874527096748352e-02 -8.230878412723541260e-02 6.966552883386611938e-02 -1.698100566864013672e-02 -5.871751159429550171e-02 2.294727042317390442e-02 5.552966892719268799e-02 -6.360319256782531738e-02 9.787924587726593018e-02 -1.495495811104774475e-02 3.775974269956350327e-03 -9.679111652076244354e-03 6.397007405757904053e-02 -7.040655612945556641e-02 7.671851664781570435e-02 1.293200850486755371e-01 -7.818092405796051025e-02 6.127284094691276550e-02 7.542709261178970337e-02 -9.348525665700435638e-03 -1.309286653995513916e-01 2.145497128367424011e-02 -7.120112329721450806e-02 7.177576422691345215e-03 -2.675618976354598999e-02 -1.161211952567100525e-01 -5.949458852410316467e-02 8.327835798263549805e-02 -6.974275410175323486e-02 -7.564087212085723877e-02 -3.615369088947772980e-03 7.600015401840209961e-02 -5.098948627710342407e-02 -1.393364183604717255e-02 -1.074300631880760193e-01 -7.388800382614135742e-02 -8.456097543239593506e-02 -1.117255315184593201e-01 -3.394660353660583496e-02 -1.427814215421676636e-01 -5.520445108413696289e-02 8.196455985307693481e-02 7.851722091436386108e-02 -3.861790895462036133e-02 -8.303235471248626709e-02 3.339797258377075195e-04 -4.812525212764739990e-02 -1.834481518017128110e-04 -4.245464503765106201e-02 -1.296271383762359619e-01 -1.251748800277709961e-01 -5.832049623131752014e-02 5.874094739556312561e-02 -3.948831930756568909e-02 1.072129085659980774e-01 6.458774209022521973e-02 4.979350790381431580e-02 5.593208596110343933e-02 8.357065916061401367e-02 6.495977193117141724e-02 -4.455133527517318726e-02 -7.844303548336029053e-02 3.289351938292384148e-03 8.930997550487518311e-02 -4.411726072430610657e-02 -8.324328064918518066e-02 -1.283136755228042603e-01 -3.327436372637748718e-02 -1.046364475041627884e-02 -7.464545965194702148e-02 -5.457171052694320679e-02 4.104946926236152649e-02 3.152792528271675110e-02 6.477408111095428467e-02 -5.132186226546764374e-03 8.584527671337127686e-02 -1.241220235824584961e-01 -2.251752465963363647e-02 -2.660640142858028412e-02 -2.967207506299018860e-02 7.991017401218414307e-02 5.855294410139322281e-03 -2.796368673443794250e-02 -2.127624116837978363e-02 7.800664752721786499e-03 -5.896083638072013855e-02 -1.196781918406486511e-01 6.856463104486465454e-02 -1.165622025728225708e-01 -4.196954146027565002e-02 -9.502977877855300903e-02 -1.587371081113815308e-01 -4.680137336254119873e-02 -6.224954128265380859e-02 -2.747175749391317368e-03 -1.554648578166961670e-02 -3.444126993417739868e-02 4.608424380421638489e-02 -6.189955770969390869e-02 9.659302979707717896e-02 6.467207521200180054e-02 -3.320247307419776917e-02 -9.438272565603256226e-02 9.015721827745437622e-02 -1.486324220895767212e-01 -9.576730430126190186e-02 9.181411564350128174e-02 -1.105125993490219116e-02 -2.111943252384662628e-02 4.751817882061004639e-02 8.989162743091583252e-03 -1.260876655578613281e-01 -5.379292741417884827e-02 4.709994047880172729e-02 5.315108969807624817e-02 7.408840209245681763e-02 -2.628100663423538208e-02 8.502814173698425293e-02 6.588090956211090088e-02 9.318112581968307495e-02 1.285623610019683838e-01 6.152344495058059692e-02 7.498445361852645874e-02 -8.404144644737243652e-02 6.944669038057327271e-02 -2.771993726491928101e-02 1.151556801050901413e-02 1.245939508080482483e-01 -1.790122240781784058e-01 6.872415542602539062e-03 1.028387844562530518e-01 -1.156643182039260864e-01 -3.459276631474494934e-02 6.092991307377815247e-02 9.920088201761245728e-02 1.163343787193298340e-01 -2.038843929767608643e-02 -1.828509941697120667e-02 -4.701333492994308472e-02 1.072866171598434448e-01 9.267847985029220581e-02 8.754604309797286987e-02 3.938726708292961121e-02 -1.539543922990560532e-02 9.255108982324600220e-02 1.248717233538627625e-01 -1.867692470550537109e-01 -1.138175651431083679e-01 6.150057166814804077e-02 -2.937834337353706360e-02 -6.499360501766204834e-02 -8.575007319450378418e-02 -6.191844493150711060e-02 -1.914065144956111908e-02 -9.597338736057281494e-02 -2.850832603871822357e-02 6.325184367597103119e-03 3.460040688514709473e-02 1.471686060540378094e-03 -1.185384467244148254e-01 -3.308124467730522156e-02 -1.533687673509120941e-02 8.369252085685729980e-02 8.669617772102355957e-02 1.180517747998237610e-01 1.145777478814125061e-01 6.590907275676727295e-02 -2.496360689401626587e-01 -1.636549681425094604e-01 -5.770655348896980286e-02 5.085551529191434383e-04 -4.070112854242324829e-02 9.155447036027908325e-02 8.460505306720733643e-02 -1.329584568738937378e-01 2.193877473473548889e-03 -9.115695208311080933e-02 -1.860926859080791473e-02 -1.287813633680343628e-01 -7.160304486751556396e-02 -2.166750095784664154e-02 -2.706004120409488678e-02 8.231949061155319214e-02 1.052030827850103378e-02 -5.464566126465797424e-02 -3.281233832240104675e-02 3.579316893592476845e-03 6.917206943035125732e-02 -1.137566268444061279e-01 -1.178171783685684204e-01 -1.222477257251739502e-01 -4.681649059057235718e-02 1.793431341648101807e-01 -2.974065206944942474e-02 3.934130817651748657e-02 -7.728816568851470947e-02 -1.374036222696304321e-01 -3.300229087471961975e-03 1.390920951962471008e-03 1.926456242799758911e-01 -1.797372698783874512e-01 8.107997477054595947e-02 -1.229139864444732666e-01 -1.235769465565681458e-01 2.274017594754695892e-02 1.247431561350822449e-01 -1.408282294869422913e-02 7.513409107923507690e-02 -1.802597008645534515e-02 -7.555340882390737534e-03 -1.094961073249578476e-02 5.185966938734054565e-02 -5.237356945872306824e-02 -1.691397279500961304e-02 -3.750656172633171082e-02 -2.305195666849613190e-02 -3.382835909724235535e-02 -1.389607191085815430e-01 -2.699736692011356354e-02 -1.667571067810058594e-02 3.751178458333015442e-02 -5.403281003236770630e-02 -6.430993974208831787e-02 1.539035886526107788e-01 9.823646396398544312e-02 -2.184723131358623505e-02 6.707490235567092896e-02 -9.998279809951782227e-02 4.731149226427078247e-02 -1.959776878356933594e-02 2.323333546519279480e-02 -3.413489088416099548e-02 1.104036811739206314e-02 -6.667485833168029785e-02 5.237063765525817871e-02 1.577342115342617035e-02 2.854665555059909821e-02 -2.768040820956230164e-02 1.232841610908508301e-01 -8.671920746564865112e-02 -6.854985654354095459e-02 -1.432829070836305618e-02 -9.394643455743789673e-02 7.982429116964340210e-02 -1.479752082377672195e-02 2.853729203343391418e-02 -1.546889245510101318e-01 -2.183293923735618591e-02 -6.870598345994949341e-02 -5.395354330539703369e-02 -2.261993475258350372e-02 -1.313185133039951324e-02 -6.333963479846715927e-03 -3.786753397434949875e-03 -1.201722249388694763e-01 -1.401575505733489990e-01 1.120646577328443527e-02 -1.132385432720184326e-01 -6.912742555141448975e-02 -7.603751495480537415e-03 -2.280896157026290894e-01 1.112271472811698914e-01 1.159373968839645386e-01 -6.174513697624206543e-02 -4.657881334424018860e-03 -4.394420981407165527e-02 -5.028339475393295288e-02 -2.076776884496212006e-02 4.692183434963226318e-02 1.251332908868789673e-01 -1.884164661169052124e-02 -4.308108612895011902e-02 -6.550495326519012451e-02 -1.833302155137062073e-02 9.858561307191848755e-02 2.218527160584926605e-02 5.330782383680343628e-03 -8.116391301155090332e-02 -1.034268513321876526e-01 9.622272104024887085e-02 -2.665516920387744904e-03 -5.588761530816555023e-03 -1.461590230464935303e-01 5.869911983609199524e-02 -1.036361604928970337e-01 -3.331938525661826134e-03 2.238523028790950775e-02 -1.166341006755828857e-01 -1.175915822386741638e-03 4.074877500534057617e-02 9.730725549161434174e-03 6.046669185161590576e-02 -3.589351847767829895e-02 -1.250465065240859985e-01 -6.975182890892028809e-02 -2.792756073176860809e-02 -5.757160857319831848e-02 -8.506492525339126587e-02 3.358997171744704247e-03 -8.423088490962982178e-02 -6.915523670613765717e-03 -9.761204570531845093e-02 7.763041555881500244e-02 6.869773566722869873e-02 -6.420550867915153503e-03 -1.672067642211914062e-01 -1.120327785611152649e-02 5.336232483386993408e-02 7.077056914567947388e-02 -8.416575938463211060e-02 4.587478470057249069e-03 5.275518447160720825e-02 -1.285194326192140579e-02 7.777460664510726929e-02 9.663356095552444458e-02 -6.556774675846099854e-02 -6.826374679803848267e-02 -3.431615978479385376e-02 -1.921819709241390228e-02 7.699725031852722168e-02 4.906072467565536499e-02 -5.370928347110748291e-02 -5.569860711693763733e-02 -5.483179539442062378e-02 1.064708530902862549e-01 -2.551108226180076599e-02 6.809427589178085327e-02 -1.907721720635890961e-02 -5.047716945409774780e-02 1.079270392656326294e-01 -6.521212868392467499e-03 1.398340910673141479e-01 -7.689059525728225708e-02 6.567494571208953857e-02 5.758722499012947083e-02 -1.312604546546936035e-01 1.089170426130294800e-01 -5.317995324730873108e-03 6.680503487586975098e-02 -3.217128664255142212e-02 -6.643062084913253784e-02 -8.134865760803222656e-02 4.390259832143783569e-02 -5.402011424303054810e-02 -1.174208372831344604e-01 5.089621618390083313e-02 -6.879366934299468994e-02 7.533887028694152832e-02 6.909201294183731079e-02 6.256062537431716919e-03 -5.124921351671218872e-02 -1.747500449419021606e-01 6.022389978170394897e-02 -3.198545053601264954e-02 4.457849636673927307e-02 1.007663533091545105e-01 8.244615793228149414e-02 -1.726198345422744751e-01 -8.578234910964965820e-02 -1.930358260869979858e-02 6.095033511519432068e-02 -4.473719745874404907e-02 3.500211518257856369e-03 4.412763938307762146e-02 -5.745111405849456787e-02 3.616783022880554199e-02 8.389294147491455078e-02 -5.312759056687355042e-02 -9.747990220785140991e-02 4.255064576864242554e-02 1.748347282409667969e-01 -9.696475416421890259e-02 -2.508643455803394318e-02 -4.644151031970977783e-02 -2.157771773636341095e-02 -1.114940270781517029e-02 2.346236445009708405e-02 -8.288247138261795044e-02 7.144615799188613892e-02 9.686803072690963745e-02 1.520686410367488861e-02 1.108970865607261658e-01 -2.298700250685214996e-02 -4.474774748086929321e-02 -9.019559621810913086e-02 -1.031059920787811279e-01 -1.185892075300216675e-01 9.170522540807723999e-02 -8.661420643329620361e-02 -1.035543829202651978e-01 -1.338607668876647949e-01 3.619497874751687050e-07 -1.236152648925781250e-01 4.575111344456672668e-02 -2.951582893729209900e-02 -7.310869544744491577e-02 -6.282095611095428467e-02 -9.828529506921768188e-02 1.348998695611953735e-01 -2.804983779788017273e-02 6.448888778686523438e-02 -2.260455116629600525e-02 1.019141450524330139e-01 -8.250982314348220825e-02 -4.317373037338256836e-02 8.800949901342391968e-02 -6.324820965528488159e-02 2.496369741857051849e-02 -1.218157783150672913e-01 1.409234851598739624e-02 -5.069517344236373901e-02 -2.559905312955379486e-02 8.419556915760040283e-02 8.525774627923965454e-02 2.396882697939872742e-02 7.024652510881423950e-02 -1.975128054618835449e-02 -1.049556359648704529e-01 -7.610471546649932861e-02 -7.132945954799652100e-02 -9.286987036466598511e-02 -6.913032382726669312e-02 9.076288342475891113e-02 -1.191401332616806030e-01 -4.194288328289985657e-02 -1.523295640945434570e-01 -2.232523709535598755e-01 4.398413747549057007e-02 -4.731111600995063782e-02 1.299262978136539459e-02 -3.210468962788581848e-02 1.111572906374931335e-01 9.709708392620086670e-04 8.751070499420166016e-02 -2.521896176040172577e-02 -2.836059592664241791e-02 6.115702539682388306e-02 -5.988988280296325684e-02 7.698067929595708847e-03 5.092881247401237488e-02 2.293541841208934784e-02 -4.206457734107971191e-02 -1.962724886834621429e-02 7.326408475637435913e-02 -7.998225092887878418e-02 9.398230165243148804e-02 -5.204872414469718933e-02 -2.540527284145355225e-02 -6.169807165861129761e-02 -2.409843727946281433e-02 8.766817301511764526e-02 -1.714225560426712036e-01 8.338059484958648682e-02 -6.113816797733306885e-02 -5.697102844715118408e-02 6.592185050249099731e-02 -6.646058708429336548e-02 4.555832967162132263e-02 -8.072029054164886475e-02 8.547198027372360229e-02 -1.242837905883789062e-01 -4.096257500350475311e-03 5.921283736824989319e-03 -2.498067915439605713e-03 1.126912385225296021e-01 2.452711109071969986e-03 1.044327244162559509e-01 -2.291119471192359924e-02 -1.108863353729248047e-01 -3.795885294675827026e-02 5.137180909514427185e-03 -7.278473675251007080e-02 -6.190363690257072449e-02 -1.621422022581100464e-01 -1.880839318037033081e-01 -1.029730662703514099e-01 -7.997723668813705444e-02 -8.728618919849395752e-02 1.621432453393936157e-01 -1.105430535972118378e-03 -2.330240979790687561e-02 -8.443592488765716553e-02 -1.411778628826141357e-01 8.567336946725845337e-02 -4.001611378043889999e-03 1.250621583312749863e-02 -3.772044181823730469e-02 -4.292742535471916199e-02 -1.053507030010223389e-01 1.170465946197509766e-01 3.979374468326568604e-02 -4.899165406823158264e-02 5.767422914505004883e-02 2.192068286240100861e-02 5.406446382403373718e-02 1.100898440927267075e-02 8.569800853729248047e-02 -2.119280211627483368e-02 5.364766716957092285e-02 7.306056469678878784e-02 -3.935383632779121399e-03 -5.756414309144020081e-02 -2.215056493878364563e-02 -1.012476384639739990e-01 -2.677940577268600464e-02 -5.383703485131263733e-02 -7.264080643653869629e-02 6.436514854431152344e-02 5.470401421189308167e-02 1.605291515588760376e-01 -7.717595994472503662e-02 -6.784182041883468628e-02 -3.256796672940254211e-02 -8.639291673898696899e-02 -1.579131186008453369e-02 1.731974817812442780e-02 -1.183488145470619202e-01 1.644896459765732288e-03 7.241094112396240234e-02 1.918942928314208984e-01 8.100943267345428467e-02 -2.134332507848739624e-01 5.094724521040916443e-02 -4.000340402126312256e-02 -1.052517294883728027e-01 -3.438330814242362976e-02 -1.548260636627674103e-02 9.303839504718780518e-02 8.946522325277328491e-02 -3.701665252447128296e-02 1.084475666284561157e-01 8.295886218547821045e-02 -8.667396381497383118e-03 1.455684099346399307e-02 8.173958957195281982e-02 -2.017236799001693726e-01 2.115017361938953400e-02 -2.007203698158264160e-01 3.268259344622492790e-03 1.099245324730873108e-01 9.454833716154098511e-02 -1.114195808768272400e-01 2.515056729316711426e-02 4.613227024674415588e-02 2.862573228776454926e-02 2.295930311083793640e-02 -1.094916928559541702e-02 1.077269315719604492e-01 -1.424141041934490204e-02 -9.794752299785614014e-02 -1.535314172506332397e-01 -1.924911700189113617e-02 -1.201417949050664902e-02 -1.534883212298154831e-02 3.905519843101501465e-02 1.048232242465019226e-01 9.576068073511123657e-02 4.728291556239128113e-02 3.369934484362602234e-02 5.970541015267372131e-02 4.608728364109992981e-02 -9.499014168977737427e-02 -2.265379205346107483e-02 -5.735047906637191772e-02 -2.005143910646438599e-01 6.071025505661964417e-02 1.059450395405292511e-02 1.027091294527053833e-01 -8.332432061433792114e-02 -3.331279009580612183e-02 -8.741163462400436401e-02 9.239114820957183838e-02 1.618666760623455048e-02 4.690985009074211121e-02 -1.404769569635391235e-01 -1.470482498407363892e-01 6.989794969558715820e-02 -1.147212553769350052e-02 -2.290360443294048309e-02 -1.650212891399860382e-02 -7.063269615173339844e-02 -5.127935111522674561e-02 6.766117364168167114e-02 -7.972121238708496094e-05 -3.582481294870376587e-03 -7.954853028059005737e-02 1.438074260950088501e-01 9.344976395368576050e-02 5.355151370167732239e-02 1.123949140310287476e-01 9.688152372837066650e-02 -7.547209411859512329e-02 -5.200604349374771118e-02 -6.040848046541213989e-02 -8.040656894445419312e-02 6.138465553522109985e-02 -4.285837709903717041e-02 9.500018507242202759e-02 5.979082360863685608e-02 7.970858365297317505e-02 1.082017943263053894e-01 6.637814640998840332e-02 5.445189401507377625e-02 5.379930883646011353e-02 -1.905145309865474701e-02 -1.176157500594854355e-02 -1.430138200521469116e-02 -7.333959639072418213e-02 1.044604927301406860e-01 -7.154981791973114014e-02 -2.816554717719554901e-02 7.024817913770675659e-02 5.290789157152175903e-02 -2.154820226132869720e-02 -6.516135483980178833e-02 1.672410033643245697e-02 -6.455639749765396118e-02 -6.207052618265151978e-02 2.822953392751514912e-04 -8.580233901739120483e-02 1.853001303970813751e-03 -1.947640068829059601e-02 6.034069880843162537e-02 -1.609549485146999359e-02 -4.031534492969512939e-02 -2.025724202394485474e-02 -6.472247093915939331e-02 6.499758362770080566e-02 5.721499398350715637e-02 6.388190388679504395e-02 -9.868904948234558105e-02 6.420218199491500854e-02 6.006295233964920044e-02 -1.765905693173408508e-02 -1.343191713094711304e-01 6.178985908627510071e-02 4.109716787934303284e-02 -1.274283379316329956e-01 -1.409971863031387329e-01 -4.799930378794670105e-02 -1.350957900285720825e-01 -1.029813960194587708e-01 -3.918808326125144958e-02 7.508719712495803833e-02 -7.980701327323913574e-02 2.680702367797493935e-03 -4.219198226928710938e-02 4.188399761915206909e-02 -1.226643752306699753e-02 -6.658754497766494751e-02 -2.618686482310295105e-02 -8.870526403188705444e-02 -9.405638277530670166e-02 -3.734747692942619324e-02 -7.941435091197490692e-03 -8.527035266160964966e-02 -1.845300942659378052e-02 -2.241235226392745972e-02 -1.000631302595138550e-01 -1.696913503110408783e-02 5.650131031870841980e-03 -3.314322978258132935e-02 -4.654802847653627396e-03 -2.187456563115119934e-02 -4.104249179363250732e-02 3.086561523377895355e-02 3.928589448332786560e-02 -1.201879791915416718e-02 -1.490634828805923462e-01 -5.908323079347610474e-02 -2.492445521056652069e-03 -2.443364635109901428e-02 -4.862332716584205627e-03 1.185240074992179871e-01 -1.986271888017654419e-02 -2.661061845719814301e-02 -1.505935639142990112e-01 1.215523406863212585e-01 -9.027632325887680054e-02 5.990597605705261230e-02 -2.745248936116695404e-02 1.377542167901992798e-01 6.203360110521316528e-02 1.054990813136100769e-01 8.767114579677581787e-02 9.034933894872665405e-02 -4.432861134409904480e-02 -1.840353570878505707e-02 -1.071475371718406677e-01 -6.594123691320419312e-02 -3.146102651953697205e-02 -8.035875111818313599e-02 -4.577991552650928497e-03 2.586227469146251678e-02 -6.989984214305877686e-02 3.351044654846191406e-02 -1.090088635683059692e-01 -1.678135432302951813e-02 -1.306377053260803223e-01 7.683949172496795654e-02 8.391641825437545776e-02 -1.935325711965560913e-01 -1.680282652378082275e-01 -9.506879746913909912e-02 -1.848698109388351440e-01 6.920920684933662415e-03 -1.750595420598983765e-01 -2.249419875442981720e-02 -1.099492385983467102e-01 -1.468596793711185455e-02 1.175345554947853088e-01 -5.930436775088310242e-02 -1.621686816215515137e-01 -9.264720976352691650e-02 -1.009449213743209839e-01 -1.137818396091461182e-01 -9.318288415670394897e-02 -9.383670985698699951e-03 -1.039627864956855774e-01 8.034802228212356567e-02 1.278428584337234497e-01 4.260908067226409912e-02 -9.988395869731903076e-02 -2.054987661540508270e-02 -1.423168629407882690e-01 7.789064664393663406e-03 1.313786488026380539e-02 -9.658366441726684570e-02 -2.702851779758930206e-02 -6.364215165376663208e-02 7.479631900787353516e-02 -1.978730410337448120e-01 1.129409074783325195e-01 -3.369591012597084045e-02 7.367912679910659790e-02 1.280418932437896729e-01 7.449474930763244629e-02 -8.418238162994384766e-02 -1.319159716367721558e-01 -9.138392657041549683e-02 -6.620042491704225540e-03 -1.044014189392328262e-02 3.443684801459312439e-02 7.654885947704315186e-02 8.721860498189926147e-02 7.985532283782958984e-02 -1.870715059340000153e-02 -6.177114695310592651e-02 -5.465604364871978760e-02 4.473651573061943054e-02 7.036440074443817139e-02 -7.564840465784072876e-02 1.418737508356571198e-02 -6.074878200888633728e-02 3.221378847956657410e-02 3.263176605105400085e-02 -6.012212857604026794e-02 -1.016105711460113525e-02 -9.796174615621566772e-02 6.564782932400703430e-03 -8.416359312832355499e-03 -2.260231971740722656e-02 -2.738137729465961456e-02 -9.846813976764678955e-03 -1.146129705011844635e-02 -6.940583139657974243e-02 -1.063005402684211731e-01 1.888336986303329468e-02 -1.858899742364883423e-02 -6.081104278564453125e-02 6.539855152368545532e-02 6.298287212848663330e-02 7.326142489910125732e-02 -1.782214790582656860e-01 9.142424911260604858e-02 1.195992156863212585e-01 -3.428135439753532410e-02 -4.060917720198631287e-02 -7.472074776887893677e-02 3.835665434598922729e-02 -1.953726857900619507e-01 -1.279733180999755859e-01 -6.759355962276458740e-02 -1.783719658851623535e-02 -1.189330294728279114e-01 -5.520227551460266113e-02 -3.095375187695026398e-02 -6.594338268041610718e-02 5.582363903522491455e-02 -1.329722627997398376e-02 1.182057857513427734e-01 7.338407635688781738e-02 1.158921122550964355e-01 9.016496688127517700e-02 -3.234936296939849854e-02 1.278628557920455933e-01 -1.016666144132614136e-01 2.983051352202892303e-03 1.625596918165683746e-02 1.915927790105342865e-02 5.012799799442291260e-02 -8.579184114933013916e-02 -7.953661680221557617e-02 -1.582713611423969269e-02 1.255183480679988861e-02 -2.504939958453178406e-02 3.981994930654764175e-03 4.011721909046173096e-02 -6.279221177101135254e-02 -6.156595051288604736e-02 -1.287228893488645554e-03 6.179583445191383362e-02 -4.163520410656929016e-03 7.566992938518524170e-02 8.004508912563323975e-03 -1.593015901744365692e-02 8.087683469057083130e-02 -9.624218195676803589e-02 -3.840547055006027222e-02 3.004075493663549423e-03 -1.850852742791175842e-02 -1.427766978740692139e-01 6.223158910870552063e-03 9.357342123985290527e-02 5.045888945460319519e-02 1.748201623558998108e-02 -1.604334264993667603e-01 -2.875874750316143036e-02 4.858995787799358368e-03 4.602674022316932678e-02 -3.158592805266380310e-02 -2.204611524939537048e-02 4.423415660858154297e-02 -8.996000140905380249e-02 -7.691383361816406250e-02 9.241717867553234100e-03 -2.055354416370391846e-03 6.043227855116128922e-03 3.537805750966072083e-02 -4.102298989892005920e-02 -1.484488323330879211e-02 -6.366782356053590775e-03 3.708694502711296082e-02 -1.320113092660903931e-01 -1.433321833610534668e-01 8.606852963566780090e-03 2.207546029239892960e-03 4.936815239489078522e-04 -3.795176977291703224e-03 -1.946632005274295807e-02 6.741607934236526489e-02 5.408268794417381287e-02 -8.467256277799606323e-02 1.205701380968093872e-01 -7.289309799671173096e-02 -9.265379607677459717e-02 -1.824095249176025391e-01 7.525288313627243042e-02 6.717232614755630493e-02 7.291261851787567139e-02 7.605740427970886230e-02 5.060977861285209656e-02 -1.683866867097094655e-04 -9.287031739950180054e-02 -2.128435857594013214e-02 -8.420502394437789917e-02 -9.223755449056625366e-02 1.235596649348735809e-02 -2.309055626392364502e-02 5.805381108075380325e-03 -2.061132527887821198e-02 1.045845150947570801e-01 5.348458886146545410e-02 1.269519235938787460e-02 1.029183790087699890e-01 -1.162815559655427933e-02 2.061547152698040009e-02 -2.150046080350875854e-02 -9.904412925243377686e-02 1.090229582041501999e-02 -1.541593950241804123e-02 -4.710978269577026367e-02 -1.086197122931480408e-01 -1.330571919679641724e-01 -7.674297317862510681e-03 1.951353810727596283e-02 -2.387454360723495483e-02 -4.528191685676574707e-02 -3.573768585920333862e-02 -1.274418173125013709e-04 -1.364131122827529907e-01 -4.804491624236106873e-02 5.084073171019554138e-03 -2.193846926093101501e-02 -5.422418937087059021e-02 -9.480816870927810669e-02 -5.060688406229019165e-02 -2.962323836982250214e-02 9.972794912755489349e-03 5.835354095324873924e-04 -6.446058396250009537e-03 4.470935091376304626e-02 -4.947710037231445312e-02 -4.594822600483894348e-02 -1.474362462759017944e-01 9.784088470041751862e-03 8.234009891748428345e-02 -6.409436464309692383e-02 -1.004342176020145416e-02 9.390358626842498779e-02 -6.010055914521217346e-02 8.034630119800567627e-02 -8.864497393369674683e-02 1.312505453824996948e-03 -5.485326796770095825e-02 1.178323850035667419e-01 -9.943098574876785278e-02 -9.716375917196273804e-02 6.794220209121704102e-02 -3.625308722257614136e-02 -1.976272463798522949e-02 4.205677285790443420e-02 5.418631061911582947e-02 -2.962311729788780212e-02 -2.028996683657169342e-02 6.253980100154876709e-02 -5.225685983896255493e-02 3.482675924897193909e-02 -6.508727371692657471e-02 -2.110105566680431366e-02 -5.605514720082283020e-02 5.758459866046905518e-02 -1.476564407348632812e-01 8.334311842918395996e-02 -1.262178868055343628e-01 6.544204056262969971e-02 5.527944117784500122e-02 -7.399198412895202637e-02 -9.469690173864364624e-02 5.748448148369789124e-02 -1.271836757659912109e-01 -1.725502870976924896e-02 -1.164239719510078430e-01 -3.621549112722277641e-03 -6.640443950891494751e-02 -1.253391848877072334e-03 -1.263508498668670654e-01 1.317091379314661026e-02 -2.141183987259864807e-02 6.181678548455238342e-02 -9.090726077556610107e-02 6.352720409631729126e-02 9.597487747669219971e-02 1.295051425695419312e-01 -8.197712898254394531e-02 -3.897394612431526184e-02 -5.036677420139312744e-02 4.342044517397880554e-02 3.857463598251342773e-03 -5.575744062662124634e-02 4.787276312708854675e-02 -4.487042129039764404e-02 -9.438004344701766968e-03 -6.688175350427627563e-02 5.644668824970722198e-03 -5.683810636401176453e-02 9.259092807769775391e-02 3.839422762393951416e-02 -8.934015035629272461e-02 -1.818955317139625549e-02 -9.669740498065948486e-02 -2.953356504440307617e-02 -6.424361467361450195e-02 -1.597508043050765991e-01 1.252311188727617264e-02 -7.782900705933570862e-03 -2.589949034154415131e-02 -9.848181158304214478e-03 -7.113730534911155701e-03 5.062872916460037231e-02 -1.371751874685287476e-01 8.729063719511032104e-02 3.698757849633693695e-03 -1.167243346571922302e-01 -1.171502396464347839e-01 -2.817971818149089813e-02 -1.989639597013592720e-03 1.278288848698139191e-02 -2.381983213126659393e-02 1.088746488094329834e-01 7.595167309045791626e-02 7.633051276206970215e-02 -1.789181120693683624e-02 4.739466682076454163e-02 -1.133251637220382690e-01 -7.966389507055282593e-02 -2.313778176903724670e-02 -8.776794187724590302e-03 -6.291023641824722290e-02 9.429286420345306396e-02 8.041930198669433594e-02 -8.385843783617019653e-02 7.516272366046905518e-02 2.477064356207847595e-02 -9.079816192388534546e-02 -6.169711798429489136e-02 5.514269694685935974e-02 -1.001811400055885315e-01 -1.928051188588142395e-02 -3.612752631306648254e-02 4.766542464494705200e-02 5.366379022598266602e-02 -8.810046315193176270e-02 -7.160497456789016724e-02 -9.028135240077972412e-02 -1.240582577884197235e-02 -2.803928032517433167e-02 -8.092266321182250977e-02 -7.891443371772766113e-02 -1.571566681377589703e-03 2.147632651031017303e-02 -9.010423719882965088e-02 -6.177861616015434265e-02 9.550490975379943848e-02 -7.138118892908096313e-02 -1.285115778446197510e-01 5.354064702987670898e-02 -2.345079183578491211e-02 6.264856457710266113e-02 5.435969680547714233e-02 -1.469537615776062012e-02 -1.310382038354873657e-01 7.811866700649261475e-02 8.300893008708953857e-03 -6.101121753454208374e-02 -2.348127402365207672e-02 -5.551907699555158615e-03 9.268539398908615112e-02 1.092998459935188293e-01 8.059134334325790405e-02 -2.257676050066947937e-02 1.425919309258460999e-02 -4.755203798413276672e-02 -7.623150199651718140e-02 -7.014979422092437744e-02 5.579010024666786194e-02 -3.508186340332031250e-02 8.570535480976104736e-02 8.553779870271682739e-02 -7.678633183240890503e-02 1.211509108543395996e-03 -3.160905838012695312e-02 -6.503852456808090210e-02 -6.603069603443145752e-02 -3.201998770236968994e-02 -5.233982950448989868e-02 7.604061812162399292e-02 -2.203653194010257721e-02 -9.394160658121109009e-02 -4.866375401616096497e-02 4.262620955705642700e-02 7.918900996446609497e-02 -6.361444294452667236e-02 -8.664464205503463745e-02 5.603913217782974243e-02 -3.503397479653358459e-02 -5.638276040554046631e-02 6.720875948667526245e-02 -3.571736440062522888e-02 -1.338351052254438400e-02 -2.224992029368877411e-03 -9.846489876508712769e-03 -2.936320379376411438e-03 4.003591835498809814e-03 -9.357135742902755737e-02 -2.377439476549625397e-02 7.813809439539909363e-03 -7.211063802242279053e-02 -1.080198585987091064e-02 -1.203319653868675232e-01 5.853078514337539673e-02 1.135149747133255005e-01 6.014276761561632156e-03 -1.338085234165191650e-01 -2.574365586042404175e-02 -1.764914579689502716e-02 -8.449852466583251953e-03 -7.514327019453048706e-02 9.610245376825332642e-02 -1.524632126092910767e-01 7.613195572048425674e-03 -2.187973447144031525e-02 1.360122673213481903e-02 1.470804773271083832e-02 1.481492631137371063e-02 2.053098827600479126e-01 1.002574414014816284e-01 -4.934182390570640564e-02 -6.410427391529083252e-02 1.462637446820735931e-02 -7.792760431766510010e-02 -8.695671707391738892e-02 4.541284590959548950e-02 -1.243730112910270691e-01 6.624757498502731323e-02 -1.582401841878890991e-01 -8.704986423254013062e-03 -5.659996718168258667e-02 1.094515696167945862e-01 -2.486863732337951660e-02 6.199892237782478333e-02 -4.736676067113876343e-02 -5.157190188765525818e-02 -3.638909757137298584e-02 -3.339121490716934204e-02 -2.879113517701625824e-02 -5.485349800437688828e-03 -4.667127970606088638e-03 -3.954018652439117432e-02 -9.559734724462032318e-03 -4.463280364871025085e-02 -4.065509885549545288e-02 -5.984751507639884949e-03 -5.703451111912727356e-03 -6.621026247739791870e-02 6.406643241643905640e-02 8.626887202262878418e-02 -2.396510541439056396e-02 -7.271260954439640045e-03 -1.497820317745208740e-01 3.917274996638298035e-02 -6.539549678564071655e-02 4.529656469821929932e-02 -6.311232596635818481e-02 -4.212573543190956116e-02 -4.926558211445808411e-02 -4.929687827825546265e-02 -4.246976599097251892e-02 -1.807681471109390259e-02 3.518203645944595337e-02 4.158817231655120850e-03 -5.675286427140235901e-02 -7.693927735090255737e-02 -8.234197646379470825e-02 -8.535404503345489502e-02 -9.543987363576889038e-02 -1.899237744510173798e-02 -4.680906236171722412e-02
7.390043139457702637e-02 2.223810926079750061e-02 -2.397620305418968201e-02 7.455454766750335693e-02 1.093513667583465576e-01 9.829778224229812622e-02 1.424778997898101807e-01 -7.691536098718643188e-02 -4.977693781256675720e-02 8.289476484060287476e-02 6.725662201642990112e-02 -1.082568895071744919e-02 -8.525175601243972778e-02 -7.415434718132019043e-02 2.715818956494331360e-02 1.208081394433975220e-01 1.348019689321517944e-01 -7.938297837972640991e-02 1.129157021641731262e-01 9.314713627099990845e-02 4.935710132122039795e-02 1.076953187584877014e-01 9.572580456733703613e-02 8.606895059347152710e-02 1.560776401311159134e-02 -5.517579242587089539e-02 -1.293335556983947754e-01 -1.022076010704040527e-01 -1.296883821487426758e-01 2.021877467632293701e-02 1.070403307676315308e-01 1.161841899156570435e-01 8.876676112413406372e-02 5.806718394160270691e-02 1.066745668649673462e-01 -1.412487355992197990e-03 -7.235963642597198486e-02 -5.607990548014640808e-02 7.917833328247070312e-02 1.130642518401145935e-01 8.498435467481613159e-02 2.432001940906047821e-02 -8.447111397981643677e-02 -1.041636839509010315e-01 1.089287474751472473e-01 6.358961015939712524e-02 8.117903769016265869e-02 2.659849449992179871e-02 -5.801970139145851135e-02 -7.154000550508499146e-02 4.281505197286605835e-02 9.018793702125549316e-02 1.285274177789688110e-01 7.853902131319046021e-02 -2.389587461948394775e-02 -5.667363852262496948e-02 -9.780073910951614380e-02 -1.124494746327400208e-01 -7.121224701404571533e-02 -6.574907153844833374e-02 5.691229179501533508e-02 9.519037604331970215e-02 1.080445051193237305e-01 7.787525653839111328e-02 -3.933661431074142456e-02 1.155915111303329468e-01 7.997878640890121460e-02 7.340463250875473022e-02 6.682768464088439941e-02 9.125950932502746582e-02 -4.654768109321594238e-02 7.059949636459350586e-02 5.540015548467636108e-02 2.181572169065475464e-01 4.992154240608215332e-02 -3.542215749621391296e-02 -8.590045571327209473e-02 6.662629544734954834e-02 5.989005044102668762e-02 1.454817801713943481e-01 -7.571249455213546753e-02 4.250956699252128601e-03 6.088549643754959106e-02 5.638974159955978394e-02 9.852640330791473389e-02 8.173126727342605591e-02 1.251709163188934326e-01 -1.171628162264823914e-01 9.833758324384689331e-02 1.316056251525878906e-01 1.135476231575012207e-01 4.864883422851562500e-02 6.211939454078674316e-02 3.804598748683929443e-02 5.794820189476013184e-02 -7.071848213672637939e-02 1.248025670647621155e-01 3.880978375673294067e-02 -5.720315501093864441e-02 6.966580450534820557e-02 -3.451666235923767090e-02 9.117545932531356812e-02 -7.625733315944671631e-02 7.614577189087867737e-03 -5.859849601984024048e-02 -3.449103236198425293e-02 -1.135257724672555923e-02 8.357661217451095581e-02 -1.293049603700637817e-01 9.680034965276718140e-02 -1.764492243528366089e-01 -1.185384243726730347e-01 6.973355263471603394e-02 1.149799749255180359e-01 3.643543273210525513e-02 1.254705041646957397e-01 1.106560528278350830e-01 -9.004858136177062988e-02 1.701456122100353241e-02 -1.386978663504123688e-02 5.007400363683700562e-02 1.121773570775985718e-01 2.487087249755859375e-02 3.898127004504203796e-02 -3.592155873775482178e-02 -1.162407025694847107e-01 2.121960557997226715e-02 -2.745691500604152679e-02 -1.239002794027328491e-01 -7.837726175785064697e-02 -6.403732299804687500e-02 -1.051125600934028625e-01 6.081847473978996277e-03 -1.277645826339721680e-01 6.644559651613235474e-02 -3.743908554315567017e-02 -7.720246911048889160e-02 -4.019240289926528931e-02 1.379241049289703369e-01 1.292341053485870361e-01 7.974711805582046509e-02 7.358713448047637939e-02 4.406133666634559631e-02 1.921460591256618500e-02 7.646642625331878662e-02 -1.529813185334205627e-02 -1.078920140862464905e-01 1.054090037941932678e-01 -8.248630166053771973e-02 -5.742844566702842712e-02 -1.789987087249755859e-02 -3.279444575309753418e-02 8.715751022100448608e-02 2.352641522884368896e-02 1.430887635797262192e-02 -1.420364677906036377e-01 -1.180501431226730347e-01 -2.418113499879837036e-02 5.014333501458168030e-02 -9.887299686670303345e-02 -5.495503917336463928e-02 -6.324116885662078857e-02 -1.210993081331253052e-01 -1.009187996387481689e-01 2.604576013982295990e-02 -9.212810546159744263e-03 -2.016891911625862122e-02 1.219328865408897400e-01 5.646257847547531128e-02 9.147873520851135254e-02 -1.051755696535110474e-01 -1.451041102409362793e-01 -2.068919986486434937e-01 -1.159559190273284912e-01 2.100299112498760223e-02 -2.424316108226776123e-02 3.352954983711242676e-02 -6.265965849161148071e-02 1.138349063694477081e-02 4.732714220881462097e-02 9.826923161745071411e-02 4.864036664366722107e-02 5.677333846688270569e-02 3.678181022405624390e-02 6.195148825645446777e-02 4.355343058705329895e-02 -6.250231713056564331e-02 -9.051197022199630737e-02 -1.114072799682617188e-01 -1.140137761831283569e-01 6.058632954955101013e-02 -4.922921210527420044e-02 4.268706962466239929e-02 -5.886688455939292908e-02 7.169151306152343750e-02 1.988779380917549133e-02 7.271165400743484497e-02 -7.448139786720275879e-02 -4.944048449397087097e-02 8.500585705041885376e-02 6.981641054153442383e-02 6.197363883256912231e-02 1.120826900005340576e-01 8.390879631042480469e-02 1.091106608510017395e-01 6.865954399108886719e-02 5.035909637808799744e-02 -1.050666347146034241e-01 -1.372285783290863037e-01 1.153990104794502258e-01 -2.998655475676059723e-02 -1.288002282381057739e-01 -7.822316884994506836e-02 4.362884908914566040e-02 -2.835131622850894928e-02 -7.134463638067245483e-03 -1.882952451705932617e-01 8.814411610364913940e-02 3.553242608904838562e-02 4.275790601968765259e-02 2.929976955056190491e-02 1.116411685943603516e-01 -3.449830040335655212e-02 7.881749421358108521e-02 -1.053339615464210510e-01 -1.088678389787673950e-01 -5.916270986199378967e-02 -6.727237254381179810e-02 -3.278117999434471130e-02 -1.192224305123090744e-02 1.183144599199295044e-01 -7.748239487409591675e-02 6.535985320806503296e-02 4.509961232542991638e-02 -7.879799231886863708e-03 6.708946079015731812e-02 8.229792118072509766e-02 8.646356314420700073e-02 4.307652637362480164e-02 1.066676154732704163e-01 7.034787535667419434e-02 9.685423970222473145e-02 1.447227150201797485e-01 8.833079040050506592e-02 9.732885658740997314e-02 9.304531663656234741e-02 -3.504350036382675171e-02 9.040946140885353088e-03 6.127590313553810120e-02 8.466288447380065918e-02 -6.967270374298095703e-02 -2.847597375512123108e-02 5.826438590884208679e-02 8.716268092393875122e-02 9.894283115863800049e-02 3.719403222203254700e-02 6.156631559133529663e-02 -1.314175277948379517e-01 1.609589308500289917e-01 -1.271350085735321045e-01 -1.640107855200767517e-02 -1.980422809720039368e-02 -1.068119853734970093e-01 -1.090676039457321167e-01 1.725563593208789825e-02 -1.124953478574752808e-01 1.211571246385574341e-01 8.918211609125137329e-02 5.868434160947799683e-02 -2.733814716339111328e-02 -2.247896417975425720e-02 9.407754987478256226e-04 -7.254260033369064331e-02 4.573918879032135010e-02 1.749231815338134766e-01 8.275929093360900879e-02 9.231377393007278442e-02 4.542052745819091797e-02 2.940291911363601685e-02 -1.286796927452087402e-01 -6.059042364358901978e-02 -1.941285133361816406e-01 -2.385792694985866547e-02 8.816900104284286499e-02 -9.596624970436096191e-02 -7.523012906312942505e-02 -1.561325043439865112e-04 -1.372280716896057129e-02 -5.339644849300384521e-02 -1.284280568361282349e-01 -1.889452487230300903e-01 6.171369180083274841e-02 4.508306086063385010e-02 4.349867999553680420e-02 -2.820570953190326691e-02 3.374093398451805115e-02 6.571029871702194214e-02 -1.085217669606208801e-01 -5.433439463376998901e-02 2.047021687030792236e-02 -5.403332784771919250e-02 5.470729991793632507e-02 4.892233386635780334e-02 5.005702748894691467e-02 9.028533846139907837e-02 -9.123111516237258911e-02 -6.291460990905761719e-02 7.875150442123413086e-02 8.025293797254562378e-02 -4.216147959232330322e-02 -2.944392710924148560e-02 -6.385279446840286255e-02 -7.960885763168334961e-02 1.371578965336084366e-02 7.767986506223678589e-02 4.358424618840217590e-02 1.091144680976867676e-01 8.165025711059570312e-02 3.957378119230270386e-02 7.230766862630844116e-02 5.603681132197380066e-02 6.615207344293594360e-02 6.570842862129211426e-02 6.114521622657775879e-02 -6.118672713637351990e-02 -1.228305995464324951e-01 1.777560263872146606e-01 -6.282598525285720825e-02 5.063479766249656677e-03 8.074372261762619019e-02 1.496900455094873905e-03 6.322292238473892212e-02 6.812812387943267822e-02 3.369985893368721008e-02 -3.441789001226425171e-02 6.324915587902069092e-02 1.039191856980323792e-01 -2.217171341180801392e-02 6.560429930686950684e-02 4.050661250948905945e-02 -8.121003210544586182e-02 -5.659431964159011841e-02 -2.512712031602859497e-03 -1.251595318317413330e-01 -1.459361016750335693e-01 7.137767225503921509e-02 6.975682824850082397e-02 2.933458983898162842e-02 -8.425429463386535645e-02 -6.014331802725791931e-02 -6.464034318923950195e-02 -3.739295154809951782e-02 -5.885962769389152527e-02 -3.122437931597232819e-02 6.478191167116165161e-02 1.024311780929565430e-01 -1.562073826789855957e-02 -8.269509673118591309e-02 -2.888357266783714294e-02 -5.581780523061752319e-02 8.142253011465072632e-02 5.788261070847511292e-02 1.019346117973327637e-01 5.543491616845130920e-02 -1.016312539577484131e-01 7.257589697837829590e-02 6.698024272918701172e-02 5.233067274093627930e-02 -3.559856489300727844e-02 -1.067688502371311188e-02 2.972365543246269226e-02 -3.783815354108810425e-02 -6.261383742094039917e-02 1.072482392191886902e-01 2.359385602176189423e-02 1.025786921381950378e-01 -5.122102424502372742e-02 5.532415211200714111e-02 -5.163037404417991638e-02 7.113654166460037231e-02 1.860459335148334503e-02 4.139205068349838257e-02 1.359487324953079224e-01 1.231115832924842834e-01 1.241284012794494629e-01 -8.727175742387771606e-02 -1.953805424273014069e-02 5.319647490978240967e-02 -9.131748974323272705e-02 -3.603808581829071045e-03 -1.155467797070741653e-02 -1.179043203592300415e-01 4.201583191752433777e-02 9.196150302886962891e-02 3.615972027182579041e-02 -9.425221383571624756e-02 1.051984205842018127e-01 5.521597340703010559e-02 7.480100542306900024e-02 -8.295894414186477661e-02 3.805943951010704041e-02 4.611765593290328979e-02 3.161726146936416626e-02 -4.662520065903663635e-02 -6.626928690820932388e-03 1.042534336447715759e-01 9.560367465019226074e-02 1.574576087296009064e-02 4.332083463668823242e-02 5.677883327007293701e-02 -1.431428361684083939e-02 2.087593637406826019e-02 -8.594330400228500366e-02 -9.056450799107551575e-03 2.159508131444454193e-02 2.026701904833316803e-02 7.510475069284439087e-02 9.189206361770629883e-02 1.454373449087142944e-01 5.231434851884841919e-02 4.305803775787353516e-02 9.421935304999351501e-03 7.506198436021804810e-02 3.505672141909599304e-02 -2.396962419152259827e-02 4.073692485690116882e-02 -1.274060457944869995e-01 -8.388967067003250122e-02 -8.246918022632598877e-02 7.889854162931442261e-02 1.294898390769958496e-01 7.066792994737625122e-02 -1.114855930209159851e-01 9.375298023223876953e-02 1.325167268514633179e-01 1.218579560518264771e-01 -1.825299412012100220e-01 -1.731664687395095825e-01 -8.137263357639312744e-02 -1.693978533148765564e-02 -2.222475036978721619e-02 -1.594280153512954712e-01 1.183588206768035889e-01 -8.525172621011734009e-02 1.747392117977142334e-02 -1.784576177597045898e-01 1.844087541103363037e-01 6.779149174690246582e-02 -1.244792193174362183e-01 -7.922932505607604980e-02 8.345028758049011230e-02 -6.845527887344360352e-02 6.175041198730468750e-05 4.016736522316932678e-02 -3.703452274203300476e-02 -2.147382684051990509e-02 1.160288415849208832e-02 4.163533449172973633e-02 7.279193401336669922e-02 -3.274009004235267639e-02 -4.074882715940475464e-02 6.127753481268882751e-02 -8.731018006801605225e-02 1.597397774457931519e-01 -1.370779573917388916e-01 1.110182516276836395e-02 -6.746565550565719604e-02 -8.200163394212722778e-02 -4.676749184727668762e-02 -8.853233605623245239e-02 -2.110814861953258514e-02 9.593887627124786377e-02 4.459118843078613281e-02 -1.469394564628601074e-01 9.546697139739990234e-02 5.122197046875953674e-02 1.183636337518692017e-01 1.441296376287937164e-02 5.741063505411148071e-02 4.811771214008331299e-02 8.028697967529296875e-02 7.431889325380325317e-02 8.032099157571792603e-02 -9.618896245956420898e-02 -9.316954761743545532e-02 7.511821389198303223e-02 8.549167215824127197e-02 7.004387676715850830e-02 1.218262910842895508e-01 -7.011310011148452759e-02 -6.345311552286148071e-02 5.234452709555625916e-02 8.045916445553302765e-03 -9.058736264705657959e-02 -4.855692759156227112e-02 -1.391243487596511841e-01 -5.261776223778724670e-02 -3.538982570171356201e-02 -2.046769112348556519e-02 1.289930045604705811e-01 1.032598037272691727e-02 -2.092434018850326538e-01 -1.327916681766510010e-01 -7.206704467535018921e-02 4.446460306644439697e-02 3.365236893296241760e-02 2.501073991879820824e-03 5.936250463128089905e-02 -1.788884997367858887e-01 -1.161177754402160645e-01 8.962514996528625488e-02 -5.237056314945220947e-02 -7.037097960710525513e-02 5.230829492211341858e-02 -3.921620547771453857e-02 -5.023582838475704193e-03 -7.681459933519363403e-02 -1.028707697987556458e-01 -7.672376930713653564e-02 -7.857194542884826660e-02 9.802735596895217896e-02 -1.073440462350845337e-01 1.032711714506149292e-01 6.005873903632164001e-02 2.680580131709575653e-02 1.100073456764221191e-01 1.201157867908477783e-01 -9.293746203184127808e-02 8.580780774354934692e-02 9.325923025608062744e-02 -3.645120188593864441e-02 -6.880641728639602661e-02 -1.196315661072731018e-01 -2.168229594826698303e-02 6.154383718967437744e-02 2.824539691209793091e-02 -4.444004595279693604e-02 -1.271084696054458618e-01 -1.857581734657287598e-02 1.126844584941864014e-01 2.600459381937980652e-02 -1.200645789504051208e-01 -3.811540082097053528e-02 2.217965424060821533e-01 7.610169798135757446e-02 1.282156817615032196e-02 6.462315469980239868e-02 1.755887828767299652e-02 -1.281210631132125854e-01 -7.464806735515594482e-02 1.667491495609283447e-01 -1.147985756397247314e-01 -8.225703984498977661e-02 1.787127405405044556e-01 1.432455033063888550e-01 6.354016065597534180e-02 8.514261245727539062e-02 4.862333461642265320e-02 8.413506299257278442e-02 8.396624773740768433e-02 -9.054148197174072266e-02 -1.167836487293243408e-01 -5.771999433636665344e-02 -8.507043123245239258e-02 1.518254131078720093e-01 1.183897256851196289e-01 6.481991708278656006e-02 2.234835922718048096e-02 -5.767342075705528259e-02 -1.010032147169113159e-01 -1.967210322618484497e-02 7.518436014652252197e-02 7.199236750602722168e-02 1.953638345003128052e-01 -5.199155583977699280e-02 6.100217252969741821e-02 7.340636104345321655e-02 -1.135334745049476624e-01 -2.061172388494014740e-03 -7.851120829582214355e-02 7.147026062011718750e-02 6.741748750209808350e-02 -1.337953750044107437e-02 7.245733588933944702e-02 1.433287840336561203e-02 1.191705763339996338e-01 1.144727766513824463e-01 8.806979656219482422e-02 -1.391176041215658188e-02 -1.760418564081192017e-01 4.057100415229797363e-02 -3.751169890165328979e-02 2.597143314778804779e-02 1.250745654106140137e-01 2.247337624430656433e-02 1.231903061270713806e-01 -1.345665603876113892e-01 1.415141522884368896e-01 -4.163948819041252136e-02 8.503193408250808716e-02 9.145639091730117798e-02 -5.663070827722549438e-03 3.432225808501243591e-02 1.708078533411026001e-01 -5.190632119774818420e-02 1.168069839477539062e-01 4.658130183815956116e-02 9.604776650667190552e-02 -2.261740714311599731e-02 8.011279255151748657e-02 4.929776117205619812e-02 -7.218182832002639771e-02 1.142094470560550690e-02 2.660328708589076996e-02 1.207983642816543579e-01 3.461966663599014282e-02 1.267873942852020264e-01 -1.340702362358570099e-02 5.131798237562179565e-02 -1.330900788307189941e-01 -6.415067613124847412e-02 1.003859266638755798e-01 9.179024398326873779e-02 1.667458377778530121e-02 7.282562553882598877e-02 -2.033614926040172577e-02 4.431637376546859741e-02 -8.114425837993621826e-02 -7.775936275720596313e-02 -8.235204964876174927e-02 7.275604456663131714e-02 5.033964291214942932e-02 1.038808673620223999e-01 -4.661989212036132812e-02 1.225602403283119202e-01 -1.629839986562728882e-01 -9.683112800121307373e-02 8.913728594779968262e-02 8.965539932250976562e-02 1.560745388269424438e-01 -3.916262462735176086e-02 1.232704892754554749e-01 -5.614003166556358337e-02 9.507556259632110596e-02 -4.763098061084747314e-02 8.173636347055435181e-02 1.273182630538940430e-01 -2.738261222839355469e-02 8.424553275108337402e-02 -7.112768292427062988e-02 6.489837914705276489e-02 8.940891176462173462e-02 1.215549558401107788e-01 2.397754974663257599e-02 -1.093998476862907410e-01 -9.169476479291915894e-02 1.107293963432312012e-01 2.263844907283782959e-01 -6.142456084489822388e-02 9.997746348381042480e-02 -9.977192431688308716e-02 -7.971823215484619141e-03 9.969883412122726440e-02 -6.967370957136154175e-02 2.163494192063808441e-02 -7.176952064037322998e-02 7.108477503061294556e-02 1.402568966150283813e-01 9.730789810419082642e-02 -2.139201946556568146e-02 -4.393604770302772522e-02 5.888312123715877533e-03 1.266057938337326050e-01 8.031067997217178345e-02 1.239833161234855652e-01 6.313710659742355347e-02 5.158105120062828064e-02 1.293161232024431229e-02 -8.648509532213211060e-02 -1.583985835313796997e-01 -1.199922338128089905e-01 4.395216330885887146e-02 -3.024043515324592590e-03 -1.858198083937168121e-02 6.735068559646606445e-02 -4.286030679941177368e-02 6.902677565813064575e-02 1.261830776929855347e-01 5.677267909049987793e-02 8.372323960065841675e-02 1.104104593396186829e-01 4.023095592856407166e-02 7.763957232236862183e-02 1.548908203840255737e-01 6.868094205856323242e-02 8.901444077491760254e-02 8.135813474655151367e-02 2.553416602313518524e-02 1.124888211488723755e-01 -9.195197373628616333e-02 1.328455209732055664e-01 3.598332405090332031e-02 8.297131955623626709e-02 -1.293369680643081665e-01 -3.019253537058830261e-02 6.744142621755599976e-02 6.221287325024604797e-02 -1.006217151880264282e-01 1.589171215891838074e-02 -1.107465848326683044e-02 1.150969862937927246e-01 -6.276495009660720825e-02 -7.544097304344177246e-02 1.155947968363761902e-01 -7.770673930644989014e-02 1.394035965204238892e-01 -7.604235410690307617e-02 2.175762690603733063e-02 -2.682162821292877197e-02 -8.115047216415405273e-02 -6.448774784803390503e-02 -1.045457795262336731e-01 4.798951372504234314e-02 -1.994076557457447052e-02 6.791627407073974609e-02 3.558569401502609253e-02 -2.473277598619461060e-02 -6.031878665089607239e-02 -9.677346795797348022e-02 7.902324199676513672e-02 -7.718850672245025635e-02 -2.217295952141284943e-02 1.018826216459274292e-01 -2.550476044416427612e-02 -1.005520522594451904e-01 8.567515015602111816e-02 7.139284908771514893e-02 -4.980647563934326172e-02 6.862133741378784180e-02 1.352477632462978363e-02 -1.404528766870498657e-01 1.255957335233688354e-01 -1.013238355517387390e-02 5.506480857729911804e-02 -4.948625341057777405e-02 -3.368086740374565125e-02 4.722819849848747253e-02 5.733767524361610413e-02 8.851009607315063477e-02 -4.359062761068344116e-02 1.061197593808174133e-01 3.563961014151573181e-03 1.979111693799495697e-02 -8.608219027519226074e-02 -3.247140720486640930e-02 -1.314450353384017944e-01 5.050626397132873535e-02 -1.831061206758022308e-02 8.880636096000671387e-02 4.808953031897544861e-02 1.173876300454139709e-01 -8.754077553749084473e-02 -9.122187271714210510e-03 -1.390923745930194855e-02 1.038779132068157196e-02 4.787072166800498962e-02 -5.516970995813608170e-03 1.160019543021917343e-03 1.019112169742584229e-01 3.139777481555938721e-02 4.829102382063865662e-02 7.577166706323623657e-02 7.372134923934936523e-02 -5.993453040719032288e-02 6.271063536405563354e-02 -6.377759855240583420e-03 -9.687082469463348389e-02 4.449432343244552612e-02 -2.260690368711948395e-02 4.108750447630882263e-02 -7.623696327209472656e-02 1.106490865349769592e-01 9.464183449745178223e-02 1.012137532234191895e-01 9.238431230187416077e-04 3.206485882401466370e-02 -1.946017444133758545e-01 -9.664822369813919067e-02 9.971169382333755493e-02 8.507804572582244873e-02 -6.841724365949630737e-02 3.296932950615882874e-02 6.434897333383560181e-02 -1.115876063704490662e-01 6.998677551746368408e-02 -1.098393127322196960e-01 6.167585030198097229e-02 1.984844729304313660e-02 1.034864932298660278e-01 1.168918609619140625e-01 -1.201235949993133545e-01 -1.187101155519485474e-01 -3.092625550925731659e-02 1.049740612506866455e-02 4.790149629116058350e-02 5.058420076966285706e-02 1.719216853380203247e-01 8.798954635858535767e-02 2.733356319367885590e-02 -7.444807142019271851e-02 -1.349964290857315063e-01 -3.761189058423042297e-02 -8.359405398368835449e-02 7.865528762340545654e-02 -3.018443286418914795e-02 -1.664594560861587524e-01 6.774345785379409790e-02 -1.206351220607757568e-01 -1.484794020652770996e-01 -3.394295647740364075e-02 6.871043145656585693e-02 -4.122095555067062378e-02 7.757427543401718140e-02 7.251264154911041260e-02 -8.203499019145965576e-02 1.093310490250587463e-01 1.049060150980949402e-01 7.062039524316787720e-02 -1.766879111528396606e-01 -5.071312934160232544e-02 -8.520758152008056641e-02 9.033319354057312012e-02 9.575578570365905762e-02 5.798907484859228134e-03 8.836685121059417725e-02 6.224660947918891907e-02 -6.845869868993759155e-02 1.167991086840629578e-01 3.235269337892532349e-02 6.378027796745300293e-02 -1.694329641759395599e-02 7.698854058980941772e-02 -8.344174921512603760e-02 8.185842633247375488e-02 -8.252615481615066528e-02 -1.737185418605804443e-01 -1.019609346985816956e-01 1.025045104324817657e-02 -6.936972588300704956e-02 9.699831902980804443e-02 -4.899758845567703247e-02 -5.640531703829765320e-02 -9.921342879533767700e-02 4.649419710040092468e-02 -6.605146080255508423e-02 -8.687222003936767578e-02 -1.351656392216682434e-02 1.227722018957138062e-01 8.050770312547683716e-02 8.859099447727203369e-02 1.738431900739669800e-01 2.281687222421169281e-02 1.041377522051334381e-02 -4.694973304867744446e-02 -7.937389612197875977e-02 1.067684143781661987e-01 4.108303040266036987e-02 9.680051356554031372e-02 -3.782444819808006287e-02 3.482317924499511719e-02 8.219604194164276123e-02 9.786704182624816895e-02 8.609370887279510498e-02 6.850268691778182983e-02 6.308866292238235474e-02 -1.720171421766281128e-01 -8.178026974201202393e-02 1.079072244465351105e-02 -1.352649480104446411e-01 1.268076300621032715e-01 1.743821799755096436e-01 1.666196994483470917e-02 -6.179545447230339050e-02 1.057771220803260803e-01 1.078916490077972412e-01 2.358782850205898285e-02 -1.438432335853576660e-01 6.279591005295515060e-03 -1.035583540797233582e-01 -2.765563316643238068e-02 1.644324958324432373e-01 1.014969497919082642e-01 7.331295311450958252e-02 -1.714914478361606598e-02 -2.274617925286293030e-02 4.002147540450096130e-02 -3.774096071720123291e-02 9.216754883527755737e-02 4.767694696784019470e-02 4.381824284791946411e-02 6.622175127267837524e-02 4.667742550373077393e-02 3.285193443298339844e-02 -7.613368332386016846e-02 -6.695805490016937256e-02 -2.738488651812076569e-02 -9.987530112266540527e-02 6.314783543348312378e-02 -4.865544661879539490e-02 1.486211121082305908e-01 1.274977326393127441e-01 6.618367135524749756e-02 9.555768966674804688e-02 1.231390461325645447e-01 8.601540327072143555e-02 -8.023658394813537598e-02 -2.176935076713562012e-01 -1.848668418824672699e-02 1.870498508214950562e-01 1.020628064870834351e-01 8.931352198123931885e-02 1.010073572397232056e-01 9.835416823625564575e-02 9.033922851085662842e-02 9.956181049346923828e-02 -2.388357557356357574e-02 1.044756695628166199e-01 4.600044712424278259e-02 2.114195749163627625e-02 4.335435107350349426e-02 -6.720402091741561890e-02 -4.960086196660995483e-02 1.836544424295425415e-01 8.084195852279663086e-02 1.683849245309829712e-01 1.016923189163208008e-01 -9.394388645887374878e-02 -6.609606742858886719e-02 1.210992932319641113e-01 -4.202742502093315125e-02 -7.896942645311355591e-02 3.046092391014099121e-02 -1.917619258165359497e-02 5.141324549913406372e-02 1.585640013217926025e-01 9.447035938501358032e-02 -1.631130427122116089e-01 1.109102219343185425e-01 2.023440040647983551e-02 3.623912110924720764e-02 -8.654963225126266479e-02 -4.684161767363548279e-02 -4.667440801858901978e-02 -4.281501471996307373e-02 -1.305549684911966324e-02 7.820162922143936157e-02 2.508339658379554749e-02 6.369122117757797241e-02 6.290169060230255127e-02 1.149315536022186279e-01 1.169993653893470764e-01 1.322954744100570679e-01 3.466237336397171021e-02 7.381685823202133179e-02 -6.251790374517440796e-02 -8.207864314317703247e-02 -7.822985202074050903e-02 -1.682777702808380127e-01 -1.563638262450695038e-02 8.351939916610717773e-02 -5.487464368343353271e-02 7.216522842645645142e-02 -4.189967364072799683e-02 -8.208191394805908203e-02 5.210486426949501038e-02 7.438489794731140137e-02 1.153704430907964706e-02 -2.314509451389312744e-02 9.909413754940032959e-02 -5.644837394356727600e-03 7.813233882188796997e-02 -1.542635355144739151e-02 8.118431270122528076e-02 2.237686365842819214e-01 -6.098671257495880127e-02 -4.345881566405296326e-02 -1.133601069450378418e-01 -9.356833994388580322e-02 -9.927752614021301270e-02 -1.185632497072219849e-01 9.504482150077819824e-04 7.181522250175476074e-02 -2.660802192986011505e-02 5.683455243706703186e-02 -9.551128745079040527e-02 -6.069764122366905212e-02 -1.061331555247306824e-01 -2.072666771709918976e-02 -8.022036403417587280e-02 -1.011612340807914734e-01 -3.538288176059722900e-02 7.667846232652664185e-02 4.906009137630462646e-02 4.215473681688308716e-02 1.088814251124858856e-02 -1.024511680006980896e-01 7.587414979934692383e-02 -1.345273479819297791e-02 1.030374690890312195e-01 -4.494501277804374695e-02 -4.636406153440475464e-02 5.360779911279678345e-02 4.791810736060142517e-02 7.985277473926544189e-02 -1.112326309084892273e-01 -8.991606533527374268e-02 -2.950577065348625183e-02 1.363901793956756592e-01 9.012961387634277344e-02 4.499480873346328735e-02 -1.037399843335151672e-01 -5.368194729089736938e-02 7.738121598958969116e-02 8.453795313835144043e-02 8.959176950156688690e-03 -3.473489731550216675e-02 -6.217117980122566223e-02 6.972146779298782349e-02 -4.914530739188194275e-02 -7.942450791597366333e-02 1.194215491414070129e-01 1.045917645096778870e-01 -6.488315016031265259e-02 -5.469109490513801575e-02 1.047342494130134583e-01 1.348633915185928345e-01 8.155974000692367554e-02 9.083151072263717651e-02 8.071178197860717773e-02 4.563087970018386841e-02 -7.874669879674911499e-02 1.131299361586570740e-01 4.963910579681396484e-02 9.167636185884475708e-02 -4.690340161323547363e-02 1.122391521930694580e-01 5.595473945140838623e-02 1.428715325891971588e-02 8.938295394182205200e-02 5.962978675961494446e-02 3.751223534345626831e-02 1.634155213832855225e-01 -1.473987102508544922e-01 3.923242911696434021e-02 7.071544975042343140e-02 8.474241942167282104e-02 6.261458247900009155e-02 2.339314110577106476e-02 -9.615471959114074707e-02 3.944458067417144775e-02 9.248131513595581055e-02 6.149228289723396301e-02 7.713253051042556763e-02 -1.365654170513153076e-01 3.916483744978904724e-02 -7.825096696615219116e-02 6.913292407989501953e-02 3.051382303237915039e-02 1.071125641465187073e-01 1.249882206320762634e-01 -1.501118242740631104e-01 -7.963337749242782593e-02 6.052367761731147766e-02 1.762091368436813354e-01 -1.337580084800720215e-01 1.310659050941467285e-01 -9.481123089790344238e-02 -5.863708257675170898e-02 -1.289657056331634521e-01 -1.178197115659713745e-01 -1.138274278491735458e-02 -1.034290045499801636e-01 -8.198288828134536743e-02 5.374698340892791748e-02 2.004710957407951355e-02 8.403075486421585083e-02 8.414040505886077881e-02 -8.658158034086227417e-02 1.230404973030090332e-01 2.122195623815059662e-02 -3.485152497887611389e-02 -7.712350785732269287e-02 -3.951754048466682434e-02 1.250772178173065186e-01 -5.292108282446861267e-02 -1.364721059799194336e-01 -1.002865433692932129e-01 -1.069828402251005173e-02 1.384331583976745605e-01 8.727960288524627686e-02 8.536165207624435425e-02 8.899599313735961914e-02 7.259280234575271606e-02 1.224899068474769592e-01 8.108416944742202759e-02 -1.380922943353652954e-01 3.546960279345512390e-02 -1.157304272055625916e-01 -9.669865667819976807e-02 9.547118842601776123e-02 -1.482708454132080078e-01 -1.424496322870254517e-01 5.674517154693603516e-02 -1.706180572509765625e-01 -8.693654835224151611e-02 7.231535762548446655e-02 -3.724817186594009399e-03 -1.431323438882827759e-01 -7.666873745620250702e-03 7.292272895574569702e-02 6.851744651794433594e-02 9.423305094242095947e-02 4.905393347144126892e-02 1.249078009277582169e-02 -1.049851328134536743e-01 -4.969213157892227173e-02 9.122503548860549927e-02 -9.817393124103546143e-02 8.807941526174545288e-02 -1.871264912188053131e-02 3.685646504163742065e-02 -4.964629933238029480e-02 -1.511318534612655640e-01 -8.200314640998840332e-02 7.763378322124481201e-02 9.394366294145584106e-02 5.651954188942909241e-02 4.348797351121902466e-02 6.402530521154403687e-02 -4.557999223470687866e-02 -4.332926124334335327e-02 -3.525918349623680115e-02 -3.234621137380599976e-02 7.369001954793930054e-02 -1.001313403248786926e-01 -8.857019990682601929e-02 1.469032615423202515e-01 -4.261307418346405029e-02 8.685164153575897217e-02 -1.614502817392349243e-01 6.386300176382064819e-02 -5.962683260440826416e-02 -6.179940328001976013e-02 6.947145611047744751e-02 4.148769006133079529e-02 -8.534461259841918945e-02 7.039540261030197144e-02 9.019320458173751831e-02 4.964229464530944824e-02 -7.102184742689132690e-02 7.282869517803192139e-02 7.646520435810089111e-02 -8.305908180773258209e-03 4.912916943430900574e-02 4.077972471714019775e-02 5.866316333413124084e-02 7.483308762311935425e-02 -6.867312639951705933e-02 2.060098387300968170e-02 -2.302230335772037506e-02 9.147749096155166626e-02 1.609097979962825775e-02 -6.569717079401016235e-02 3.975487872958183289e-02 8.555693179368972778e-02 7.682979851961135864e-02 7.949404418468475342e-02 9.535934031009674072e-02 1.013973951339721680e-01 6.958807259798049927e-02 7.161801308393478394e-02 8.949911594390869141e-02 9.331923723220825195e-02 1.656854897737503052e-01 4.988158121705055237e-02 -4.443900659680366516e-02 -6.336539238691329956e-02 -7.133422046899795532e-02 -8.304645121097564697e-02 -4.356250539422035217e-02 2.569822594523429871e-03 -9.623249620199203491e-02 1.195198576897382736e-02 1.194584742188453674e-01 7.468858361244201660e-02 5.165852978825569153e-02 1.510813273489475250e-02 5.713751912117004395e-02 9.877838194370269775e-02 -1.257086992263793945e-01 -8.874750882387161255e-02 1.124090850353240967e-01 -1.164686959236860275e-02 -3.710198774933815002e-02 -2.467489615082740784e-02 2.475593984127044678e-02 -4.807846248149871826e-02 6.055452674627304077e-02 -7.020908594131469727e-02 1.071466431021690369e-01 -7.677581906318664551e-02 -1.531506627798080444e-01 5.969738215208053589e-02 -5.766169168055057526e-03 7.618192583322525024e-02 1.110869646072387695e-01 1.112615019083023071e-01 6.620947271585464478e-02 1.553173214197158813e-01 1.180324926972389221e-01 -9.393159300088882446e-02 -1.706723868846893311e-02 5.697089806199073792e-02 1.014967411756515503e-01 -8.739297091960906982e-02 7.616584748029708862e-02 -7.459380477666854858e-02 4.496691748499870300e-02 -3.330187872052192688e-03 7.632292807102203369e-02 6.381265074014663696e-02 1.237752735614776611e-01 1.959652304649353027e-01 -7.151994854211807251e-02 3.116370737552642822e-02 -3.529605269432067871e-02 -2.440996468067169189e-02 7.180660963058471680e-02 6.966771930456161499e-02 8.315197192132472992e-03 8.505995571613311768e-02 -1.731218993663787842e-01 7.984571903944015503e-02 -5.059098452329635620e-02 -6.250249594449996948e-02 7.685083895921707153e-02 1.843438856303691864e-02 -2.060005208477377892e-03 -2.322548627853393555e-02 6.978204846382141113e-02 -8.553452789783477783e-03 -4.987872391939163208e-02 5.065305158495903015e-02 1.577483862638473511e-01 3.383491188287734985e-02 -6.326694786548614502e-02 -8.998484909534454346e-02 3.564414381980895996e-02 -2.001213096082210541e-02 7.775624096393585205e-02 8.187660574913024902e-02 5.171451345086097717e-02 -1.223654225468635559e-01 3.983612731099128723e-02 -1.720245182514190674e-02 3.173888474702835083e-02 -2.408782765269279480e-02 5.151676014065742493e-02 6.810071319341659546e-02 -6.870332360267639160e-02 9.646656364202499390e-02 -3.562725707888603210e-02 4.382047057151794434e-02 5.126640200614929199e-02 9.305013716220855713e-02 6.428154557943344116e-02 3.939809277653694153e-02 -6.085745617747306824e-02 4.288828372955322266e-02 9.500443935394287109e-02 9.492558985948562622e-02 5.667709559202194214e-02 -1.443985104560852051e-02 -2.020413726568222046e-01 4.546299576759338379e-02 -9.564972668886184692e-02 1.263879835605621338e-01 1.239681094884872437e-01 1.193071007728576660e-01 6.696237623691558838e-02 2.529594115912914276e-02 4.709809646010398865e-02 5.165106058120727539e-02 -2.981107495725154877e-02 6.252272427082061768e-02 -1.570215448737144470e-02 7.691095769405364990e-02 1.168119087815284729e-01 1.017675697803497314e-01 3.998446092009544373e-02 -8.321313560009002686e-02 1.090779975056648254e-01 1.046353280544281006e-01 -7.818400859832763672e-02 5.817867815494537354e-03 6.840550154447555542e-02 6.780975311994552612e-02 1.641182042658329010e-02 3.226169198751449585e-02 -2.042029052972793579e-02 5.050670728087425232e-02 5.457123368978500366e-02 2.423037961125373840e-02 8.558499813079833984e-02 -1.105717793107032776e-01 -4.613525792956352234e-02 3.192213922739028931e-02 4.835784435272216797e-02 -6.121774390339851379e-02 6.180098280310630798e-02 -2.922868542373180389e-02 6.466064602136611938e-02 7.957448065280914307e-02 -8.454367518424987793e-02 -8.589550107717514038e-02 -7.717199623584747314e-02 7.193375378847122192e-02 6.989193707704544067e-02 1.298362668603658676e-02 9.668649733066558838e-02 -1.185765042901039124e-01 1.542419642210006714e-01 -7.814064621925354004e-03 -3.779388591647148132e-02 6.392844766378402710e-02 8.711642026901245117e-02 -5.652797967195510864e-02 -1.587750017642974854e-01 -5.943868309259414673e-02 9.459957480430603027e-02 8.532531559467315674e-02 6.061807647347450256e-02 9.424319863319396973e-02 1.039018258452415466e-01 2.681209705770015717e-02 4.425952583551406860e-02 -5.318316444754600525e-02 -1.171853989362716675e-01 -3.139247372746467590e-02 -9.833989292383193970e-02 -4.889037087559700012e-02 7.617240399122238159e-02 1.439424604177474976e-01 9.526849538087844849e-02 -2.604341693222522736e-02 8.208473026752471924e-02 5.470541864633560181e-02 -1.086398586630821228e-01 -9.726849198341369629e-02 2.521521411836147308e-02 3.905551508069038391e-02 5.399778857827186584e-02 6.453705579042434692e-02 -3.019442781805992126e-02 -9.547561407089233398e-03 7.912283390760421753e-02 5.075894668698310852e-02 6.072532758116722107e-02 1.670345962047576904e-01 -5.057332664728164673e-02 1.073336526751518250e-01 6.603503599762916565e-03 1.462676525115966797e-01 6.020402163267135620e-02 3.213234618306159973e-02 1.609740033745765686e-02 -2.283251844346523285e-02 1.241547018289566040e-01 -2.605818957090377808e-02 -4.700313508510589600e-02 7.368945330381393433e-02 7.212024927139282227e-02 1.073342487215995789e-01 1.518086716532707214e-02 5.439632758498191833e-02 8.774840086698532104e-02 -9.547244757413864136e-02 -4.429834336042404175e-02 -6.110860034823417664e-03 -7.795301079750061035e-02 2.313190139830112457e-02 7.818198949098587036e-02 7.084533572196960449e-02 7.987660914659500122e-02 8.787574619054794312e-02 -9.836674481630325317e-02 -1.144522875547409058e-01 -1.696399226784706116e-02 -7.944180071353912354e-02 -9.562838822603225708e-02 -3.764482587575912476e-02 -1.019553467631340027e-01 6.127875298261642456e-02 3.211287781596183777e-03 -1.300345361232757568e-01 6.671449542045593262e-02 -1.307818200439214706e-02 -5.964478477835655212e-03 3.655293583869934082e-02 9.371729940176010132e-02 -4.225930199027061462e-03 9.716282039880752563e-02 5.843788757920265198e-02 7.045318931341171265e-02 1.058006584644317627e-01 1.389809101819992065e-01 7.404577732086181641e-02 -6.834089756011962891e-02 8.884764462709426880e-02 5.233456194400787354e-02 5.778663232922554016e-02 -8.641864359378814697e-02 6.127415224909782410e-02 -1.830556243658065796e-02 5.892237275838851929e-02 1.150549668818712234e-02 -5.425594002008438110e-02 7.572086900472640991e-02 6.726813316345214844e-02 -1.092454344034194946e-01 1.764881983399391174e-02 1.640687435865402222e-01 7.304751873016357422e-02 5.639401450753211975e-02 -2.715347334742546082e-02 1.232510060071945190e-01 -8.071050792932510376e-02 -1.299679130315780640e-01 6.278863549232482910e-02 6.960522383451461792e-02 1.518633216619491577e-01 4.199258610606193542e-02 1.075384840369224548e-01 -8.232352882623672485e-02 -1.664502732455730438e-02 2.134652622044086456e-02 -3.780459985136985779e-02 -1.785210706293582916e-02 4.935525730252265930e-02 7.216864824295043945e-02 4.588285833597183228e-02 6.854448467493057251e-02 1.119502037763595581e-01 3.533215448260307312e-02 8.597263693809509277e-02 6.303604692220687866e-02 -9.857665747404098511e-02 -1.323529239743947983e-02 -4.868370667099952698e-02 -1.859569363296031952e-02 3.131972625851631165e-02 5.531954392790794373e-02 4.709308594465255737e-02 -1.019771397113800049e-01 4.186967853456735611e-03 -5.140094459056854248e-02 1.872575581073760986e-01 3.645319491624832153e-02 8.223810046911239624e-02 1.051922962069511414e-01 7.073801010847091675e-02 7.934148609638214111e-02 1.035638749599456787e-01 4.615768045186996460e-02 8.903557807207107544e-02 4.337674006819725037e-02 1.016001328825950623e-01 4.760096967220306396e-02 -9.813852608203887939e-02 -7.835087180137634277e-02 7.424538582563400269e-02 2.611356414854526520e-02 -4.530009627342224121e-02 3.068464621901512146e-02 6.526142358779907227e-02 5.112918559461832047e-03 9.282974153757095337e-02 1.181205511093139648e-01 3.849213570356369019e-02 1.115166470408439636e-01 6.856587529182434082e-02 8.033366501331329346e-02 -1.901200860738754272e-01 -1.048425063490867615e-01 8.904622495174407959e-02 1.219880282878875732e-01 9.651955962181091309e-02 1.033814921975135803e-01 1.556361913681030273e-01 3.965130448341369629e-02 1.910586059093475342e-01 1.892461627721786499e-02 1.217014268040657043e-01 6.587103009223937988e-02 -4.170377925038337708e-02 -8.203983306884765625e-02 1.380027681589126587e-01 5.140266939997673035e-02 7.472150772809982300e-02 7.053112983703613281e-02 4.317471757531166077e-02 4.703163355588912964e-02 4.807516559958457947e-02 5.853775888681411743e-02 7.464242726564407349e-02 4.739627614617347717e-02 7.426566630601882935e-02 4.921358078718185425e-02 7.057963311672210693e-02 7.254408299922943115e-02 2.577552199363708496e-02 8.554984629154205322e-02 -4.445451498031616211e-02 -9.101549535989761353e-02 6.771530956029891968e-02 4.838223010301589966e-02 1.018572002649307251e-01 -5.614464730024337769e-02 5.481237545609474182e-02 5.061362683773040771e-02 8.793363720178604126e-02 3.870341181755065918e-02 2.280373871326446533e-02 -6.061274558305740356e-02 9.984535723924636841e-02 8.740659058094024658e-02 -1.591753959655761719e-02 7.337174564599990845e-02 3.605276346206665039e-02 7.882569730281829834e-02 -3.555332124233245850e-02 4.664008691906929016e-02 7.756062597036361694e-02 6.964905560016632080e-02 7.155913859605789185e-02
-8.461320400238037109e-02 -8.034859597682952881e-02 -2.382051758468151093e-02 3.545868024230003357e-02 4.707537218928337097e-02 9.596329927444458008e-02 -9.723577648401260376e-03 -9.968291223049163818e-02 -1.239980161190032959e-01 3.300858370494097471e-04 1.007398366928100586e-01 6.952668726444244385e-02 -2.900635451078414917e-02 4.229590669274330139e-02 6.605076044797897339e-02 1.283055096864700317e-01 1.262339800596237183e-01 -7.637842744588851929e-02 -5.812890082597732544e-02 9.944139420986175537e-02 9.183523058891296387e-02 1.524702757596969604e-01 9.483517706394195557e-02 5.637311190366744995e-02 9.174712747335433960e-02 -1.234498471021652222e-01 -8.513393998146057129e-02 -2.085097320377826691e-02 -1.177624985575675964e-01 9.656093269586563110e-02 8.841781318187713623e-02 1.042477935552597046e-01 9.208363294601440430e-02 7.441915571689605713e-02 1.077843755483627319e-01 6.003352627158164978e-02 1.311869360506534576e-02 -6.892802566289901733e-02 1.299316138029098511e-01 9.056027233600616455e-02 5.826603621244430542e-02 2.978878654539585114e-02 -4.971541836857795715e-02 7.313895970582962036e-02 1.091526523232460022e-01 8.924040198326110840e-02 1.186482161283493042e-01 2.075632102787494659e-02 2.868855372071266174e-02 -5.118229612708091736e-02 5.241393577307462692e-03 -2.713565342128276825e-02 8.534776419401168823e-02 1.052527874708175659e-01 4.455426335334777832e-02 1.005960181355476379e-01 -6.759180128574371338e-02 -1.624331064522266388e-02 4.955193027853965759e-02 3.121301159262657166e-02 6.647684425115585327e-02 1.192994415760040283e-01 1.029962077736854553e-01 -5.092619685456156731e-04 -1.195110939443111420e-02 1.112223118543624878e-01 1.658607274293899536e-02 5.765549838542938232e-02 9.490834921598434448e-02 1.108457818627357483e-01 -9.096182137727737427e-02 7.794485241174697876e-02 -1.068676449358463287e-02 2.266325801610946655e-01 1.966299861669540405e-02 -1.325091868638992310e-01 5.491611361503601074e-02 2.551621012389659882e-02 1.958769134944304824e-04 1.796394735574722290e-01 -5.358577892184257507e-02 2.743032947182655334e-02 5.763719230890274048e-02 6.060850247740745544e-02 1.940586976706981659e-02 3.764388849958777428e-03 1.051879078149795532e-01 -1.099590808153152466e-01 1.334758102893829346e-01 7.909087464213371277e-03 1.250160932540893555e-01 1.085490211844444275e-01 3.596725687384605408e-02 4.421757534146308899e-02 1.318971998989582062e-02 2.909219823777675629e-02 1.309302896261215210e-01 8.031608909368515015e-02 -1.221763193607330322e-01 2.633159048855304718e-02 -5.049327760934829712e-02 6.231596693396568298e-02 6.066256016492843628e-02 7.908503711223602295e-02 -5.762193724513053894e-02 6.162193417549133301e-02 -2.630348503589630127e-02 -3.088412573561072350e-03 -1.609321087598800659e-01 3.235656768083572388e-02 6.437448412179946899e-02 -1.317230910062789917e-01 7.489746809005737305e-02 1.319561898708343506e-01 3.426965326070785522e-02 1.172823645174503326e-02 3.611384332180023193e-02 8.652631938457489014e-02 3.299858421087265015e-02 -2.115875855088233948e-02 8.157204091548919678e-02 1.025581434369087219e-01 6.661839783191680908e-02 8.152255415916442871e-02 1.570402644574642181e-02 -1.312393397092819214e-01 1.527518965303897858e-02 -3.737811744213104248e-02 -1.145401448011398315e-01 2.643313072621822357e-02 -7.312233000993728638e-02 1.035202741622924805e-01 -2.338527888059616089e-02 1.081665605306625366e-01 7.851456850767135620e-02 6.695289909839630127e-02 -1.077579427510499954e-02 1.221437007188796997e-01 7.855216413736343384e-02 9.040907770395278931e-02 5.914206430315971375e-02 5.968425422906875610e-02 6.081973016262054443e-02 1.130792647600173950e-01 5.095560848712921143e-02 -4.465427249670028687e-03 9.406935423612594604e-02 1.421523094177246094e-01 3.714998438954353333e-02 1.310759931802749634e-01 -4.489079117774963379e-03 2.750322222709655762e-02 1.901589147746562958e-02 3.124079480767250061e-02 2.871959842741489410e-02 3.752663731575012207e-02 9.463350474834442139e-02 -4.633564502000808716e-03 9.611248224973678589e-02 9.034432470798492432e-02 7.344990223646163940e-02 4.769020527601242065e-02 -2.263928204774856567e-02 -8.597196638584136963e-02 2.373178116977214813e-02 3.037508018314838409e-02 1.864116638898849487e-04 -2.072153240442276001e-02 3.233016282320022583e-02 1.068242788314819336e-01 7.284890860319137573e-02 6.347150355577468872e-02 1.167520135641098022e-01 -1.005853042006492615e-01 -3.231961652636528015e-02 -4.087736830115318298e-03 2.167876064777374268e-02 3.861515969038009644e-02 -1.639132387936115265e-02 4.040196537971496582e-02 1.658651828765869141e-01 4.466500878334045410e-02 7.560423761606216431e-02 -7.283656857907772064e-03 7.589613646268844604e-02 3.003005986101925373e-04 -1.335319280624389648e-01 -2.788290195167064667e-02 -1.426029764115810394e-02 -1.077045872807502747e-01 5.663736164569854736e-02 5.358266830444335938e-02 7.324270159006118774e-02 6.081200763583183289e-02 8.978389203548431396e-02 6.500055547803640366e-03 9.610996395349502563e-02 7.965233922004699707e-02 7.804318517446517944e-02 8.836308866739273071e-02 1.174253076314926147e-01 5.341985821723937988e-02 -5.700398981571197510e-02 6.393201649188995361e-02 7.243368774652481079e-02 9.654451161623001099e-02 5.658395960927009583e-02 -1.275843083858489990e-01 8.716617524623870850e-02 1.228901445865631104e-01 -2.469989471137523651e-02 -1.442355066537857056e-01 -1.790764555335044861e-02 7.282477617263793945e-02 1.256067454814910889e-01 -1.264112303033471107e-03 1.825473755598068237e-01 1.375389844179153442e-01 4.903654754161834717e-02 1.227092836052179337e-02 3.702431917190551758e-02 8.120887726545333862e-02 4.712248593568801880e-02 6.783695518970489502e-02 -1.483643520623445511e-02 -1.229603886604309082e-01 5.138875171542167664e-02 7.909929007291793823e-02 -3.421446308493614197e-02 -2.416749857366085052e-02 4.542720690369606018e-02 3.990224748849868774e-02 9.287460148334503174e-02 7.846444845199584961e-02 6.068047136068344116e-02 1.033221930265426636e-01 9.656170755624771118e-02 7.786144316196441650e-02 6.661453843116760254e-02 7.031461596488952637e-02 1.139222830533981323e-01 1.134340167045593262e-01 3.660548105835914612e-02 5.463231727480888367e-02 2.383629418909549713e-02 1.103327050805091858e-01 -5.443159118294715881e-02 -5.904566496610641479e-03 9.397742152214050293e-02 8.092120289802551270e-02 6.806165724992752075e-02 -2.243990078568458557e-02 9.276625514030456543e-02 1.356973499059677124e-01 -3.129057213664054871e-02 4.403821751475334167e-02 7.480616122484207153e-02 -5.693612620234489441e-02 1.505877822637557983e-01 -4.452985897660255432e-02 -1.316224504262208939e-02 4.696391522884368896e-03 -5.632122606039047241e-02 -1.011026054620742798e-01 -9.874804317951202393e-02 -1.120676398277282715e-01 5.776960775256156921e-02 1.011785864830017090e-01 7.979991286993026733e-02 -4.708668962121009827e-02 -2.589881978929042816e-02 -4.142339155077934265e-02 -4.762507975101470947e-02 8.364125341176986694e-02 1.151251941919326782e-01 1.090542450547218323e-01 1.604333966970443726e-01 4.864546284079551697e-02 3.546970710158348083e-02 -1.343381851911544800e-01 -2.118651010096073151e-02 9.119470417499542236e-02 3.208614513278007507e-02 1.353618055582046509e-01 6.621556729078292847e-02 2.821923978626728058e-02 5.284425616264343262e-02 -7.229153532534837723e-03 6.185363233089447021e-02 -1.514329016208648682e-01 1.325387358665466309e-01 7.366992533206939697e-02 5.814665928483009338e-02 4.786683991551399231e-02 -3.152849525213241577e-02 2.069452777504920959e-02 4.995222389698028564e-02 8.940956741571426392e-02 6.206738948822021484e-02 3.621578589081764221e-02 5.650138109922409058e-02 8.651238679885864258e-02 3.878508880734443665e-02 4.624876752495765686e-02 7.584806531667709351e-02 -3.060215897858142853e-02 -6.033628061413764954e-02 8.459762483835220337e-02 4.840639233589172363e-02 5.992510914802551270e-02 -4.142911732196807861e-02 -8.722665905952453613e-02 -6.781314313411712646e-02 5.689388141036033630e-03 9.677471220493316650e-02 9.550812840461730957e-02 1.621691286563873291e-01 -1.734923757612705231e-02 5.118339881300926208e-02 6.204794347286224365e-02 1.115061566233634949e-01 1.277507748454809189e-03 5.421053245663642883e-02 6.927160080522298813e-03 -7.992520928382873535e-02 1.160224601626396179e-01 -4.053862020373344421e-02 -6.212304159998893738e-02 -7.643376942723989487e-03 4.882998019456863403e-02 -1.774859614670276642e-02 7.829842716455459595e-02 1.751631125807762146e-02 4.702272638678550720e-02 -8.733183145523071289e-03 1.198741123080253601e-01 1.167660206556320190e-01 -1.677186228334903717e-02 8.874665945768356323e-02 -2.295231074094772339e-02 -1.024936065077781677e-01 9.442628175020217896e-02 3.081425093114376068e-02 7.259025424718856812e-02 1.094811260700225830e-01 5.192315205931663513e-02 3.761662170290946960e-02 1.081918179988861084e-02 3.181442990899085999e-02 6.460927426815032959e-02 -9.071463346481323242e-02 -8.203452080488204956e-02 -2.074635028839111328e-01 1.718096062541007996e-02 7.163331657648086548e-02 8.674839138984680176e-02 5.598110146820545197e-03 -4.027745127677917480e-02 -7.610619813203811646e-02 -1.112210229039192200e-01 6.622749567031860352e-02 7.155455648899078369e-02 -7.577256113290786743e-02 -6.524941325187683105e-02 -8.916404098272323608e-02 7.428421080112457275e-02 6.295213848352432251e-02 5.952284857630729675e-02 -5.228558555245399475e-02 -1.824165880680084229e-02 1.671014726161956787e-02 -3.815027698874473572e-02 -4.040259122848510742e-02 1.155399009585380554e-01 5.742366611957550049e-02 1.778641343116760254e-01 9.959311038255691528e-02 5.524767562747001648e-02 -5.192539468407630920e-02 6.293135136365890503e-02 1.955075562000274658e-02 2.542708627879619598e-02 1.344083547592163086e-01 1.256993412971496582e-01 1.259441226720809937e-01 6.664859503507614136e-02 -1.465041842311620712e-02 3.355122730135917664e-02 -1.298044621944427490e-01 -7.885774597525596619e-03 -1.104594692587852478e-01 9.130823612213134766e-02 1.143104657530784607e-01 -2.150415629148483276e-02 7.224769890308380127e-02 1.005225032567977905e-01 7.902932167053222656e-02 3.978157043457031250e-02 9.077680855989456177e-02 -4.242934659123420715e-02 5.343054980039596558e-02 9.676249325275421143e-02 5.750402435660362244e-02 6.679991260170936584e-03 1.681795902550220490e-02 -1.051691100001335144e-01 6.795217841863632202e-02 2.570590376853942871e-02 2.725100703537464142e-02 -4.738219454884529114e-02 6.399160623550415039e-02 -5.371485371142625809e-03 -9.191699326038360596e-02 7.976299524307250977e-02 -3.546774014830589294e-02 -2.802396751940250397e-02 4.122789576649665833e-02 9.189502149820327759e-02 3.619285672903060913e-02 6.926904618740081787e-02 1.812948286533355713e-02 7.448921352624893188e-02 1.198042929172515869e-01 9.168577939271926880e-02 -1.030680760741233826e-01 5.317510291934013367e-02 9.619749337434768677e-02 4.465182125568389893e-02 -5.591171607375144958e-02 6.122780218720436096e-02 -3.199528157711029053e-02 1.252408772706985474e-01 8.052290976047515869e-02 6.181260198354721069e-02 1.267522573471069336e-01 4.251798987388610840e-02 1.293196231126785278e-01 7.513532042503356934e-02 -9.512516856193542480e-02 -2.320119366049766541e-02 3.271938860416412354e-02 1.081325113773345947e-01 6.033463776111602783e-02 6.845059990882873535e-02 4.863010346889495850e-02 7.609134912490844727e-02 1.830020248889923096e-01 1.302060037851333618e-01 7.538288086652755737e-02 -2.408753149211406708e-02 6.475774198770523071e-02 -4.498269874602556229e-03 -6.153756007552146912e-02 -5.855694040656089783e-02 -9.505226276814937592e-03 -3.560559451580047607e-02 -1.535714883357286453e-02 5.438862368464469910e-02 6.358049809932708740e-02 3.344600275158882141e-02 -1.049756705760955811e-01 7.368554919958114624e-02 8.910648524761199951e-02 1.174048930406570435e-01 4.742573201656341553e-02 1.613794453442096710e-02 5.121844634413719177e-02 7.720196247100830078e-02 1.568261161446571350e-02 1.541815977543592453e-02 -2.132273220922797918e-04 5.973463505506515503e-02 -5.354764312505722046e-02 8.964359015226364136e-02 9.328966587781906128e-02 9.204947948455810547e-02 8.570285886526107788e-02 2.317091450095176697e-03 1.469779177568852901e-03 7.456727325916290283e-02 6.429589539766311646e-02 6.780797988176345825e-02 9.972355514764785767e-02 1.190295591950416565e-01 -7.752529531717300415e-02 1.271881759166717529e-01 8.785592764616012573e-02 1.312178820371627808e-01 1.341062933206558228e-01 6.007484346628189087e-02 4.696071147918701172e-02 6.833688914775848389e-02 7.116587832570075989e-03 2.514348924160003662e-02 -3.607574850320816040e-02 9.682817757129669189e-02 -2.820690162479877472e-02 -1.115696504712104797e-03 5.065711215138435364e-02 1.379489153623580933e-01 -1.950405910611152649e-02 1.199991106986999512e-01 1.154172122478485107e-01 -1.272119767963886261e-02 5.308164283633232117e-02 3.356234356760978699e-02 -3.234835108742117882e-03 2.291304059326648712e-02 1.052656024694442749e-01 5.763280764222145081e-02 2.983661927282810211e-02 -8.492004871368408203e-02 -4.210729524493217468e-02 1.404472719877958298e-02 -6.380533427000045776e-02 -4.045933857560157776e-02 -2.973817847669124603e-02 -1.131453737616539001e-01 -2.472077868878841400e-02 -1.008379980921745300e-01 7.686957716941833496e-02 5.359843745827674866e-02 5.088779330253601074e-02 1.664708252064883709e-03 9.619995951652526855e-03 9.461541473865509033e-02 1.759276725351810455e-02 -9.534779191017150879e-02 7.818430662155151367e-02 1.331950277090072632e-01 -6.104790419340133667e-02 -7.512226700782775879e-02 -1.302865594625473022e-01 3.183810785412788391e-02 7.599169015884399414e-02 5.730509385466575623e-02 -6.478854268789291382e-02 -1.416977047920227051e-01 4.027547314763069153e-03 7.254134118556976318e-02 4.456098750233650208e-02 -1.017263010144233704e-01 -1.151420027017593384e-01 2.152805328369140625e-01 9.527482837438583374e-02 -2.648170106112957001e-02 7.967375218868255615e-02 9.642136096954345703e-02 9.009598940610885620e-02 9.016909450292587280e-02 1.683066040277481079e-01 8.818812668323516846e-02 4.142411798238754272e-02 6.125745922327041626e-02 9.344886243343353271e-02 3.967402875423431396e-02 1.319322735071182251e-01 7.830685004591941833e-03 4.488969221711158752e-02 -1.090720295906066895e-01 -9.766844660043716431e-02 -1.454412341117858887e-01 -7.626172155141830444e-02 -3.302473109215497971e-03 1.757770329713821411e-01 1.334905773401260376e-01 7.761430740356445312e-02 3.589075803756713867e-02 5.488812923431396484e-02 -1.339501142501831055e-01 1.826229877769947052e-02 6.403329968452453613e-02 4.187839850783348083e-02 1.892232149839401245e-01 5.931018665432929993e-02 5.996875092387199402e-02 6.293709576129913330e-02 5.712418630719184875e-02 3.967086225748062134e-02 -4.995544254779815674e-02 1.080150455236434937e-01 8.396952599287033081e-02 4.079040512442588806e-02 2.259168773889541626e-02 -5.366995930671691895e-02 9.057830274105072021e-02 9.797714650630950928e-02 9.098928421735763550e-02 4.052004963159561157e-02 -2.078711986541748047e-01 2.210286632180213928e-02 2.483578957617282867e-02 1.440493762493133545e-01 1.396265476942062378e-01 3.556912019848823547e-02 5.732654407620429993e-02 -1.502163410186767578e-01 1.812979578971862793e-01 -5.285518709570169449e-03 9.775998443365097046e-02 7.154874503612518311e-02 5.587420612573623657e-02 -7.351063191890716553e-02 -1.909837499260902405e-02 -5.206100270152091980e-02 -7.207974791526794434e-02 4.269789531826972961e-02 6.396996974945068359e-02 1.395276747643947601e-02 7.000272721052169800e-02 8.006517589092254639e-02 2.882262505590915680e-02 7.121448218822479248e-02 5.471747741103172302e-02 1.224613413214683533e-01 7.226545363664627075e-02 -2.918906509876251221e-02 -5.760525912046432495e-02 5.481534823775291443e-02 8.121641725301742554e-02 -1.177236735820770264e-01 9.447704069316387177e-03 5.345703288912773132e-02 5.839989334344863892e-02 1.188735663890838623e-01 -3.368237987160682678e-02 5.238125845789909363e-02 -3.504729270935058594e-02 1.377281732857227325e-02 8.111481368541717529e-02 7.192951440811157227e-02 1.060379669070243835e-03 -2.607194520533084869e-02 -2.827257849276065826e-02 5.703701078891754150e-02 -1.961408853530883789e-01 7.273487746715545654e-02 1.005091741681098938e-01 1.206335499882698059e-01 1.432111710309982300e-01 -9.986489266157150269e-02 -1.798020675778388977e-02 -4.014067724347114563e-02 1.391634196043014526e-01 6.017062067985534668e-02 9.623251855373382568e-02 4.802309721708297729e-02 1.991060748696327209e-02 5.432624742388725281e-02 4.337495565414428711e-02 6.121599674224853516e-02 1.275376379489898682e-01 1.539292633533477783e-01 3.870459273457527161e-03 8.049485087394714355e-02 6.004371494054794312e-02 1.766097359359264374e-02 2.531947493553161621e-01 -8.934359997510910034e-02 -8.859423547983169556e-02 5.476014688611030579e-02 4.565033689141273499e-02 1.257768571376800537e-01 5.349487811326980591e-02 6.953714042901992798e-02 2.492927946150302887e-02 -1.548090577125549316e-01 -1.207791641354560852e-02 1.037832349538803101e-01 6.950550526380538940e-02 5.587602034211158752e-02 -8.394515514373779297e-02 5.091457068920135498e-02 6.968835741281509399e-02 1.157722175121307373e-01 1.227165684103965759e-01 4.322323575615882874e-02 4.237203858792781830e-03 6.025810539722442627e-02 1.243755742907524109e-01 2.211374975740909576e-02 6.387249380350112915e-02 4.126890376210212708e-02 3.587154671549797058e-02 6.937835365533828735e-02 6.765274703502655029e-02 5.729372054338455200e-02 1.480283737182617188e-01 4.734924808144569397e-02 1.078730523586273193e-01 1.168712899088859558e-01 5.486431345343589783e-02 1.665744185447692871e-02 1.154646426439285278e-01 8.096925169229507446e-02 5.243218317627906799e-02 8.812512457370758057e-02 1.732459105551242828e-02 1.390798538923263550e-01 -1.047985851764678955e-01 3.806035220623016357e-02 4.076251760125160217e-02 1.187696307897567749e-01 7.805439829826354980e-02 -1.039777230471372604e-02 9.562014788389205933e-02 7.887237519025802612e-02 5.866391956806182861e-02 -5.349834263324737549e-02 4.583568125963211060e-02 1.765819825232028961e-02 -4.335336014628410339e-02 7.451443374156951904e-02 1.054853722453117371e-01 5.163804441690444946e-02 8.029516041278839111e-02 -8.181298524141311646e-02 -5.068405345082283020e-02 6.878305226564407349e-02 7.680538296699523926e-02 6.050935387611389160e-02 -1.260674297809600830e-01 4.022079706192016602e-02 -3.899100050330162048e-02 3.054141625761985779e-02 7.389404624700546265e-02 -1.605059579014778137e-02 5.281212180852890015e-02 -1.466938257217407227e-01 7.853139936923980713e-02 -7.452397048473358154e-02 6.155797280371189117e-03 9.797850996255874634e-02 -2.812756225466728210e-02 6.125937402248382568e-02 2.197225578129291534e-02 7.841905206441879272e-02 9.551371634006500244e-02 9.404809027910232544e-02 -2.919784560799598694e-02 7.170801609754562378e-02 1.752796173095703125e-01 1.921435631811618805e-02 6.230260059237480164e-02 -6.199204549193382263e-02 -6.280382629483938217e-03 4.145290702581405640e-02 5.388124659657478333e-02 1.262167543172836304e-01 -4.123651981353759766e-02 1.062398701906204224e-01 -1.638288609683513641e-02 -7.752662897109985352e-02 -9.538297355175018311e-02 1.385236978530883789e-01 9.739070385694503784e-02 5.483521893620491028e-02 -1.078370958566665649e-02 7.525379955768585205e-02 4.499633610248565674e-02 -2.844925224781036377e-02 6.738089025020599365e-02 -1.072420831769704819e-02 -3.440950065851211548e-02 6.733621656894683838e-02 8.972991257905960083e-02 -1.046615466475486755e-02 -7.832147181034088135e-02 1.421090811491012573e-01 4.663043096661567688e-02 3.117636404931545258e-02 4.290151223540306091e-02 2.697738818824291229e-02 3.507876396179199219e-02 8.698850125074386597e-02 -4.199203103780746460e-02 -1.412272602319717407e-01 1.123973913490772247e-02 -1.007352545857429504e-01 1.568140834569931030e-02 5.746019631624221802e-02 1.234290599822998047e-01 1.241224408149719238e-01 9.897200018167495728e-02 -7.038804143667221069e-02 9.479679912328720093e-02 7.741969078779220581e-02 1.195888891816139221e-01 1.256099045276641846e-01 1.253766119480133057e-01 -2.570457011461257935e-02 6.080689653754234314e-02 7.761307805776596069e-02 1.046449318528175354e-01 9.083151817321777344e-02 -1.224631369113922119e-01 5.794396251440048218e-02 -2.702162601053714752e-02 6.875716894865036011e-02 -1.822330616414546967e-02 9.310586750507354736e-02 7.563540339469909668e-02 -4.206071048974990845e-02 9.558290988206863403e-02 5.330658331513404846e-02 8.682631701231002808e-02 1.137709021568298340e-01 8.084011822938919067e-02 7.370051741600036621e-02 1.558728632517158985e-03 -8.439125865697860718e-02 8.991835266351699829e-02 8.431284804828464985e-04 7.679658383131027222e-02 1.159423664212226868e-01 1.137242764234542847e-01 9.643577039241790771e-02 4.779229685664176941e-02 1.002529636025428772e-01 -5.472869053483009338e-02 1.171907335519790649e-01 3.556383401155471802e-02 1.520979255437850952e-01 1.601736247539520264e-01 -2.404729276895523071e-02 5.425543710589408875e-02 4.455529525876045227e-02 6.966333091259002686e-02 -1.559554934501647949e-01 2.098473906517028809e-02 -6.662535667419433594e-02 6.131228059530258179e-02 3.604114428162574768e-02 -4.561924189329147339e-02 4.948009178042411804e-02 5.801871046423912048e-02 -2.563299424946308136e-02 7.406889647245407104e-02 3.346246480941772461e-02 