-2.547373473644256592e-01 2.932123839855194092e-01 3.450721502304077148e-01 -1.720579117536544800e-01 -2.123305201530456543e-01 7.953231036663055420e-02 3.007287085056304932e-01 3.278357684612274170e-01 -2.553080320358276367e-01 2.865012586116790771e-01 -1.864836513996124268e-01 2.461928278207778931e-01 3.057968914508819580e-01 -2.611799836158752441e-01 -3.179959952831268311e-01 2.953648269176483154e-01 2.238523066043853760e-01 3.462913036346435547e-01 -2.563701570034027100e-01 -2.128955572843551636e-01 -2.444887310266494751e-01 -1.933934092521667480e-01 2.431280612945556641e-01 2.352042645215988159e-01 -2.547003924846649170e-01 -1.795700490474700928e-01 -1.894339472055435181e-01 -2.157247215509414673e-01 -2.150539010763168335e-01 -2.076698541641235352e-01 -2.857416868209838867e-01 3.620197176933288574e-01 1.407376080751419067e-01 -2.128583341836929321e-01 -1.718170195817947388e-01 -1.878401339054107666e-01 -2.616161406040191650e-01 -2.680133879184722900e-01 -1.978556066751480103e-01 3.139203786849975586e-01 4.048246443271636963e-01 2.421770840883255005e-01 3.848619163036346436e-01 -3.379572927951812744e-01 -2.336636483669281006e-01 3.528471887111663818e-01 -2.326344251632690430e-01 2.899605929851531982e-01 -2.979558706283569336e-01 3.305505514144897461e-01
-2.193996012210845947e-01 2.134785205125808716e-01 1.408584564924240112e-01 -2.937471270561218262e-01 5.003104358911514282e-02 -3.299186527729034424e-01 1.871639192104339600e-01 2.483579367399215698e-01 2.856063544750213623e-01 -2.769696116447448730e-01 2.530480623245239258e-01 2.171847224235534668e-01 2.122858762741088867e-01 2.776882350444793701e-01 2.878638505935668945e-01 -2.491293549537658691e-01 -1.687828004360198975e-01 -2.273150831460952759e-01 -1.999367624521255493e-01 3.546091914176940918e-01 1.944535821676254272e-01 -1.803681999444961548e-01 -2.744410336017608643e-01 -2.159215807914733887e-01 -2.285913825035095215e-01 3.057926297187805176e-01 2.299085855484008789e-01 -1.471475213766098022e-01 2.940508723258972168e-01 2.585943639278411865e-01 -1.217566877603530884e-01 -1.951536834239959717e-01 -3.027346134185791016e-01 1.623822897672653198e-01 2.591341435909271240e-01 -2.413405179977416992e-01 -2.333722412586212158e-01 3.745281100273132324e-01 2.436835467815399170e-01 2.288242578506469727e-01 2.060784026980400085e-02 -2.225609570741653442e-01 -2.071019411087036133e-01 -2.487477213144302368e-01 1.607032716274261475e-01 -2.894406318664550781e-01 2.863296866416931152e-01 -2.129122614860534668e-01 -2.467240095138549805e-01 -2.508923411369323730e-01
3.432972431182861328e-01 -1.828367114067077637e-01 -2.859584689140319824e-01 2.608691751956939697e-01 2.634086012840270996e-01 1.737114936113357544e-01 -3.160796463489532471e-01 -2.224417030811309814e-01 -2.378755211830139160e-01 -3.688317239284515381e-01 -2.841133475303649902e-01 2.112150043249130249e-01 -3.286274671554565430e-01 -8.406075090169906616e-02 3.765107691287994385e-01 2.453832477331161499e-01 3.056562542915344238e-01 -3.182595372200012207e-01 2.184656709432601929e-01 -7.242039591073989868e-02 -3.128413558006286621e-01 -1.409548968076705933e-01 2.121178209781646729e-01 3.039788901805877686e-01 1.610308885574340820e-01 -7.130974531173706055e-02 -1.994663327932357788e-01 2.661876380443572998e-01 3.191833794116973877e-01 3.616763651371002197e-01 3.099154531955718994e-01 -2.378109693527221680e-01 2.799560725688934326e-01 -2.567227184772491455e-01 -3.063262104988098145e-01 2.930822074413299561e-01 3.226338326930999756e-01 -3.201154991984367371e-02 -3.040944337844848633e-01 -2.979521751403808594e-01 -2.854965925216674805e-01 2.020120322704315186e-01 -3.077288866043090820e-01 2.056272178888320923e-01 -2.349405735731124878e-01 2.824585437774658203e-01 -1.524943858385086060e-01 2.636813521385192871e-01 1.970605999231338501e-01 -3.451495170593261719e-01
2.051996290683746338e-01 -1.733700931072235107e-01 1.013075709342956543e-01 2.141164690256118774e-01 2.130968719720840454e-01 1.951088607311248779e-01 -2.344631254673004150e-01 -2.462439090013504028e-01 3.003941774368286133e-01 3.109852969646453857e-01 2.878700196743011475e-01 -2.914212644100189209e-01 -2.657137513160705566e-01 -3.099915087223052979e-01 -2.754689455032348633e-01 -2.302325516939163208e-01 -2.440680861473083496e-01 2.806186676025390625e-01 2.176937907934188843e-01 -2.893449962139129639e-01 2.868147194385528564e-01 3.405559659004211426e-01 -2.858900725841522217e-01 -2.666053175926208496e-01 3.239649236202239990e-01 -2.367114424705505371e-01 3.146289885044097900e-01 2.722026109695434570e-01 -2.689539492130279541e-01 -2.358660399913787842e-01 -2.304193824529647827e-01 2.606928646564483643e-01 -1.034196279942989349e-02 2.620479464530944824e-01 2.535097301006317139e-01 2.592288255691528320e-01 2.365604639053344727e-01 -3.288460969924926758e-01 3.331227302551269531e-01 -2.421475052833557129e-01 2.087091058492660522e-01 -2.375421077013015747e-01 -2.326156944036483765e-01 1.580465734004974365e-01 2.332789599895477295e-01 -3.373177051544189453e-01 -2.709099054336547852e-01 -2.563178241252899170e-01 2.280764132738113403e-01 3.104919493198394775e-01
