-2.270891964435577393e-01 -2.791256308555603027e-01 2.434372156858444214e-01 -2.211025804281234741e-01 1.051474437117576599e-01 -2.078694850206375122e-01 -2.548867464065551758e-01 2.620102465152740479e-01 -1.791059225797653198e-01 -2.189897745847702026e-01 1.891053617000579834e-01 -1.070037707686424255e-01 -1.400952041149139404e-01 1.910959482192993164e-01 1.365817785263061523e-01 -1.340666115283966064e-01 1.747044324874877930e-01 2.245418727397918701e-01 2.022842466831207275e-01 2.040190249681472778e-01 2.706031501293182373e-01 2.503660619258880615e-01 2.552962601184844971e-01 -2.669999003410339355e-01 2.383206933736801147e-01 1.783746331930160522e-01 -2.387952506542205811e-01 1.939914524555206299e-01 -1.703108251094818115e-01 2.313470691442489624e-01 1.296553313732147217e-01 1.667856574058532715e-01 -2.236852496862411499e-01 -2.025340944528579712e-01 -3.009982407093048096e-01 -1.904366612434387207e-01 -1.201253682374954224e-01 -1.731102615594863892e-01 1.864393502473831177e-01 -1.803500205278396606e-01 -2.063661217689514160e-01 -2.578896284103393555e-01 2.101419717073440552e-01 1.807832121849060059e-01 -2.659972310066223145e-01 1.632176935672760010e-01 -2.413056641817092896e-01 -1.528204083442687988e-01 2.128604054450988770e-01 -2.625425755977630615e-01
2.074689269065856934e-01 1.388873010873794556e-01 2.098423093557357788e-01 2.033638209104537964e-01 9.025335311889648438e-02 -1.688638478517532349e-01 1.551654338836669922e-01 -1.601969897747039795e-01 1.169732809066772461e-01 -2.280770093202590942e-01 2.308161258697509766e-01 2.449357956647872925e-01 -1.901118317618966103e-03 -1.355542540550231934e-01 1.144993603229522705e-01 2.153636068105697632e-01 -1.980458050966262817e-01 -1.374893486499786377e-01 1.550684422254562378e-01 -1.282439529895782471e-01 2.010828256607055664e-01 -1.118638217449188232e-01 -1.414852738380432129e-01 -2.116764038801193237e-01 -1.406358927488327026e-01 -2.542079389095306396e-01 -1.895966231822967529e-01 -1.787724792957305908e-01 1.868179142475128174e-01 2.708125710487365723e-01 -1.786871254444122314e-01 1.609310954809188843e-01 2.725712358951568604e-01 -2.688647508621215820e-01 -2.596128880977630615e-01 2.116286903619766235e-01 2.222604900598526001e-01 -2.324146181344985962e-01 2.137310504913330078e-01 2.327579557895660400e-01 -2.664675116539001465e-01 9.308139234781265259e-02 -2.250608652830123901e-01 -1.275757700204849243e-01 2.184927314519882202e-01 -2.438987195491790771e-01 2.421032488346099854e-01 -1.727267503738403320e-01 -1.460614353418350220e-01 -1.495008468627929688e-01
2.092489600181579590e-01 1.914618462324142456e-01 -1.265119314193725586e-01 -1.679762750864028931e-01 1.034504398703575134e-01 2.698477804660797119e-01 1.451382339000701904e-01 1.204027906060218811e-01 -1.863270252943038940e-01 1.789802461862564087e-01 -2.302040457725524902e-01 -4.574166238307952881e-02 2.121815830469131470e-01 2.093672007322311401e-01 -1.818233579397201538e-01 2.649172842502593994e-01 1.439280509948730469e-01 1.451951116323471069e-01 -2.421565800905227661e-01 -1.547954529523849487e-01 -2.672208845615386963e-01 2.204310148954391479e-01 1.263278424739837646e-01 1.622748821973800659e-01 1.676629334688186646e-01 1.583128869533538818e-01 1.274642199277877808e-01 -2.747347056865692139e-01 1.939747184514999390e-01 -1.257921457290649414e-01 -2.098275870084762573e-01 -1.784808784723281860e-01 -1.716297119855880737e-01 -2.195886969566345215e-01 9.294433891773223877e-02 1.998759061098098755e-01 2.589394748210906982e-01 -2.667938470840454102e-01 -2.609746158123016357e-01 -2.663971781730651855e-01 -2.800853848457336426e-01 1.387308835983276367e-01 -2.534770667552947998e-01 1.641973108053207397e-01 -1.244940236210823059e-01 2.332541495561599731e-01 -1.096049845218658447e-01 2.050947397947311401e-01 -1.758183091878890991e-01 2.007424831390380859e-01
1.760844886302947998e-01 -2.208909094333648682e-01 -1.480807065963745117e-01 -2.449830323457717896e-01 -2.272525727748870850e-01 -1.663194596767425537e-01 1.681153476238250732e-01 -2.493791282176971436e-01 1.394494473934173584e-01 1.382219642400741577e-01 -1.843040436506271362e-01 2.686577141284942627e-01 -2.154722362756729126e-01 -1.796683371067047119e-01 -1.628624349832534790e-01 -1.733271479606628418e-01 2.281218171119689941e-01 -1.464165896177291870e-01 2.100531607866287231e-01 1.828845143318176270e-01 -2.329257428646087646e-01 -2.427336424589157104e-01 -1.155301406979560852e-01 2.622027695178985596e-01 -2.579648792743682861e-01 2.585414052009582520e-01 1.583777964115142822e-01 1.273539811372756958e-01 1.978501230478286743e-01 -1.102415099740028381e-01 1.238343268632888794e-01 -1.903920620679855347e-01 -2.985281646251678467e-01 2.156539112329483032e-01 7.413456588983535767e-02 -2.364784181118011475e-01 -8.755303174257278442e-02 2.053623795509338379e-01 -1.592128872871398926e-01 2.735735476016998291e-01 2.699008285999298096e-01 -2.178107649087905884e-01 -1.870511621236801147e-01 -1.507799774408340454e-01 2.035022526979446411e-01 -1.987718939781188965e-01 -1.988803297281265259e-01 -1.602316498756408691e-01 1.825429648160934448e-01 2.647011876106262207e-01
