1.598097085952758789e-01 -5.536505952477455139e-02 -2.168086171150207520e-02 1.060632243752479553e-02 1.142390072345733643e-01 7.985596358776092529e-02 -4.674481973052024841e-02 2.823638543486595154e-02 4.072619974613189697e-02 1.045278012752532959e-01 3.842972218990325928e-02 -1.171929538249969482e-01 4.379057884216308594e-02 5.920516327023506165e-02 2.423175983130931854e-02 3.235672041773796082e-02 -7.756653428077697754e-02 3.169129416346549988e-02 8.467910438776016235e-02 9.534788131713867188e-02 -3.372036293148994446e-02 -8.953619003295898438e-02 -6.624417752027511597e-02 -1.118199154734611511e-01 7.305582053959369659e-03 1.922663673758506775e-02 1.473339349031448364e-01 1.023159921169281006e-01 8.250021189451217651e-02 5.744277685880661011e-02 2.908426150679588318e-02 -9.242490679025650024e-02 -9.755720198154449463e-02 -3.948898985981941223e-02 -4.342030268162488937e-03 -5.149913579225540161e-02 -1.390341017395257950e-02 6.883637607097625732e-02 9.918214380741119385e-02 -4.289080947637557983e-02 -2.156946808099746704e-02 6.556235998868942261e-02 2.749837748706340790e-02 7.602443546056747437e-02 -2.193416096270084381e-02 -6.076649576425552368e-02 -2.695056237280368805e-02 -1.727658882737159729e-02 2.863614447414875031e-02 4.149714857339859009e-02 9.890294820070266724e-02 3.239315235987305641e-03 5.179249867796897888e-02 3.432723879814147949e-02 5.586475133895874023e-02 -5.520248785614967346e-03 -4.131042212247848511e-02 6.744948029518127441e-02 7.038795202970504761e-02 5.647369474172592163e-02 -2.748165838420391083e-02 -1.264399010688066483e-02 -7.265714555978775024e-02 -6.681495142402127385e-05 4.508826881647109985e-02 -5.522477906197309494e-03 7.212408236227929592e-04 -2.849289216101169586e-03 -2.847819589078426361e-03 -2.037999726389651961e-14 -6.771717744413763285e-05 -3.495788841973990202e-04 -2.203270389484340841e-13 3.491247568820909919e-11 -2.743708668276667595e-03 2.066918276250362396e-02 5.606509745121002197e-03 -4.068436464999859725e-14 1.291861108647547607e-14 -1.831346191465854645e-03 2.692575437786282055e-15 -5.159949616022341257e-13 1.067316401275400506e-13 6.817022804170846939e-03 -5.033246707171201706e-03 -5.805359687656164169e-04 8.293638005852699280e-03 3.245393454562872648e-04 3.357621841132640839e-03 -5.315835122019052505e-03 -1.165776420384645462e-02 3.784917644225060940e-04 -1.032596104778349400e-03 -7.174443602143282250e-14 7.507589645683765411e-03 5.603394238278269768e-04 3.452691249549388885e-03 7.552200928330421448e-03 -2.389302244409918785e-03 3.976234272395906544e-12 1.133099358412437141e-04 1.674218896114895716e-14 -2.157751719813159885e-14 1.198489278739917063e-14 2.331398864043876529e-04 -6.767097511328756809e-05 -5.924298427999019623e-03 1.084419782273471355e-03 -1.319340080954134464e-03 1.798569783568382263e-02 -9.200179680590725440e-12 3.046730533242225647e-03 3.804656909778714180e-03 1.654603645935559530e-13 8.888047887012362480e-04 -1.238492224365472794e-02 3.495681739877909422e-04 -1.059013511985540390e-02 -2.590538701042532921e-03 -1.156572060345695263e-10 2.265105256810784340e-03 1.054111216217279434e-02 -1.051859813742339611e-03 -1.655106898397207260e-04 -1.448141993023455143e-04 -4.271241370588541031e-03 5.660769063979387283e-03 5.972030339762568474e-04 -5.994112230837345123e-03 -2.104543382301926613e-03 -1.334751476012030480e-10 -5.128006916493177414e-03 -4.978489596396684647e-04 -1.507471315562725067e-02 4.328507767058925593e-13 -4.398973542265594006e-04 -4.849551245570182800e-03 -6.010936886013951153e-07 2.368888245285472038e-11 -4.175773065071552992e-04 -1.165136508643627167e-02 -6.251534912735223770e-03 -1.861856319010257721e-03 3.436250844970345497e-03 -2.200463553890585899e-03 2.807324344757944345e-04 3.053298220038414001e-03 4.408950689347573837e-13 -3.393491497263312340e-03 -8.007700555026531219e-03 -1.232446811627596617e-04 7.166423602029681206e-04 2.633355806905355451e-14 -5.166951376711593699e-15 6.449878565035760403e-04 -8.060535416007041931e-03 -1.560386735945940018e-03 -7.775730337016284466e-04 -3.714459702276393105e-14 -9.165416471660137177e-03 1.162682194262742996e-02 3.210976952686905861e-03 -1.098770648241043091e-02 1.794746704399585724e-02 -1.238059950992465019e-03 9.844830506366974987e-11 -1.087700809421221493e-07 -1.348469289951026440e-03 3.144975153190898709e-06 5.094119813293218613e-03 -2.504631644114851952e-03 -8.729880675673484802e-03 -5.661079677948821498e-12 -2.699828473851084709e-03 1.739430241286754608e-03 -3.699304303154349327e-03 -5.649894475936889648e-03 2.631755359470844269e-02 -3.273010719567537308e-03 -5.584860336966812611e-04 -2.087695989757776260e-03 2.055343985557556152e-02 -1.515381038188934326e-03 -2.001868793740868568e-03 -1.189094735309481621e-03 8.594479877501726151e-04 -1.635081501617785538e-12 4.617300292011350393e-04 -1.746391993947327137e-03 -5.572941154241561890e-03 -3.625054378062486649e-04 5.615137261411051739e-15 -1.453155273338779807e-04 5.263517959974706173e-04 5.609378521571894982e-13 1.754924122687739896e-10 1.033059088513255119e-03 3.807573765516281128e-02 -1.243902719579637051e-03 2.917403122410178185e-03 5.012136884033679962e-03 5.970489582978188992e-04 -8.342934772372245789e-03 -1.079816604033112526e-03 -1.348441117443144321e-03 5.232105031609535217e-03 -7.920051924884319305e-03 -5.953112267889082432e-04 -1.227428667602628587e-13 5.829600268043577671e-04 1.301709018353136571e-10 -8.034304693977159517e-14 -2.444540013121776489e-12 2.009077176541931853e-13 2.079515345394611359e-02 3.952397382818162441e-04 -1.800913130864500999e-03 -8.916005492210388184e-03 -6.073573138564825058e-03 -8.037801017053425312e-04 -1.679648645222187042e-02 -1.071441103704273701e-03 4.258601111359894276e-04 -2.111453097313642502e-03 -1.306439400650560856e-03 -6.064425633667269722e-06 -1.737077545840293169e-04 6.659501232206821442e-03 2.328623959328979254e-04 1.646050438284873962e-02 2.209879271686077118e-02 5.261007463559508324e-04 -9.455663384869694710e-04 -9.481862798565998673e-05 5.404461408033967018e-04 1.629376347409561276e-04 1.965287141501903534e-03 1.823365688323974609e-03 -2.354403724893927574e-03 -4.605398636232937992e-13 -5.349163431674242020e-03 -5.366627126932144165e-03 -1.755329144840708788e-13 -1.314569655387620717e-13 3.927522804588079453e-03 -1.889011589810252190e-03 -9.609457920305430889e-04 6.557433632550790925e-14 1.017958973534405231e-03 -3.009147064858552767e-07 2.133998647332191467e-02 1.007846353573947640e-13 -1.150177175723854361e-12 -7.898179814219474792e-03 4.018848032139032966e-10 -2.606980386773982694e-13 -7.773787365294992924e-04 -4.510883333530557593e-11 8.014835323200131256e-11 -2.192374699751947764e-13 3.056939196135338710e-14 -1.917460613185539842e-04 -7.778070867061614990e-04 5.202378106214031184e-15 -5.668952129781246185e-03 1.722655906810643955e-10 7.903493824414908886e-04 2.012685639783740044e-03 -7.207841094813982608e-12 3.013986358667980481e-13 1.512825721874833107e-03 2.020988846197724342e-03 2.045283792540431023e-03 6.328632007353007793e-04 5.587920080870389938e-03 -4.820050671696662903e-03 -1.580689288675785065e-02 -7.794162258505821228e-03 1.227377167999435525e-13 -1.703385030850768089e-03 2.209202852100133896e-03 -1.703480957075953484e-03 -2.506887307390570641e-03 -7.780032232403755188e-03 -5.474293978194322285e-13 9.732648020843726044e-11 6.681739818304777145e-03 8.103425292978541639e-15 -1.059061195701360703e-02 2.008685283362865448e-02 1.017958857119083405e-03 -6.773335189791396260e-05 -2.848374657332897186e-03 -1.080497517250478268e-03 7.223053253255784512e-04 -1.319338334724307060e-03 -3.142237896099686623e-03 -6.729632732458412647e-04 -5.573010072112083435e-03 5.212830728851258755e-04 9.071014821529388428e-03 -6.256947759538888931e-03 -1.576689421199262142e-03 -5.040196701884269714e-03 -1.177912577986717224e-03 -2.061680090970768875e-13 9.176937909669696802e-14 3.469106741249561310e-03 2.443646080791950226e-04 1.165422890335321426e-02 -1.635700580663979053e-03 3.352544037625193596e-03 3.354583634063601494e-03 -4.070378374308347702e-03 7.985788979567587376e-04 2.233364852145314217e-03 5.360449664294719696e-03 1.789512671530246735e-02 7.088515104752834972e-12 1.684503629803657532e-02 7.306460291147232056e-03 1.912443339824676514e-02 -7.148085501285095233e-08 -4.868063959752311209e-13 -2.387442858889698982e-03 2.862483379431068897e-04 1.027985592372715473e-03 -1.672027859049574072e-12 2.864346897695213556e-04 -1.618372276425361633e-02 -1.348039128918178745e-14 -9.071040898561477661e-03 -6.254592444747686386e-03 -9.465908806305378675e-05 -1.015074690968731375e-10 -1.628326484933495522e-03 1.755619770847260952e-03 4.952705930918455124e-03 -8.920897729694843292e-03 -6.587797543033957481e-04 -1.032633823342621326e-03 3.883964964188635349e-04 -2.106167376041412354e-02 3.431756794452667236e-02 -4.649981390684843063e-03 1.018161303363740444e-03 -5.085173179395496845e-04 -1.024865545332431793e-03 -4.055839672219008207e-04 -4.401147598400712013e-04 -8.501780219376087189e-03 1.463077380321919918e-03 -7.778629660606384277e-04 -1.079471549019217491e-03 5.357607733458280563e-03 3.374924126546829939e-04 4.519497027056368355e-13 -4.336926212999969721e-04 2.380317622695249380e-13 9.530046023428440094e-03 4.404550418257713318e-03 3.500758321024477482e-04 4.060813225805759430e-03 -3.984501530801543012e-13 -3.240096615627408028e-03 8.147621527314186096e-03 -9.477655112277716398e-05 1.627571473363786936e-04 3.294670309142433418e-13 4.919030703604221344e-03 -6.157096046118665233e-14 -4.514544829726219177e-02 -1.559466239996254444e-03 4.515911452472209930e-03 -1.319271861575543880e-03 -1.770488731563091278e-02 -1.919947448186576366e-03 4.624220542609691620e-03 -2.937923185527324677e-03 2.156394053053653330e-15 -4.136999486945569515e-04 -2.006769413128495216e-03 1.621424162294715643e-04 2.296939492225646973e-03 4.957375582307577133e-03 1.962191260168610896e-12 -8.014004737599833561e-11 -8.493852801620960236e-03 1.892730034887790680e-02 1.158698578365147114e-03 -4.000095393807967525e-12 -2.068019704893231392e-03 2.827427961898942854e-13 -1.745753223076462746e-03 -6.679687066935002804e-05 4.876049351878464222e-04 -1.071984181180596352e-03 -2.187499543651938438e-03 8.842502720654010773e-04 -3.065652115843975345e-12 2.153966110199689865e-03 1.964951166883111000e-03 1.354864682070910931e-03 3.416495164856314659e-03 5.666373181156814098e-04 2.654628187883645296e-04 -7.016902236500754952e-05 -2.043141052126884460e-03 2.403206214758590864e-13 1.330874743871390820e-03 -3.627253463491797447e-04 -3.206609981134533882e-03 3.599318908527493477e-03 -1.165767386555671692e-02 -1.462842710316181183e-02 -7.765116170048713684e-03 1.124455826357007027e-03 -5.674199201166629791e-03 1.019078074023127556e-03 2.498076513712550045e-14 3.799638710916042328e-03 -2.968420973047614098e-03 -1.679841053585373611e-12 -8.754039299674332142e-05 -5.085013690404593945e-04 1.028737980760842385e-13 6.328388117253780365e-04 -3.880790816739726479e-13 -6.635044701397418976e-04 -1.669689993905043579e-12 -1.932464307174086571e-03 -4.943056846968829632e-04 -4.320674575865268707e-03 1.109879115696044138e-12 -7.795626763254404068e-03 7.930758827434658542e-11 -8.340350352227687836e-03 -5.075444933027029037e-04 2.805959411489311606e-07 3.926592413336038589e-03 -2.694385591894388199e-03 2.874279161915183067e-03 4.855973238591104746e-04 -1.421930065012566580e-12 5.510553251951932907e-03 5.631139501929283142e-04 -1.000237930566072464e-02 1.754428632557392120e-02 -4.401639744173735380e-04 -7.351863800901525803e-14 8.843988180160522461e-03 1.927153776186754652e-13 -9.183117188513278961e-03 -1.778261736035346985e-03 3.129640826955437660e-03 7.031534798443317413e-03 9.624417871236801147e-04 9.620412020012736320e-04 2.156180329620838165e-03 6.426505278795957565e-03 7.254698430188000202e-04 -2.506572520360350609e-03 7.007530075497925282e-04 8.172040688805282116e-04 -3.407156560570001602e-03 -9.722572139742036157e-13 1.912981275123404323e-12 -3.470330576724189875e-14 -8.751938003115355968e-05 -1.735412079142406583e-04 -3.419582499191164970e-03 -8.771994151175022125e-03 3.087441669777035713e-03 -4.446184262633323669e-03 -7.588544394820928574e-03 6.687129382044076920e-03 4.914534743875265121e-03 5.803072359412908554e-03 7.509173359721899033e-03 -4.399753815960139036e-04 -1.061329501681029797e-03 4.828881099820137024e-02 -1.075872126966714859e-02 -4.402571648824959993e-04 1.949628256261348724e-02 2.988884225487709045e-03 -3.143568756058812141e-03 -2.603342290967702866e-03 3.513564006425440311e-04 -8.525699243810969108e-12 -3.452067176112905145e-06 -3.202930791303515434e-03 -4.631462314358403276e-14 -9.421641007065773010e-03 -8.920650884647329804e-09 1.544630527496337891e-02 4.231160040944814682e-03 8.046166971325874329e-03 5.587752482938412868e-12 -2.602894790470600128e-03 2.569136093102941665e-12 -2.126730215545880043e-12 -3.493173979222774506e-03 1.203734194859862328e-03 3.028716333210468292e-02 1.753203757107257843e-02 -3.666919842362403870e-02 -8.234729990363121033e-03 -1.079917070455849171e-03 -1.462314969634392892e-13 3.708170843310654163e-04 1.703075319528579712e-02 1.597207883605733514e-04 -7.278341799974441528e-04 4.509902244405686322e-14 -4.433478228747844696e-03 3.860369597770418881e-14 -2.868662995751947165e-04 -1.177236670628190041e-03 -1.468622474931180477e-03 4.915426485240459442e-03 -4.979416262358427048e-04 -8.903563022613525391e-03 -2.937037730589509010e-03 7.415835279971361160e-04 4.918954335153102875e-03 4.098221193999052048e-03 -7.131799589842557907e-03 -1.913460945246470146e-09 -7.123091258108615875e-03 -1.175033021718263626e-02 5.659270659089088440e-02 1.821360445276865025e-13 -7.239910191856324673e-04 -2.347176632611081004e-04 -9.028261527419090271e-03 -2.012020378864415315e-14 -7.075653810691834300e-14 2.917685173451900482e-02 -8.830971084535121918e-03 -1.336743962019681931e-02 -2.098892815411090851e-03 -4.463371820747852325e-03 -1.688201725482940674e-02 3.126050811260938644e-03 3.926387522369623184e-03 3.194977106230761921e-14 3.256491213840528864e-13 -4.844811617860100839e-12 1.027634018100798130e-03 -2.506676595658063889e-03 -5.707820528186857700e-04 6.618034245620130207e-12 -1.223015829235341023e-12 -4.341423596489202286e-13 -4.400849284138530493e-04 -7.905082025170401261e-14 4.100526217371225357e-03 -2.701747270350551844e-09 -5.675268359482288361e-03 1.284467335790395737e-02 2.774226886685937643e-04 -5.918791051954030991e-03 3.281424194574356079e-02 3.000156953930854797e-02 1.629874459467828274e-04 -1.053523045711768358e-13 1.941650873050093651e-03 -1.811821227987522875e-13 -1.460947003215551376e-02 -1.198943471536040306e-03 1.019692281261086464e-03 -3.941264090263907338e-13 1.660846918821334839e-02 -2.926744753494858742e-03 -2.682702150195837021e-03 4.519133362919092178e-03 9.602560312487185001e-04 -4.408363252878189087e-03 -6.682605453534051776e-05 -1.367186257868885368e-13 -4.401889164000749588e-04 4.914689343422651291e-03 4.464269615709781647e-03 1.487116941362946060e-14 -1.183628593900108716e-14 -6.631051655858755112e-04 -2.001316286623477936e-03 1.017869450151920319e-03 -7.787970360368490219e-03 -3.410314908251166344e-03 -8.840045891702175140e-03 8.562865667045116425e-03 8.964184671640396118e-03 -2.910035900400773090e-14 -1.975126098841428757e-03 3.992856534296151949e-08 -4.398827149998396635e-04 -5.496316589415073395e-03 -1.735617988742887974e-04 -4.181896510999649763e-04 1.045465189963579178e-02 -2.556100947223582942e-13 3.469812218099832535e-03 1.399920828673746620e-14 -2.033492550253868103e-02 -1.685293391346931458e-02 -1.117261033505201340e-02 -1.189056667499244213e-03 -1.986442434154245262e-11 -5.647669080644845963e-03 -3.850498935207724571e-03 2.804433592361148253e-14 -3.882552497088909149e-03 -3.406390547752380371e-03 -1.324281573289454172e-09 -9.454058483242988586e-03 -9.478697757003828883e-05 -2.623973954785085994e-12 -4.352710209786891937e-03 9.941782640188190356e-12 -2.389341359958052635e-03 4.053468671827431535e-11 -2.123757032677531242e-03 -1.703491085208952427e-03 -3.622623044066131115e-04 -5.712222191505134106e-04 -8.695075288414955139e-03 5.920094059072567028e-13 -5.424399860203266144e-04 -3.888258204992611766e-12 -2.786601707339286804e-02 -1.572530716657638550e-03 -2.802562201395630836e-03 1.017268374562263489e-02 3.546495921909809113e-03 8.905489812605082989e-04 1.337389921030052164e-11 4.143747180779776274e-14 2.775494009256362915e-02 -4.141910467296838760e-03 -1.895685493946075439e-02 -1.456829015061833488e-12 2.743036113679409027e-02 3.841632144774981272e-13 1.629986509215086699e-04 8.098171655826491566e-14 -4.401970072649419308e-04 -7.345315328199930605e-12 8.298896253108978271e-03 1.179525628685951233e-03 4.840164445340633392e-03 -5.573550704866647720e-03 -3.508229625993073211e-15 6.479056552052497864e-03 3.060743983951397240e-05 -6.254007108509540558e-03 -5.628376267850399017e-03 3.495910787023603916e-04 -8.433340117335319519e-04 1.285155885852873325e-03 -2.640199090819805861e-05 9.605138329789042473e-04 1.479844650020822883e-04 3.251336747780442238e-04 -1.079558511264622211e-03 -3.646311163902282715e-02 2.119941895639687601e-11 2.326192625332623720e-04 -8.857964421622455120e-04 7.551853545010089874e-03 -4.771034262107676227e-11 -1.981491595506668091e-02 -3.446595510467886925e-04 3.052036510780453682e-03 -4.084975924342870712e-03 1.420160522684454918e-03 -3.409999655559659004e-03 3.055747365579009056e-03 1.965184463188052177e-03 -6.026386854818266414e-12 -4.131738678552210331e-04 5.666167708113789558e-04 -2.506237244233489037e-03 2.129724062979221344e-02 -9.692572057247161865e-03 1.150182921995368535e-13 -4.400846373755484819e-04 6.795186700651878464e-13 -8.217617869377136230e-03 5.469043739140033722e-03 -6.127529777586460114e-04 -3.897696510164749828e-13 1.544582739704605800e-13 -1.024438520125237062e-10 9.246955625712871552e-03 -1.646998571231961250e-03 -2.953872643411159515e-02 2.200344391167163849e-02 2.842148294490698390e-09 -5.376337561756372452e-03 -1.515541039407253265e-02 2.293159253895282745e-03 -1.017825910821557045e-03 7.226151064969599247e-04 3.999803448095917702e-05 -3.523390332702547312e-04 8.730125846341252327e-04 -6.893900572322309017e-04 -4.672953393310308456e-03 5.182677879929542542e-02 -2.141071017831563950e-03 1.845750259235501289e-03 -3.906211815774440765e-03 1.508224406279623508e-03 -1.212036237120628357e-02 1.504395273514091969e-03 -4.237309563905000687e-03 1.592480596175616103e-12 -1.138807856477797031e-03 -9.072356857359409332e-03 -2.422025427222251892e-03 -2.025851708609138768e-12 2.476865774951875210e-04 1.673389784991741180e-02 -9.418984875082969666e-03 6.451453082263469696e-03 5.961615825071930885e-04 -1.920106292659009423e-14 -3.076944872736930847e-02 -3.182945365551859140e-04 -3.022285980508465641e-12 5.583588499575853348e-04 4.915366414934396744e-03 -1.433649915270507336e-03 2.290083400691145243e-10 -1.778220059350132942e-03 -7.412940030917525291e-04 -1.788133196532726288e-02 2.506000688299536705e-03 3.276572097092866898e-03 1.639352925121784210e-02 3.469526534900069237e-03 -2.277258085086941719e-03 1.007870770990848541e-03 -1.703414251096546650e-03 -1.778188045136630535e-03 6.633682060055434704e-04 -5.493579898029565811e-03 -7.878099950175965205e-09 -1.711758339240088134e-12 -1.177332014776766300e-03 5.669422098435461521e-04 -2.932024654000997543e-04 -7.787332248227613052e-14 1.249378110514953732e-04 1.027885242365300655e-03 1.220706180902197957e-04 3.654428757727146149e-03 -4.981844103895127773e-04 -6.253791041672229767e-03 -2.933829091489315033e-04 4.080099053680896759e-03 -3.409873694181442261e-03 3.590516746044158936e-03 -1.657328830333426595e-04 -9.725729934871196747e-03 -1.099307710833441476e-12 6.585316601921686885e-14 6.067001377232372761e-04 2.874790225178003311e-03 -1.686828024685382843e-02 5.630366312070478330e-11 -7.277864497154951096e-04 2.731526393962013799e-10 -1.046459061982210614e-14 -9.147501550614833832e-04 2.858983134501613677e-05 -3.949178848415613174e-03 -8.683171123266220093e-03 -3.830807982012629509e-03 -1.348407939076423645e-03 -3.258661832660436630e-03 9.508286602795124054e-03 2.976799756288528442e-02 1.479686907259747386e-04 1.118412901488863645e-14 -6.895796395838260651e-04 -2.723700739443302155e-02 -3.527629645100512079e-15 -4.139602140349092629e-14 -4.782672040164470673e-03 2.146950186263183596e-14 -7.555478718131780624e-03 7.373407017439603806e-03 1.017952570691704750e-03 -1.778233563527464867e-03 9.334562346339225769e-03 -1.748425080931592657e-14 -1.540730334818363190e-02 -1.616189061921791126e-12 -4.310230151309893398e-14 4.423294216394424438e-03 -7.782944943755865097e-03 9.601334459148347378e-04 1.186830631922930479e-04 -1.633319887332618237e-03 -1.637003500945866108e-03 6.157111376523971558e-03 2.235248452052474022e-03 6.328281597234308720e-04 1.467338018119335175e-02 -6.772500346414744854e-04 4.363898023322654307e-13 -9.347940309193183972e-16 2.562740584835410118e-03 6.447473540902137756e-03 4.086724016815423965e-03 -1.015831064432859421e-02 2.471208805218338966e-03 -1.250417547282722808e-10 -1.505781779997050762e-03 -6.473961991493304424e-13 1.186846566270105541e-04 4.811059625353664160e-04 1.209210458910092711e-04 -5.807081703522454230e-13 9.199781925417482853e-05 -2.492661029100418091e-02 1.990554481744766235e-02 1.292193192057311535e-03 -3.100857697427272797e-02 2.932983217760920525e-03 8.813318796455860138e-03 3.213970430938906109e-13 2.291353739565238357e-04 -1.165412459522485733e-02 4.627783317118883133e-03 1.278780214488506317e-02 2.664728462696075439e-02 -2.385215274989604950e-02 4.131218547050348466e-14 1.159825816117454611e-13 5.411925376392900944e-04 6.346429698169231415e-03 4.840651527047157288e-03 -8.258836343884468079e-03 -1.315894303843379021e-03 -6.913734250701963902e-04 -1.329062879085540771e-02 -1.843893310607414016e-12 7.850233050415988956e-13 1.778596080839633942e-02 1.460571775828943542e-14 1.180467661470174789e-03 -2.068978035822510719e-03 9.363526664099564023e-13 -1.158110052347183228e-02 -9.817029349505901337e-04 -4.748380508234895103e-12 4.622792825102806091e-03 -6.922259461134672165e-03 4.925142508000135422e-03 2.921508857980370522e-03 3.241534868720918894e-04 -1.698535924540486852e-13 1.640753640808415015e-16 4.839906177949160337e-04 -8.432114056468320573e-13 -1.572831301018595695e-03 -7.549597881734371185e-03 8.331895223818719387e-04 2.292221615789458156e-04 7.881422061473131180e-04 -3.897475823760032654e-02 -5.351655650883913040e-03 7.355805719271302223e-04 -7.395962369014658089e-14 6.916348356753587723e-03 1.485766610130667686e-03 1.100328005850315094e-02 1.041079685091972351e-02 1.153141638496890664e-04 1.043716096319258213e-03 3.520468693039152663e-13 -1.348422141745686531e-03 -2.828912343829870224e-03 1.371156889945268631e-03 1.185531029477715492e-03 -7.304289378225803375e-03 1.655742642469704151e-03 3.793753276113420725e-04 -1.266224978872538404e-14 7.053610752336680889e-04 -7.004674989730119705e-05 1.459032113876324033e-12 -5.800224025733768940e-04 -5.462977292758353087e-11 -6.254526786506175995e-03 1.367066171951591969e-03 7.413814892061054707e-04 4.398109856992959976e-03 -1.512642251327633858e-03 -1.079996349290013313e-03 -1.645426265895366669e-03 3.293256461620330811e-02 4.190801701042801142e-04 -6.682153907604515553e-04 1.471806201152503490e-03 -1.433770637959241867e-03 1.462387968786060810e-03 5.341575597412884235e-04 -1.418047025799751282e-02 -1.028409600257873535e-02 -4.971888525884260446e-11 -4.597578197717666626e-03 -3.627249679993838072e-04 7.850725669413805008e-04 -6.166388629935681820e-04 2.050777218398983082e-14 -3.850444811083486574e-13 -4.189987666904926300e-04 -3.736103765770992791e-13 -5.048501188866794109e-04 -9.297806769609451294e-03 -5.924531478740391321e-07 -7.797253601893316954e-06 2.951178526815895209e-13 5.523422864917026942e-12 -2.211539870504430905e-13 -1.448175898985937238e-04 -9.697196557301602376e-15 -3.837961892738661618e-11 -4.073745105415582657e-03 -1.452431897632777691e-04 -1.427801698446273804e-02 6.457142881117761135e-04 -3.481467254459857941e-03 1.710148761048913002e-03 3.407472600521627148e-14 -8.752060966799035668e-05 -7.767800241708755493e-03 -3.414375707507133484e-03 2.810375630130090840e-12 1.157498639076948166e-02 -2.676892792806029320e-03 -5.573088303208351135e-03 5.698059685528278351e-03 -1.341065764427185059e-02 -2.835259284295066351e-11 7.192863904492696747e-08 -2.506936667487025261e-03 5.045482612331397831e-05 2.960885642096400261e-03 2.549590717535465956e-04 -4.668519459904985069e-10 -1.450907730031758547e-04 -1.080184592865407467e-03 -7.079365565987316700e-11 5.593576468527317047e-03 -3.619893555913133998e-13 2.867013681679964066e-04 2.376760356128215790e-03 -1.778236008249223232e-03 1.045754330570095036e-13 -7.494966965168714523e-03 3.075555432587862015e-03 1.965019619092345238e-03 -7.855976372957229614e-02 -1.077672652900218964e-02 -6.144986255094408989e-04 -1.544649363495409489e-03 1.715162605312684635e-14 8.728871471248567104e-04 7.994737684369201958e-13 -1.139094121754169464e-03 8.603850007057189941e-02 4.915435332804918289e-03 -1.008736714720726013e-02 -4.647071007639169693e-03 -2.687588706612586975e-02 -4.648284520953893661e-03 1.157231628894805908e-02 1.027012360282242298e-03 -9.318679571151733398e-03 -3.293555695563554764e-03 -7.565208008653012683e-12 1.471745631181214931e-13 -3.257885109633207321e-03 1.506350468844175339e-02 8.173676324076950550e-04 2.015738049522042274e-03 2.746710088104009628e-03 -4.398949095048010349e-04 2.874172292649745941e-03 2.740346267819404602e-02 3.437699377536773682e-02 2.568079857155680656e-03 -3.258837154135107994e-03 -2.098594093695282936e-03 -1.733529633859628993e-13 5.183336907066404819e-04 -2.655883319675922394e-03 1.215703926416011882e-10 7.055434980429708958e-04 -2.203441457071519949e-10 -9.725444018840789795e-03 2.489208127371966839e-04 4.098016768693923950e-03 5.005785264074802399e-03 5.046580918133258820e-03 9.445655741728842258e-04 -4.150822741078030731e-11 -8.340533822774887085e-03 -8.106524124741554260e-03 2.862543333321809769e-04 1.142876688390970230e-03 -2.626225625856903889e-12 -2.929934998974204063e-04 4.097715020179748535e-03 3.927818499505519867e-03 -8.218796923756599426e-03 -7.517152590501285925e-13 3.595993155613541603e-03 5.750720131212153086e-14 4.698256783619569887e-10 1.203645798482366747e-12 2.858861147814195647e-09 8.729105466045439243e-04 4.903961904346942902e-03 -1.079860841855406761e-03 3.274842419812018512e-13 1.697876431464018232e-12 -2.105922065675258636e-02 -1.703521120361983776e-03 1.513808849267661572e-03 8.454149356111884117e-04 3.885168116539716721e-04 -1.579126343131065369e-02 1.204396304910204663e-11 3.271517713850091713e-13 -8.488983848546974298e-14 2.068701200187206268e-03 -8.906008675694465637e-03 -1.040508784353733063e-02 -3.422369947656989098e-03 -3.446282353252172470e-04 -9.198081679642200470e-04 1.354181003989651799e-04 2.208030037581920624e-02 -2.926913788542151451e-03 8.531533967470750213e-05 3.215409070253372192e-02 2.928719297051429749e-02 3.955374413635581732e-04 -8.343585766851902008e-03 3.261444933566615134e-13 1.312894746661186218e-03 -4.404232837259769440e-03 -1.073152070679705972e-11 -1.135407821364550762e-13 3.650788858067244291e-04 2.017877995967864990e-03 8.621325250715017319e-04 -2.183080418035387993e-03 3.651742590591311455e-04 5.982808652333915234e-04 -1.738796272547915578e-04 -2.711025306155467884e-13 6.449950160458683968e-04 -3.627231635618954897e-04 -4.978474462404847145e-04 -5.483365362246236940e-14 2.690508030354976654e-03 -5.588333588093519211e-04 5.468529183417558670e-03 -4.825629370923401051e-14 5.212713149376213551e-04 3.073245985433459282e-03 -2.147078765864576799e-14 9.991400595765753678e-09 4.689168999902904034e-04 -7.164363720335575891e-12 2.652716077864170074e-02 7.000421021943065147e-14 -2.832620404660701752e-03 -5.793597301817499101e-05 3.927742131054401398e-03 -4.400706966407597065e-04 -6.537340655789203314e-14 1.028039725497364998e-03 -1.560782664455473423e-03 1.559717355270606731e-10 -6.466765870623975010e-14 4.927898096095811864e-14 3.927252721041440964e-03 7.516730693168938160e-04 8.127914140343417415e-12 1.143219997175037861e-03 2.308884868398308754e-03 -2.955820038914680481e-02 -4.120720084756612778e-03 1.845858942041075923e-14 -1.412493875250220299e-04 7.414490100927650928e-04 -2.587178804525080977e-10 1.480779028497636318e-04 -1.483158214299340472e-12 1.480480132158845663e-04 -2.233979292213916779e-03 -1.560259493999183178e-03 -3.135391511023044586e-03 7.586714345961809158e-03 1.227381289936602116e-03 -5.000044126063585281e-03 6.539060734212398529e-03 6.681806407868862152e-03 -2.218131006561513408e-13 -1.831479254178702831e-03 -5.074953078292310238e-04 -1.017607526021535591e-11 -9.509875671938061714e-04 -2.982322030932633983e-14 -1.451474236091598868e-04 3.364543019190868733e-12 3.462614580913153661e-13 2.010461874306201935e-03 4.910120042040944099e-04 7.332418113946914673e-03 -8.330512115631988346e-14 6.660053040832281113e-03 -1.531718477640157949e-15 -1.917608169605955482e-04 -1.087899971753358841e-02 -2.088681603975434120e-13 -1.318954862654209137e-03 -1.012740749865770340e-02 -1.349351136013865471e-03 -1.242936959952589682e-13 -8.341867476701736450e-03 -2.638520336191354371e-15 -2.293542493134737015e-03 -1.426587119919206503e-14 1.187270390801131725e-04 -8.215607376769185066e-04 -6.724130362272262573e-04 -4.980846424587070942e-04 -1.451425632694736123e-04 -1.177327148616313934e-02 -6.765779835404828191e-05 1.123914960771799088e-02 4.280446562916040421e-03 -8.049344178289175034e-04 2.390765585005283356e-04 -6.963348481804132462e-03 2.281387105189944600e-15 4.890569834969937801e-04 1.895556767106398866e-10 3.802238730713725090e-03 -6.750355474650859833e-03 1.205415464937686920e-03 -1.225633360445499420e-02 2.799896883895654220e-14 -1.080873626051470637e-04 2.062807232141494751e-02 4.097694065421819687e-03 3.400249526386289745e-10 -6.774890789529308677e-05 4.098125733435153961e-03 4.909621202386915684e-04 8.652004413306713104e-03 -1.002578142034193931e-11 -2.506891964003443718e-03 -1.581938192248344421e-02 1.441147333025583066e-06 -1.032602973282337189e-03 -1.165372971445322037e-02 3.302687171056334359e-14 3.233948256820440292e-03 -1.487073255702853203e-03 8.962963707745075226e-03 1.010323991067707539e-03 3.507854416966438293e-04 9.599983459338545799e-04 -9.466077608522027731e-05 1.088021206669509411e-03 7.892360445111989975e-04 -3.748806193470954895e-02 6.087303161621093750e-03 9.947679615804339015e-13 -1.954896142706274986e-03 -3.485108252335167300e-13 -7.778361905366182327e-04 6.635554018430411816e-04 1.639658547825106893e-10 6.638467311859130859e-04 5.767042748630046844e-03 3.303292766213417053e-02 9.271317161619663239e-03 5.239102988247035242e-12 1.558732309892008061e-12 1.017832430079579353e-03 1.186661902465857565e-04 6.147904787212610245e-03 -1.601256430149078369e-03 4.162809680297030468e-11 -1.573004693080498617e-13 2.599739867825689998e-11 3.245003463234752417e-04 4.476072290593435810e-13 1.291721244342625141e-03 6.450002547353506088e-04 -5.080500268377363682e-04 -1.643279916606843472e-03 8.799762947400008306e-14 2.997692547523911344e-07 -3.832453396171331406e-03 -9.915587231498768084e-14 -9.826233576815113224e-12 1.625802548144150705e-10 -2.333822024525034067e-10 -4.018979430937125175e-13 -1.889018574729561806e-03 1.394762541167438030e-03 -2.978365709442598597e-14 -1.895655670196977338e-13 -1.217395532876253128e-02 -4.665192682296037674e-03 -2.148504085145580556e-13 6.912577606675573971e-14 1.338798319920897484e-04 7.898866897448897362e-04 6.691968999803066254e-03 2.328051923541352153e-04 5.891501175803171009e-11 3.505644272081553936e-04 -8.851399761624634266e-04 -2.158493043048596849e-14 -4.719800781458616257e-04 3.022679593414068222e-03 1.113784737181988671e-12 -2.189391758292913437e-03 1.440847385674715042e-02 1.508790999650955200e-03 -4.884895868599414825e-03 -1.453391741961240768e-04 -6.681046943413093686e-05 1.730570336803793907e-03 -2.553045051172375679e-03 -4.175981157459318638e-04 1.819509896449744701e-03 5.095319356769323349e-03 -4.984689961143318193e-13 1.156763988547027111e-03 4.679896403104066849e-03 5.333965644240379333e-03 8.280007945558540139e-14 -9.673259919509291649e-04 6.056484300643205643e-03 -4.347057547420263290e-04 -9.496610728092491627e-04 1.018450479023158550e-03 -1.917552726808935404e-04 2.034430392086505890e-03 -1.233316834076125801e-12 3.665637923404574394e-04 -4.053622949868440628e-03 3.144593536853790283e-02 -1.929842190998704021e-13 -3.467710455879569054e-03 1.682928102431091588e-12 6.762575525606773219e-15 3.268570406362414360e-03 7.716948166489601135e-04 3.211026167182495783e-10 -3.125646850094199181e-03 6.232671713804482927e-14 -3.163092769682407379e-03 -4.419581033289432526e-03 -1.539480523206293583e-03 -1.778228324837982655e-03 6.660812534391880035e-03 5.671133403666317463e-04 2.793757586383449620e-11 4.312293144098644504e-12 -1.611435797624870270e-14 -4.972799797542393208e-04 -9.457015548832714558e-04 -2.506983932107686996e-03 -1.851508719561897887e-13 -2.432710933739090642e-12 -6.080129183828830719e-03 6.728411230949582489e-13 -6.721953977830708027e-04 -8.025322458706796169e-04 1.027043210342526436e-03 3.937555302400141954e-04 -1.026945421472191811e-03 -1.562359859235584736e-03 -9.904408827424049377e-03 -4.422645860646667870e-10 8.843899704515933990e-03 -6.423805025406181812e-04 3.604709846588560751e-13 3.194153681397438049e-02 -9.895898120046431323e-14 1.914562258731322686e-13 -2.183423377573490143e-02 2.012625569477677345e-03 -2.937034470960497856e-03 -3.252983277711452015e-13 -1.643157564103603363e-03 -1.775816781446337700e-04 2.369589172303676605e-03 -4.401303885970264673e-04 -1.071757171303033829e-03 -1.013987930491566658e-03 -1.213444085880824308e-13 1.192981260653147579e-13 -4.028416055595895884e-13 -1.079154317267239094e-03 -3.034742083400487900e-03 3.251243615522980690e-04 7.308960775844752789e-04 -7.935108616948127747e-03 3.235090896487236023e-02 3.437722474336624146e-02 1.470022648572921753e-02 -5.882305093109607697e-03 -5.133927799761295319e-03 -3.734062425792217255e-03 -1.580742560327053070e-02 -4.143165890127420425e-03 8.159938268363475800e-03
-1.780936270952224731e-01 3.284096345305442810e-02 2.104927599430084229e-02 9.748994559049606323e-02 -3.322260826826095581e-02 3.724739700555801392e-02 8.983501046895980835e-02 -2.007829397916793823e-02 2.542549185454845428e-02 -8.056880533695220947e-02 -2.821717783808708191e-02 1.609720140695571899e-01 -6.404194980859756470e-02 3.390870615839958191e-02 2.080700173974037170e-02 2.584239840507507324e-02 7.337950915098190308e-02 3.980158641934394836e-02 6.051310803741216660e-03 7.716349791735410690e-04 2.474858611822128296e-02 1.688882336020469666e-02 -8.106795139610767365e-03 7.623758167028427124e-02 2.832953073084354401e-02 3.299704566597938538e-02 -4.290927946567535400e-02 -2.587063238024711609e-02 5.215113982558250427e-02 1.108883973211050034e-02 5.489080771803855896e-02 3.436222299933433533e-02 -3.419218957424163818e-02 6.553401052951812744e-02 -2.814779145410284400e-05 3.459604829549789429e-02 5.320243537425994873e-02 -3.564395383000373840e-02 -3.095125779509544373e-02 -3.165121749043464661e-02 -2.384519018232822418e-02 -3.072922676801681519e-02 2.856358326971530914e-02 2.090969122946262360e-02 1.170022860169410706e-01 5.434165894985198975e-02 1.350354403257369995e-02 4.837366566061973572e-02 4.152072221040725708e-02 -2.080801501870155334e-02 -4.910345003008842468e-02 -2.569639356806874275e-03 -3.072081319987773895e-02 2.317745052278041840e-02 7.679511327296495438e-03 5.077129229903221130e-02 3.516019135713577271e-02 -3.245828300714492798e-02 -4.353273194283246994e-03 5.714293569326400757e-02 2.038974873721599579e-02 -1.227930188179016113e-02 6.250370293855667114e-02 1.462691812776029110e-03 -4.094704240560531616e-02 1.214158255606889725e-03 3.322578974104817284e-12 -1.359222824248718098e-05 -6.341383596009109169e-06 1.587675506016239524e-04 -8.777390370084958704e-09 -1.059000613167881966e-03 4.222923889756202698e-04 -2.323181397514417768e-04 -3.625853452831506729e-03 -1.635284721851348877e-02 1.741104014217853546e-02 5.266447551548480988e-04 1.550029730424284935e-03 -2.831333084031939507e-03 1.211146125569939613e-03 8.335660095326602459e-05 4.040316980535862967e-06 -1.347273238934576511e-03 -3.613199107348918915e-03 -4.024771624244749546e-04 3.924782504327595234e-06 7.416866719722747803e-04 -1.259406097233295441e-03 9.483487810939550400e-04 1.385236997157335281e-02 5.976712458277688711e-08 1.011332264170050621e-03 3.145782044157385826e-03 -2.989535219967365265e-03 -4.776961868628859520e-04 7.394172251224517822e-03 9.233928285539150238e-04 -1.540002413094043732e-03 2.314551034942269325e-03 7.407805969705805182e-05 1.961157657206058502e-03 2.289752010256052017e-03 1.049431040883064270e-03 -1.644817530177533627e-04 -1.835282503748203453e-08 -9.572763927280902863e-03 -2.971813268959522247e-02 -2.648591529577970505e-03 3.808400816929236044e-10 3.583898942451924086e-04 -1.745776855386793613e-03 -2.357335528358817101e-03 7.985747652128338814e-04 -5.183127419015193249e-14 7.024431135505437851e-03 1.395404516761622471e-12 8.375423029065132141e-03 -1.679111388511955738e-03 1.441473141312599182e-03 3.612801665440201759e-03 1.843506097793579102e-02 -4.025861562695354223e-04 -2.480878029018640518e-04 9.563599689954571659e-08 4.137005307711660862e-04 -3.148032352328300476e-03 -1.944403484230861068e-04 8.381397463381290436e-03 1.028900076249783524e-09 4.183347627986222506e-04 3.813805291429162025e-03 3.844126476906239986e-04 -2.167818509042263031e-02 -8.264342322945594788e-03 -1.067718039848841727e-04 1.371220871806144714e-02 7.063400698825716972e-04 4.375160206109285355e-03 -1.388509059324860573e-03 1.385215204209089279e-02 5.821550730615854263e-03 1.986308721825480461e-03 -2.202812116593122482e-03 1.986057963222265244e-03 5.110600053499954332e-14 -1.747134956531226635e-03 1.208824920468032360e-03 -1.538974931463599205e-03 1.040634419769048691e-02 1.540767843835055828e-03 -6.019411957822740078e-04 9.808396134758368134e-05 6.474931433331221342e-05 -1.100524361853823241e-13 -1.037338282912969589e-02 -7.029708481987029245e-10 -8.778556548350024968e-08 -6.093651172704994678e-04 -2.308346884092316031e-04 -2.702945843338966370e-03 -1.681423047557473183e-03 5.065955687314271927e-03 -5.584690254181623459e-03 -2.526637865230441093e-03 4.183207056485116482e-04 -9.539979510009288788e-05 1.235868548974394798e-03 1.465651585021987557e-04 1.113327406346797943e-02 2.494026208296418190e-03 -1.630056835711002350e-02 3.585416707210242748e-04 9.216158650815486908e-03 -3.788171336054801941e-03 -1.066697586793452501e-04 -1.500462926924228668e-02 5.921818315982818604e-03 -5.650534294545650482e-04 -1.914520110371867312e-13 -1.932740327902138233e-03 6.763239798601716757e-05 1.694701495580375195e-03 -1.262267865240573883e-02 7.672568899579346180e-04 -1.032372158680378016e-13 -6.405908497981727123e-04 1.183663661064125044e-14 1.985535491257905960e-03 -2.345153363421559334e-03 3.781891249818314371e-13 -8.287033997476100922e-03 -3.591433639371643949e-08 9.719897207105532289e-05 8.307535608764737844e-05 1.785992993973195553e-03 -5.783889791928231716e-04 -2.371158264577388763e-02 8.311858982779085636e-04 -1.644928008317947388e-03 -2.349081914871931076e-03 8.645989582873880863e-04 8.420255035161972046e-03 -2.168700797483325005e-03 1.238159835338592529e-03 1.078536547720432281e-02 -6.510715465992689133e-03 -8.262723684310913086e-03 -2.313481876626610756e-03 -1.204238180071115494e-02 5.603800527751445770e-04 5.035802023485302925e-04 2.256720472360029817e-04 4.187613958492875099e-04 -1.322048064321279526e-02 7.026546228541818984e-14 -2.401237189769744873e-02 -4.257613327354192734e-03 7.163167465478181839e-03 4.467310791369527578e-04 -6.661091931164264679e-03 -5.143502221471862867e-06 -1.016116002574563026e-03 8.587404154241085052e-03 -1.332697225734591484e-03 6.843645591288805008e-03 -9.704370995677891187e-07 -7.197692524641752243e-03 8.870322824785364935e-14 -6.022727582603693008e-03 -1.702049188315868378e-02 9.775785292731598020e-05 -1.639603637158870697e-03 6.334657624840200896e-12 6.897052509191939351e-14 1.321249831548118592e-13 -6.019018474034965038e-04 -3.344165452290326357e-04 -8.354193414561450481e-05 8.283340139314532280e-04 -1.021221559494733810e-02 -7.549170870333909988e-03 -1.060928567312657833e-03 9.149182733381167054e-05 -3.769210638049358408e-12 -2.039322396740317345e-03 1.416078419424593449e-03 7.987627177499234676e-04 -3.901523879358895219e-14 5.953072686679661274e-04 -1.239668391644954681e-02 9.808754839468747377e-05 3.027984173968434334e-03 3.561658784747123718e-02 -1.418492411175975576e-05 1.324294771620770916e-05 6.637918659180286340e-08 1.119708060286939144e-03 5.161344888620078564e-04 -8.291705511510372162e-03 8.309694385388866067e-05 -1.944377290783450007e-04 -7.997930850933698821e-08 -3.030461259186267853e-03 -9.999244473874568939e-03 8.656845311634242535e-04 -1.282725336539114469e-12 1.559630269184708595e-03 6.195542868226766586e-03 7.976918714120984077e-04 -4.877744941040873528e-04 -6.506407825707105630e-13 -3.357346286065876484e-04 -9.307591894750725375e-15 9.918849915266036987e-03 2.303563756868243217e-03 -1.931273494847118855e-03 -1.235572248697280884e-02 -3.033050568774342537e-03 1.420471700839698315e-03 1.156393159180879593e-02 1.416918588802218437e-03 2.479575108736753464e-03 3.919454757124185562e-03 4.223367141094058752e-04 -1.430994871043367311e-05 -4.445909056812524796e-03 5.223350399319315329e-06 7.335690781474113464e-03 -7.020875811576843262e-03 -6.682599352353379984e-14 3.820145622057680157e-08 -1.270945722353644669e-05 -2.170661464333534241e-03 3.214680908622535860e-12 -2.641204511746764183e-03 -8.225833997130393982e-03 -4.992305184714496136e-04 -2.348200650885701180e-03 -4.897030182618791749e-14 -9.815564379096031189e-03 5.827724933624267578e-03 4.881212953478097916e-03 1.623551361262798309e-02 1.558189514916374918e-11 4.222617426421493292e-04 7.976898341439664364e-04 -1.111411722376942635e-03 1.093793804173622680e-14 -5.776590667665004730e-03 -1.812190865166485310e-03 1.559074269607663155e-03 -3.401126014068722725e-03 -1.568326354026794434e-02 -5.666775978170335293e-04 -3.720678956988313080e-14 -2.308976138010621071e-03 -1.623461581766605377e-02 4.896822851151227951e-03 -3.092835191637277603e-03 -4.445918835699558258e-03 -2.201887080445885658e-03 1.442915410734713078e-03 1.396703009959310293e-04 -1.538950018584728241e-03 1.183393118740772021e-13 5.508686903984635896e-14 9.941652388079091907e-05 -5.051098970511314068e-13 -1.252750121057033539e-02 1.587528968229889870e-04 -1.835086010396480560e-02 5.823151674121618271e-03 7.983851246535778046e-04 -1.446635815227637067e-05 -1.928406301885843277e-03 -4.171503707766532898e-03 5.379789043217897415e-03 -6.990870926529169083e-03 -6.486725823151573422e-09 3.297480987384915352e-03 -1.068555644358551437e-13 2.889987971155250079e-10 -2.119018323719501495e-02 3.414974315091967583e-03 2.891996700782328844e-04 -2.690499823074787855e-04 8.739419281482696533e-04 -2.290087519213557243e-03 -1.065824617398902774e-04 -1.237124484032392502e-02 -5.004160921089351177e-04 -9.664731948078042478e-08 -2.168768318369984627e-03 1.913384348154067993e-02 -7.682153524424251145e-12 -9.831626666709780693e-04 -4.935155156999826431e-03 -8.266280405223369598e-03 -2.968412125483155251e-03 -2.054628217592835426e-03 -1.118050096948763894e-12 2.217857167124748230e-03 2.493093954399228096e-03 -3.881375887431204319e-04 1.106172241270542145e-02 6.348802126382446787e-12 8.222845080080136426e-15 -8.293137885630130768e-03 -3.405662486329674721e-03 3.299817617516964674e-04 -8.631598204374313354e-02 -8.695475450792855554e-10 -1.207310706377029419e-03 -2.637532772496342659e-03 1.433109585195779800e-02 1.858055009506642818e-03 -1.909799408167600632e-03 -1.926906639710068703e-03 7.570591988041996956e-04 1.669377880375577661e-08 -5.715162260457873344e-04 6.540925299221983513e-14 1.203580200672149658e-02 5.374312866479158401e-03 4.920459352433681488e-03 4.375068005174398422e-03 2.625535614788532257e-02 -1.623895578086376190e-02 -6.105049396865069866e-04 1.357576576992869377e-03 5.001191981136798859e-03 -8.288383483886718750e-03 2.165041631087660789e-03 -7.681594433961436152e-05 1.282219775021076202e-02 -9.324273833044571802e-07 2.671806374564766884e-03 2.925746884346880350e-12 -1.328281592577695847e-03 -1.253142690527467296e-13 -6.005410687066614628e-04 -1.271657762117683887e-03 -4.398377495817840099e-04 -1.070348508176027780e-13 1.436464201710549449e-14 -3.909081947028880677e-09 7.872888818383216858e-03 7.984997355379164219e-04 4.766448737439366035e-13 -2.904911120676922920e-12 1.535626826807856560e-03 3.269194625318050385e-03 1.385188475251197815e-02 1.610300317406654358e-02 3.921024035662412643e-03 5.305461818352341652e-04 7.529824972152709961e-03 2.262316178530454636e-03 3.141212277114391327e-03 2.282408298924565315e-03 1.125079393386840820e-02 -1.534291659481823444e-03 -5.168302674718461276e-09 -2.693335118237882853e-04 1.431133132427930832e-03 -6.815410052724707457e-14 -3.384522628039121628e-03 -1.906542165670543909e-04 -1.535133575089275837e-03 -1.339917187578976154e-03 6.552531267516314983e-04 -2.486177583249649103e-11 -1.307131350040435791e-02 -1.144135557115077972e-02 5.159032880328595638e-04 8.434860035777091980e-03 -2.692619746085256338e-04 5.951825878582894802e-04 1.660961515895231777e-12 9.481507353484630585e-03 2.238705030274505681e-14 -1.185637959338903258e-13 3.618704213295131922e-04 1.062823925167322159e-02 -4.910721909254789352e-04 2.962754480540752411e-02 -5.114997271448373795e-03 -1.066229160642251372e-04 -8.292220532894134521e-03 -9.829240851104259491e-03 -1.060705748386681080e-03 6.406779866665601730e-03 1.031350158154964447e-02 4.695453681051731110e-03 -4.449457395821809769e-03 -5.827458109706640244e-03 2.754173625274525250e-12 1.071719210772592579e-13 -4.513695370405912399e-03 -1.160302322972261990e-13 2.493381733074784279e-03 8.968759762639777477e-12 5.134304439935455378e-13 3.243321087211370468e-03 6.639551720581948757e-04 2.313928678631782532e-03 5.037366645410656929e-04 -1.758073686630723387e-09 8.256653245553025045e-07 -7.361573167145252228e-03 -1.629884727299213409e-02 7.174524239679860860e-14 -9.436521679162979126e-03 -1.391170546412467957e-02 -4.445982165634632111e-03 -3.411027137190103531e-03 -4.379170481115579605e-03 -2.985542872920632362e-03 -1.067667544702999294e-04 7.022981881164014339e-04 -1.326056383550167084e-02 -1.835010759532451630e-02 -1.065145697793923318e-04 -4.882533394265919924e-04 -2.829331788234412670e-04 3.445751499384641647e-03 -4.054367542266845703e-03 -3.328673464251738490e-15 -3.083721268922090530e-03 9.817312471568584442e-03 1.536465599201619625e-03 1.469710376113653183e-02 1.612668484449386597e-02 5.955564556643366814e-04 -1.307086087763309479e-02 -4.908950650133192539e-04 -8.180516771972179413e-03 9.954005508916452527e-05 -4.056228324770927429e-03 2.309177070856094360e-03 1.799836754798889160e-03 -2.336140023544430733e-03 -4.396064323373138905e-04 -3.305539954453706741e-03 -1.115074288100004196e-02 -1.713763177394866943e-02 -1.066053658723831177e-02 -2.168377395719289780e-03 -6.400789716280996799e-04 1.958708046004176140e-03 -5.329535808414220810e-03 -1.328837993146755186e-14 -2.525371033698320389e-03 -1.321655581705272198e-03 -1.715506077744066715e-03 6.475711415987461805e-05 8.520046002047365619e-09 -2.240907286121807118e-11 1.695703133009374142e-03 -3.401765832677483559e-03 3.844671009574085474e-04 -4.994407761842012405e-03 -1.931491075083613396e-03 1.706385410216171294e-05 -3.005556762218475342e-03 -1.761471503414213657e-03 -3.226422704756259918e-03 -3.742909757420420647e-05 -3.237640019506216049e-03 3.840545658022165298e-03 -2.375005558133125305e-02 1.208858564496040344e-03 1.721330452710390091e-03 5.421580746769905090e-03 -2.355543151497840881e-02 -8.287094533443450928e-03 9.104189230129122734e-04 3.953857813030481339e-03 -4.044169560074806213e-03 -4.303799476474523544e-03 -6.335168500903876065e-11 -8.818621747195720673e-03 -2.095165289938449860e-02 -1.498460536822676659e-03 -5.021981094865957118e-12 4.711031913757324219e-03 1.322695879935054109e-05 4.883921705186367035e-03 2.386852448001998417e-14 2.495575463399291039e-03 3.952862343004071022e-11 3.586096572689712048e-04 3.619215858634561300e-04 8.330451237270608544e-05 -1.066313561750575900e-04 -1.884910161606967449e-04 -1.901065930724143982e-03 -4.286837938707321882e-04 7.534179836511611938e-03 3.637545276433229446e-03 -2.244331501424312592e-02 -7.955017499625682831e-03 -2.723181154578924179e-03 -5.897552706301212311e-03 2.883751180557392324e-13 1.208823989145457745e-03 3.079230198636651039e-03 7.986004929989576340e-04 1.585167460143566132e-02 1.037575275404378772e-04 -8.258244022727012634e-03 9.999637404689565301e-05 -4.460202064365148544e-03 -1.898640301078557968e-03 -1.037104055285453796e-02 -1.206383225508034229e-03 -1.469598639829150510e-12 -3.891254309564828873e-03 -7.682355499127879739e-05 2.913052740041166544e-04 -1.066204931703396142e-04 -3.401233116164803505e-03 1.162487268447875977e-02 3.072344115935266018e-04 7.979795336723327637e-04 1.028109341859817505e-03 -5.045631620848034515e-11 -8.301754482090473175e-03 3.912206739187240601e-03 5.663888994604349136e-03 3.662984445691108704e-02 -3.194783348590135574e-03 3.251293006524547113e-13 1.049400423653423786e-03 -3.355458611622452736e-03 5.955302040092647076e-04 -1.063679810613393784e-04 -1.961542107164859772e-02 -2.369187512840653653e-07 -5.167032941244542599e-04 1.392992865294218063e-02 8.304510993184521794e-05 -1.433132495731115341e-02 9.101105388253927231e-04 -1.465109991841018200e-03 7.302712850664611066e-14 9.175179293379187584e-04 7.666525780223309994e-04 5.160731379874050617e-04 1.207199785858392715e-02 1.302495505660772324e-02 3.644188109319657087e-04 -8.286948315799236298e-03 -6.816392764449119568e-03 -1.224366715177893639e-03 -2.066378947347402573e-03 6.203404109839105729e-12 5.680268164724111557e-03 -2.341691777110099792e-02 1.363744522677734494e-04 -4.202513955533504486e-03 -1.446743772248737514e-05 -5.877904477529227734e-04 1.418032683432102203e-03 1.352596445940434933e-03 2.481110455976320850e-11 -1.629436761140823364e-02 1.413920777849853039e-03 7.510120980441570282e-03 3.584977821446955204e-04 -2.631306089460849762e-02 -1.657983195180179337e-10 9.946332313120365143e-03 1.188476942479610443e-02 4.580095992423593998e-05 -1.234238948023824722e-13 1.958214677870273590e-03 1.994663398363627493e-05 -1.215860527008771896e-02 3.769524395465850830e-03 2.077379077672958374e-02 3.617099137045443058e-04 -1.768349669873714447e-02 1.315515874011907727e-05 2.019196713044096869e-13 6.203994271345436573e-04 -1.064588141161948442e-04 1.958574866876006126e-03 6.388794645317830145e-06 2.590267681335661765e-13 -4.261268768459558487e-03 -2.344917738810181618e-03 1.648954057600349188e-04 9.216051548719406128e-03 1.944429241120815277e-03 5.823786836117506027e-03 1.002204231917858124e-02 -9.786472847383986817e-13 5.416160449385643005e-03 -5.396897151399571158e-09 4.003540612757205963e-03 -3.388577612950527396e-12 7.464037390545949502e-16 7.423916249535977840e-04 -2.170269377529621124e-03 -3.357614949345588684e-02 4.542689304798841476e-03 -1.047704369821263887e-14 -1.389401406049728394e-02 -1.761158996416156697e-09 4.370108246803283691e-03 2.762575261294841766e-02 -5.075884982943534851e-04 -1.745758811011910439e-03 -1.569989882409572601e-02 1.057473476976156235e-03 3.244747174903750420e-03 -1.746011548675596714e-03 -6.018422427587211132e-04 5.851622336194850504e-05 7.798412582360469969e-09 1.410275704809976771e-13 2.499629743397235870e-03 -1.947331801056861877e-02 -1.457315869629383087e-02 -1.066614524461328983e-03 -1.063158124452456832e-04 -2.118904740200378001e-05 -9.446225129067897797e-03 -4.125789273530244827e-03 5.416002124547958374e-03 -8.272996172308921814e-03 -1.066922559402883053e-03 1.958350185304880142e-03 2.614867687225341797e-02 -2.570989774540066719e-03 -1.237395033240318298e-02 -3.686097264289855957e-02 -1.224629580974578857e-03 2.379894256591796875e-03 2.717137895524501801e-02 1.583774574100971222e-02 -8.154280483722686768e-03 -4.790345637523119038e-13 3.998961299657821655e-03 5.085345922140049879e-09 -1.742749960184988844e-13 1.077620545402169228e-03 -1.746850757626816630e-04 -1.286291703581809998e-02 8.256977424025535583e-03 -7.030199631117284298e-04 -1.562792435288429260e-02 -1.351490849629044533e-03 1.279731933027505875e-02 -1.216412871144711971e-03 3.826325992122292519e-03 6.246369332075119019e-03 1.721611362881958485e-03 -1.835913397371768951e-02 2.458528382703661919e-03 -6.404298474080860615e-04 -9.417083269864373607e-14 -6.082348059862852097e-03 -6.865876261144876480e-03 -7.333486806601285934e-03 8.633039542473852634e-04 1.206560293212532997e-03 7.167513668537139893e-02 -1.059582573361694813e-03 3.204152453690767288e-03 -3.740774700418114662e-04 -3.401677822694182396e-03 1.003801815974147971e-11 8.657873841002583504e-04 7.871757261455059052e-03 -5.064938450232148170e-04 1.770118437707424164e-02 9.051551111042499542e-03 1.808995380997657776e-02 -2.024030209213378839e-06 -1.226536580361425877e-03 2.427116967737674713e-03 2.797938650473952293e-03 1.417310908436775208e-03 7.961545139551162720e-03 -3.452701785136014223e-04 -6.648906273767352104e-04 9.330384636996313930e-05 -6.408187909983098507e-04 -2.894792738850071601e-11 -1.543602556921541691e-04 -2.267646070919226986e-09 6.458089046645909548e-05 4.332073775766866197e-14 8.302914648083969951e-05 -2.061671722231039894e-08 -1.983345951884984970e-03 3.844190214294940233e-04 5.816094577312469482e-03 -1.550457789562642574e-03 -4.881898639723658562e-04 3.240207210183143616e-03 3.269137116149067879e-03 5.495951627381145954e-04 9.694810025393962860e-03 1.297975308261811733e-03 -5.275014555081725121e-04 1.170048259668821089e-11 -1.658153730424091754e-14 4.560041173872278475e-14 1.958393026143312454e-03 -1.594222895801067352e-02 -1.463413627789122984e-05 -7.366666104644536972e-03 -1.703776302747428417e-03 4.004303365945816040e-03 1.096693705767393112e-02 -1.629390381276607513e-02 -6.271366961300373077e-03 1.237260759808123112e-03 -5.149887982724976609e-08 2.050687931478023529e-02 -5.210369359701871872e-03 -1.434850095726261654e-14 1.049413345754146576e-03 1.077361172065138817e-03 -3.406827524304389954e-02 3.644680546130985022e-04 6.604135851375758648e-04 5.680617876350879669e-03 1.544850645586848259e-03 1.819845661520957947e-02 -2.474982675401693477e-12 1.012999498737135462e-13 1.030887849628925323e-02 4.642155487090349197e-03 1.915633445605635643e-03 -1.930012740194797516e-02 1.304460573010146618e-03 1.920114445965737104e-04 5.369016434997320175e-03 3.914997447282075882e-03 2.268374941008510781e-12 1.011950371321290731e-04 -9.973053820431232452e-03 1.794184689707378766e-09 1.282045338302850723e-02 -7.182284416729425858e-14 -1.205454735597050187e-13 1.747945207171142101e-03 -6.198465740681058378e-08 3.374301595613360405e-04 4.011777346022427082e-04 -1.742070890031754971e-03 2.638187259435653687e-02 -2.012250479310750961e-03 1.283636316657066345e-02 4.855873063206672668e-03 -2.733248693402856588e-04 2.717147218334048375e-08 -8.821704424917697906e-03 1.012545326375402510e-04 -3.094414062798023224e-02 2.604898379789631624e-14 1.302872202359139919e-03 -2.366049329793895595e-06 1.628991682082414627e-03 8.627638220787048340e-03 1.442602412310076132e-13 -4.975656513124704361e-03 -8.149592322297394276e-04 2.693064510822296143e-02 2.490305574610829353e-03 -4.138857090168687747e-14 -1.541311759501695633e-02 -1.909560640342533588e-03 -1.221726182848215103e-02 -2.709568850696086884e-02 -2.872692234814167023e-02 2.544438466429710388e-04 7.982306997291743755e-04 -1.402792270364938698e-13 -3.698132000863552094e-03 -1.649772515520453453e-03 -1.339763961732387543e-02 -1.435306967323413119e-05 -1.576725207269191742e-02 9.875802323222160339e-03 -1.328502316027879715e-03 5.806970293633639812e-04 -1.536016073077917099e-02 3.143296111375093460e-03 7.321144965223222445e-14 1.852035871706902981e-03 3.617099428083747625e-04 3.420477360486984253e-02 -1.570967957377433777e-02 1.362932816846296191e-04 -1.230103312991559505e-03 -9.042196907103061676e-03 1.041281502693891525e-02 -2.862696768715977669e-03 6.427079206332564354e-04 1.284684258280321956e-04 1.489932183176279068e-03 -3.480309387668967247e-04 6.246424745768308640e-03 -3.732717468452051435e-10 -2.566930837929248810e-02 -4.373503512469789634e-14 -1.873288579378601382e-14 -9.998773998435434018e-14 7.812751084566116333e-02 -1.020675711333751678e-02 -1.577921753220627721e-14 1.102818132494576275e-04 -1.110967851047917065e-08 -6.411992944777011871e-04 1.943477662280201912e-03 -1.043843291699886322e-02 -3.160285996273159981e-04 -4.831798723898828030e-04 6.633551674894988537e-04 1.237813383340835571e-03 1.552243134938180447e-03 -1.884650476045163225e-13 5.218761041760444641e-03 6.918427534401416779e-03 -1.977736130356788635e-02 6.697926124843434081e-08 1.048789359629154205e-03 -3.351171326357871294e-04 -3.967429051954241004e-09 6.252598483115434647e-03 -4.029968695249408484e-04 1.958199311047792435e-03 5.824852734804153442e-03 3.055844688788056374e-03 1.704166425042785704e-05 1.980320364236831665e-02 4.223050549626350403e-03 1.611380488611757755e-03 -2.571038203313946724e-03 -9.682406089268624783e-04 8.178905415347909047e-14 -9.100222378037869930e-04 2.140338037012745609e-12 -1.046955577788111214e-11 -5.004808772355318069e-04 7.760223636377096973e-15 -2.866184106096625328e-03 4.609376769160178355e-11 -2.309312403667718172e-04 -4.493508895393460989e-04 -3.123647607933266457e-12 4.902138807730271886e-14 3.300024662166833878e-03 -6.088506197556853294e-04 -1.549693988636136055e-03 -5.303059588186442852e-04 -8.339052088558673859e-03 2.999597237263174065e-10 1.275483169592916965e-03 -9.540549945086240768e-05 6.844106595963239670e-03 -1.065296935848891735e-03 1.800027559511363506e-03 3.667960874736309052e-03 8.641259086061836570e-08 1.049061538651585579e-03 1.958721317350864410e-03 -1.569426059722900391e-02 9.455828120508158463e-08 -1.941434456966817379e-03 1.554680289700627327e-03 2.514269435778260231e-04 2.875782549381256104e-03 1.317954320256831124e-05 1.521770043311221343e-09 3.912222106009721756e-03 -5.546226166188716888e-03 4.882428795099258423e-03 -4.969881173266799124e-10 6.201575510203838348e-03 1.045432221144437790e-02 6.949450820684432983e-03 -5.076931416988372803e-02 8.224989869631826878e-05 5.955320084467530251e-04 2.495437161996960640e-03 -2.598326886072754860e-03 -1.122422510491105641e-08 3.241911540651301604e-14 -1.445087582396809012e-05 -1.007149847964683431e-07 -2.171929692849516869e-03 5.163796595297753811e-04 1.740928366780281067e-02 -8.286964148283004761e-03 -5.969198117565521766e-13 3.278685268014669418e-03 7.865099236369132996e-03 2.787580342555884272e-05 1.123029738664627075e-02 -1.447423361241817474e-03 -6.018445128574967384e-04 -6.095680594444274902e-02 -1.761558116413652897e-03 4.203514691880627652e-08 -5.339786875993013382e-04 -1.321549061685800552e-03 -8.107325574768786680e-13 5.613726680167019367e-04 8.141314610838890076e-03 -5.115266889333724976e-02 -3.401067107915878296e-03 8.935968391597270966e-03 3.415595507249236107e-03 2.697017416357994080e-02 3.413200611248612404e-03 6.179469713707419487e-10 -2.787920219186304678e-15 -1.362159731797873974e-03 4.829118875615545647e-12 1.799914520233869553e-03 7.979861693456768990e-04 -6.102757765802380163e-08 2.044688211753964424e-03 5.407339615133566202e-13 -1.246862579137086868e-03 -1.045071752741932869e-03 -2.174491761252284050e-03 5.733616164314836450e-14 -8.926351438276469707e-04 -2.520166896283626556e-02 -2.187929741895300317e-13 -5.308087480671019875e-08 -4.792811286735698673e-11 5.035870708525180817e-04 6.102180528455916630e-14 -2.772400155663490295e-03 -8.304473944008350372e-03 -3.002220596692167787e-13 -2.735162852331995964e-04 9.705042466521263123e-03 -3.906683665260389515e-14 -1.901351963169872761e-03 -2.504730597138404846e-03 -2.855680882930755615e-03 -2.267082355178473563e-12 4.530697129666805267e-03 8.426791988313198090e-03 -1.796872168779373169e-02 -3.099777379222956597e-13 5.218125414103269577e-03 1.554628601297736168e-03 1.422051454369466228e-08 -1.901185838505625725e-03 -4.214146121905154585e-13 -9.443363174796104431e-03 6.250552833080291748e-03 5.481102969497442245e-03 -4.841758403927087784e-03 -1.418107513018185273e-05 3.619077906478196383e-04 -3.623547730967402458e-03 1.077942422822442126e-12 -3.048187587410211563e-03 1.249337568879127502e-03 1.299022733292076737e-05 -6.392691866494715214e-04 5.481466391898948132e-10 1.418038387782871723e-03 -4.874270816799253225e-04 -3.511461254674941301e-04 9.399085513801114233e-14 -1.951060723513364792e-03 3.027976024895906448e-03 -8.816086687147617340e-03 -1.231632777489721775e-04 -8.030557073652744293e-03 -7.712734397500753403e-03 -1.296944078058004379e-02 -1.457874104380607605e-02 -5.075974622741341591e-04 -1.076519140042364597e-03 2.838818589225411415e-03 2.147132717072963715e-02 -1.896074623800814152e-03 -7.007180006048975562e-15 -1.308982726186513901e-02 -1.106100901961326599e-02 -1.602706106663878000e-14 8.430138230323791504e-03 9.149592369794845581e-05 3.564011771231889725e-03 4.710766021162271500e-03 1.361757895210757852e-04 -8.286451920866966248e-03 -1.043576846031929461e-13 -1.245392602868378162e-03 -1.269129104912281036e-03 2.893774664336490332e-10 2.309830048042270378e-14 8.642680477350950241e-04 -1.142664586950559169e-06 7.981974631547927856e-04 5.563584125735723807e-14 1.215228655551681136e-12 3.842463775072246790e-04 1.209829119034111500e-03 -6.025031325407326221e-04 -2.027865654802112061e-14 -5.011177272535860538e-04 1.732736825942993164e-03 1.010753438411560179e-13 6.179472431540489197e-03 1.994045487663242966e-05 -3.623363329097628593e-03 1.200987957417964935e-02 3.680295543745160103e-03 3.212362295016646385e-03 1.304679790337104350e-05 7.515291683375835419e-03 1.182552310638129711e-03 -6.197257876143502653e-13 -1.065119067789055407e-04 1.587547158123925328e-04 1.362671901006251574e-04 9.142517853888421087e-10 1.991684781387448311e-03 -1.059490139596164227e-03 2.910768671426922083e-04 -1.328958210838893095e-12 1.029566406088311403e-12 1.357234548777341843e-03 5.721241235733032227e-03 1.435357378795742989e-03 -1.238873414695262909e-02 2.252648351714015007e-03 7.986397831700742245e-04 3.214090596884489059e-03 5.795813631266355515e-04 -1.419061663909815252e-05 -4.256910104906592995e-14 -1.013364017126150429e-04 -6.562252911207488992e-14 -5.444664042443037033e-03 5.221267862509648694e-10 -1.189731247723102570e-02 -1.378794293850660324e-02 1.291940458694046390e-13 8.431081660091876984e-03 -3.808072768151760101e-03 -4.445958416908979416e-03 -6.080339080654084682e-04 -2.726078033447265625e-03 -2.689887769520282745e-04 2.209083642810583115e-03 -2.527226228266954422e-03 5.679636378772556782e-04 8.133586959502281388e-08 1.357540138997137547e-03 -8.227658458054065704e-03 -2.567495033144950867e-02 -4.395409817364859251e-14 -2.502154000103473663e-02 3.139663487672805786e-03 -7.197744678705930710e-03 -2.316914033144712448e-03 -5.283070728182792664e-03 -9.066456928849220276e-03 1.298126790061360225e-05 -2.641944913193583488e-03 -2.658820245414972305e-03 -5.233422853052616119e-03 5.683100316673517227e-04 8.427120745182037354e-03 1.220912323333323002e-03 -2.193471882492303848e-04 1.543261227197945118e-03 1.011215936159715056e-04 -2.525504911318421364e-03 -4.989705630578100681e-04 3.844661696348339319e-04 -1.158487350494397106e-08 -1.395207829773426056e-03 2.554110345442950347e-08 1.001094002276659012e-02 -1.300568971782922745e-02 1.751280979078728706e-05 6.627182476222515106e-03 9.720403701066970825e-03 -4.838045220822095871e-03 3.437462510191835463e-05 6.116738077253103256e-04 1.278908457607030869e-02 1.052110269665718079e-02 -4.288212512619793415e-04 -3.813678398728370667e-03 2.879128558561205864e-03 7.246273893424248769e-12 -2.268338110297918320e-03 -1.901247072964906693e-03 -1.422695459041278809e-05 -2.884452854345909145e-08 -1.901450101286172867e-03 -3.131331728200431597e-15 9.440642781555652618e-03 1.357941539026796818e-03 2.165052108466625214e-03 -1.337763853371143341e-02 1.045027747750282288e-03 1.013906672596931458e-03 1.385274156928062439e-02 2.078087709378451109e-04 2.828535623848438263e-03 -1.160095795057713985e-03 -2.365682519669953798e-13 5.455219652503728867e-03 -1.356647650122000393e-12 -4.281491827740069311e-12 7.474250742234289646e-04 -1.112635945901274681e-03 -2.307481336174532771e-04 6.503161042928695679e-02 1.080882549285888672e-02 6.634116289205849171e-04 -1.549483742564916611e-03 -8.291904814541339874e-03 -1.746461819607247890e-08 -3.452732344157993793e-04 4.542521666735410690e-03 -3.453053068369626999e-04 -3.326242323964834213e-03 -2.928685769438743591e-02 2.120242267847061157e-02 3.019092977046966553e-02 5.674883257597684860e-03 2.815534763816215751e-15 1.012432621791958809e-04 1.283053867518901825e-02 4.234439693391323090e-03 1.958290347829461098e-03 -1.066846307367086411e-03 3.028792561963200569e-03 7.294550305232405663e-04 -2.733097062446177006e-04 4.875393911827306803e-14 8.534162553074445268e-14 -2.688044914975762367e-04 1.058435714185179677e-06 2.942650951445102692e-02 5.955108790658414364e-04 -1.175228855572640896e-03 3.643380186986178160e-04 3.679170040413737297e-03 -1.419284399162279442e-05 -1.426714425178943202e-05 -8.291925303637981415e-03 -1.674327068030834198e-03 4.232523031532764435e-03 7.976869819685816765e-04 1.091140511562116444e-04 -7.014411035925149918e-03 5.793203599750995636e-03 -8.272743783891201019e-03 -1.066379481926560402e-03 2.796988701447844505e-03 1.281654686893785033e-12 -4.445989616215229034e-03 -1.647771132411435246e-04 5.160368746146559715e-04 9.637398761697113514e-04 -1.502669277897439315e-08 1.336887362413108349e-04 1.467079235872859044e-10 -3.859410760924220085e-03 6.648547714576125145e-04 1.872027525678277016e-03 -6.410784553736448288e-03 -1.215129392221570015e-03 6.390296388417482376e-03 -4.536961029089070507e-09 -7.680982525926083326e-05 2.856496954336762428e-03 6.614119745790958405e-03 -1.386713585816323757e-03 -4.288679920136928558e-04 1.109247002750635147e-02 1.319300936302170157e-04 3.865423379465937614e-03 6.452025845646858215e-03 1.250402536243200302e-02 2.912877826020121574e-04 -1.813398790545761585e-03 -5.290793254971504211e-03 9.373052162118256092e-04 -2.525819698348641396e-03 5.955603001592865015e-16 -1.946537377079948783e-04 3.826505504548549652e-03 6.253045983612537384e-03 -3.876346333221529494e-14 1.721552689559757710e-03 -1.421328820288181305e-02 -1.066603814251720905e-03 -2.613697014749050140e-02 -4.729002714157104492e-03 -3.033209126442670822e-03 -3.489322261884808540e-03 2.120671980082988739e-02 8.655876736156642437e-04 1.117513980716466904e-03 2.078537218039855361e-04 1.490286958869546652e-04 1.240496989339590073e-02 2.803304698318243027e-03 7.889854721724987030e-03 -7.197915110737085342e-03 -8.286826312541961670e-03 1.150067691924050450e-04 1.357209403067827225e-03 -3.031870815902948380e-03 -3.836741058194093057e-08 -3.592141671106219292e-03 2.495207125321030617e-03 3.143459092825651169e-03 -5.009980406612157822e-03 -8.886277675628662109e-03 -2.118715383403468877e-05 -4.989620647393167019e-04 4.726550541818141937e-04 -5.369933081642193351e-15 1.317575843080062009e-14 2.360430953558534384e-04 1.263422977348938048e-10 4.060413222759962082e-03 -1.413185145793249831e-05 -9.829852730035781860e-03 -7.866086671128869057e-04 -3.384314011782407761e-03 1.738830353133380413e-03 -8.690386079251766205e-03 9.150720870820805430e-05 7.565377280116081238e-03 1.559299766086041927e-03 -1.932108891196548939e-03 -8.287248201668262482e-03 -1.485048528593324590e-08 -1.171736745163798332e-03 -1.975828112232846934e-10 1.017144881188869476e-03 4.203977823635796085e-06 -1.588298473507165909e-03 -8.338068611919879913e-03 7.983308169059455395e-04 1.322537718806415796e-05 -2.168772974982857704e-03 -1.164277563248106162e-09 9.847016772255301476e-04 7.940526847960427403e-05 -1.286873035132884979e-02 -2.927196957170963287e-02 -2.518077194690704346e-02 5.232491344213485718e-02 2.643639966845512390e-02 2.542967349290847778e-02 9.952240623533725739e-03 1.195590361021459103e-03 3.769936738535761833e-03 -5.866468418389558792e-03
-3.212120756506919861e-02 -2.888329327106475830e-02 1.074053812772035599e-02 1.125875934958457947e-01 3.385719284415245056e-02 -1.056357938796281815e-02 -3.237964585423469543e-02 -1.142380875535309315e-03 3.999485820531845093e-02 2.632807381451129913e-02 3.976925089955329895e-02 2.136051468551158905e-02 6.139232590794563293e-02 6.637916713953018188e-02 1.254117190837860107e-01 7.312616333365440369e-03 -1.281816065311431885e-01 -2.167952805757522583e-02 3.175822645425796509e-02 2.768137864768505096e-02 2.779576368629932404e-02 6.024105474352836609e-02 -2.180499397218227386e-02 4.727779887616634369e-03 1.696465536952018738e-03 4.867342486977577209e-02 9.323465824127197266e-02 1.130346804857254028e-01 1.153741553425788879e-01 6.292887777090072632e-02 2.780791372060775757e-02 -5.159451439976692200e-02 -1.219742968678474426e-01 -3.275591507554054260e-02 3.398306295275688171e-02 -7.511136122047901154e-03 3.855593502521514893e-02 2.640192396938800812e-02 6.688732653856277466e-02 -6.173861213028430939e-03 -4.396852850914001465e-02 -2.313472144305706024e-02 -2.613174729049205780e-02 1.201950833201408386e-01 1.095278486609458923e-01 -4.380351305007934570e-02 4.891254939138889313e-03 -1.116312691010534763e-03 5.028826743364334106e-02 6.777829676866531372e-02 4.706334322690963745e-02 -8.188043721020221710e-03 1.516919396817684174e-02 -4.026943072676658630e-02 2.628140151500701904e-02 5.703093484044075012e-02 8.600647002458572388e-02 4.603946208953857422e-02 6.591257452964782715e-02 1.228277310729026794e-01 4.692817106842994690e-02 -4.644457716494798660e-03 -1.326847821474075317e-01 -2.701930701732635498e-03 1.026936341077089310e-02 -1.843452081084251404e-02 5.591700319200754166e-04 -4.008970689028501511e-03 -4.011436365544795990e-03 1.998962543439120054e-04 1.305507063537698562e-14 7.953999958676405413e-11 -1.076593995094299316e-03 -5.208936985582113266e-03 -4.750510677695274353e-03 7.169406395405530930e-03 -5.103926174342632294e-03 2.898051752708852291e-05 -2.601728541776537895e-03 2.308746799826622009e-03 -1.188304148006316674e-13 -8.046902445595083275e-14 3.118368735975651784e-15 -8.412184542976319790e-04 -3.474976401776075363e-03 -6.103914347477257252e-04 5.490879993885755539e-03 1.283233502097358425e-13 1.361856819130480289e-03 -1.125125493854284286e-02 7.749444339424371719e-03 1.367959775961935520e-04 8.901370456442236900e-04 -1.771564711816608906e-03 3.786947345361113548e-03 1.649001642363145947e-04 2.840668708086013794e-02 5.593904294073581696e-03 -2.714270260185003281e-03 5.190705504309889307e-12 -2.540060086175799370e-04 -1.571736447589233698e-13 2.419582800939679146e-03 8.092478848993778229e-03 1.367505028611049056e-04 -5.449889264918031384e-14 1.814376912079751492e-03 4.020106792449951172e-02 -3.437023377045989037e-03 1.532357744872570038e-02 -3.017902490682899952e-04 1.150156720541417599e-03 1.700730761513113976e-03 2.437214134261012077e-03 7.556116906926035881e-04 3.249209607020020485e-03 1.766595814842730761e-04 2.108213678002357483e-02 -4.196389578282833099e-03 -3.726853523403406143e-03 -3.812085604295134544e-03 -2.543917484581470490e-02 -1.008338294923305511e-03 -7.392103964533325300e-14 -2.233543345937505364e-04 1.162580563686788082e-03 -1.298264134675264359e-02 5.880624521523714066e-04 9.990004822611808777e-03 -2.625135937705636024e-03 4.374122945591807365e-04 -6.695326883345842361e-03 5.477585364133119583e-04 3.892757231369614601e-04 8.094817871562298706e-11 -3.803792060352861881e-04 1.497111376374959946e-02 1.852531568147242069e-03 -3.765165340155363083e-03 -1.058180700056254864e-03 7.750054821372032166e-03 3.087098477408289909e-03 8.000379893928766251e-04 2.179070841521024704e-03 5.602398887276649475e-04 1.667717006057500839e-04 1.151414471678435802e-03 -1.566841681356276328e-13 -3.624323057010769844e-03 2.063766680657863617e-02 8.318549022078514099e-03 3.216950572095811367e-04 2.272343990625813603e-04 1.208316170959733427e-04 3.500334278214722872e-04 -8.147460408508777618e-03 1.175196550316781607e-13 -5.821311497129499912e-04 -1.605213328730314970e-04 1.651158527238294482e-04 7.605486549437046051e-03 1.869164290837943554e-03 2.380287274718284607e-02 1.146963890641927719e-02 -2.111710375174880028e-03 4.387372173368930817e-04 -1.260205754078924656e-04 3.910094965249300003e-04 2.935520315077155828e-04 -2.112172311171889305e-03 1.411121222190558910e-03 -3.288823179900646210e-03 -3.023071330972015858e-04 6.007582414895296097e-03 -1.266282051801681519e-03 -3.341561881825327873e-03 -1.848791842348873615e-03 -1.574112847447395325e-02 -3.780374769121408463e-03 -6.090155802667140961e-04 -1.609370810911059380e-03 1.754290796816349030e-02 1.029870938509702682e-02 -3.064524382352828979e-03 1.396135776303708553e-03 5.063986172899603844e-04 3.468636239779138153e-13 2.277663588756695390e-04 2.491425722837448120e-03 -4.231993574649095535e-03 -1.997477161973237880e-13 9.432184200353077586e-12 -2.232193364761769772e-04 -1.175064244307577610e-03 8.238071313826367259e-05 -1.384581672027707100e-03 5.980061250738799572e-04 1.639568991959095001e-02 2.391508547589182854e-03 1.065136981196701527e-03 2.387468935921788216e-03 -1.627951511181890965e-03 1.031188294291496277e-02 -1.249178312718868256e-03 3.911722451448440552e-04 -2.319487044587731361e-03 -5.485412664711475372e-03 -4.129572189413011074e-04 -2.677775919437408447e-03 -2.747548045590519905e-03 -1.578458119183778763e-03 3.117932239547371864e-03 -4.374314565211534500e-03 -1.298494404181838036e-03 3.378830105066299438e-02 2.430176391499117017e-04 -9.949664585292339325e-03 -4.471665713936090469e-03 1.260645315051078796e-02 1.164683140814304352e-03 1.072466466575860977e-02 -8.807956473901867867e-04 -2.975353563670068979e-04 4.523441195487976074e-03 -1.001201220788061619e-03 1.145894639194011688e-02 -8.316455205203965306e-05 4.606087226420640945e-03 1.083784809452481568e-04 1.003453508019447327e-02 1.541307196021080017e-02 -1.174942823126912117e-03 -1.021344331093132496e-03 5.100724665774505895e-14 3.963673952966928482e-04 1.032455329550430179e-04 1.236893353052437305e-03 1.333756954409182072e-03 -1.000606971501838416e-05 -2.158104209229350090e-03 -4.105176310986280441e-03 -4.569273155370992545e-14 -2.478253930196516741e-12 -3.085224307142198086e-04 4.003398120403289795e-03 -2.714268630370497704e-03 1.187747111544013023e-03 2.438442315906286240e-03 7.534828619100153446e-04 1.508999615907669067e-03 2.155765146017074585e-02 2.271522971568629146e-04 -3.358838148415088654e-04 3.391168639063835144e-02 -2.954299328848719597e-03 -1.889818959170952439e-04 -5.821596714667975903e-04 4.291724413633346558e-03 1.743630738928914070e-03 3.466987114064679076e-11 8.240334864240139723e-05 8.513219832860172143e-14 -5.821628146804869175e-04 3.613339553780459124e-13 -9.886984480544924736e-04 -3.747934475541114807e-03 6.413961527869105339e-04 -2.730755833908915520e-03 -8.265967480838298798e-03 2.438298193737864494e-03 1.103496178984642029e-03 1.174014760181307793e-03 1.405600924044847488e-03 4.770668747369199991e-04 -1.199374254792928696e-02 -2.105840109288692474e-02 -1.337047945708036423e-02 -5.740739405155181885e-03 8.019997291058497679e-14 1.099644694477319717e-03 -2.024940773844718933e-02 1.097001135349273682e-03 -1.548093743622303009e-03 1.133767329156398773e-02 -1.075987471267580986e-03 -2.958061639219522476e-03 1.320768846198916435e-03 -9.548103553242981434e-04 2.063996903598308563e-02 -2.086858078837394714e-02 7.534413598477840424e-04 6.668590105032151660e-14 -4.010125063359737396e-03 -1.249236171133816242e-03 5.582884768955409527e-04 -3.436807543039321899e-03 2.072001108899712563e-03 -5.018375231884419918e-04 -4.233252257108688354e-03 3.200811624992638826e-04 8.375380188226699829e-03 3.089835168793797493e-03 1.673048175871372223e-02 1.842457056045532227e-02 -1.069914898835122585e-03 -1.076283631846308708e-03 2.438321011140942574e-03 2.641181461513042450e-03 1.731265656417235732e-04 6.179864518344402313e-03 -3.491538809612393379e-03 -1.837423071265220642e-03 1.108105061575770378e-03 -6.336724851280450821e-03 2.849780139513313770e-04 1.589653315022587776e-03 1.978730084374547005e-03 5.467282608151435852e-03 -6.702930200845003128e-03 -3.852616995573043823e-03 1.812871429137885571e-03 2.235969901084899902e-02 -1.259612909052520990e-04 -2.146686028936528601e-07 -2.712633926421403885e-03 1.293649547733366489e-04 7.020587217994034290e-04 -4.353178448680654344e-15 1.294669782510027289e-04 -1.639885827898979187e-02 1.998973893932998180e-04 -1.522884797304868698e-02 3.090933663770556450e-03 2.438498195260763168e-03 -2.957544056698679924e-03 -1.673322869464755058e-03 2.701971447095274925e-03 -2.004008926451206207e-02 -1.449867617338895798e-02 -1.505127131869871127e-13 3.307671751827001572e-03 2.715161244850605726e-04 -1.948983594775199890e-02 1.479768287390470505e-02 3.119466360658407211e-03 7.541301893070340157e-04 -5.253542913123965263e-04 6.563550559803843498e-04 1.648903707973659039e-04 -3.805849992204457521e-04 -9.268173016607761383e-03 1.099520712159574032e-03 -5.821233498863875866e-04 -1.248918822966516018e-03 -6.078187841922044754e-03 2.391655725659802556e-04 8.238126611104235053e-05 -5.461323074996471405e-03 -7.858735884269663075e-11 -4.106240812689065933e-03 2.968714805319905281e-03 1.764424523571506143e-04 2.895729558076709509e-04 -9.079892188310623169e-04 9.722955874167382717e-04 -6.715916097164154053e-02 -5.372198386556330252e-14 6.559758912771940231e-05 6.344074571229540993e-12 1.107644289731979370e-03 7.580299861729145050e-04 -4.582526162266731262e-02 -1.271432232500396831e-13 1.600423362106084824e-03 -3.436845028772950172e-03 1.329732686281204224e-02 6.828871555626392365e-04 4.265225492417812347e-03 -2.176077337935566902e-03 -2.401280682533979416e-03 -3.519166784826666117e-04 4.340364132076501846e-03 6.565413059433922172e-05 -6.319913547486066818e-03 -2.004596963524818420e-02 -3.434180747717618942e-03 -3.762115724384784698e-03 4.775636643171310425e-02 6.219429429620504379e-03 4.704066959675401449e-04 2.184643177315592766e-03 -1.203170395456254482e-03 -6.664376689391460218e-11 5.013987887650728226e-03 -1.012281354633159935e-04 -3.303232789039611816e-02 -8.807648555375635624e-04 5.046389065682888031e-03 6.616059108637273312e-04 -1.789348013699054718e-02 1.854848815128207207e-03 1.236433978192508221e-03 2.849754237104207277e-04 2.569351112470030785e-03 2.225355419795960188e-04 2.172503300243988633e-04 -1.125342751038260758e-04 7.321906741708517075e-03 2.438442083075642586e-03 8.488626335747539997e-04 -6.732422507937235734e-14 4.771005827933549881e-03 -8.000150322914123535e-03 7.746891584247350693e-03 1.648564264178276062e-02 1.133438199758529663e-02 1.120535423979163170e-03 7.356741465628147125e-03 7.187850773334503174e-03 -1.770144677720963955e-03 1.120148925110697746e-03 2.054569311439990997e-02 -8.318348722509416593e-14 -1.164439454441890121e-04 -5.253446288406848907e-04 -2.482844982296228409e-03 4.770414670929312706e-04 -4.245341406203806400e-04 -6.460720906034111977e-04 -2.550844192990286974e-13 -1.426977803930640221e-03 -5.508500034920871258e-04 -3.836967051029205322e-03 -3.821738995611667633e-03 -5.448902025818824768e-03 1.743238884955644608e-03 1.029741019010543823e-02 -5.256701260805130005e-04 1.509035355411469936e-03 4.001576453447341919e-03 1.287356205284595490e-02 2.226886572316288948e-03 2.931840426754206419e-04 1.287216087803244591e-03 7.045227031973744225e-15 2.517134416848421097e-04 5.889586731791496277e-02 3.952508326619863510e-03 -3.803600848186761141e-04 -9.439824616430669835e-11 8.579870685935020447e-03 -5.934959121378646785e-12 1.866815797984600067e-02 1.389255560934543610e-02 -8.777784532867372036e-04 1.497227349318563938e-03 -5.010691820643842220e-04 6.259885267354547977e-04 1.854895497672259808e-03 2.030081348493695259e-03 5.643868353217840195e-04 1.408227370120584965e-03 4.297154082451015711e-04 6.075918790884315968e-04 2.243962371721863747e-03 -1.933837978640440269e-09 -1.539600565092502649e-11 3.118372056633234024e-03 -1.164680143119767308e-04 -8.785302634350955486e-05 -8.570807054638862610e-03 -3.174896119162440300e-03 2.419672906398773193e-03 -6.073147524148225784e-04 -2.246082294732332230e-03 1.320853712968528271e-03 1.106612151488661766e-03 3.436499740928411484e-03 3.786439076066017151e-03 -3.805312444455921650e-04 2.081373939290642738e-03 3.400879725813865662e-02 -3.241753950715065002e-02 -3.803583094850182533e-04 1.643444597721099854e-02 1.888008438982069492e-03 -1.475147716701030731e-02 -1.907851896248757839e-03 2.449669991619884968e-04 -7.347405189648270607e-04 2.703625150024890900e-02 4.774113185703754425e-03 -3.855007933452725410e-03 1.786109618842601776e-02 1.508750137872993946e-03 -1.982368557946756482e-04 -9.494818747043609619e-03 -1.396151259541511536e-02 -7.571572627771208652e-14 -1.905435696244239807e-03 1.131827617739666891e-11 -4.176195153582362707e-11 -3.159841755405068398e-03 8.558731642551720142e-04 2.317755855619907379e-02 7.098770700395107269e-03 -4.564428329467773438e-02 -8.288609795272350311e-03 -1.248928485438227654e-03 1.674947344449534414e-13 1.444774493575096130e-02 1.212930679321289062e-02 1.099651781260035932e-04 -2.110978821292519569e-03 -6.414129748009145260e-04 -3.783344989642500877e-03 1.212067581946030259e-04 -2.760716481808866973e-11 -1.070809317752718925e-03 1.030471269041299820e-02 1.108065596781671047e-03 5.480844993144273758e-04 -1.086015161126852036e-02 -2.178335795179009438e-03 -1.522273523733019829e-03 2.236455911770462990e-03 1.703330082818865776e-03 -9.166310541331768036e-03 -3.834292991086840630e-03 -9.164107963442802429e-03 3.058056905865669250e-02 3.545949980616569519e-02 3.896462349279282422e-14 2.328199334442615509e-03 -1.232657488435506821e-02 -1.219042763113975525e-02 7.744607039006368154e-12 -2.234495012089610100e-03 3.433324769139289856e-02 -6.779845338314771652e-03 -1.632937043905258179e-02 -1.910911523737013340e-03 -4.466467071324586868e-04 -1.107821986079216003e-02 3.886583435814827681e-04 4.002967849373817444e-03 2.232836311677477426e-13 -1.888678671093657613e-04 -6.705744192004203796e-03 7.017756579443812370e-04 1.404501730576157570e-03 -9.880478028208017349e-04 -3.022955497726798058e-04 1.289300969801843166e-03 -3.687439351258980924e-14 -3.804453008342534304e-04 -3.537227865308523178e-03 1.702898414805531502e-03 -1.000184056465514004e-04 7.357337512075901031e-03 1.249050535261631012e-02 -7.828768342733383179e-03 -7.862561382353305817e-03 2.579458430409431458e-02 2.410446666181087494e-02 1.033924781950190663e-04 -2.227825061473613644e-14 9.315296076238155365e-03 2.437890972942113876e-03 9.455144405364990234e-03 -6.919567385921254754e-05 7.516129990108311176e-04 -1.320811337791383266e-03 1.080868206918239594e-02 -1.556907431222498417e-03 -2.505933807697147131e-04 1.600977964699268341e-03 6.268329452723264694e-04 -1.844013109803199768e-03 -1.011972344713285565e-04 1.614458276890218258e-03 -3.804127045441418886e-04 1.107457675971090794e-03 -1.389120053499937057e-02 -1.790214446373283863e-03 2.437052084133028984e-03 -6.452624220401048660e-04 -2.316115656867623329e-03 7.538579520769417286e-04 1.133605837821960449e-02 6.619506049901247025e-03 -2.676195092499256134e-02 8.002726361155509949e-03 7.151236291974782944e-03 8.104328066110610962e-03 -6.891080588100617632e-14 1.509465160779654980e-03 -3.804471052717417479e-04 -6.932620308361947536e-04 -1.241353893419727683e-04 -4.128209548071026802e-04 -4.096641205251216888e-03 8.233338303398340940e-05 -1.169775798916816711e-02 -2.234709216281771660e-03 -1.883651316165924072e-02 -1.697570085525512695e-02 -1.868623308837413788e-02 1.394797349348664284e-03 1.743558212183415890e-03 2.000557444989681244e-02 2.390140434727072716e-03 1.732523087412118912e-03 6.952424300834536552e-04 2.893166616559028625e-03 -4.401310579851269722e-04 -9.516601450741291046e-03 1.285742989669529796e-14 4.571168721323459749e-10 -2.663740888237953186e-02 -2.313755830982699990e-04 -3.826105501502752304e-03 -2.957652788609266281e-03 -2.366110682487487793e-03 1.100128050893545151e-03 -1.584325218573212624e-03 -9.888391941785812378e-04 -3.185446374118328094e-03 1.487230299971997738e-03 3.336936468258500099e-03 -3.022871969733387232e-04 -1.115802675485610962e-02 -1.333523658104240894e-03 1.226227916777133942e-02 2.484588511288166046e-02 -2.322610095143318176e-02 7.561838137917220592e-04 1.419463846832513809e-02 -1.399459433741867542e-03 1.572750508785247803e-02 -5.600273725576698780e-04 1.887832395732402802e-02 1.287614926695823669e-03 2.237107791006565094e-02 -1.895306486403569579e-04 1.032225263770669699e-04 -2.469866216929517133e-13 -3.804167208727449179e-04 1.418603584170341492e-02 5.492952186614274979e-03 8.050747564993798733e-04 8.597009000368416309e-04 -4.233411513268947601e-03 2.433386107441037893e-04 -1.392581220716238022e-02 -3.446583403274416924e-03 3.090324578806757927e-03 -2.114308997988700867e-03 1.769099326338618994e-04 -1.274045184254646301e-02 8.807198610156774521e-04 -3.576460461118813328e-09 6.266494747251272202e-04 1.137806611950509250e-04 -3.822129448333676238e-14 -1.249239547178149223e-03 -4.241020977497100830e-02 -1.115825492888689041e-03 1.082515154848806560e-04 -4.428840707987546921e-03 5.880384705960750580e-03 -3.764341585338115692e-03 4.874568805098533630e-02 -1.727146425878345326e-09 1.151410513557493687e-03 -6.342642940580844879e-03 -2.343594096601009369e-03 2.244194271042943001e-03 1.150885480456054211e-03 1.237380201928317547e-03 1.269990025321021676e-04 -3.518955782055854797e-04 2.222810871899127960e-04 1.411838573403656483e-03 5.638285074383020401e-04 -4.025412723422050476e-03 1.909558665705302083e-12 -3.803580184467136860e-04 -6.906515336595475674e-04 -1.451616734266281128e-02 4.175151232630014420e-03 -1.258587744086980820e-02 4.757779586972432639e-11 8.925278918714418808e-12 1.418601162731647491e-02 -5.336723756045103073e-03 1.025851597408460741e-14 -2.579702809453010559e-02 2.168459352105855942e-03 -4.400763718876987696e-04 1.236005499958992004e-02 9.310700930655002594e-03 -1.201679406221956015e-04 -6.697557400912046432e-03 5.582492449320852757e-04 3.608153997802787671e-09 -3.878294955939054489e-04 6.639461498707532883e-04 4.864350892603397369e-03 1.806258114811498672e-05 9.714386425912380219e-03 7.593092508614063263e-03 1.016229740343987942e-03 -6.150688044726848602e-03 3.759380706469528377e-05 8.358130231499671936e-03 1.353362022200599313e-04 -4.212145693600177765e-03 -2.579154168610552772e-14 1.966940471902489662e-03 -1.522856950759887695e-02 -2.710985019803047180e-03 2.888909204630356331e-14 1.750508236000314355e-04 1.247546635568141937e-02 7.814313721610233188e-05 1.369080971926450729e-02 -1.628224272280931473e-03 3.407368902117013931e-03 1.452818661928176880e-01 -1.062161608667011592e-10 4.204760305583477020e-03 3.116156440228223801e-04 1.109390286728739738e-03 -1.327568432316184044e-03 -3.749735886231064796e-03 7.613210473209619522e-03 -7.021145429462194443e-04 1.861541531980037689e-02 -4.423090722411870956e-03 -1.859427802264690399e-02 1.409598533064126968e-02 2.337947255000472069e-03 -1.766858971677720547e-03 -1.795710413716733456e-03 1.100515597499907017e-03 4.056188743561506271e-03 3.272820904385298491e-04 -8.247184567153453827e-03 9.643275761250791334e-12 -3.641774382057150206e-13 -1.069928752258419991e-03 2.666201908141374588e-04 -3.280012437871515640e-14 1.205619337270036340e-04 6.840107380412518978e-05 7.847643573768436909e-04 -1.034918568620923907e-05 -4.527331329882144928e-03 5.477512022480368614e-04 3.090117592364549637e-03 1.783942021882367612e-10 3.277388401329517365e-03 2.245098818093538284e-03 -7.986201904714107513e-03 2.436626469716429710e-03 5.021424964070320129e-03 -6.874972605146467686e-04 -6.310146301984786987e-03 2.191314270021393895e-04 2.226897748187184334e-03 -1.694048941135406494e-02 1.418218202888965607e-02 -6.312254699878394604e-04 -2.957778517156839371e-03 -3.822826547548174858e-03 5.030963802710175514e-04 4.510779305633150216e-09 -3.504698723554611206e-02 -3.174834884703159332e-03 -2.369821537286043167e-03 3.915190754923969507e-04 -2.961652586236596107e-03 -2.457147464156150818e-03 1.992533169686794281e-02 1.138499428634531796e-04 8.103422820568084717e-03 4.862679168581962585e-03 -5.826203897595405579e-02 1.732050208374857903e-03 1.289895852096378803e-03 5.476722028106451035e-03 -2.601834246888756752e-03 -5.925992038100957870e-03 6.101258564740419388e-03 7.545094704255461693e-04 1.389383058995008469e-02 2.279858803376555443e-03 -1.161029678769409657e-03 -1.182248815894126892e-02 -1.559399999678134918e-03 2.428223087918013334e-04 -1.517579657956957817e-03 1.133673079311847687e-02 6.259751971811056137e-04 -1.661219139350578189e-04 3.976469859480857849e-03 -1.445110770873725414e-03 -7.273148690300004771e-14 1.592018990777432919e-03 4.771376843564212322e-04 1.851781643927097321e-02 -5.156475817784667015e-04 -4.013910947833210230e-04 1.128827338106930256e-03 -6.299626827239990234e-02 -7.407055795192718506e-02 1.646579359658062458e-03 -1.391436439007520676e-02 -1.253670454025268555e-02 -2.742473443504422903e-04 -1.361094764433801174e-03 -2.677038278553478534e-13 -1.661356654949486256e-04 -2.957033179700374603e-02 6.556537118740379810e-05 -1.558874617330729961e-03 -6.089932867325842381e-05 -2.166850119829177856e-02 3.951941803097724915e-02 1.090026111342012882e-03 -3.698637336492538452e-02 2.058675745502114296e-03 -2.191296219825744629e-02 -9.066213387995958328e-04 1.829979737522080541e-04 -5.259546451270580292e-03 4.263248760253190994e-03 2.563425153493881226e-02 -1.211053039878606796e-02 -3.178365156054496765e-02 3.615268756021125518e-14 2.437028568238019943e-03 3.963035414926707745e-04 2.920247847214341164e-03 2.338110469281673431e-03 -1.176897995173931122e-02 -2.783704549074172974e-03 4.569611977785825729e-03 2.232083305716514587e-02 -1.789356581866741180e-02 1.697181630788691109e-07 5.299466662108898163e-03 -1.770153292454779148e-03 1.084089628420770168e-03 5.674903513863682747e-04 1.287379069253802299e-03 4.048608615994453430e-02 4.293433390557765961e-03 -2.321843494428321719e-04 2.473941072821617126e-03 -2.677277661859989166e-03 -1.938114641234278679e-03 1.065105199813842773e-03 8.155408551984485305e-15 -6.655153702013194561e-04 -7.236911449581384659e-03 1.596651418367400765e-04 -1.142572635896149658e-13 -1.335635082796216011e-03 -3.350467979907989502e-02 4.397286975290626287e-04 1.830259570851922035e-04 5.817927885800600052e-04 1.067774817347526550e-01 -4.110561218112707138e-03 4.694542149081826210e-04 -5.473532364703714848e-04 5.371659528464078903e-03 7.782572647556662560e-04 -4.211178049445152283e-03 9.266203269362449646e-03 3.526270389556884766e-03 5.508919130079448223e-04 6.543929842450779688e-10 3.918474540114402771e-04 3.710335819050669670e-03 1.157732331193983555e-03 -1.714833313599228859e-03 1.113605778664350510e-02 -8.418302983045578003e-03 1.366543729091063142e-04 8.091122843325138092e-03 3.591940912883728743e-04 -1.124124246416613460e-04 3.133388324196365038e-14 -6.092327530495822430e-04 1.419220957905054092e-02 3.084905445575714111e-03 -1.551101217046380043e-03 -1.521059544757008553e-03 1.130750030279159546e-02 3.321393625810742378e-03 2.754075685515999794e-03 2.477563069795945400e-14 2.705080620944499969e-02 2.750280254986137152e-04 -6.507891556380152043e-13 1.082804519683122635e-03 -1.327803358435630798e-03 1.098973443731665611e-03 4.745420010294765234e-04 -1.487059053033590317e-02 -1.015021558851003647e-02 -5.209153983741998672e-03 -4.316587932407855988e-03 6.273218842176367382e-14 5.817670607939362526e-04 -1.687287725508213043e-02 -1.604093122296035290e-04 -9.763721081634813004e-12 -3.354634100105613470e-04 -4.963646854649894635e-11 -4.347113135736435652e-04 1.777086639776825905e-03 -1.259885320905596018e-04 1.145910378545522690e-02 3.965433016672736954e-12 7.536642143701755003e-11 1.093693007252899418e-13 -2.234029088867828250e-04 8.090281859040260315e-03 1.419044565409421921e-02 -6.341642234474420547e-03 -2.231227263109758496e-04 -1.095137279480695724e-02 1.135243754833936691e-02 5.488895694725215435e-04 1.124157570302486420e-03 -1.889195991680026054e-04 -1.164456261903978884e-04 1.133770868182182312e-02 -2.824467005765884942e-13 -6.703471764922142029e-03 1.020203996449708939e-02 1.613564789295196533e-02 -1.077009364962577820e-02 3.381642745807766914e-03 -4.506198316812515259e-02 1.927316759520181222e-07 1.508440822362899780e-03 1.411932520568370819e-03 3.046225523576140404e-03 2.081302693113684654e-03 1.440318010281771421e-04 -2.958775032311677933e-03 -2.232315018773078918e-04 -1.248870161361992359e-03 1.743488479405641556e-03 -5.106183700263500214e-03 3.238166679242482360e-11 1.293534878641366959e-04 -1.271439623087644577e-02 7.593660615384578705e-03 -1.475069252940969244e-14 1.525968033820390701e-02 2.045765519142150879e-03 1.237289980053901672e-03 -7.635542750358581543e-02 -1.118048653006553650e-02 -5.958523834124207497e-04 -1.421891036443412304e-03 -6.251599988900125027e-04 6.637183250859379768e-04 6.863682799201908935e-12 8.577821776270866394e-03 3.522818908095359802e-02 1.107632066123187542e-03 2.133300900459289551e-02 3.119534347206354141e-03 3.346414119005203247e-02 3.119515255093574524e-03 1.019821967929601669e-02 7.026048842817544937e-04 -6.561276037245988846e-03 -3.059681504964828491e-03 1.365439150635694432e-10 2.438470022752881050e-03 -2.961128950119018555e-03 1.994534768164157867e-02 6.076347781345248222e-04 6.517178844660520554e-04 1.920535229146480560e-03 -7.359902374446392059e-04 2.224864438176155090e-03 2.308456413447856903e-02 1.185003016144037247e-02 2.174448687583208084e-03 -2.961938967928290367e-03 -1.910497085191309452e-03 3.118264954537153244e-03 2.067372406600043178e-04 -2.110575791448354721e-03 -2.958961762487888336e-03 6.089026574045419693e-04 -2.742695505730807781e-04 5.014252848923206329e-03 1.297960261581465602e-04 1.704710070043802261e-03 2.687636064365506172e-03 3.349882317706942558e-03 2.738429175224155188e-04 4.079705569893121719e-03 1.030950993299484253e-02 -1.460280548781156540e-02 1.293934328714385629e-04 -1.715582795441150665e-03 1.100176107138395309e-02 8.195102040552126876e-14 1.702635665424168110e-03 4.003532696515321732e-03 -1.451617386192083359e-02 -1.655635670878494170e-14 6.008551572449505329e-04 -3.175101647530029214e-14 -2.957931952551007271e-03 1.287115388549864292e-03 -2.385643078014254570e-03 6.647224072366952896e-04 8.049181778915226460e-04 1.020471681840717793e-03 -1.892963773570954800e-04 4.044340275004276730e-13 -1.948940008878707886e-02 1.097670756280422211e-03 1.103563234210014343e-03 4.062607476953417063e-04 2.717029710765928030e-04 -1.336335670202970505e-02 -3.350996412336826324e-04 7.683324733821078611e-14 -3.081655070014122089e-11 -4.278146661818027496e-03 -9.317232295870780945e-03 -7.756732869893312454e-03 -7.076213136315345764e-03 -1.367819857378549386e-09 -6.542578707535023907e-14 -2.512875013053417206e-03 -4.388623312115669250e-02 -1.558329211547970772e-03 5.257582233753055334e-05 1.265540998429059982e-02 1.537711545825004578e-02 2.429342421237379313e-04 1.029885653406381607e-02 -3.080742317251861095e-04 -4.846918745897710323e-04 -4.457345698028802872e-03 -2.312864380655810237e-04 1.250498142535416690e-11 3.115307772532105446e-04 6.518721929751336575e-04 2.499345282558351755e-04 -2.700300188735127449e-03 3.112077247351408005e-04 -1.628348371013998985e-03 -1.041997529682703316e-04 2.437504241243004799e-03 3.497151774354279041e-04 1.165035949657333703e-13 5.478029488585889339e-04 -6.997892798002100512e-14 1.800865516997873783e-03 -6.090756505727767944e-04 3.952021244913339615e-03 1.149310264736413956e-02 3.200586652383208275e-04 -7.175672333687543869e-03 -1.399479573592543602e-03 -2.385365311056375504e-03 -3.361643850803375244e-02 -3.548615844920277596e-03 1.578722149133682251e-02 -1.890216517494991422e-04 7.196385879069566727e-03 -6.776344962418079376e-04 4.000511486083269119e-03 -3.804202424362301826e-04 1.997790386667475104e-04 4.702717415057122707e-04 8.236785548326047701e-14 -4.065335262566804886e-03 -1.317001041024923325e-02 1.614702749066054821e-03 3.998414613306522369e-03 5.837256321683526039e-04 2.184399636462330818e-03 -4.006977658718824387e-03 -2.645798726007342339e-03 -2.580146305263042450e-02 5.689389072358608246e-03 2.436814364045858383e-03 8.753570728003978729e-03 -1.524103106930851936e-03 -2.956929150968790054e-03 1.137930885306559503e-04 -2.543064067140221596e-03 1.137741783168166876e-04 -1.879405812360346317e-03 -2.087380561368451515e-15 -1.292967889457941055e-02 3.586289938539266586e-03 8.836676133796572685e-04 1.292012725025415421e-02 4.671677481383085251e-03 1.320846029557287693e-03 -1.606097357580438256e-04 -6.727635045535862446e-04 -5.253455601632595062e-04 8.593924343585968018e-03 -2.107616979628801346e-03 -1.058987221373187959e-13 -2.233615814475342631e-04 2.183656673878431320e-03 7.638860030634297971e-12 -5.427111871540546417e-03 3.319577954243868589e-04 7.764657028019428253e-03 -1.770155155099928379e-03 4.605581052601337433e-03 -2.676639705896377563e-03 -1.636878238059580326e-03 -1.081584393978118896e-02 -1.893746666610240936e-04 -3.436229890212416649e-03 -1.027487032115459442e-02 -9.071513777598738670e-04 -5.385560161892677389e-14 1.030980329960584641e-02 1.183818668093472581e-13 -6.397720426321029663e-03 -2.600909210741519928e-03 -1.662355934968218207e-04 -2.112339483574032784e-03 -5.018644151277840137e-04 5.477690719999372959e-04 -2.235281426692381501e-04 -5.871168337762355804e-03 9.023278509741241432e-15 -2.592430077493190765e-02 7.195943500846624374e-03 1.064830808900296688e-03 8.240377530455589294e-03 -5.176250822842121124e-03 4.579051303714096188e-14 -1.335944631136953831e-03 -1.383305992931127548e-03 -1.996347680687904358e-03 5.126904696226119995e-03 6.995823350735008717e-04 -1.241666357964277267e-02 9.798075979033926686e-13 -3.577941853905031167e-08 -2.024901332333683968e-03 1.702926820144057274e-03 -2.957837423309683800e-03 -2.012169117849953170e-14 1.702916692011058331e-03 3.320474934298545122e-04 -8.200812153518199921e-03 2.183872507885098457e-03 -3.988613374531269073e-03 1.320334058254957199e-02 4.305927548557519913e-03 8.915766957215964794e-04 7.748977281153202057e-03 -6.096235010772943497e-04 -5.411554593592882156e-03 -1.196774188429117203e-03 7.152358070015907288e-03 -1.016264874488115311e-02 1.766760833561420441e-04 6.271009333431720734e-04 1.216891454532742500e-03 1.470223767682909966e-03 -4.624364431947469711e-03 6.432725489139556885e-02 -7.348505896516144276e-04 -2.362010587120266791e-09 -1.652267761528491974e-03 -2.017588700276018443e-11 -5.821889499202370644e-04 3.270839515607804060e-04 4.090962931513786316e-03 3.270369488745927811e-04 2.728386316448450089e-03 1.867251237854361534e-03 -6.611462216824293137e-03 -4.630978684872388840e-03 -5.664250735115672342e-10 7.537374040111899376e-04 -1.664406736381351948e-04 -4.733321753210700811e-16 2.885497407987713814e-03 1.419507432729005814e-02 1.055648971015621385e-11 -3.357098612468689680e-04 -4.853745443761381395e-14 -2.741999924182891846e-04 1.089546247385442257e-03 3.501422761473804712e-04 -5.254281568340957165e-04 -1.280916854739189148e-03 -1.840863609686493874e-03 1.508902641944587231e-03 -4.730777349323034286e-03 1.732421224005520344e-03 -3.548293374478816986e-03 -2.957215532660484314e-03 -2.956815296784043312e-03 3.592708075483841412e-11 -2.714881673455238342e-03 1.488161855377256870e-03 2.438363619148731232e-03 4.251020868650812190e-07 -1.745966263115406036e-02 -3.835282986983656883e-03 6.855184822573967551e-12 3.318888566750111124e-12 -2.460213145241141319e-03 6.413771188817918301e-04 1.320558949373662472e-03 1.367315999232232571e-04 1.743510947562754154e-03 1.686048693954944611e-03 -7.485108799301087856e-04 -1.938461442478001118e-03 -3.965011273976415396e-04 -4.927710164338350296e-03 -1.553278505816990673e-09 2.609394723549485207e-03 6.759111769497394562e-03 1.353273109998553991e-04 1.139462273567914963e-02 -2.228023513453081250e-04 -1.012526627164334059e-04 1.598333753645420074e-02 1.320232357829809189e-02 -1.058103051036596298e-03 8.376275072805583477e-04 -2.112010726705193520e-03 -8.210620726458728313e-04 -7.755580008961260319e-04 -7.856773212552070618e-03 