-1.849490553140640259e-01 2.646755874156951904e-01 1.509415954351425171e-01 -2.088587880134582520e-01 -1.337934285402297974e-01 -2.333304435014724731e-01 -1.202157884836196899e-01 1.723143458366394043e-01 2.580742239952087402e-01 -2.711389660835266113e-01 1.683904826641082764e-01 2.155147343873977661e-01 -1.528876423835754395e-01 -2.299522459506988525e-01 2.607691586017608643e-01 -2.607654333114624023e-01 1.615533679723739624e-01 1.844702064990997314e-01 1.266098469495773315e-01 -1.259898096323013306e-01 1.790480017662048340e-01 2.519706487655639648e-01 2.618702948093414307e-01 -1.807046979665756226e-01 -1.780637055635452271e-01 -2.061070352792739868e-01 -2.588955461978912354e-01 -2.409150749444961548e-01 1.968713551759719849e-01 2.328055649995803833e-01 -2.669498622417449951e-01 2.343168854713439941e-01 2.530515491962432861e-01 1.968695968389511108e-01 -2.453716993331909180e-01 -1.757587790489196777e-01 -2.767748832702636719e-01 1.970719099044799805e-01 -1.896878629922866821e-01 -1.346261203289031982e-01 8.960473537445068359e-02 -1.587119996547698975e-01 -1.918163150548934937e-01 6.537265330553054810e-02 2.545120716094970703e-01 8.324620872735977173e-02 2.290620952844619751e-01 -2.331977039575576782e-01 -2.098319679498672485e-01 1.560496389865875244e-01
1.924007534980773926e-01 -1.433950513601303101e-01 -2.112028002738952637e-01 -1.573340594768524170e-01 -1.022373214364051819e-01 1.633477360010147095e-01 -1.941202133893966675e-01 -1.835056096315383911e-01 -1.874214857816696167e-01 1.763177514076232910e-01 -1.982323378324508667e-01 -9.375651180744171143e-02 2.198188155889511108e-01 2.334499955177307129e-01 1.853747963905334473e-01 2.589436769485473633e-01 1.620592772960662842e-01 2.308138757944107056e-01 -1.473307609558105469e-01 1.986592113971710205e-01 -2.249933034181594849e-01 -2.223376631736755371e-01 2.250395417213439941e-01 -2.347101122140884399e-01 2.019992470741271973e-01 -1.823445558547973633e-01 -1.436199098825454712e-01 -1.128769516944885254e-01 -2.569442391395568848e-01 -2.340939491987228394e-01 -2.153955996036529541e-01 -1.788552999496459961e-01 -1.910543441772460938e-01 -1.657095998525619507e-01 -1.507233828306198120e-01 1.772443503141403198e-01 -1.145299747586250305e-01 2.165499776601791382e-01 2.099678069353103638e-01 2.569092512130737305e-01 -2.387078702449798584e-01 -1.979503482580184937e-01 -1.590960621833801270e-01 -2.543589770793914795e-01 -1.568357795476913452e-01 -2.413522303104400635e-01 2.025749683380126953e-01 1.849944442510604858e-01 1.392089575529098511e-01 8.417195826768875122e-02
-1.732297539710998535e-01 2.063380479812622070e-01 1.336181908845901489e-01 2.199241966009140015e-01 -1.511609554290771484e-01 2.038446664810180664e-01 1.761410087347030640e-01 1.347084939479827881e-01 -2.644752562046051025e-01 -2.153310179710388184e-01 1.453366875648498535e-01 -1.892246454954147339e-01 -1.118659824132919312e-01 -2.584328055381774902e-01 -1.614839583635330200e-01 2.624970674514770508e-01 -1.880414187908172607e-01 -1.658812314271926880e-01 1.977389603853225708e-01 -1.519479751586914062e-01 -2.326146364212036133e-01 7.172541320323944092e-02 -2.495916336774826050e-01 2.372725605964660645e-01 -1.164080649614334106e-01 2.463341951370239258e-01 2.308606654405593872e-01 2.048052400350570679e-01 1.386398673057556152e-01 -1.577467471361160278e-01 1.313553899526596069e-01 -2.542937994003295898e-01 1.630090773105621338e-01 -1.607019901275634766e-01 2.343572974205017090e-01 2.307292520999908447e-01 2.665081024169921875e-01 -2.227184176445007324e-01 -4.338455945253372192e-02 -7.088320702314376831e-02 1.280473172664642334e-01 2.345306724309921265e-01 2.189836502075195312e-01 1.786644607782363892e-01 -1.307808160781860352e-01 7.756491750478744507e-02 -2.638831436634063721e-01 1.731976568698883057e-01 2.030177712440490723e-01 -2.521913945674896240e-01
-2.437676787376403809e-01 -1.111804544925689697e-01 1.800947487354278564e-01 2.012021839618682861e-01 2.287885248661041260e-01 -2.497972398996353149e-01 2.729769051074981689e-01 -2.216084897518157959e-01 -2.165241241455078125e-01 1.380850076675415039e-01 5.729191750288009644e-02 2.460091263055801392e-01 2.366093695163726807e-01 1.625635176897048950e-01 -2.214581221342086792e-01 -2.074547559022903442e-01 -2.118849456310272217e-01 -1.819690167903900146e-01 -2.668718993663787842e-01 2.430783808231353760e-01 2.531441152095794678e-01 2.558085918426513672e-01 -1.595033854246139526e-01 2.397547513246536255e-01 2.078406214714050293e-01 1.798786967992782593e-01 2.274630516767501831e-01 1.786957532167434692e-01 -1.877160072326660156e-01 2.687777280807495117e-01 1.084132269024848938e-01 2.744434475898742676e-01 -1.618182659149169922e-01 2.395242154598236084e-01 -1.953437328338623047e-01 -2.556534409523010254e-01 1.715902835130691528e-01 -2.344172298908233643e-01 -2.085920572280883789e-01 2.575539648532867432e-01 -2.703631818294525146e-01 1.864109337329864502e-01 1.510842591524124146e-01 8.168852329254150391e-02 2.526160478591918945e-01 -2.470325529575347900e-01 -1.824394017457962036e-01 -2.060120999813079834e-01 -2.621181607246398926e-01 -2.162835896015167236e-01
