2.475009858608245850e-01 -1.250306963920593262e-01 -2.410069257020950317e-01 -1.851622015237808228e-01 2.687456011772155762e-01 -1.753338426351547241e-01 2.720354199409484863e-01 -2.318379133939743042e-01 2.717268466949462891e-01 -1.363857686519622803e-01 -1.767528802156448364e-01 1.524169296026229858e-01 -2.559268474578857422e-01 -1.235467493534088135e-01 2.120665758848190308e-01 -1.954388469457626343e-01 -2.415129095315933228e-01 2.354496866464614868e-01 -2.386102229356765747e-01 -8.066173642873764038e-02 1.995526850223541260e-01 2.686702311038970947e-01 2.437660545110702515e-01 -1.057586595416069031e-01 -2.502066493034362793e-01 2.173807919025421143e-01 -2.123908996582031250e-01 2.629298269748687744e-01 -2.352285832166671753e-01 1.482546776533126831e-01 -1.998846977949142456e-01 -2.272352427244186401e-01 1.961432695388793945e-01 -1.824084967374801636e-01 -2.235811501741409302e-01 1.339878141880035400e-01 -1.070480197668075562e-01 -1.404797881841659546e-01 -1.773612946271896362e-01 -1.850263923406600952e-01 -2.154499441385269165e-01 -1.593148857355117798e-01 -1.915700882673263550e-01 -2.715683877468109131e-01 2.294555157423019409e-01 -1.716606616973876953e-01 1.641474962234497070e-01 -2.660632133483886719e-01 2.155906558036804199e-01 1.903996616601943970e-01
2.121229767799377441e-01 1.875095814466476440e-01 -1.725584566593170166e-01 1.361944079399108887e-01 1.149272322654724121e-01 2.678130269050598145e-01 -2.326937764883041382e-01 1.414232105016708374e-01 -1.490660458803176880e-01 1.520252078771591187e-01 1.875173002481460571e-01 8.880659192800521851e-02 4.069682210683822632e-02 2.203241735696792603e-01 -2.424592077732086182e-01 -1.047138050198554993e-01 -1.531118303537368774e-01 -2.483529299497604370e-01 1.239500269293785095e-01 2.436878830194473267e-01 -2.461416274309158325e-01 -1.422545909881591797e-01 1.865791678428649902e-01 -1.429930180311203003e-01 -2.410640120506286621e-01 -1.226787269115447998e-01 7.890964299440383911e-02 -2.413594424724578857e-01 2.251234948635101318e-01 1.636614203453063965e-01 6.631479412317276001e-02 2.008528411388397217e-01 -1.725856512784957886e-01 -1.670573055744171143e-01 1.332179456949234009e-01 -2.295838296413421631e-01 2.370756417512893677e-01 1.679067909717559814e-01 1.869654655456542969e-01 2.284470945596694946e-01 -1.283758729696273804e-01 2.190557569265365601e-01 1.789543628692626953e-01 1.089400649070739746e-01 2.153175473213195801e-01 -1.122343838214874268e-01 -2.502440810203552246e-01 -2.083900868892669678e-01 -1.808633506298065186e-01 -1.279568076133728027e-01
-7.930033653974533081e-02 2.601481974124908447e-01 1.723595708608627319e-01 -2.117432057857513428e-01 -2.632802426815032959e-01 -2.295623719692230225e-01 -2.284554690122604370e-01 1.500854939222335815e-01 -2.421557158231735229e-01 -8.596853911876678467e-02 2.425272166728973389e-01 -2.360075116157531738e-01 -2.657554745674133301e-01 -6.315504759550094604e-02 2.539032697677612305e-01 2.639126777648925781e-01 2.416003048419952393e-01 -2.245387583971023560e-01 -1.761015057563781738e-01 -3.010175190865993500e-02 1.970509439706802368e-01 -2.514917552471160889e-01 -9.922970831394195557e-02 2.458939552307128906e-01 2.560899853706359863e-01 1.641827672719955444e-01 -1.831772178411483765e-01 2.276507318019866943e-01 -9.289198368787765503e-02 -2.431082576513290405e-01 -2.480918765068054199e-01 -2.007020860910415649e-01 1.961327940225601196e-01 -2.268206179141998291e-01 -1.641431003808975220e-01 -2.662355303764343262e-01 -7.506921887397766113e-02 -1.896432340145111084e-01 2.642957568168640137e-01 -2.420908957719802856e-01 2.373623102903366089e-01 1.332633942365646362e-01 -2.070913314819335938e-01 1.950223594903945923e-01 -2.429829388856887817e-01 2.704791426658630371e-01 2.261097580194473267e-01 1.129096671938896179e-01 -2.660235762596130371e-01 1.758694350719451904e-01
-1.058878079056739807e-01 2.049874812364578247e-01 2.325463294982910156e-01 2.379927188158035278e-01 -1.889099180698394775e-01 -1.998755484819412231e-01 -1.473269015550613403e-01 -2.544813752174377441e-01 2.471610605716705322e-01 -1.477537453174591064e-01 -1.745607256889343262e-01 -2.070479542016983032e-01 8.462097495794296265e-02 -1.978079527616500854e-01 1.746995747089385986e-01 2.353719621896743774e-01 2.561948001384735107e-01 1.224660053849220276e-01 2.078678756952285767e-01 -7.508853822946548462e-02 -2.071186155080795288e-01 2.080799043178558350e-01 -1.525009721517562866e-01 2.522885501384735107e-01 1.767223626375198364e-01 -1.836874634027481079e-01 -2.366638183593750000e-01 -1.863894462585449219e-01 2.554087340831756592e-01 -1.962869614362716675e-01 2.436762601137161255e-01 1.551083177328109741e-01 -2.332704961299896240e-01 2.443464696407318115e-01 -2.635174095630645752e-01 -2.244907766580581665e-01 2.507174909114837646e-01 2.799842953681945801e-01 -1.239952445030212402e-01 2.671667635440826416e-01 1.741513907909393311e-01 -2.642590403556823730e-01 -2.046811878681182861e-01 -2.181901782751083374e-01 -1.726241260766983032e-01 -2.311771810054779053e-01 2.108460813760757446e-01 1.145601123571395874e-01 2.092549353837966919e-01 -1.496853232383728027e-01
