1.264062076807022095e-01 8.708540350198745728e-03 -3.387209773063659668e-02 -2.983607351779937744e-02 8.121071010828018188e-02 5.542504042387008667e-02 -1.451323628425598145e-01 8.024760335683822632e-02 -2.672917209565639496e-02 1.163181290030479431e-01 1.065077856183052063e-01 -1.063052713871002197e-01 1.040268093347549438e-01 1.011586636304855347e-01 6.924653053283691406e-02 7.529453188180923462e-02 -5.976901575922966003e-02 -1.102684624493122101e-02 7.463461160659790039e-02 8.159427344799041748e-02 6.703665852546691895e-02 1.539118140935897827e-01 1.072510853409767151e-01 -1.261017173528671265e-01 6.168016791343688965e-02 7.586311548948287964e-02 1.061516478657722473e-01 8.751394599676132202e-02 -4.464176297187805176e-02 -1.056992784142494202e-01 -7.564855366945266724e-02 2.554018609225749969e-02 1.301997452974319458e-01 -3.831768035888671875e-02 1.002185121178627014e-01 4.089130833745002747e-02 -9.002698212862014771e-02 1.134375408291816711e-01 1.079837605357170105e-01 8.005682379007339478e-02 1.426220089197158813e-01 1.013064384460449219e-01 4.886760935187339783e-02 6.691519916057586670e-02 -1.360160559415817261e-01 -6.566049158573150635e-02 -4.374995827674865723e-03 3.191076591610908508e-02 5.674652755260467529e-02 1.300158649682998657e-01 1.076841056346893311e-01 7.968277484178543091e-02 1.259359568357467651e-01 6.011822074651718140e-02 8.946496993303298950e-02 -9.083153679966926575e-03 -6.881541013717651367e-02 5.140843987464904785e-02 8.872055262327194214e-02 -8.846548199653625488e-02 -1.986433006823062897e-02 7.957878708839416504e-02 1.087454408407211304e-01 -4.522715136408805847e-02 1.200205460190773010e-01 -1.524890959262847900e-02 7.818800210952758789e-02 1.308704465627670288e-01 1.016550809144973755e-01 -3.908567503094673157e-02 4.868061468005180359e-02 8.011309057474136353e-02 -3.465223312377929688e-02 -7.372832298278808594e-02 1.170038357377052307e-01 1.366927325725555420e-01 -1.278559565544128418e-01 -1.501208245754241943e-01 -1.180639117956161499e-01 1.069987714290618896e-01 -3.782865777611732483e-02 8.086265996098518372e-03 -2.201714366674423218e-02 -8.934309333562850952e-02 1.645045280456542969e-01 6.313750147819519043e-02 1.108068525791168213e-01 -7.000172045081853867e-03 8.525605499744415283e-02 5.440904945135116577e-02 -1.104022487998008728e-01 9.521254897117614746e-02 -7.079436630010604858e-02 -7.462004572153091431e-02 1.170092597603797913e-01 8.573098480701446533e-02 -6.398805230855941772e-02 7.090011145919561386e-03 1.119431033730506897e-01 -1.503706276416778564e-01 -9.338679164648056030e-02 -1.741773486137390137e-01 -8.711447566747665405e-02 -6.733179092407226562e-03 6.311940401792526245e-02 8.563384413719177246e-02 1.750439703464508057e-01 1.189353987574577332e-01 7.405356317758560181e-02 1.097974106669425964e-01 -7.999930530786514282e-02 5.557745695114135742e-02 6.531748175621032715e-02 -1.976731792092323303e-02 7.821314781904220581e-02 -5.146417021751403809e-02 7.038925588130950928e-02 -9.183923900127410889e-02 3.409112244844436646e-02 -1.259691566228866577e-01 -1.336112767457962036e-01 -1.174301803112030029e-01 8.759918063879013062e-02 8.108627796173095703e-02 3.383348509669303894e-02 -2.416488341987133026e-02 7.736023515462875366e-02 7.863251119852066040e-02 -7.588536292314529419e-02 1.621364653110504150e-01 -5.380610749125480652e-02 -1.298415809869766235e-01 -4.447215422987937927e-02 1.161660701036453247e-01 5.849788710474967957e-02 2.275295555591583252e-02 -1.630468480288982391e-02 -1.221514642238616943e-01 -1.869233995676040649e-01 1.164143234491348267e-01 -1.133194267749786377e-01 -7.806766033172607422e-02 -1.545519381761550903e-02 1.017908528447151184e-01 -6.060596182942390442e-02 7.017420232295989990e-02 4.554194584488868713e-02 -1.124948915094137192e-02 9.675510972738265991e-02 -7.452507317066192627e-02 -7.249314337968826294e-02 1.307903528213500977e-01 -1.548422593623399734e-02 -2.353000827133655548e-02 9.946800768375396729e-02 1.446572840213775635e-01 4.386512935161590576e-02 4.536468535661697388e-02 8.996072411537170410e-02 -1.350714117288589478e-01 5.988021194934844971e-02 8.625959604978561401e-02 -1.469154097139835358e-02 5.757692083716392517e-02 5.681620165705680847e-02 -6.556934863328933716e-02 7.706955075263977051e-02 -5.272173136472702026e-02 -1.133440434932708740e-01 -1.727913618087768555e-01 -6.721166521310806274e-02 9.183651208877563477e-02 -9.609308838844299316e-02 -3.659101203083992004e-02 1.342892348766326904e-01 9.378623217344284058e-02 1.718338876962661743e-01 -1.251346915960311890e-01 1.472706943750381470e-01 1.069194748997688293e-01 6.708970665931701660e-02 6.622255593538284302e-02 -7.668358832597732544e-02 1.345368772745132446e-01 -6.882607936859130859e-02 7.390400022268295288e-02 4.454810172319412231e-02 1.176826953887939453e-01 -5.871095135807991028e-02 1.280927211046218872e-01 7.716845721006393433e-02 4.153201729059219360e-02 5.310951545834541321e-02 -9.936946630477905273e-02 -4.098468646407127380e-02 -9.694444388151168823e-02 9.973462671041488647e-02 1.047203317284584045e-01 -2.174624055624008179e-02 6.345143914222717285e-02 7.662710547447204590e-02 -5.143785476684570312e-02 -4.424902796745300293e-02 6.891292333602905273e-02 -4.163764417171478271e-02 -1.618454605340957642e-01 1.207339614629745483e-01 1.229989081621170044e-01 9.882813692092895508e-02 1.580965965986251831e-01 -1.025742292404174805e-01 -7.714398205280303955e-02 -1.474184244871139526e-01 -1.294581443071365356e-01 -7.416304200887680054e-02 1.046234071254730225e-01 1.447622776031494141e-01 1.122130081057548523e-01 -6.028690561652183533e-02 -1.087287440896034241e-01 3.427017480134963989e-02 9.491187334060668945e-02 8.536631613969802856e-02 -1.242971345782279968e-01 2.080440521240234375e-01 -1.117724850773811340e-01 6.139139831066131592e-02 1.237089931964874268e-01 5.437606945633888245e-02 1.063837781548500061e-01 1.155684292316436768e-01 -7.569284737110137939e-02 1.181492656469345093e-01 4.090838506817817688e-02 1.119167655706405640e-01 5.925346165895462036e-02 9.028843045234680176e-02 7.379700988531112671e-02 -2.470569498836994171e-02 -1.781730353832244873e-01 1.436318606138229370e-01 1.722782254219055176e-01 3.344966471195220947e-02 -1.058718040585517883e-01 8.336398005485534668e-02 1.435863077640533447e-01 -1.010371372103691101e-01 -6.007542833685874939e-02 3.140254691243171692e-02 -4.338732734322547913e-02 1.472703367471694946e-01 -4.693143442273139954e-02 -1.097667291760444641e-01 -6.043777614831924438e-02 -2.146066538989543915e-02 2.447576262056827545e-03 5.028848722577095032e-02 -9.453833103179931641e-02 -7.412821799516677856e-02 7.635751366615295410e-02 -5.285903811454772949e-02 7.316923886537551880e-02 8.288107067346572876e-02 6.987385451793670654e-02 1.756412237882614136e-01 -1.052884832024574280e-01 7.235443592071533203e-02 -1.275103390216827393e-01 -1.244643256068229675e-01 -5.654366686940193176e-02 4.261741787195205688e-02 1.003952100872993469e-01 6.370741873979568481e-02 8.912976086139678955e-02 9.403567016124725342e-02 3.093999996781349182e-02 1.104236543178558350e-01 9.759714454412460327e-02 9.797039628028869629e-02 -7.031343877315521240e-02 -8.071888238191604614e-02 -9.345580637454986572e-02 -5.162465944886207581e-02 -6.058695539832115173e-02 -1.949463225901126862e-02 -3.008727543056011200e-02 7.102070748805999756e-02 -1.276122312992811203e-02 -7.024496793746948242e-02 1.784448772668838501e-01 5.462681874632835388e-02 7.025823742151260376e-02 1.179668977856636047e-01 8.478771150112152100e-02 3.466195613145828247e-02 6.560442596673965454e-02 8.897770941257476807e-02 8.236330002546310425e-02 9.483133256435394287e-02 7.191860675811767578e-02 8.362343162298202515e-02 -1.050631105899810791e-01 -7.761236280202865601e-02 -1.224558725953102112e-01 9.155102819204330444e-02 -1.860565878450870514e-02 -3.016204945743083954e-02 5.116871371865272522e-02 6.252972781658172607e-02 1.377818137407302856e-01 1.003327518701553345e-01 8.081744611263275146e-02 6.335894018411636353e-02 1.244797483086585999e-01 9.308782219886779785e-02 8.268471807241439819e-02 8.444143086671829224e-02 1.042772829532623291e-01 -9.932686388492584229e-02 9.266655147075653076e-02 6.038064509630203247e-02 4.155749827623367310e-02 -1.830092370510101318e-01 -8.062807470560073853e-02 8.124598115682601929e-02 4.108666628599166870e-02 7.124215364456176758e-02 -2.754105627536773682e-02 4.627652466297149658e-02 1.291851103305816650e-01 -7.207079231739044189e-02 1.303710639476776123e-01 -6.405750662088394165e-02 3.025625273585319519e-02 -4.221226647496223450e-02 9.388431161642074585e-02 1.114564388990402222e-01 -1.360405832529067993e-01 1.733794659376144409e-01 1.509291380643844604e-01 -8.863444626331329346e-02 7.199037820100784302e-02 9.008957445621490479e-02 1.634121239185333252e-01 -8.819725364446640015e-02 -5.772587284445762634e-02 4.897418245673179626e-02 -7.683243602514266968e-02 1.625992506742477417e-01 3.851989656686782837e-02 1.389944851398468018e-01 9.209477156400680542e-02 5.152893438935279846e-02 1.046881154179573059e-01 -7.693558186292648315e-02 7.054287195205688477e-02 3.059962578117847443e-02 1.508920490741729736e-01 7.961281388998031616e-02 6.137318536639213562e-02 1.255587041378021240e-01 5.390657484531402588e-02 5.309239402413368225e-02 -1.079510375857353210e-01 3.035772964358329773e-02 -6.760471314191818237e-02 9.409383684396743774e-02 7.269012928009033203e-02 4.695213586091995239e-02 8.330059051513671875e-02 -2.397561259567737579e-02 1.338773369789123535e-01 4.845555126667022705e-02 9.722878038883209229e-02 1.068252176046371460e-01 -1.432617157697677612e-01 -8.061352372169494629e-02 9.929230064153671265e-02 1.148229762911796570e-01 -1.179234907031059265e-01 6.654138118028640747e-02 -7.237735390663146973e-02 6.729178130626678467e-02 -1.144563034176826477e-01 -1.359578967094421387e-01 -1.610787212848663330e-01 -1.601553857326507568e-01 -1.058465838432312012e-01 8.480387181043624878e-02 1.168410405516624451e-01 -3.112909197807312012e-02 -8.681540191173553467e-02 3.574416786432266235e-02 -5.628176033496856689e-02 5.913939699530601501e-02 -1.806239634752273560e-01 8.046863973140716553e-02 -7.162941247224807739e-02 5.075893551111221313e-02 2.936119912192225456e-03 1.054679676890373230e-01 6.892216950654983521e-02 1.015703529119491577e-01 8.584929257631301880e-02 9.324245154857635498e-02 8.195623755455017090e-02 4.622496291995048523e-02 -1.516996044665575027e-02 -6.864108890295028687e-02 7.683420181274414062e-02 8.191870152950286865e-02 -2.731397002935409546e-02 -1.219798997044563293e-01 -1.167795360088348389e-01 -1.032612398266792297e-01 -9.048804640769958496e-02 1.189277134835720062e-02 -1.185049638152122498e-01 -5.981808900833129883e-02 -2.423470653593540192e-02 1.443063616752624512e-01 -1.569250077009201050e-01 1.264353245496749878e-01 8.497237414121627808e-02 7.200682163238525391e-02 -1.462265849113464355e-01 9.311749041080474854e-02 7.983484864234924316e-02 8.469796925783157349e-02 1.708236187696456909e-01 -4.865861684083938599e-02 -1.364882588386535645e-01 9.515857696533203125e-02 1.701460182666778564e-01 1.598025560379028320e-01 -5.768992379307746887e-02 -6.026594340801239014e-02 5.838686600327491760e-02 -8.247084170579910278e-02 6.554159522056579590e-02 -4.505811259150505066e-02 1.159640699625015259e-01 6.306672841310501099e-02 -2.148917317390441895e-02 -1.864009201526641846e-01 8.047879487276077271e-02 -1.951862126588821411e-01 -2.305547520518302917e-02 5.312056839466094971e-02 3.994306921958923340e-02 7.686303555965423584e-02 5.435216426849365234e-02 -9.570769220590591431e-02 -1.099960282444953918e-01 -6.156286969780921936e-02 6.712516397237777710e-02 -1.133890524506568909e-01 4.496305808424949646e-02 6.559704244136810303e-02 1.364606916904449463e-01 6.559342145919799805e-02 -3.543056547641754150e-02 1.007792130112648010e-01 7.964820414781570435e-02 -5.985794588923454285e-02 -2.729549072682857513e-02 -1.118876934051513672e-01 -7.803972065448760986e-02 5.594237521290779114e-02 4.878320544958114624e-02 1.066323369741439819e-01 5.844704434275627136e-02 9.905883669853210449e-02 7.153215259313583374e-02 2.073998451232910156e-01 7.019694149494171143e-02 4.328116029500961304e-02 1.300785243511199951e-01 1.324034929275512695e-01 5.333241447806358337e-02 7.341723144054412842e-02 1.334365457296371460e-01 1.125206425786018372e-01 3.319482877850532532e-02 7.573378086090087891e-02 8.174136281013488770e-02 -1.900989711284637451e-01 1.229394078254699707e-01 8.713025599718093872e-02 1.390226930379867554e-01 -9.196551144123077393e-02 -4.307805001735687256e-02 -2.450334429740905762e-01 -9.661438316106796265e-02 -5.845892429351806641e-02 1.829387247562408447e-01 -5.105563625693321228e-02 1.231972426176071167e-01 -4.889485985040664673e-02 1.634305268526077271e-01 -1.475237011909484863e-01 -1.386170983314514160e-01 7.938779890537261963e-02 5.576702207326889038e-02 1.382336169481277466e-01 1.423805505037307739e-01 1.442586928606033325e-01 1.925363391637802124e-01 8.373453468084335327e-02 5.564937740564346313e-02 6.344363093376159668e-02 1.113198399543762207e-01 9.277863055467605591e-02 6.727789342403411865e-02 1.123268231749534607e-01 1.996549963951110840e-01 -1.179568376392126083e-02 8.564736694097518921e-02 7.353378832340240479e-02 -6.519216299057006836e-02 7.631301134824752808e-02 -2.521043643355369568e-02 1.097098439931869507e-01 7.856728881597518921e-02 2.614005096256732941e-02 7.072309404611587524e-02 2.826544223353266716e-03 1.359136104583740234e-01 -1.409499794244766235e-01 1.453417390584945679e-01 9.348459541797637939e-03 1.789197027683258057e-01 -5.515804514288902283e-02 -8.500162512063980103e-03 -4.397972661536186934e-04 2.208627909421920776e-01 7.508914917707443237e-02 -1.348117887973785400e-01 1.019070520997047424e-01 1.511729657649993896e-01 1.858944147825241089e-01 7.575073838233947754e-02 9.917555749416351318e-02 3.026295825839042664e-02 3.186257556080818176e-02 9.512972831726074219e-02 -1.120591238141059875e-01 -4.654270410537719727e-02 -7.172794640064239502e-02 7.552336156368255615e-02 -3.535726293921470642e-02 7.276205718517303467e-02 -8.332210034132003784e-02 -1.310808770358562469e-02 -1.608732342720031738e-02 6.689734756946563721e-02 -5.997171998023986816e-02 7.837494462728500366e-02 9.585922956466674805e-02 -6.670568138360977173e-02 1.478596627712249756e-01 1.001607403159141541e-01 -1.110196635127067566e-01 9.579833596944808960e-02 1.940633207559585571e-01 4.728646948933601379e-02 -5.166999623179435730e-02 -2.125767804682254791e-02 -3.610253334045410156e-02 -2.706787548959255219e-02 -3.829189017415046692e-02 3.022988140583038330e-02 -1.057383567094802856e-01 8.265369385480880737e-02 9.786862879991531372e-02 1.838662177324295044e-01 1.070797219872474670e-01 3.913759440183639526e-02 1.991743445396423340e-01 8.765543997287750244e-02 -3.831030428409576416e-02 3.537884727120399475e-02 7.971858233213424683e-02 -9.689403325319290161e-02 -2.875729231163859367e-03 -3.751195222139358521e-02 -1.287807673215866089e-01 9.486365318298339844e-02 4.372541978955268860e-02 -8.293256908655166626e-02 -7.716330140829086304e-02 -2.466929256916046143e-01 1.610825955867767334e-01 7.348623871803283691e-02 -3.003571555018424988e-02 1.399860829114913940e-01 -7.979584485292434692e-02 7.049297541379928589e-02 1.204948350787162781e-01 5.552570521831512451e-02 1.304345577955245972e-01 -6.738249212503433228e-02 -4.218319430947303772e-02 2.187838107347488403e-01 -1.062367781996726990e-01 1.659662872552871704e-01 1.335103213787078857e-01 1.024343594908714294e-01 -4.840260744094848633e-02 -7.156200706958770752e-02 -1.228063851594924927e-01 4.449728131294250488e-02 -5.459817126393318176e-03 1.581691801548004150e-01 1.180593296885490417e-01 1.301639974117279053e-01 1.396488547325134277e-01 5.766894295811653137e-02 -1.491698324680328369e-01 1.589799225330352783e-01 -9.115138649940490723e-02 1.431467086076736450e-01 -1.249243598431348801e-02 1.340186744928359985e-01 -5.306211113929748535e-02 3.830382600426673889e-02 6.488913297653198242e-02 7.631621509790420532e-02 -8.500981330871582031e-02 -1.521895080804824829e-01 -9.347788244485855103e-02 1.224561035633087158e-01 9.190526604652404785e-02 -8.368170261383056641e-02 -5.052415654063224792e-02 3.979619219899177551e-02 9.557928889989852905e-02 -3.300568461418151855e-02 -5.053901672363281250e-02 5.889139324426651001e-02 -1.038977205753326416e-01 -1.107531338930130005e-01 -2.817237190902233124e-02 1.186545416712760925e-01 -3.448617830872535706e-02 3.720392286777496338e-02 -8.274726569652557373e-02 6.801729649305343628e-02 -6.705310940742492676e-02 1.351587176322937012e-01 6.862752884626388550e-02 1.412311643362045288e-01 1.340360790491104126e-01 -8.124493807554244995e-02 -9.358793497085571289e-02 -7.600349187850952148e-02 -9.623941034078598022e-02 -1.009368002414703369e-01 6.748329102993011475e-02 -1.429404914379119873e-01 3.718085214495658875e-02 -1.473059803247451782e-01 6.666938215494155884e-02 3.175026923418045044e-02 -2.110571973025798798e-02 8.476191759109497070e-02 1.284206062555313110e-01 -9.704498946666717529e-02 8.321823179721832275e-02 1.457345336675643921e-01 1.206838116049766541e-01 -1.456561088562011719e-01 -1.242092028260231018e-01 8.622571825981140137e-02 6.274583190679550171e-02 1.392229199409484863e-01 1.533754635602235794e-02 -1.014957800507545471e-01 5.525273829698562622e-02 7.484617084264755249e-02 -4.863615706562995911e-02 1.146722510457038879e-01 6.038823723793029785e-02 -5.175990983843803406e-02 1.901335269212722778e-01 1.662997901439666748e-01 7.129539549350738525e-02 6.411289423704147339e-02 -6.655871868133544922e-02 1.022913157939910889e-01 8.595757931470870972e-02 -9.537551552057266235e-02 4.216301068663597107e-02 4.006974399089813232e-02 -1.747404038906097412e-02 -1.512110084295272827e-01 1.321067661046981812e-01 1.245237961411476135e-01 1.397309601306915283e-01 1.499398350715637207e-01 -7.140880078077316284e-02 -1.744660884141921997e-01 -4.354943335056304932e-02 8.438924700021743774e-02 4.428681731224060059e-02 -1.296567171812057495e-01 5.904139578342437744e-02 6.586401164531707764e-02 -4.221068322658538818e-02 1.225939616560935974e-01 1.103219017386436462e-01 -8.774532377719879150e-02 1.063972711563110352e-01 1.559455394744873047e-01 1.293359994888305664e-01 -1.245171353220939636e-01 1.340218633413314819e-01 -7.569023221731185913e-02 -1.402938216924667358e-01 3.669884800910949707e-02 1.375266313552856445e-01 -4.359243065118789673e-02 8.731357008218765259e-02 1.010771542787551880e-01 1.040672585368156433e-01 1.264032423496246338e-01 -8.041074872016906738e-02 -7.742415368556976318e-02 -8.327527344226837158e-02 -1.492699980735778809e-01 8.873733878135681152e-02 -9.658085554838180542e-02 8.399335294961929321e-02 5.038698390126228333e-02 1.015328317880630493e-01 -6.497754156589508057e-02 -5.752614140510559082e-02 1.592000722885131836e-01 -1.817080006003379822e-02 2.857522480189800262e-02 -1.222590580582618713e-01 1.100296527147293091e-01 6.652931123971939087e-02 6.178122758865356445e-02 -5.291412398219108582e-02 -5.362882465124130249e-02 -5.418091639876365662e-02 5.694739148020744324e-02 1.436409950256347656e-01 -1.101127117872238159e-01 7.571998983621597290e-02 9.601137042045593262e-02 9.546992927789688110e-02 8.593599498271942139e-02 -4.043405130505561829e-02 7.525704801082611084e-02 4.230933636426925659e-02 7.476249337196350098e-02 4.462767764925956726e-02 -2.345566451549530029e-02 -8.924222737550735474e-02 7.076747715473175049e-02 8.960664272308349609e-02 -7.393788546323776245e-02 -1.214934736490249634e-01 3.786972910165786743e-02 -1.422016918659210205e-01 -1.598757654428482056e-01 -3.431673720479011536e-02 1.361989676952362061e-01 9.681413322687149048e-02 1.610076874494552612e-01 -5.067640542984008789e-02 2.021439820528030396e-01 -1.698842458426952362e-02 1.617883145809173584e-01 -6.076794117689132690e-02 -1.460510492324829102e-01 4.622560366988182068e-02 4.385913163423538208e-02 1.989204734563827515e-01 -5.911860987544059753e-02 1.003322005271911621e-01 -1.087048202753067017e-01 1.417752504348754883e-01 5.824987590312957764e-02 -2.192762447521090508e-03 -7.520521432161331177e-02 3.717309981584548950e-02 7.717856671661138535e-03 -2.071749977767467499e-02 -4.552179947495460510e-02 -1.509426385164260864e-01 -1.394521743059158325e-01 1.273288726806640625e-01 4.984633997082710266e-02 -8.557440340518951416e-02 5.494113638997077942e-02 -1.417922973632812500e-01 1.164395585656166077e-01 -1.236685737967491150e-01 -8.520197868347167969e-02 -3.686302155256271362e-02 -5.915812402963638306e-02 7.884715497493743896e-02 -6.694722175598144531e-02 2.545079961419105530e-02 1.078627929091453552e-01 -1.705814599990844727e-01 3.642333298921585083e-02 9.264396876096725464e-02 1.118352264165878296e-01 1.141341924667358398e-01 -8.752379566431045532e-02 -6.821788847446441650e-02 1.342502385377883911e-01 -1.063171029090881348e-01 1.016070470213890076e-01 2.040827274322509766e-01 -4.145234823226928711e-02 1.092027351260185242e-01 8.341139554977416992e-02 1.380699127912521362e-01 -5.464488640427589417e-02 1.067244634032249451e-01 7.468700408935546875e-02 -1.330698281526565552e-01 9.578208625316619873e-02 5.369119346141815186e-02 -1.058773789554834366e-02 6.674214452505111694e-02 2.058737277984619141e-01 5.599430575966835022e-02 -2.387612462043762207e-01 -1.225949749350547791e-01 7.821758836507797241e-02 1.719197332859039307e-01 7.669815421104431152e-02 2.477321587502956390e-02 1.376792490482330322e-01 1.574111878871917725e-01 -9.430846199393272400e-03 -5.523833259940147400e-02 7.109390199184417725e-02 7.420932501554489136e-02 8.102452009916305542e-02 1.053026169538497925e-01 6.280434876680374146e-02 6.169335544109344482e-02 -5.823018401861190796e-02 -2.928205020725727081e-02 -1.737692356109619141e-01 1.173670887947082520e-01 -6.700058281421661377e-02 9.656614065170288086e-02 -7.437653094530105591e-02 -6.039516534656286240e-03 -1.481084823608398438e-01 1.163590550422668457e-01 -6.886271387338638306e-02 -3.341742977499961853e-02 1.538903415203094482e-01 -2.048927545547485352e-01 1.045675128698348999e-01 -2.984688617289066315e-02 -6.724807620048522949e-02 -8.246818184852600098e-02 8.694041520357131958e-02 -1.350118815898895264e-01 1.156843602657318115e-01 2.188065797090530396e-01 8.571757376194000244e-02 8.815667778253555298e-02 9.021490067243576050e-02 -1.557614803314208984e-01 1.343142837285995483e-01 7.445275038480758667e-02 -1.064681932330131531e-01 1.140130609273910522e-01 1.101358979940414429e-01 7.864477485418319702e-02 9.739399701356887817e-02 -2.689097449183464050e-02 6.885323673486709595e-02 -3.520464152097702026e-02 -2.262911759316921234e-02 -8.897800743579864502e-02 9.474811702966690063e-02 -1.643816083669662476e-01 -1.117287278175354004e-01 1.134217455983161926e-01 7.187843322753906250e-02 -2.440474182367324829e-02 5.791054666042327881e-02 6.465228646993637085e-02 -1.202923133969306946e-01 4.073267057538032532e-02 -6.743273138999938965e-02 -1.066666096448898315e-01 -1.596043854951858521e-01 6.674950942397117615e-03 2.596556954085826874e-02 -1.058649942278862000e-01 -8.730462938547134399e-02 1.300365477800369263e-01 1.322632879018783569e-01 5.480698123574256897e-02 1.234348118305206299e-01 5.833803489804267883e-02 8.911439776420593262e-02 8.203081786632537842e-02 8.628510683774948120e-02 8.693474531173706055e-02 1.161621361970901489e-01 -1.033962666988372803e-01 9.462735056877136230e-02 8.914367854595184326e-02 9.089335054159164429e-02 -3.949673473834991455e-02 7.676786184310913086e-02 9.980718791484832764e-02 1.015596017241477966e-01 4.722612351179122925e-02 8.742352575063705444e-02 1.722577661275863647e-01 7.969486713409423828e-02 -1.256426274776458740e-01 6.499108672142028809e-02 -1.276986747980117798e-01 -1.566436290740966797e-01 7.238371670246124268e-02 -1.148812100291252136e-02 -6.738310307264328003e-02 1.557689011096954346e-01 3.948630765080451965e-02 1.041155084967613220e-01 -9.719487279653549194e-02 9.210201352834701538e-02 -6.519289314746856689e-02 -3.480310738086700439e-02 4.647395387291908264e-02 -7.725300639867782593e-02 1.943163275718688965e-01 -1.056291833519935608e-01 1.179702058434486389e-01 -1.317216604948043823e-01 -1.542994529008865356e-01 -1.109520494937896729e-01 2.029842883348464966e-01 -5.996363610029220581e-02 -5.963461846113204956e-02 -7.093334943056106567e-02 9.722707420587539673e-02 6.124414503574371338e-02 7.808472216129302979e-02 -5.414630100131034851e-02 2.862415835261344910e-02 1.033892929553985596e-01 -7.193198800086975098e-02 -1.620557606220245361e-01 4.616946727037429810e-02 7.375031709671020508e-02 -1.358445137739181519e-01 -4.930533468723297119e-02 5.271380767226219177e-03 -1.483107060194015503e-01 4.659274965524673462e-02 5.208821594715118408e-02 1.396694630384445190e-01 9.542141109704971313e-02 7.544325292110443115e-02 1.471048295497894287e-01 9.888117015361785889e-02 6.228945404291152954e-02 -6.823019683361053467e-02 -8.982449024915695190e-02 1.227640807628631592e-01 6.536182016134262085e-02 -1.184068396687507629e-01 -9.613441675901412964e-02 -1.685516834259033203e-01 -1.020984873175621033e-01 1.458387374877929688e-01 7.826284319162368774e-02 -3.338768333196640015e-02 1.235877946019172668e-01 -1.048227697610855103e-01 -4.489649459719657898e-02 9.235449880361557007e-02 7.939141243696212769e-03 7.957465201616287231e-02 1.240530163049697876e-01 9.088487923145294189e-02 8.318877965211868286e-02 1.181691437959671021e-01 1.124090626835823059e-01 1.642560362815856934e-01 4.512167721986770630e-02 9.740649908781051636e-02 7.642870396375656128e-02 -7.898896932601928711e-02 8.432547748088836670e-02 1.194372549653053284e-01 4.536993056535720825e-02 7.408095151185989380e-02 1.153168752789497375e-01 -1.240061074495315552e-01 8.060554414987564087e-02 6.854967027902603149e-02 6.042126938700675964e-02 8.551283925771713257e-02 7.490586489439010620e-02 -1.397309750318527222e-01 -6.922415643930435181e-02 1.341506689786911011e-01 8.554369956254959106e-02 -1.135027259588241577e-01 -9.465281665325164795e-02 9.306540340185165405e-02 5.504639446735382080e-02 6.321203708648681641e-02 1.247756406664848328e-01 -1.182092204689979553e-01 -1.027577966451644897e-01 1.133668348193168640e-01 -3.629670664668083191e-02 -2.852280996739864349e-02 1.382589042186737061e-01 5.146060138940811157e-02 4.164411872625350952e-02 -9.354431927204132080e-02 -1.031820289790630341e-02 6.075910851359367371e-02 9.328778088092803955e-02 -6.152123957872390747e-02 4.425330087542533875e-02 5.030456930398941040e-02 7.019340991973876953e-02 1.424179226160049438e-01 -8.705332875251770020e-02 1.746825426816940308e-01 7.865571230649948120e-02 4.451225697994232178e-02 1.469268798828125000e-01 1.770692914724349976e-01 1.023080013692378998e-02 1.071384698152542114e-01 1.274451315402984619e-01 -1.004306599497795105e-01 -9.843590110540390015e-02 1.078562214970588684e-01 8.208146691322326660e-02 1.297333389520645142e-01 9.947592020034790039e-02 9.174506366252899170e-02 -4.074409231543540955e-02 -5.890044569969177246e-02 2.334083244204521179e-02 1.391742527484893799e-01 -8.480249345302581787e-02 3.095648624002933502e-02 8.492084592580795288e-02 7.517206668853759766e-02 7.647471129894256592e-02 1.457827240228652954e-01 7.869960367679595947e-02 -5.322430282831192017e-02 8.434630185365676880e-02 -6.918884813785552979e-02 7.606396079063415527e-02 4.072507843375205994e-02 -1.141533907502889633e-02 -5.984300747513771057e-02 4.494639858603477478e-02 6.666055321693420410e-02 1.088978350162506104e-01 -8.009868860244750977e-02 7.428942620754241943e-02 -1.439251601696014404e-01 -2.231842093169689178e-02 1.668465733528137207e-01 -1.880203187465667725e-01 -1.093310341238975525e-01 1.001754924654960632e-01 -4.925161972641944885e-02 2.709144167602062225e-02 -1.365112811326980591e-01 7.144119590520858765e-02 5.164964497089385986e-02 -5.969698354601860046e-02 -5.222385749220848083e-03 4.401221126317977905e-02 -1.328985691070556641e-01 6.730027380399405956e-04 -8.465181104838848114e-03 9.395408630371093750e-02 1.023540198802947998e-01 -4.800394922494888306e-02 -8.230215311050415039e-02 -1.003426238894462585e-01 1.258185952901840210e-01 -3.838016465306282043e-02 -4.627263173460960388e-02 -9.478650242090225220e-02 -5.998999625444412231e-02 -2.677030488848686218e-02 5.219585448503494263e-02 -1.065264940261840820e-01 2.667330577969551086e-02 9.374090284109115601e-02 7.043575495481491089e-02 1.737035810947418213e-01 1.120756715536117554e-01 9.737695753574371338e-02 3.843433409929275513e-02 8.459692448377609253e-02 9.273938089609146118e-02 6.412883102893829346e-02 1.272672414779663086e-01 6.405431032180786133e-02 -4.267862439155578613e-02 7.760223001241683960e-02 -2.704515866935253143e-02 4.707884788513183594e-02 -2.972719818353652954e-02 3.897489234805107117e-02 8.346959948539733887e-02 5.115185678005218506e-02 1.179167479276657104e-01 -4.067684337496757507e-02 1.234833002090454102e-01 8.721246570348739624e-02 1.112988740205764771e-01 1.162656247615814209e-01 -5.022662505507469177e-02 7.759607583284378052e-02 1.258677244186401367e-01 1.165455132722854614e-01 -1.857156492769718170e-02 -5.004764720797538757e-02 -1.246350035071372986e-01 2.156886160373687744e-01 -1.077002882957458496e-01 -6.246151402592658997e-02 9.745126962661743164e-02 9.796486794948577881e-02 -1.743639633059501648e-02 3.399894386529922485e-02 7.441648840904235840e-02 9.361357241868972778e-02 2.206125296652317047e-02 1.293549239635467529e-01 2.222845703363418579e-02 1.072989031672477722e-02 -9.455058723688125610e-02 1.384047567844390869e-01 7.132758200168609619e-02 -1.053520888090133667e-01 5.469723418354988098e-02 -8.577157557010650635e-02 6.707115471363067627e-02 1.079812720417976379e-01 -1.316759586334228516e-01 8.358064293861389160e-02 1.018394455313682556e-01 9.066618233919143677e-02 -8.314683102071285248e-03 4.748536273837089539e-02 9.193217754364013672e-02 7.059997320175170898e-02 6.637453287839889526e-02 -1.466087996959686279e-02 4.360643029212951660e-02 1.264502704143524170e-01 -1.159581616520881653e-01 -6.586924195289611816e-02 -7.681360095739364624e-02 -1.134968083351850510e-02 -1.189746893942356110e-02 1.303589493036270142e-01 5.903781950473785400e-02 -1.341149210929870605e-01 7.794476300477981567e-02 5.792320892214775085e-02 -2.467214129865169525e-02 4.586184397339820862e-02 4.243060573935508728e-02 -1.753533482551574707e-01 -1.452665030956268311e-01 -2.616047672927379608e-02 7.168605923652648926e-02 2.782706357538700104e-02 5.925385281443595886e-02 7.827781885862350464e-02 -1.255307495594024658e-01 8.464116603136062622e-02 8.700576424598693848e-02 1.991964280605316162e-01 -1.939196288585662842e-01 -2.053830325603485107e-01 -1.432122588157653809e-01 6.259014457464218140e-02 -6.318310648202896118e-02 -1.805760562419891357e-01 -9.141388535499572754e-02 -6.885262578725814819e-02 5.789669975638389587e-02 -8.794590830802917480e-02 -2.611195482313632965e-02 1.039461866021156311e-01 6.547141820192337036e-02 8.029174804687500000e-02 8.260609954595565796e-02 1.406653821468353271e-01 -2.637942135334014893e-01 -5.280300974845886230e-02 1.229021921753883362e-01 1.227507274597883224e-02 -7.151932269334793091e-02 -1.746320538222789764e-02 -4.004525020718574524e-02 7.121488451957702637e-02 1.619986891746520996e-01 9.504150599241256714e-03 -6.052258238196372986e-02 -7.225111126899719238e-02 1.514854431152343750e-01 -6.097468361258506775e-02 5.411860719323158264e-02 4.860042780637741089e-02 -8.688428252935409546e-02 8.742839843034744263e-02 7.757423073053359985e-02 1.030169874429702759e-01 -8.049116283655166626e-02 -8.862236142158508301e-02 1.009289920330047607e-01 -2.081716991961002350e-02 7.999989390373229980e-02 6.246284022927284241e-02 -5.058615282177925110e-02 -8.353943377733230591e-02 8.446017652750015259e-02 1.096622124314308167e-01 -9.674676507711410522e-02 3.581801801919937134e-02 5.973910167813301086e-02 8.035115152597427368e-02 -1.208739951252937317e-01 7.979050278663635254e-02 8.660928159952163696e-02 -1.759147793054580688e-01 -1.059719797922298312e-04 -6.311258673667907715e-02 -9.081628918647766113e-02 -1.174240857362747192e-01 -1.380785182118415833e-02 1.314636617898941040e-01 4.022116586565971375e-02 -7.310831546783447266e-02 7.166823744773864746e-02 1.951120793819427490e-02 8.840558677911758423e-02 5.480203405022621155e-02 -1.000509336590766907e-01 6.166959553956985474e-02 6.939355283975601196e-02 5.091808736324310303e-02 7.249391824007034302e-02 2.089722007513046265e-01 1.339725106954574585e-01 5.447219312191009521e-02 1.504144370555877686e-01 -3.430614247918128967e-02 -6.403829157352447510e-02 -6.739204376935958862e-02 -3.857917850837111473e-03 8.031707257032394409e-02 -1.430651545524597168e-01 1.130310222506523132e-01 -7.549223303794860840e-02 8.149830996990203857e-02 6.120948493480682373e-02 -4.965673014521598816e-02 -3.740971907973289490e-02 6.066038087010383606e-02 1.728826761245727539e-01 8.185598254203796387e-02 -6.545974314212799072e-02 -7.251162081956863403e-02 2.001466155052185059e-01 1.342644393444061279e-01 -8.937449753284454346e-02 1.244555115699768066e-01 -8.237650990486145020e-02 6.440724432468414307e-02 5.963441357016563416e-02 -9.448347985744476318e-02 7.485056668519973755e-02 6.609385460615158081e-02 -5.492642894387245178e-02 9.607020020484924316e-02 1.572525203227996826e-01 1.067107841372489929e-01 -8.035437203943729401e-03 1.292132735252380371e-01 -1.069266647100448608e-01 2.293186029419302940e-03 -1.053533703088760376e-01 7.066276669502258301e-02 4.470448195934295654e-02 1.097548976540565491e-01 1.127684339880943298e-01 1.091994643211364746e-01 -1.474533975124359131e-02 9.187629818916320801e-02 1.411393433809280396e-01 7.496585696935653687e-02 -3.736099228262901306e-02 -3.312719985842704773e-02 1.063702404499053955e-01 9.870526939630508423e-02 -2.417605184018611908e-02 -5.581228435039520264e-02 -1.153549924492835999e-01 1.911072582006454468e-01 1.495687812566757202e-01 -1.121749877929687500e-01 -6.747081875801086426e-02 -1.637660413980484009e-01 1.205063685774803162e-01 9.872467815876007080e-02 -1.308400183916091919e-01 1.486209034919738770e-01
-1.911699175834655762e-01 -9.534195996820926666e-03 -1.487075630575418472e-02 1.172620281577110291e-01 6.050002574920654297e-02 8.764230459928512573e-02 1.276454478502273560e-01 -1.175186038017272949e-02 1.573963761329650879e-01 3.550962731242179871e-02 -8.034429699182510376e-02 1.193807125091552734e-01 5.083378404378890991e-02 7.801163196563720703e-02 5.971847102046012878e-02 8.702992647886276245e-02 5.500628426671028137e-02 1.240959540009498596e-01 8.636903762817382812e-02 1.301559507846832275e-01 5.704665184020996094e-02 -1.369106471538543701e-01 -8.623795211315155029e-02 5.806391313672065735e-02 6.423536688089370728e-02 7.665131986141204834e-02 9.644281864166259766e-02 1.048547998070716858e-01 1.250250935554504395e-01 9.563206136226654053e-02 1.073205098509788513e-01 -1.485592573881149292e-01 -1.037988960742950439e-01 4.518975317478179932e-02 4.288856405764818192e-03 2.904220856726169586e-02 1.272221505641937256e-01 7.573322206735610962e-02 8.701045811176300049e-02 -9.182345122098922729e-02 -1.182147786021232605e-01 5.347348004579544067e-02 5.717243999242782593e-02 9.827662259340286255e-02 1.017970442771911621e-01 6.152487173676490784e-02 5.368755385279655457e-02 1.021154895424842834e-01 1.074499636888504028e-01 4.924713447690010071e-02 5.659012123942375183e-02 1.198988407850265503e-01 1.029545515775680542e-01 7.696865499019622803e-02 1.053709834814071655e-01 8.553266525268554688e-02 2.353039383888244629e-02 7.695466279983520508e-02 4.812618345022201538e-02 8.895394951105117798e-02 1.361239887773990631e-02 3.407623386010527611e-03 -1.263116300106048584e-01 7.958446443080902100e-02 7.883433252573013306e-03 -1.419059000909328461e-02 3.767454996705055237e-02 -1.080035343766212463e-01 -7.343500852584838867e-02 5.744666233658790588e-02 2.499719522893428802e-02 -8.872219920158386230e-02 1.287753582000732422e-01 7.671370357275009155e-02 -1.116030290722846985e-01 6.331489980220794678e-02 1.818074136972427368e-01 1.713982820510864258e-01 1.178866475820541382e-01 -7.843320816755294800e-02 1.079928502440452576e-01 8.066900074481964111e-02 6.012144684791564941e-02 1.085440814495086670e-01 -1.346879005432128906e-01 -2.193791419267654419e-02 9.449880570173263550e-02 7.490276545286178589e-02 7.766000181436538696e-02 3.017020784318447113e-02 1.288698911666870117e-01 5.256317183375358582e-02 9.373113512992858887e-02 1.004596650600433350e-01 1.054595634341239929e-01 2.353518642485141754e-02 6.838347017765045166e-02 9.000376611948013306e-02 -8.700716495513916016e-02 1.443495601415634155e-01 1.019225344061851501e-01 2.167419046163558960e-01 9.235504269599914551e-02 2.400327287614345551e-02 6.192504242062568665e-02 -1.640072092413902283e-02 -1.819473803043365479e-01 3.911110758781433105e-02 -7.412418723106384277e-02 1.141619533300399780e-01 7.212907820940017700e-02 3.370657190680503845e-02 4.613402485847473145e-02 6.924268603324890137e-02 4.697281494736671448e-02 -5.481830611824989319e-02 4.271974042057991028e-02 9.619730710983276367e-02 -6.833449006080627441e-02 1.107989102602005005e-01 1.374126672744750977e-01 1.236744299530982971e-01 -5.335559323430061340e-02 -5.580754578113555908e-02 -3.078021295368671417e-02 -7.880711555480957031e-02 9.436057507991790771e-02 8.618357777595520020e-02 1.057382151484489441e-01 -1.144041772931814194e-02 1.097433939576148987e-01 1.502770483493804932e-01 8.022897690534591675e-02 -1.261933445930480957e-01 -4.647089913487434387e-02 -1.093826536089181900e-02 9.312839806079864502e-02 1.212695389986038208e-01 1.788830906152725220e-01 -5.949649959802627563e-02 1.308766156435012817e-01 9.411306679248809814e-02 7.773170620203018188e-02 1.098973229527473450e-01 3.536062687635421753e-02 5.284323543310165405e-02 5.474338307976722717e-02 7.013072073459625244e-02 -6.655780225992202759e-02 1.067506000399589539e-01 1.185002252459526062e-01 5.539639294147491455e-02 8.789235353469848633e-02 9.230428934097290039e-02 7.076486200094223022e-02 -1.634520888328552246e-01 -4.620451480150222778e-02 1.319809071719646454e-02 -3.276804462075233459e-02 1.260454207658767700e-01 7.020396739244461060e-02 5.990433320403099060e-02 4.931926354765892029e-02 9.730815142393112183e-02 -9.135193377733230591e-02 1.270650774240493774e-01 -9.783763438463211060e-03 4.354824125766754150e-02 1.125636994838714600e-01 1.900210380554199219e-01 2.817078307271003723e-02 -1.292934268712997437e-01 8.920159190893173218e-02 1.067126765847206116e-01 -1.216860190033912659e-01 -7.179176807403564453e-02 -1.326691955327987671e-01 1.504584401845932007e-01 -1.464810520410537720e-01 -2.293283119797706604e-03 1.511557144112884998e-03 7.982225716114044189e-02 -2.997308736667037010e-03 -1.263235807418823242e-01 5.927015095949172974e-02 6.610137969255447388e-02 -2.294480428099632263e-02 4.576622322201728821e-02 7.728845626115798950e-02 -1.003806143999099731e-01 -5.633392557501792908e-02 -4.302305728197097778e-02 -3.729672357439994812e-02 9.722163528203964233e-02 4.401325806975364685e-02 8.517505228519439697e-02 7.152918726205825806e-02 6.024655699729919434e-02 8.269052952527999878e-02 9.468165785074234009e-02 5.035712569952011108e-02 8.173774927854537964e-02 6.947121024131774902e-02 -6.728129088878631592e-02 5.202752351760864258e-02 1.624048799276351929e-01 -1.343138515949249268e-01 -1.344514936208724976e-01 -6.603114306926727295e-02 -1.405910551548004150e-01 1.100020483136177063e-01 8.295489847660064697e-02 1.273191273212432861e-01 1.200263351202011108e-01 7.656800001859664917e-02 7.868937402963638306e-02 -1.385621428489685059e-01 -1.186990737915039062e-01 9.690901637077331543e-02 1.130813881754875183e-01 -3.892716765403747559e-02 -6.120922043919563293e-02 -6.251890212297439575e-02 9.266459196805953979e-02 -6.803876161575317383e-02 1.719991117715835571e-01 6.723277270793914795e-03 3.143467009067535400e-02 5.993796139955520630e-02 5.255091935396194458e-02 8.800802379846572876e-02 1.101071164011955261e-01 -6.675197184085845947e-02 5.119057837873697281e-03 8.928055316209793091e-02 2.399752661585807800e-02 5.315573513507843018e-02 3.771477192640304565e-02 -1.888280175626277924e-02 1.480337828397750854e-01 -1.430666595697402954e-01 -1.438271552324295044e-01 9.652082808315753937e-03 7.583846151828765869e-02 5.923487618565559387e-02 -1.247740015387535095e-01 1.262783557176589966e-01 5.956843495368957520e-02 2.167621813714504242e-02 4.612974449992179871e-02 6.278877705335617065e-02 7.423108816146850586e-02 8.372003585100173950e-02 4.645593464374542236e-02 3.975586220622062683e-02 7.448348402976989746e-02 1.333299838006496429e-02 8.053151518106460571e-02 5.609621852636337280e-02 -2.638417854905128479e-02 2.943690493702888489e-02 -2.322146110236644745e-02 -6.288234144449234009e-03 -7.467219606041908264e-03 -1.345477998256683350e-01 9.569148719310760498e-02 4.988222941756248474e-02 1.209578961133956909e-01 1.277392208576202393e-01 7.906979322433471680e-02 2.060544677078723907e-02 1.013540551066398621e-01 5.900500714778900146e-02 8.454895019531250000e-02 -7.824782282114028931e-02 -1.655203476548194885e-02 -9.610053896903991699e-02 -1.551063656806945801e-01 -2.610108628869056702e-02 3.802737593650817871e-02 7.793338596820831299e-02 4.288937151432037354e-02 7.586238533258438110e-02 3.571299836039543152e-02 1.245731860399246216e-01 6.656745821237564087e-02 3.140365704894065857e-02 9.838431328535079956e-02 1.235625520348548889e-01 -1.734529994428157806e-02 2.620657347142696381e-02 -1.152945868670940399e-02 -9.725842624902725220e-02 -6.059696525335311890e-02 3.525130823254585266e-02 -7.845804095268249512e-02 -1.155469715595245361e-01 -4.876749962568283081e-02 -1.034212484955787659e-01 4.535864293575286865e-02 5.650942400097846985e-02 1.115149259567260742e-01 7.387746125459671021e-02 1.903126686811447144e-01 -9.458643943071365356e-02 1.202841252088546753e-01 1.095901280641555786e-01 5.102739483118057251e-02 3.752856701612472534e-02 8.239461481571197510e-02 -5.976210907101631165e-02 1.014178246259689331e-01 -2.793853916227817535e-02 -1.560600101947784424e-01 5.899210646748542786e-02 7.317083328962326050e-02 9.114987403154373169e-02 6.368307024240493774e-02 1.335341930389404297e-01 9.201695770025253296e-02 8.425389975309371948e-02 4.673309996724128723e-02 1.782235652208328247e-01 1.019233986735343933e-01 -7.864148914813995361e-02 2.667482383549213409e-02 3.723464161157608032e-02 5.922294408082962036e-02 2.487267740070819855e-02 -1.160206794738769531e-01 5.088317766785621643e-02 -1.104281097650527954e-01 1.046045720577239990e-01 -7.395200897008180618e-03 7.455997914075851440e-02 -6.987894326448440552e-02 1.861632987856864929e-02 1.370122283697128296e-01 -1.280318796634674072e-01 -2.662870287895202637e-02 5.806819722056388855e-02 7.085338979959487915e-02 -1.167620196938514709e-01 1.074019819498062134e-01 2.388450130820274353e-02 1.254362612962722778e-01 -7.741416338831186295e-03 1.207860261201858521e-01 -9.971630573272705078e-02 -3.666964825242757797e-03 -1.402163058519363403e-01 7.987826317548751831e-02 -1.864973828196525574e-02 -5.756566673517227173e-02 9.900777786970138550e-02 2.597966045141220093e-02 1.206516660749912262e-02 -6.749942153692245483e-02 -5.810077488422393799e-02 -4.823746532201766968e-02 9.907788783311843872e-02 4.295294359326362610e-02 4.968499764800071716e-02 1.219272837042808533e-01 -4.028916358947753906e-02 9.515163302421569824e-02 -1.911443471908569336e-02 4.430391639471054077e-02 -2.399929985404014587e-02 4.103164747357368469e-02 1.119748204946517944e-01 -1.374031305313110352e-01 -3.309627249836921692e-02 3.450994566082954407e-02 -5.970231443643569946e-02 1.411497741937637329e-01 4.659174755215644836e-02 5.257188156247138977e-02 -8.547659218311309814e-02 1.402846723794937134e-01 -6.679596006870269775e-02 4.680761322379112244e-02 2.361659333109855652e-02 1.324951946735382080e-01 1.736961454153060913e-01 1.831524968147277832e-01 1.763077229261398315e-01 9.607987850904464722e-02 7.133745402097702026e-02 8.038544654846191406e-02 8.706902712583541870e-02 9.379761666059494019e-02 -1.639166288077831268e-02 5.744256824254989624e-02 -3.180963173508644104e-02 1.416659802198410034e-01 -7.512520253658294678e-02 1.183356046676635742e-01 1.756307482719421387e-02 1.918517649173736572e-01 1.058461144566535950e-01 7.426747679710388184e-02 6.157440692186355591e-02 6.262714415788650513e-02 2.225513942539691925e-02 4.159194976091384888e-02 -3.607171401381492615e-02 9.616938233375549316e-02 1.082877963781356812e-01 9.993305057287216187e-02 -5.821052566170692444e-02 6.989258341491222382e-03 1.623857468366622925e-01 1.393203735351562500e-01 1.071531772613525391e-01 2.940876223146915436e-02 6.148596480488777161e-02 1.204944476485252380e-01 6.987188011407852173e-02 8.913232386112213135e-02 3.458663588389754295e-03 1.506124734878540039e-01 -9.865045547485351562e-02 7.592374458909034729e-03 -1.579570956528186798e-02 1.225320696830749512e-01 8.640139549970626831e-02 -1.256456319242715836e-02 -5.692630633711814880e-02 -1.096528768539428711e-01 1.233922243118286133e-01 1.591002196073532104e-01 -4.643079638481140137e-02 -1.050264313817024231e-01 -1.427928656339645386e-01 9.177989512681961060e-02 7.200369238853454590e-02 -8.301545865833759308e-03 2.867687679827213287e-02 3.309287130832672119e-02 -1.143546104431152344e-01 7.325177639722824097e-02 7.772341370582580566e-02 6.441354751586914062e-02 2.102400064468383789e-01 7.887789607048034668e-02 2.494407147169113159e-01 1.298722028732299805e-01 2.468546852469444275e-03 -6.791678816080093384e-02 6.528420746326446533e-02 1.598108373582363129e-02 1.373489648103713989e-01 1.326638013124465942e-01 1.048828437924385071e-01 2.439551241695880890e-02 1.181219741702079773e-01 6.060412526130676270e-02 7.854696363210678101e-02 6.699913740158081055e-02 6.713160127401351929e-02 4.314460605382919312e-02 7.559388130903244019e-02 8.198695629835128784e-02 8.786167949438095093e-02 9.638962149620056152e-02 1.295996010303497314e-01 6.008085608482360840e-02 4.700714722275733948e-03 5.742639303207397461e-03 2.224390394985675812e-02 -1.057989820837974548e-01 8.069105446338653564e-02 -1.160349324345588684e-01 -1.747998893260955811e-01 7.650943845510482788e-02 7.173230499029159546e-02 -9.906149655580520630e-02 6.530762463808059692e-02 -1.684514805674552917e-02 -5.650593433529138565e-03 1.052721291780471802e-01 -1.331263929605484009e-01 4.623784334398806095e-04 1.288097500801086426e-01 8.178620785474777222e-02 -1.670552492141723633e-01 -1.347374320030212402e-01 5.042726546525955200e-02 -1.087214797735214233e-01 9.394147247076034546e-02 -2.699537575244903564e-02 2.412681132555007935e-01 7.251088321208953857e-02 2.700916677713394165e-02 5.841184780001640320e-02 1.216023042798042297e-01 -1.027937158942222595e-01 8.460884541273117065e-02 -1.123749762773513794e-01 1.374654173851013184e-01 1.051435843110084534e-01 -3.486734628677368164e-02 8.633117377758026123e-02 1.036087870597839355e-01 5.744249746203422546e-02 -1.400804519653320312e-01 -2.009163498878479004e-01 -3.093549981713294983e-02 -5.547808483242988586e-03 6.183943897485733032e-02 1.121151149272918701e-01 3.493512421846389771e-02 -7.314920425415039062e-02 -6.113732233643531799e-02 -1.466652303934097290e-01 7.019964605569839478e-02 -4.355875030159950256e-02 -5.664642527699470520e-02 5.903088022023439407e-03 4.163134843111038208e-02 7.059526443481445312e-02 -1.074420511722564697e-01 -5.321190878748893738e-02 8.354662358760833740e-02 4.757567495107650757e-02 7.126583904027938843e-02 -1.365016549825668335e-01 1.441468745470046997e-01 -1.241701468825340271e-01 -1.578065156936645508e-01 1.932991594076156616e-01 8.988423645496368408e-02 3.729916736483573914e-02 7.455448061227798462e-02 -1.760243922472000122e-01 -6.600744277238845825e-02 9.980919212102890015e-02 1.039968654513359070e-01 -1.557522416114807129e-01 -1.513104438781738281e-01 -5.052776262164115906e-02 -1.132916957139968872e-01 -6.903708726167678833e-02 9.472260624170303345e-02 3.929320722818374634e-02 2.190662324428558350e-01 4.578218609094619751e-02 1.406541168689727783e-01 3.196309506893157959e-02 2.870040014386177063e-02 9.147500619292259216e-03 8.818046748638153076e-02 4.662907123565673828e-02 7.166367769241333008e-02 -5.814394913613796234e-03 9.157017618417739868e-02 5.846793204545974731e-02 -2.003485336899757385e-02 1.231063976883888245e-01 1.761112213134765625e-01 -8.582816272974014282e-02 6.315673887729644775e-02 1.265587955713272095e-01 4.570398107171058655e-02 6.837468594312667847e-02 7.789999991655349731e-02 4.249996319413185120e-02 8.693028986454010010e-02 2.029818855226039886e-02 1.236858684569597244e-02 -3.658093884587287903e-02 1.195468232035636902e-01 1.427171677350997925e-01 -7.788141071796417236e-02 -1.704300194978713989e-01 2.995932660996913910e-02 3.886146843433380127e-02 -1.319063305854797363e-01 -1.251867879182100296e-02 4.482263699173927307e-02 -7.373222149908542633e-03 6.958661228418350220e-02 1.072210222482681274e-01 1.023960784077644348e-01 6.850047409534454346e-02 3.293406218290328979e-03 -9.250675886869430542e-02 -1.220223214477300644e-02 6.878878921270370483e-02 7.842689752578735352e-02 2.471227347850799561e-01 -8.996723592281341553e-02 9.310898184776306152e-02 2.332385815680027008e-02 -7.850993424654006958e-02 2.906419523060321808e-02 -2.575429342687129974e-02 -1.219044327735900879e-01 6.624031346291303635e-03 -8.170311897993087769e-02 1.406440883874893188e-01 5.988143756985664368e-02 -1.997210532426834106e-01 1.085770055651664734e-01 -1.870058327913284302e-01 -1.507860571146011353e-01 7.940633594989776611e-02 6.424771249294281006e-02 5.920606851577758789e-02 1.676744520664215088e-01 -1.302911937236785889e-01 8.830942958593368530e-02 -1.069414988160133362e-01 2.650031819939613342e-02 -1.185308396816253662e-01 -1.191626489162445068e-01 -3.100061044096946716e-02 1.299540847539901733e-01 -1.379599422216415405e-01 1.141928657889366150e-01 -9.101389348506927490e-02 7.676018029451370239e-02 -4.027714580297470093e-02 3.092596493661403656e-02 1.282631158828735352e-01 -5.865328013896942139e-03 -1.357048153877258301e-01 1.304906308650970459e-01 1.242236420512199402e-01 5.940393730998039246e-02 -1.496837437152862549e-01 -6.501231342554092407e-02 1.112157851457595825e-01 9.552197903394699097e-02 1.363973915576934814e-01 7.683058083057403564e-02 6.066953390836715698e-02 1.395209729671478271e-01 3.551901504397392273e-02 4.896066337823867798e-02 1.303787976503372192e-01 4.352813214063644409e-02 9.810952097177505493e-02 3.392558172345161438e-02 4.358511790633201599e-02 1.241324245929718018e-01 -3.515606373548507690e-02 6.939334422349929810e-02 9.494271129369735718e-02 7.234598696231842041e-02 8.334231376647949219e-02 -7.620874047279357910e-02 1.229250803589820862e-01 6.831862777471542358e-02 8.116436004638671875e-02 9.919476509094238281e-02 1.102904081344604492e-01 3.900619223713874817e-02 1.548311114311218262e-01 7.135429978370666504e-02 1.310156434774398804e-01 3.161007165908813477e-02 3.454415500164031982e-02 4.231218621134757996e-02 -2.294410206377506256e-02 -1.348194777965545654e-01 1.044348403811454773e-01 6.287377327680587769e-02 -1.467896103858947754e-01 1.366624981164932251e-01 1.730559468269348145e-01 8.208330720663070679e-02 1.233964413404464722e-02 7.281693816184997559e-02 -1.533356606960296631e-01 1.184706762433052063e-01 1.054053977131843567e-01 3.245108947157859802e-02 4.537015035748481750e-02 4.812494665384292603e-02 -6.432081013917922974e-02 3.350705653429031372e-02 5.152750015258789062e-02 3.845262154936790466e-02 -1.159724965691566467e-01 -2.115197479724884033e-03 -6.935025565326213837e-03 9.079586714506149292e-02 -1.028421446681022644e-01 3.899144753813743591e-02 5.804803967475891113e-02 -1.982059516012668610e-02 -1.906379126012325287e-02 8.188761025667190552e-02 1.854914724826812744e-01 -1.311156451702117920e-01 -1.007771268486976624e-01 -6.695866584777832031e-03 -1.011020690202713013e-01 4.236545413732528687e-02 9.498412907123565674e-02 7.459375262260437012e-02 -2.587850950658321381e-02 5.110861733555793762e-02 1.231408491730690002e-01 -1.435745134949684143e-02 4.659862071275711060e-02 7.471846044063568115e-02 -5.556645244359970093e-02 1.500025689601898193e-01 8.167842775583267212e-02 7.366520911455154419e-02 -1.695436984300613403e-01 6.026873365044593811e-02 5.481600016355514526e-02 5.113692209124565125e-02 8.315233886241912842e-02 1.439279615879058838e-01 5.644467845559120178e-02 -1.173955872654914856e-01 -4.214080690871924162e-04 -4.043002426624298096e-02 8.643131703138351440e-02 6.736154109239578247e-02 -1.070578619837760925e-01 7.804333418607711792e-02 8.371660113334655762e-02 1.107989996671676636e-01 1.018866226077079773e-01 -6.825105100870132446e-02 1.532345861196517944e-01 3.946502134203910828e-02 3.674484416842460632e-02 -8.003816008567810059e-02 8.573688566684722900e-02 7.890057563781738281e-02 -3.264628723263740540e-02 -4.496697708964347839e-02 2.966510690748691559e-02 9.443290531635284424e-02 1.778855621814727783e-01 1.015665307641029358e-01 8.729901909828186035e-02 4.706874489784240723e-02 4.393599554896354675e-02 1.125316843390464783e-01 6.968522071838378906e-02 -6.687269359827041626e-02 9.603027999401092529e-02 -1.135628763586282730e-02 -7.659877091646194458e-02 9.729269146919250488e-02 2.276290766894817352e-02 6.711014360189437866e-02 5.444939807057380676e-02 6.127759814262390137e-02 -3.239525482058525085e-02 4.140635579824447632e-02 7.570990175008773804e-02 9.464001655578613281e-02 -8.496571332216262817e-02 6.427680701017379761e-02 7.399161159992218018e-02 1.611461490392684937e-01 6.727582216262817383e-02 1.555170118808746338e-01 1.421721875667572021e-01 1.607569307088851929e-01 9.092754870653152466e-02 8.759208768606185913e-02 -1.495789140462875366e-01 6.904911249876022339e-02 -1.217072308063507080e-01 6.178157776594161987e-02 -9.591696411371231079e-02 1.107233166694641113e-01 1.137915626168251038e-01 -1.246861219406127930e-01 -1.419025957584381104e-01 -1.810606271028518677e-01 6.120255589485168457e-02 -7.572729140520095825e-02 1.793349236249923706e-01 1.613685488700866699e-01 6.302909553050994873e-02 2.674565464258193970e-02 7.581167668104171753e-02 -3.540956974029541016e-02 6.423491239547729492e-02 1.232656165957450867e-01 4.129269346594810486e-02 1.130125224590301514e-01 8.728117495775222778e-02 1.286084800958633423e-01 5.712017044425010681e-02 1.283366680145263672e-01 5.982125550508499146e-02 1.573416292667388916e-01 -1.054731458425521851e-01 1.489950716495513916e-01 9.736541658639907837e-02 1.187250986695289612e-01 4.649503901600837708e-02 4.530606418848037720e-02 7.949183881282806396e-02 -3.059057705104351044e-02 -9.561402350664138794e-02 1.759491264820098877e-01 7.370226830244064331e-02 3.526765480637550354e-02 1.140463203191757202e-01 -8.347558975219726562e-02 1.129819750785827637e-01 6.852091103792190552e-02 1.364056300371885300e-02 1.014987751841545105e-01 7.420059293508529663e-02 -2.277247607707977295e-01 9.894804656505584717e-02 -4.427342489361763000e-02 -9.926603734493255615e-02 -1.329418569803237915e-01 1.130770146846771240e-01 -9.638983011245727539e-02 7.762227207422256470e-02 1.247669830918312073e-01 6.061323452740907669e-03 4.551642388105392456e-02 9.246861189603805542e-02 6.429105997085571289e-02 -2.080885767936706543e-01 5.072088539600372314e-02 2.325726747512817383e-01 1.427444964647293091e-01 4.331647604703903198e-02 -1.471295356750488281e-01 7.879944145679473877e-02 4.953838512301445007e-02 7.081436365842819214e-02 -1.552310287952423096e-01 7.467113435268402100e-02 1.120971441268920898e-01 8.778773248195648193e-02 8.858852088451385498e-02 7.966590672731399536e-02 -1.249349638819694519e-01 -1.353837782517075539e-03 4.475478082895278931e-02 -1.584775187075138092e-02 1.874970942735671997e-01 1.878879070281982422e-01 1.057813595980405807e-02 9.307922422885894775e-02 6.640075892210006714e-02 1.183973029255867004e-01 2.069295942783355713e-02 2.121418416500091553e-01 -1.569780856370925903e-01 1.124840900301933289e-01 1.102484762668609619e-01 -1.628948003053665161e-01 1.690033376216888428e-01 2.438371069729328156e-02 6.592954695224761963e-02 1.122348159551620483e-01 1.264285296201705933e-01 6.749052554368972778e-02 1.292923390865325928e-01 -8.487258851528167725e-02 -2.378065586090087891e-01 6.702375411987304688e-02 4.371046274900436401e-02 9.797094762325286865e-02 1.202471703290939331e-01 -1.455059200525283813e-01 4.951050505042076111e-02 9.217479825019836426e-02 -2.410528995096683502e-02 7.938010245561599731e-02 6.157797574996948242e-02 6.544978916645050049e-02 2.867140248417854309e-02 8.883105963468551636e-02 6.225381046533584595e-02 7.168472558259963989e-02 8.998489379882812500e-02 1.197548732161521912e-01 1.629658490419387817e-01 1.189539805054664612e-01 -1.121607199311256409e-01 3.699310123920440674e-02 1.962636597454547882e-02 4.443331062793731689e-02 -2.700398862361907959e-02 1.506931185722351074e-01 -1.529921032488346100e-02 3.499538078904151917e-02 8.506163954734802246e-02 1.480469107627868652e-01 9.400582313537597656e-02 1.966099590063095093e-01 1.122227013111114502e-01 8.946246653795242310e-02 -1.407874077558517456e-01 1.724212765693664551e-01 3.928849846124649048e-02 -8.706393837928771973e-02 3.688025102019309998e-02 -5.649052932858467102e-02 6.258323788642883301e-02 6.435201317071914673e-02 -8.523363620042800903e-02 -1.093450486660003662e-01 8.053773641586303711e-02 -7.428413629531860352e-02 -4.886989295482635498e-02 9.323504567146301270e-02 6.977928429841995239e-02 -3.426473215222358704e-02 -7.558778673410415649e-02 -5.141926556825637817e-02 -2.615682035684585571e-02 -8.508145064115524292e-02 -1.307076662778854370e-01 -9.432147257030010223e-03 1.456529647111892700e-01 -3.630698099732398987e-02 9.925613552331924438e-02 1.565588265657424927e-01 -3.922846913337707520e-02 3.794468194246292114e-02 6.790074706077575684e-02 -1.157837510108947754e-01 -3.122148849070072174e-02 -8.613336086273193359e-02 8.631171286106109619e-02 -5.966688320040702820e-02 1.689523309469223022e-01 2.531908266246318817e-02 2.342846803367137909e-02 2.929351665079593658e-02 -1.808924376964569092e-01 1.190219298005104065e-01 1.156751215457916260e-01 1.456125974655151367e-01 1.855530738830566406e-01 1.425991654396057129e-01 -1.608661860227584839e-01 1.156014874577522278e-01 4.007605090737342834e-02 5.399161577224731445e-02 1.100127175450325012e-01 4.752187803387641907e-02 7.449714839458465576e-02 2.659625560045242310e-02 -3.069872222840785980e-02 -5.144059658050537109e-02 8.413873612880706787e-02 1.679230332374572754e-01 -2.811908163130283356e-02 3.601213917136192322e-02 1.714591681957244873e-01 1.077861338853836060e-01 3.250372037291526794e-02 8.299394696950912476e-02 4.234612733125686646e-02 7.124616950750350952e-02 -1.856633126735687256e-01 -6.852244585752487183e-02 -4.651796817779541016e-02 -2.715756371617317200e-02 -3.140449151396751404e-02 4.952406510710716248e-02 9.465308487415313721e-02 1.530560553073883057e-01 5.087572708725929260e-02 5.985659360885620117e-02 1.112369596958160400e-01 2.265271171927452087e-02 1.375681310892105103e-01 4.101303592324256897e-02 1.413173526525497437e-01 3.829529881477355957e-02 -1.091691702604293823e-01 -5.674498900771141052e-02 8.720205724239349365e-02 5.922691896557807922e-02 -5.787052586674690247e-02 6.705967336893081665e-02 9.436722844839096069e-02 9.450291842222213745e-02 8.749552071094512939e-02 -3.677781298756599426e-02 6.870274990797042847e-02 1.201436519622802734e-01 1.026839315891265869e-01 8.647082000970840454e-02 -6.145779415965080261e-02 -7.256868481636047363e-02 6.916423141956329346e-02 7.254567742347717285e-02 -8.254942297935485840e-02 -1.701500825583934784e-02 6.130966916680335999e-02 -5.034976080060005188e-02 1.302603781223297119e-01 5.652222782373428345e-02 3.826508298516273499e-02 5.811218544840812683e-02 6.911958009004592896e-02 8.361285924911499023e-02 1.630643308162689209e-01 8.453828096389770508e-02 -1.378774344921112061e-01 2.196247689425945282e-02 1.323705166578292847e-01 6.822766363620758057e-02 -1.689340546727180481e-02 3.014276921749114990e-02 3.208595514297485352e-02 -1.103075668215751648e-01 1.605029553174972534e-01 1.613297760486602783e-01 -5.328808724880218506e-02 3.249296173453330994e-02 3.995532542467117310e-02 -1.237439289689064026e-01 1.766464859247207642e-02 8.279223740100860596e-02 1.408832520246505737e-01 6.997448205947875977e-02 1.823118363972753286e-04 -1.136962920427322388e-01 7.702680677175521851e-02 7.275144010782241821e-02 4.226915538311004639e-02 7.257782667875289917e-02 -1.380563676357269287e-01 8.276511728763580322e-02 -1.458610892295837402e-01 -2.557202801108360291e-02 4.385485313832759857e-03 -1.371543854475021362e-01 -1.425397545099258423e-01 -9.527117945253849030e-04 -4.371428862214088440e-03 -3.928223997354507446e-02 1.106813251972198486e-01 1.141670718789100647e-01 -8.533056080341339111e-02 3.741852194070816040e-02 9.922119230031967163e-02 8.010649681091308594e-02 5.000164732336997986e-02 9.232311695814132690e-02 9.761413186788558960e-02 1.279241889715194702e-01 -2.812730707228183746e-02 7.122305780649185181e-02 -6.536087393760681152e-02 5.014313012361526489e-02 9.292107075452804565e-02 4.542663320899009705e-02 -6.017699092626571655e-02 3.482018411159515381e-02 6.600192189216613770e-02 -1.403008308261632919e-02 1.099480688571929932e-01 3.619717434048652649e-02 -3.892391175031661987e-02 5.780936405062675476e-02 7.278890162706375122e-02 4.795608669519424438e-02 2.665163390338420868e-02 9.210115671157836914e-02 2.523532323539257050e-02 4.180542379617691040e-02 1.255167275667190552e-01 1.242590174078941345e-01 -1.202906668186187744e-01 -1.145959571003913879e-01 1.317569613456726074e-01 1.465294808149337769e-01 3.695430979132652283e-02 -1.077287271618843079e-01 1.169992014765739441e-01 2.739368751645088196e-02 -3.534869477152824402e-02 5.440772697329521179e-02 4.627425596117973328e-02 -5.351716279983520508e-02 1.324679404497146606e-01 1.747491955757141113e-01 5.401158705353736877e-02 5.764510855078697205e-02 9.648448973894119263e-02 5.428843200206756592e-02 8.099183440208435059e-02 7.013552635908126831e-02 -9.536645561456680298e-02 -4.637623578310012817e-02 7.819730043411254883e-02 1.162502095103263855e-01 8.176767826080322266e-02 2.396329864859580994e-02 3.165689110755920410e-02 1.432448923587799072e-01 4.852443933486938477e-02 -1.123581156134605408e-01 -6.103292852640151978e-02 -1.539392173290252686e-01 -7.054900284856557846e-03 9.318855404853820801e-02 9.034430235624313354e-02 4.650735482573509216e-02 5.184148252010345459e-02 -3.534384816884994507e-02 -1.103643625974655151e-01 1.114653889089822769e-03 1.114608719944953918e-01 -7.514876872301101685e-02 9.338954091072082520e-02 6.628911010921001434e-03 5.446865037083625793e-02 -1.483563706278800964e-02 -9.480689465999603271e-02 7.007224857807159424e-02 -2.097974065691232681e-03 1.366859376430511475e-01 4.633804038166999817e-02 -8.031939715147018433e-02 -1.049044355750083923e-01 -1.324138641357421875e-01 2.963448502123355865e-02 -7.406090199947357178e-02 -1.501653939485549927e-01 -9.550088644027709961e-02 9.545180201530456543e-02 4.630006104707717896e-02 1.282004415988922119e-01 -1.581182926893234253e-01 1.237094551324844360e-01 6.981772929430007935e-02 -4.561970382928848267e-02 -5.024954304099082947e-02 7.223117351531982422e-02 3.484733868390321732e-03 -5.433070287108421326e-02 -2.093984745442867279e-02 8.200375735759735107e-02 -2.261763811111450195e-02 -2.246722765266895294e-02 1.031494140625000000e-01 6.242576986551284790e-02 -7.446394115686416626e-02 7.290063798427581787e-02 8.837972581386566162e-02 7.317154109477996826e-02 -3.925708308815956116e-02 -5.578971467912197113e-03 -1.288068741559982300e-01 1.565136164426803589e-01 1.934352703392505646e-02 5.584178119897842407e-02 6.874348223209381104e-02 3.393736109137535095e-02 -1.062001846730709076e-02 3.763240203261375427e-02 3.823748603463172913e-02 1.082025468349456787e-01 6.091665104031562805e-02 6.321722269058227539e-02 -9.562754631042480469e-02 1.037643030285835266e-01 8.749838173389434814e-02 1.140237003564834595e-01 1.062563285231590271e-01 1.170514747500419617e-01 -1.037334725260734558e-01 8.121613413095474243e-02 1.076952293515205383e-01 6.321315467357635498e-02 5.502288043498992920e-02 3.781352192163467407e-02 -2.358915656805038452e-02 7.162864506244659424e-02 1.654229015111923218e-01 1.482596248388290405e-01 7.951093465089797974e-02 -6.210238113999366760e-02 -2.939320541918277740e-02 -2.161363139748573303e-03 7.359482347965240479e-02 1.776606291532516479e-01 3.573936223983764648e-02 9.414707869291305542e-02 5.896586924791336060e-02 1.818578839302062988e-01 2.496187090873718262e-01 1.256398707628250122e-01 3.077527694404125214e-02 1.004193425178527832e-01 1.695093214511871338e-01 8.624400198459625244e-02 3.310068696737289429e-02 4.872817546129226685e-03 1.210873275995254517e-01 9.182178229093551636e-02 -6.887684017419815063e-02 4.320346564054489136e-02 6.542756408452987671e-02 -1.493501383811235428e-02 -9.348204731941223145e-02 2.320751696825027466e-01 3.780634701251983643e-02 -9.785366803407669067e-02 7.441285997629165649e-02 1.159650385379791260e-01 3.347472846508026123e-02 6.943957507610321045e-02 -1.466659642755985260e-02 -1.039853170514106750e-01 9.294985979795455933e-02 7.729028165340423584e-02 1.074077337980270386e-01 -1.290279626846313477e-01 7.640910148620605469e-02 -4.447327926754951477e-02 -3.495987877249717712e-02 7.985728979110717773e-02 8.921723067760467529e-02 4.551663994789123535e-02 6.013600528240203857e-02 6.591913104057312012e-02 1.015494018793106079e-01 -8.538905531167984009e-02 8.081229031085968018e-02 2.563607133924961090e-02 -3.118588589131832123e-03 6.147566065192222595e-02 1.095559969544410706e-01 7.097590714693069458e-02 9.376172721385955811e-02 9.889182448387145996e-02 -1.998669467866420746e-02 -2.803079970180988312e-02 5.448094010353088379e-02 1.626535803079605103e-01 -7.820448279380798340e-02 -2.320371277164667845e-05 1.655255407094955444e-01 5.258627608418464661e-02 7.616484910249710083e-02 1.481614112854003906e-01 1.349594295024871826e-01 5.000579729676246643e-02 -1.430785953998565674e-01 7.166948169469833374e-03 6.047493964433670044e-02 -7.667700946331024170e-02 3.584843873977661133e-02 1.493972819298505783e-02 -2.052790112793445587e-02 1.364503353834152222e-01 3.645810112357139587e-02 -1.020775288343429565e-01 8.921850472688674927e-02 -2.428474836051464081e-02 -1.498826295137405396e-01 -3.078364394605159760e-02 1.978818327188491821e-04 -4.471603408455848694e-02 -1.665525138378143311e-01 1.211033314466476440e-01 5.785451456904411316e-02 9.850756824016571045e-02 -1.129326522350311279e-01 9.440461546182632446e-02 3.515648469328880310e-02 8.881461620330810547e-02 6.056111305952072144e-02 -1.066637411713600159e-02 5.615721642971038818e-02 4.932511597871780396e-02 7.960742339491844177e-03 -1.065174490213394165e-01 -7.130505889654159546e-02 1.956867799162864685e-02 1.142906546592712402e-01 -1.225501745939254761e-01 -1.018837764859199524e-01 7.338523119688034058e-02 -9.089950472116470337e-02 8.757009357213973999e-02 3.662852942943572998e-02 5.387564003467559814e-02 8.127509057521820068e-02 -8.417101949453353882e-02 5.512484535574913025e-02 4.071865230798721313e-02 5.530013144016265869e-02 -8.855348080396652222e-02 -2.037997916340827942e-02 1.627525538206100464e-01 -1.090795174241065979e-01 7.400611788034439087e-02 2.354452200233936310e-02 1.076306775212287903e-01 -7.648280262947082520e-02 -6.343584507703781128e-02 -1.071443855762481689e-01 -7.662085443735122681e-02 8.231137692928314209e-02 5.698254704475402832e-02 -5.825131759047508240e-02 -1.081477329134941101e-01 -3.764355555176734924e-02 1.039825528860092163e-01 3.106491826474666595e-02 -3.786634281277656555e-02 -1.189119666814804077e-01 6.182935461401939392e-02 6.662281602621078491e-02 5.580813437700271606e-02 1.610989570617675781e-01 9.530367702245712280e-02 1.289825737476348877e-01 7.084040343761444092e-02 1.776711791753768921e-01 3.754364699125289917e-02 -1.227943524718284607e-01 5.044440180063247681e-02 1.261807233095169067e-01
-1.281268000602722168e-01 -1.326848119497299194e-01 3.207507357001304626e-02 1.001606881618499756e-01 -4.273999109864234924e-02 8.285868912935256958e-02 8.288860321044921875e-02 -1.229999288916587830e-01 6.529355049133300781e-02 -1.325738430023193359e-01 -1.407735645771026611e-01 1.048241928219795227e-01 1.773802749812602997e-02 3.038129210472106934e-02 8.146711438894271851e-02 4.153972119092941284e-02 9.770728647708892822e-02 -4.773781448602676392e-02 8.279559016227722168e-02 9.109645336866378784e-02 7.333899289369583130e-02 2.980504184961318970e-02 1.193487867712974548e-01 8.572705835103988647e-02 5.212749540805816650e-02 5.878791585564613342e-02 -6.577882170677185059e-02 8.910750597715377808e-02 1.054840236902236938e-01 1.253831237554550171e-01 6.523892283439636230e-02 3.263262286782264709e-02 -8.173915743827819824e-02 7.473392784595489502e-02 3.341098129749298096e-02 6.643713265657424927e-02 1.117211505770683289e-01 1.591716706752777100e-02 -6.518667936325073242e-02 -5.841435864567756653e-02 -9.718010574579238892e-02 -8.737075328826904297e-02 6.259275227785110474e-02 5.996394529938697815e-02 8.344124257564544678e-02 8.192341029644012451e-02 8.209990710020065308e-02 7.382494956254959106e-02 9.757123142480850220e-02 -6.187056005001068115e-02 -6.824810057878494263e-02 6.889653950929641724e-02 -6.260638684034347534e-02 -4.630436375737190247e-02 3.904395923018455505e-02 5.388145521283149719e-02 9.228983521461486816e-02 1.570517122745513916e-01 -3.207695111632347107e-02 5.164739862084388733e-02 8.076607435941696167e-02 9.558449685573577881e-02 5.083627998828887939e-02 5.902566388249397278e-02 -4.523899406194686890e-02 7.323621958494186401e-02 -7.842541486024856567e-02 -1.131944507360458374e-01 -8.679460734128952026e-02 8.682715147733688354e-02 -1.690753735601902008e-02 -9.671247750520706177e-02 6.741283088922500610e-02 7.727538049221038818e-02 -7.882674038410186768e-02 -9.492433816194534302e-02 1.174090728163719177e-01 1.227277889847755432e-01 7.695347815752029419e-02 -8.177687972784042358e-02 6.323833763599395752e-02 3.125848993659019470e-02 3.761374205350875854e-02 8.691567182540893555e-02 -1.394892930984497070e-01 -1.575983129441738129e-02 -1.228713020682334900e-01 2.968999743461608887e-02 -6.917860358953475952e-02 4.881682246923446655e-02 1.160677373409271240e-01 -6.819313019514083862e-02 7.189270108938217163e-02 6.817342340946197510e-02 -1.193919032812118530e-01 -6.383496522903442383e-02 6.876822561025619507e-02 4.046225547790527344e-02 -7.987947762012481689e-02 8.357264846563339233e-02 4.272066801786422729e-02 1.362771838903427124e-01 8.348502218723297119e-02 4.185529053211212158e-02 -7.647248357534408569e-02 -1.989712007343769073e-02 -1.751429736614227295e-01 -4.685884807258844376e-03 -3.836754709482192993e-02 -9.865391254425048828e-02 9.240800142288208008e-02 -4.798265174031257629e-02 -5.133851990103721619e-02 2.575901150703430176e-02 -3.605724871158599854e-02 8.156727254390716553e-02 -5.896905437111854553e-02 8.144987374544143677e-02 -3.518509445711970329e-03 7.532539218664169312e-02 9.881536662578582764e-02 1.305716633796691895e-01 -7.585384696722030640e-02 -7.048942148685455322e-02 -5.671943724155426025e-02 3.631944209337234497e-02 3.503011539578437805e-02 -4.892884939908981323e-02 8.593373000621795654e-02 -1.253454387187957764e-01 8.160059154033660889e-02 1.196505427360534668e-01 2.261128276586532593e-02 -1.268149614334106445e-01 -3.105013864114880562e-03 -1.687620207667350769e-02 7.585813105106353760e-02 7.234428077936172485e-02 1.213445290923118591e-01 -5.666596442461013794e-02 9.808579087257385254e-02 4.873170703649520874e-02 7.906778901815414429e-02 -8.714450895786285400e-02 5.276491492986679077e-02 -3.617239743471145630e-02 -3.958126530051231384e-02 3.565637767314910889e-02 -7.125233113765716553e-02 7.726366817951202393e-02 9.324253350496292114e-02 -9.112762659788131714e-02 7.120472192764282227e-02 5.681001394987106323e-02 -2.562462352216243744e-02 -1.258426159620285034e-01 -2.810182515531778336e-03 -1.681795343756675720e-03 -3.425921127200126648e-02 1.102676540613174438e-01 -7.486560195684432983e-02 -7.438455522060394287e-02 8.632560819387435913e-02 -7.752688229084014893e-02 -4.634233936667442322e-02 4.964792728424072266e-02 -6.664840877056121826e-02 6.766559928655624390e-02 6.018806993961334229e-02 1.382562816143035889e-01 6.923247873783111572e-02 -1.301344186067581177e-01 9.627517312765121460e-02 9.050872176885604858e-02 -6.429998576641082764e-02 -2.390255033969879150e-02 -1.417172998189926147e-01 8.266901224851608276e-02 -1.439947485923767090e-01 4.441192373633384705e-03 -4.969278723001480103e-02 -1.379889994859695435e-02 8.325732499361038208e-02 -1.457875669002532959e-01 7.004898041486740112e-02 -5.813230574131011963e-02 -2.933205477893352509e-02 -8.216557651758193970e-02 1.011043637990951538e-01 -6.319345533847808838e-02 -4.068807885050773621e-02 -6.922119297087192535e-03 -1.530853100121021271e-02 1.059858053922653198e-01 6.686686724424362183e-02 8.935419470071792603e-02 -1.291147470474243164e-01 -1.332841664552688599e-01 6.008365005254745483e-02 -7.470391690731048584e-02 -5.542905628681182861e-02 8.554754406213760376e-02 6.524182856082916260e-02 -2.659011445939540863e-02 6.516561657190322876e-02 1.429252922534942627e-01 -8.092520385980606079e-02 -8.100523799657821655e-02 -8.602863550186157227e-02 -1.162308156490325928e-01 7.841484993696212769e-02 4.489850252866744995e-02 1.330562829971313477e-01 9.962197393178939819e-02 6.752869486808776855e-02 -6.864618510007858276e-02 -9.872042387723922729e-02 2.648523368407040834e-04 8.488870412111282349e-02 7.319799810647964478e-02 7.283022999763488770e-02 -1.711614080704748631e-03 -7.858315855264663696e-02 1.169057413935661316e-01 5.752529250457882881e-05 1.110350340604782104e-01 -2.114909142255783081e-02 -1.097866520285606384e-01 -6.452231109142303467e-02 -1.024348735809326172e-01 -1.425296217203140259e-01 6.303660571575164795e-02 -1.007855385541915894e-01 -7.029796484857797623e-03 -7.346244156360626221e-02 -5.037491396069526672e-02 -1.072852406650781631e-02 -8.286023885011672974e-02 2.627702616155147552e-02 9.481995552778244019e-02 -1.476520299911499023e-01 -1.293324828147888184e-01 -3.564640507102012634e-02 4.381576925516128540e-02 -3.745586052536964417e-02 -9.474642574787139893e-02 1.046780943870544434e-01 2.767281606793403625e-02 -5.217392742633819580e-02 7.804689556360244751e-02 -1.533719301223754883e-01 9.592254459857940674e-02 8.011282235383987427e-02 8.058014512062072754e-02 2.604725211858749390e-02 1.845824718475341797e-02 -4.476982355117797852e-02 1.054535955190658569e-01 7.156508415937423706e-02 -4.565567523241043091e-02 2.428288944065570831e-02 2.709159068763256073e-02 -3.479996696114540100e-02 -2.675218693912029266e-02 -1.495746225118637085e-01 7.107374817132949829e-02 -3.576845303177833557e-02 9.216012805700302124e-02 1.218068525195121765e-01 3.958849981427192688e-02 -6.031971052289009094e-02 -4.118603095412254333e-02 -7.028152048587799072e-02 -3.680004552006721497e-02 -8.414565771818161011e-02 3.902503848075866699e-02 -1.089695096015930176e-01 -1.065719202160835266e-01 4.536395892500877380e-03 4.455070942640304565e-02 9.165370464324951172e-02 8.649176359176635742e-02 6.649369746446609497e-02 8.955862373113632202e-02 6.726298481225967407e-02 4.201183468103408813e-02 -6.498473137617111206e-02 5.020243301987648010e-02 5.954183265566825867e-02 1.152081321924924850e-02 -2.299489639699459076e-02 -1.139049697667360306e-02 -9.638825803995132446e-02 -4.106200858950614929e-02 -5.190062150359153748e-02 -3.613735362887382507e-02 -7.966436445713043213e-02 -5.487702414393424988e-02 -3.154642879962921143e-02 -3.661408089101314545e-03 -8.870047330856323242e-02 5.767819285392761230e-02 8.989997208118438721e-02 1.397381722927093506e-01 -4.195098951458930969e-02 8.228141814470291138e-02 2.997161448001861572e-02 7.656466960906982422e-02 -7.932931184768676758e-02 -1.170529201626777649e-01 -1.039923056960105896e-01 -4.153984412550926208e-02 -2.695995382964611053e-02 -1.431711465120315552e-01 -7.538405805826187134e-02 6.538162939250469208e-03 -7.396971434354782104e-02 -1.053109094500541687e-01 9.731310606002807617e-02 -1.137375384569168091e-01 -7.780320942401885986e-02 -3.331094980239868164e-02 1.171417534351348877e-01 8.690958470106124878e-02 -5.976833775639533997e-02 -2.898922376334667206e-02 -5.096309632062911987e-02 4.705284535884857178e-02 -6.286787986755371094e-02 -1.257739216089248657e-01 5.114324763417243958e-02 -8.868430554866790771e-02 6.792861223220825195e-02 3.742330521345138550e-02 2.467704005539417267e-02 -8.897899836301803589e-02 -7.894971966743469238e-02 9.139810502529144287e-02 -1.547971665859222412e-01 -3.022691234946250916e-03 9.197792410850524902e-02 -2.573577500879764557e-02 -1.837383210659027100e-02 -1.444146335124969482e-01 7.484105974435806274e-02 8.035298436880111694e-02 -1.505326945334672928e-03 6.463918834924697876e-02 -1.092056408524513245e-01 -2.113537676632404327e-02 -1.143626868724822998e-01 -5.851757153868675232e-02 -4.317459464073181152e-02 -6.937784701585769653e-02 8.430086076259613037e-02 -5.543592572212219238e-02 5.792952328920364380e-02 -9.190370142459869385e-02 -2.153648994863033295e-02 -2.509935200214385986e-02 -8.838285505771636963e-02 -2.835936471819877625e-02 1.356518082320690155e-02 1.004458144307136536e-01 5.794939026236534119e-02 7.906097173690795898e-02 -5.006587132811546326e-02 -3.688296303153038025e-02 -5.094246566295623779e-02 -3.523978590965270996e-02 5.964314192533493042e-02 -1.378404051065444946e-01 -2.532836236059665680e-02 -1.114891469478607178e-01 -2.431053295731544495e-02 1.201933845877647400e-01 9.064979106187820435e-02 -1.033644378185272217e-01 -4.189895093441009521e-02 1.023154407739639282e-01 -6.129373982548713684e-02 9.147842973470687866e-02 -7.213415205478668213e-02 1.266855597496032715e-01 1.212202757596969604e-01 1.142201870679855347e-01 1.405927240848541260e-01 1.088105067610740662e-01 -1.262044161558151245e-01 -5.744045600295066833e-02 3.467069193720817566e-02 7.931619882583618164e-02 -2.510539256036281586e-02 7.022958248853683472e-02 -2.462094835937023163e-02 1.352106630802154541e-01 -8.664211258292198181e-03 6.445010006427764893e-02 -6.575089693069458008e-02 1.600320637226104736e-02 -4.096255823969841003e-02 -3.918647393584251404e-02 -8.647421002388000488e-02 -5.507964640855789185e-02 -4.347074031829833984e-02 -3.430380672216415405e-02 -1.543212775141000748e-02 5.204547941684722900e-02 3.862750530242919922e-02 -1.617626100778579712e-02 -1.223877537995576859e-02 1.157222241163253784e-01 8.884151279926300049e-02 1.097991317510604858e-01 6.400476396083831787e-02 1.018989309668540955e-01 7.620401680469512939e-02 9.371955692768096924e-02 8.443932235240936279e-02 8.111597597599029541e-02 -4.987948760390281677e-02 1.403626799583435059e-01 -1.096445694565773010e-01 -4.402519762516021729e-02 -1.913778111338615417e-02 8.977063000202178955e-02 -4.973008856177330017e-02 -6.767096370458602905e-02 -4.814140126109123230e-02 -1.006186231970787048e-01 6.447307020425796509e-02 1.006483435630798340e-01 -5.899801850318908691e-03 -1.096430420875549316e-01 -1.219166219234466553e-01 8.551621437072753906e-02 7.803209871053695679e-02 -4.229533672332763672e-02 7.049947977066040039e-02 -3.448974341154098511e-02 4.043871909379959106e-02 -8.443797938525676727e-03 -9.190158545970916748e-02 6.416561454534530640e-02 1.495036631822586060e-01 -4.895443096756935120e-02 9.612219780683517456e-02 7.757961004972457886e-02 -1.381597947329282761e-02 -8.722449652850627899e-03 -5.087567865848541260e-02 -5.007069930434226990e-02 9.884599596261978149e-02 9.341640025377273560e-02 6.621506065130233765e-02 -8.132926374673843384e-02 9.037213027477264404e-02 -7.728324830532073975e-02 -6.016746535897254944e-02 -1.356483995914459229e-01 -1.354541815817356110e-02 6.057516485452651978e-02 3.523849416524171829e-03 -6.032993551343679428e-03 7.279935479164123535e-02 9.485282003879547119e-02 7.455264776945114136e-02 4.748869687318801880e-02 -3.328303247690200806e-02 2.569550415500998497e-03 -4.618926346302032471e-02 -1.247990131378173828e-01 -3.290160000324249268e-02 -5.297915264964103699e-02 -1.601237654685974121e-01 -5.351580679416656494e-02 -7.268422842025756836e-02 -4.754766449332237244e-02 -1.211966425180435181e-01 -4.190877452492713928e-02 6.527359783649444580e-02 -1.061327978968620300e-01 -1.096305549144744873e-01 -2.086051367223262787e-02 -7.577580958604812622e-02 -1.049764305353164673e-01 6.500961631536483765e-02 -8.701168000698089600e-02 -1.840041764080524445e-02 -1.029245927929878235e-01 7.825841754674911499e-02 8.913280069828033447e-02 1.895329803228378296e-01 9.015434980392456055e-02 4.900810495018959045e-02 -2.251678556203842163e-01 5.454460904002189636e-02 -1.246078014373779297e-01 7.262896001338958740e-02 -1.018816232681274414e-01 1.126491501927375793e-01 6.990929692983627319e-02 -3.676424175500869751e-02 -7.012590020895004272e-02 -1.604862362146377563e-01 -1.033830195665359497e-01 -1.733709275722503662e-01 -1.195219904184341431e-01 -5.758533626794815063e-02 -2.755060605704784393e-02 6.272498518228530884e-02 -1.171841993927955627e-01 -6.137476488947868347e-02 -6.626303493976593018e-02 2.043111436069011688e-02 -5.213204026222229004e-02 4.168397188186645508e-02 -4.051897674798965454e-02 -2.150863967835903168e-02 5.150553584098815918e-02 -7.974285632371902466e-02 2.565694227814674377e-02 -8.709406852722167969e-02 -6.174784153699874878e-02 7.910826057195663452e-02 7.008749246597290039e-02 9.522430598735809326e-02 -1.021172627806663513e-01 1.344930231571197510e-01 -7.491430640220642090e-02 4.586593806743621826e-02 -1.258547157049179077e-01 4.247719421982765198e-02 9.841255098581314087e-02 8.273731917142868042e-02 -1.403528153896331787e-01 -1.165785733610391617e-02 7.762483507394790649e-02 5.429832637310028076e-02 -1.153577119112014771e-01 -1.572171449661254883e-01 1.756157726049423218e-04 -1.075945422053337097e-01 6.561058014631271362e-02 6.765771657228469849e-02 -6.108859670348465443e-04 1.428089290857315063e-01 3.107724525034427643e-02 8.385960012674331665e-02 -6.533376127481460571e-02 7.890227437019348145e-02 -3.706406801939010620e-03 8.464657515287399292e-02 5.527854338288307190e-02 5.320386216044425964e-02 4.376682918518781662e-03 6.941158324480056763e-02 -4.741826653480529785e-02 -2.647305466234683990e-02 7.019409537315368652e-02 -3.615370020270347595e-02 -1.037412509322166443e-01 7.849346101284027100e-02 -8.129918575286865234e-02 -1.334052383899688721e-01 -1.217822451144456863e-02 6.255321204662322998e-02 5.084803700447082520e-02 7.079390436410903931e-02 7.305537164211273193e-02 5.117657408118247986e-02 -1.326073426753282547e-02 9.208604693412780762e-02 -6.056323647499084473e-02 -8.766256272792816162e-02 -1.256760507822036743e-01 -7.043424248695373535e-02 -5.220507457852363586e-02 -1.518652290105819702e-01 -2.828288264572620392e-02 9.012457728385925293e-02 -3.313877061009407043e-02 -4.101101681590080261e-02 9.598991274833679199e-02 7.666068524122238159e-02 3.429782018065452576e-02 5.491395667195320129e-02 -2.143982052803039551e-02 -4.073842987418174744e-02 9.935265034437179565e-02 5.944360792636871338e-02 1.277170889079570770e-02 -1.175199821591377258e-01 9.247784619219601154e-04 6.251274794340133667e-02 -1.328645646572113037e-01 3.474583476781845093e-02 -3.407787159085273743e-02 -9.073036164045333862e-02 -3.288280218839645386e-03 -9.940289705991744995e-02 8.884637802839279175e-02 2.861380949616432190e-02 -1.545218825340270996e-01 1.088821291923522949e-01 -1.091931909322738647e-01 -9.744459390640258789e-02 4.036860913038253784e-02 7.818204164505004883e-02 5.097997188568115234e-02 1.083945184946060181e-01 -2.345437929034233093e-02 4.317573457956314087e-02 -1.116289645433425903e-01 3.576743230223655701e-02 -1.131987646222114563e-01 -6.079969555139541626e-02 -3.398511186242103577e-02 1.184751018881797791e-01 -1.262569874525070190e-01 7.453127950429916382e-02 -7.110404968261718750e-02 4.071390628814697266e-02 -5.435451492667198181e-02 8.122583478689193726e-02 -1.806623674929141998e-02 -2.343313768506050110e-02 -8.885681629180908203e-02 9.199827164411544800e-02 8.887829631567001343e-02 8.228527754545211792e-02 -1.016493737697601318e-01 -8.555234223604202271e-02 1.145555004477500916e-01 1.178283840417861938e-01 3.519665077328681946e-02 -3.768153488636016846e-02 6.844181567430496216e-02 8.396366238594055176e-02 -9.434810280799865723e-02 7.509554922580718994e-02 1.269414573907852173e-01 4.720509797334671021e-02 -1.603069454431533813e-01 6.208062544465065002e-02 -4.797485843300819397e-02 9.554071724414825439e-02 -2.473001135513186455e-03 5.609608441591262817e-02 -8.864906430244445801e-02 -9.343063086271286011e-02 -1.106635853648185730e-01 -2.086000144481658936e-02 7.294618338346481323e-02 4.182403162121772766e-02 5.314997956156730652e-02 1.011328920722007751e-01 9.635023772716522217e-02 -3.965405002236366272e-02 1.386477053165435791e-01 -4.834651947021484375e-02 1.348923295736312866e-01 -4.715015739202499390e-02 -2.871717326343059540e-02 6.646487861871719360e-02 -2.880807220935821533e-02 -9.042284637689590454e-02 1.001523882150650024e-01 -5.098607763648033142e-02 -1.220437809824943542e-01 -7.511249184608459473e-02 1.086715087294578552e-01 1.062995567917823792e-01 -2.872527763247489929e-02 -9.286126121878623962e-03 -1.037074029445648193e-01 -3.374458476901054382e-02 6.129380688071250916e-02 -5.483603104948997498e-02 -7.436169311404228210e-03 6.571554392576217651e-02 -6.278114765882492065e-02 -4.481114819645881653e-02 5.849622189998626709e-02 -1.928736716508865356e-01 -9.938631951808929443e-02 -3.309862688183784485e-02 -3.390167374163866043e-03 7.246892899274826050e-02 -1.153415963053703308e-01 -5.675383377820253372e-03 1.760687828063964844e-01 -1.805764622986316681e-02 -2.922997809946537018e-02 5.498040094971656799e-02 1.362955868244171143e-01 -1.615175232291221619e-02 -9.488227963447570801e-02 -1.045899316668510437e-01 -7.588235288858413696e-02 8.947487920522689819e-02 8.951526135206222534e-02 6.909880042076110840e-02 -3.343815356492996216e-02 -2.781153842806816101e-02 8.943402022123336792e-02 -2.237845398485660553e-02 -5.828332155942916870e-02 1.025231033563613892e-01 -6.837771087884902954e-02 7.900769822299480438e-03 6.471265107393264771e-02 -5.082356184720993042e-02 -1.108645051717758179e-01 -8.255634456872940063e-02 9.749329090118408203e-02 -1.297539323568344116e-01 8.491634577512741089e-02 8.945710211992263794e-02 7.087723910808563232e-02 -1.091402843594551086e-01 -2.848417498171329498e-02 -3.962704539299011230e-02 -4.881321266293525696e-02 -8.718081563711166382e-02 -1.050794646143913269e-01 7.409199327230453491e-02 8.044660091400146484e-02 7.001885771751403809e-02 7.143158465623855591e-02 -8.755429089069366455e-02 8.388730883598327637e-02 -8.868710696697235107e-02 -5.048863962292671204e-02 -1.491938438266515732e-02 5.215476080775260925e-02 6.232763081789016724e-02 -8.773930370807647705e-02 7.477099448442459106e-02 4.850057885050773621e-02 6.157862022519111633e-02 -1.052413657307624817e-01 -9.869308024644851685e-02 1.021292805671691895e-01 5.974274873733520508e-02 7.347009330987930298e-02 3.656422719359397888e-02 -7.578053325414657593e-02 -4.455418884754180908e-02 6.608210504055023193e-02 -2.421409077942371368e-02 -9.347779676318168640e-03 -1.052766218781471252e-01 -7.176910340785980225e-02 5.227220803499221802e-02 -9.165135025978088379e-02 4.687153920531272888e-02 -7.562088221311569214e-02 -8.783597499132156372e-03 5.614200979471206665e-02 6.051549315452575684e-02 -6.743653118610382080e-02 -3.833504021167755127e-02 9.182453155517578125e-02 8.738498389720916748e-02 -2.196984365582466125e-02 1.123631075024604797e-01 1.652672439813613892e-01 6.407909840345382690e-02 -1.288981735706329346e-01 7.539069280028343201e-03 -9.652829170227050781e-02 7.116347551345825195e-02 -1.190370768308639526e-01 5.435676872730255127e-02 -9.784837067127227783e-02 1.147996634244918823e-01 1.010946705937385559e-01 2.506976015865802765e-03 -9.063787758350372314e-02 -1.261949390172958374e-01 6.616572290658950806e-02 -1.184018142521381378e-02 1.583290547132492065e-01 -1.210610717535018921e-01 -4.860093444585800171e-02 4.328863322734832764e-02 7.863371074199676514e-02 -5.821857601404190063e-02 5.412765964865684509e-02 7.159640640020370483e-02 5.210516974329948425e-02 9.751141816377639771e-02 9.385148435831069946e-02 -2.970748767256736755e-02 -1.620627380907535553e-02 5.691915750503540039e-02 3.374135121703147888e-02 1.139040440320968628e-01 -1.385049372911453247e-01 9.921548515558242798e-02 6.410220265388488770e-02 1.009064391255378723e-01 7.583919167518615723e-02 -4.507168382406234741e-02 7.921073585748672485e-02 4.352060332894325256e-02 -5.753163620829582214e-02 1.621219962835311890e-01 -3.313719853758811951e-02 -3.424456715583801270e-02 1.749613694846630096e-02 -9.974560141563415527e-02 8.570817112922668457e-02 5.341854318976402283e-02 3.565061837434768677e-02 1.022824868559837341e-01 -7.505941390991210938e-02 -1.592842936515808105e-01 1.292553842067718506e-01 -7.803394645452499390e-02 -8.717521280050277710e-02 -9.495864622294902802e-03 6.802840530872344971e-02 -8.751516789197921753e-02 -8.883909881114959717e-02 1.130768433213233948e-01 -5.750377476215362549e-02 5.731040984392166138e-02 1.585695892572402954e-01 -6.133154034614562988e-02 -1.462524980306625366e-01 -8.065895736217498779e-02 1.969880908727645874e-01 1.052966639399528503e-01 -3.793762624263763428e-02 -1.606599837541580200e-01 -6.225488334894180298e-02 7.112646847963333130e-02 -1.830834299325942993e-01 -1.564477831125259399e-01 4.318751767277717590e-02 3.483613207936286926e-02 -7.486377656459808350e-02 -7.937688380479812622e-02 -7.577121257781982422e-02 -5.471111834049224854e-02 -5.755465850234031677e-02 7.731503248214721680e-02 6.856095790863037109e-02 2.397605776786804199e-02 1.383911222219467163e-01 -6.997141242027282715e-02 1.038653254508972168e-01 -9.314709901809692383e-02 6.393530964851379395e-02 4.149352386593818665e-02 1.234427690505981445e-01 -1.131259948015213013e-01 6.511695683002471924e-02 7.780509442090988159e-02 -1.559127122163772583e-01 1.778898835182189941e-01 -9.576956927776336670e-02 4.378869757056236267e-02 7.338853925466537476e-02 7.933549582958221436e-02 -9.217049926519393921e-02 9.936168044805526733e-02 -6.519837677478790283e-02 -2.278943657875061035e-01 -7.696838676929473877e-02 -5.370492488145828247e-02 -5.854756012558937073e-02 1.131710335612297058e-01 -1.625276356935501099e-01 -2.418125048279762268e-02 7.637432962656021118e-02 -9.915133565664291382e-02 -1.156597137451171875e-01 -9.301259368658065796e-02 -7.691471278667449951e-02 8.067297935485839844e-02 -5.137458816170692444e-02 4.982149228453636169e-02 4.555046930909156799e-02 1.010692566633224487e-01 -7.619962841272354126e-02 1.489121317863464355e-01 1.304470151662826538e-01 -1.040169000625610352e-01 -3.766415640711784363e-02 4.343321919441223145e-02 -7.261518388986587524e-02 -4.080032929778099060e-03 8.691875636577606201e-02 1.965142320841550827e-03 8.038745820522308350e-02 5.280123651027679443e-02 1.244703009724617004e-01 4.579895734786987305e-02 1.060643866658210754e-01 1.304139047861099243e-01 7.414972782135009766e-02 -3.119672089815139771e-02 -2.343297749757766724e-02 -5.432585626840591431e-02 -5.738278850913047791e-02 -3.399055078625679016e-02 -2.086639404296875000e-02 -5.414617061614990234e-02 -2.672808431088924408e-02 -9.050516039133071899e-02 -5.601484328508377075e-03 5.913576111197471619e-02 -7.385998219251632690e-02 -5.153051018714904785e-02 -2.710528112947940826e-02 6.705292314291000366e-02 -6.776282191276550293e-02 -9.479558467864990234e-02 -7.549741119146347046e-02 -4.013248160481452942e-02 -5.898633599281311035e-02 -1.505761295557022095e-01 -5.192116647958755493e-02 1.105478554964065552e-01 -4.340828955173492432e-02 7.359161227941513062e-02 1.305526643991470337e-01 -5.411208420991897583e-02 6.182562187314033508e-02 8.537228405475616455e-02 -1.343665570020675659e-01 -3.230507671833038330e-02 -6.150185689330101013e-02 9.997615963220596313e-02 -5.154183879494667053e-02 2.029446512460708618e-01 6.731729954481124878e-02 -1.619962602853775024e-02 9.259022027254104614e-02 -1.494553834199905396e-01 9.963266551494598389e-02 -9.797289967536926270e-02 1.234722509980201721e-01 1.138760000467300415e-01 1.324175298213958740e-01 -1.957833617925643921e-01 6.415704637765884399e-02 3.195928782224655151e-02 2.857220731675624847e-02 7.193299941718578339e-03 -8.492436259984970093e-02 -1.083867326378822327e-01 2.312952280044555664e-02 -3.596964105963706970e-02 -3.390402719378471375e-02 8.363857865333557129e-02 1.353650689125061035e-01 -5.164186656475067139e-02 -4.908900335431098938e-02 1.425427943468093872e-01 4.344784468412399292e-02 6.877692788839340210e-02 1.016292199492454529e-01 -4.040903225541114807e-02 -1.168210152536630630e-02 -1.419204920530319214e-01 -9.274170547723770142e-02 -2.701591700315475464e-02 -7.141368836164474487e-02 -2.412255667150020599e-02 -6.128626689314842224e-02 5.948027223348617554e-02 7.644804567098617554e-02 -1.384950578212738037e-01 -3.723361715674400330e-02 6.498169153928756714e-02 7.980533689260482788e-02 1.013503372669219971e-01 1.187043860554695129e-01 -1.015979200601577759e-01 -7.115053385496139526e-02 -4.444769024848937988e-02 -5.340506881475448608e-02 8.113826811313629150e-02 4.310645908117294312e-02 -4.200294148176908493e-03 5.676304176449775696e-02 -5.188246443867683411e-02 -1.067176833748817444e-01 -9.410136938095092773e-02 -5.082479491829872131e-02 -1.525319367647171021e-02 -1.012085825204849243e-01 -1.647753119468688965e-01 -4.926842637360095978e-03 -1.504934579133987427e-02 2.073532901704311371e-02 8.695061504840850830e-02 -5.934279412031173706e-02 -6.973409652709960938e-02 -1.241712458431720734e-02 -6.178665906190872192e-02 -5.660555139183998108e-02 1.114280149340629578e-01 -4.896216094493865967e-02 -5.482939258217811584e-02 -8.344181627035140991e-02 -6.126361340284347534e-02 -8.563979715108871460e-02 1.296176165342330933e-01 6.503478437662124634e-02 -7.995663583278656006e-02 -4.626950249075889587e-02 1.365346461534500122e-01 7.729400694370269775e-02 -7.586439698934555054e-02 -3.241435810923576355e-02 -1.019839383661746979e-02 -1.120496615767478943e-01 1.069706305861473083e-01 8.342210203409194946e-02 -5.304233357310295105e-02 6.181062012910842896e-02 6.556395441293716431e-02 -1.332532912492752075e-01 -5.261966958642005920e-02 5.314727127552032471e-02 8.834277838468551636e-02 1.545486226677894592e-02 -6.901856511831283569e-02 -2.343633957207202911e-02 7.454343885183334351e-02 -6.428450345993041992e-02 -2.867252193391323090e-02 1.083085220307111740e-02 -7.422200590372085571e-02 9.850145876407623291e-02 -1.465902570635080338e-02 -8.098025619983673096e-02 -4.638380184769630432e-02 -1.389030814170837402e-01 -1.359658241271972656e-01 2.827405184507369995e-02 -1.833152025938034058e-02 -7.346136122941970825e-02 6.299220025539398193e-02 6.798843294382095337e-02 -9.540545195341110229e-02 1.149055548012256622e-02 -4.544071108102798462e-02 -1.160716414451599121e-01 -6.910099834203720093e-02 6.305536627769470215e-02 6.534751504659652710e-02 5.968770012259483337e-02 -1.185200270265340805e-02 7.199981808662414551e-02 -1.784689351916313171e-02 -1.314896345138549805e-02 -1.005700156092643738e-01 -7.320657372474670410e-02 -8.181088417768478394e-02 -1.829336769878864288e-02 7.770827412605285645e-02 -1.240632124245166779e-02 5.624264106154441833e-02 -8.501074626110494137e-04 -3.428684547543525696e-02 6.199761107563972473e-02 3.766561672091484070e-02 -2.573437243700027466e-02 -1.627681963145732880e-02 -6.751409918069839478e-02 1.196550726890563965e-01 -5.120769888162612915e-02 1.260559260845184326e-01 1.128608882427215576e-01 -1.312533766031265259e-01 8.226391673088073730e-02 9.262093156576156616e-02 5.527917295694351196e-02 4.066175967454910278e-02 5.385032296180725098e-02 9.079562127590179443e-02 -3.255057334899902344e-02 -2.978085540235042572e-03 8.647361397743225098e-02 6.857293844223022461e-02 -1.165822055190801620e-02 1.276250928640365601e-01 4.978737235069274902e-02 8.787889033555984497e-02 3.770208917558193207e-03 -1.076053157448768616e-01 6.771892309188842773e-02 5.959241837263107300e-02 7.150153070688247681e-02 -9.108429402112960815e-02 1.000458002090454102e-01 2.203012630343437195e-02 7.464034110307693481e-02 7.129600644111633301e-02 5.344550311565399170e-02 -3.225786238908767700e-02 8.951059728860855103e-02 -2.214006707072257996e-02 -4.783545061945915222e-02 -4.533616080880165100e-02 -1.545770913362503052e-01 -8.720961958169937134e-02 -4.805403202772140503e-02 1.830348372459411621e-02 -9.889424592256546021e-02 -9.380282461643218994e-02 -4.877649247646331787e-02 -7.713219523429870605e-02 -1.109259575605392456e-02 8.564109355211257935e-02 -6.960880011320114136e-02 5.879669636487960815e-02 -4.249837249517440796e-02 5.426401644945144653e-02 -2.943687513470649719e-02 -8.516258746385574341e-02 -2.422160655260086060e-02 -9.993815422058105469e-02 6.181932613253593445e-02 -8.750930428504943848e-02 -5.637338757514953613e-02 -7.728502154350280762e-02 -1.065957620739936829e-01 6.106825545430183411e-02 -2.999476529657840729e-02 -1.071599349379539490e-01 -7.219337671995162964e-02 1.060039997100830078e-01 4.595746472477912903e-02 9.396673738956451416e-02 -1.501495838165283203e-01 9.258464723825454712e-02 6.761151552200317383e-02 -3.978279232978820801e-02 -3.664743527770042419e-02 3.924965858459472656e-02 -6.354899704456329346e-02 -4.042527638375759125e-03 -8.409806527197360992e-03 3.514097258448600769e-02 2.580006234347820282e-02 7.279201596975326538e-02 1.899778842926025391e-02 1.027021631598472595e-01 -8.781640976667404175e-02 4.705399647355079651e-02 7.340463250875473022e-02 5.623107403516769409e-02 3.680376708507537842e-02 -4.534521326422691345e-02 -1.537923812866210938e-01 1.428342610597610474e-01 -1.269483845680952072e-02 -1.057014018297195435e-01 -4.355363920331001282e-02 6.064343452453613281e-02 -2.729203365743160248e-02 -7.158938050270080566e-02 -6.030231714248657227e-02 1.010094285011291504e-01 6.121589988470077515e-02 -4.348938353359699249e-03 -6.347432732582092285e-02 5.057798326015472412e-02 7.706822454929351807e-02 6.299412995576858521e-02 9.303514659404754639e-02 3.380832821130752563e-02 -1.076391711831092834e-01 -1.591272465884685516e-02 1.012863740324974060e-01 -6.720344722270965576e-02 -5.276501178741455078e-02 9.140012413263320923e-02 -4.696648940443992615e-02 5.142100155353546143e-02 1.371238529682159424e-01 6.421675533056259155e-02 9.286990016698837280e-02 -7.756914198398590088e-02 -3.347385907545685768e-03 2.763930242508649826e-03 -4.372353851795196533e-02 1.300922036170959473e-01 -4.406960681080818176e-02 -3.911321237683296204e-02 -2.218685448169708252e-01 1.267541497945785522e-01 2.041505873203277588e-01 8.466312289237976074e-02 -1.135174185037612915e-02 8.020704239606857300e-02 1.435934156179428101e-01 1.116701513528823853e-01 8.416218310594558716e-02 -4.456705600023269653e-02 1.159502938389778137e-01 6.155841797590255737e-02 -3.701530769467353821e-02 -8.522624522447586060e-02 -5.103246122598648071e-02 -4.725290089845657349e-02 -5.188894644379615784e-02 1.906383037567138672e-01 2.380399592220783234e-02 -8.954635262489318848e-02 6.345114111900329590e-02 6.995474547147750854e-02 3.911036625504493713e-02 2.588779479265213013e-02 -5.301959440112113953e-02 -9.307661652565002441e-02 6.244428455829620361e-02 7.364118099212646484e-02 5.429938435554504395e-02 -1.138260513544082642e-01 6.626312434673309326e-02 -4.861130937933921814e-02 -5.216420814394950867e-02 6.494928151369094849e-02 -1.561421435326337814e-02 -8.577791601419448853e-02 -8.639926463365554810e-02 4.052093625068664551e-02 6.438361108303070068e-02 -6.758831441402435303e-02 9.375850111246109009e-02 -3.339078277349472046e-02 -4.482871294021606445e-02 5.672116205096244812e-02 7.010035216808319092e-02 -1.069375202059745789e-01 -1.215143576264381409e-01 5.853039771318435669e-02 -3.373344242572784424e-02 -4.333376884460449219e-02 3.505456447601318359e-02 1.175227314233779907e-01 -1.107622161507606506e-01 -4.730869084596633911e-02 1.765138804912567139e-01 2.849170006811618805e-02 4.632889106869697571e-02 9.443453699350357056e-02 9.350160509347915649e-02 7.062426954507827759e-02 -1.299716681241989136e-01 -6.290378514677286148e-03 6.079290434718132019e-02 -5.393475666642189026e-02 -3.020869009196758270e-02 -1.382451411336660385e-02 -4.855436459183692932e-02 9.388826787471771240e-02 -4.217669367790222168e-02 -3.880673646926879883e-02 4.875409975647926331e-02 