-2.616077065467834473e-01 -2.439561039209365845e-01 -2.953740358352661133e-01 -2.457337379455566406e-01 -1.925992667675018311e-01 2.594338357448577881e-01 -2.700380086898803711e-01 2.542559206485748291e-01 2.617453634738922119e-01 2.658915817737579346e-01 -2.947965860366821289e-01 2.924242317676544189e-01 3.445303738117218018e-01 3.240162432193756104e-01 2.613678872585296631e-01 3.480673432350158691e-01 3.555087447166442871e-01 -3.316276967525482178e-01 2.741366028785705566e-01 3.643888831138610840e-01 3.213945329189300537e-01 -3.135737478733062744e-01 3.301976323127746582e-01 -2.405375689268112183e-01 -1.942808926105499268e-01 -2.459113001823425293e-01 -2.932954728603363037e-01 -2.932181954383850098e-01 -1.438521146774291992e-01 2.749539613723754883e-01 3.119648098945617676e-01 3.059880733489990234e-01 3.045855462551116943e-01 -2.187170386314392090e-01 -2.499372661113739014e-01 7.992136478424072266e-02 -2.278259098529815674e-01 -2.369308918714523315e-01 -2.756877541542053223e-01 3.013058006763458252e-01 -1.567078828811645508e-01 -3.430104553699493408e-01 2.616477310657501221e-01 1.986884884536266327e-02 -2.406803667545318604e-01 -1.924007982015609741e-01 -2.256218045949935913e-01 -2.620567977428436279e-01 3.662096560001373291e-01 -2.547436058521270752e-01
3.389499783515930176e-01 -2.709845900535583496e-01 2.274856418371200562e-01 2.142604291439056396e-01 -5.512250587344169617e-02 -2.192418128252029419e-01 -2.584837973117828369e-01 -1.753213703632354736e-01 1.615289151668548584e-01 1.704473197460174561e-01 -1.976856142282485962e-01 -1.603374332189559937e-01 -2.862974703311920166e-01 2.453268021345138550e-01 -1.938794851303100586e-01 2.597291469573974609e-01 -3.047858178615570068e-01 3.134799897670745850e-01 -2.543057203292846680e-01 -2.136308252811431885e-01 -3.051861226558685303e-01 3.420160114765167236e-01 -2.880060672760009766e-01 -1.926534026861190796e-01 -1.394590735435485840e-01 -2.477463483810424805e-01 -1.583773344755172729e-01 2.055623084306716919e-01 -1.916146278381347656e-01 1.562098562717437744e-01 -2.172067314386367798e-01 -2.555580139160156250e-01 1.948645859956741333e-01 -2.798145115375518799e-01 2.216848134994506836e-01 -3.074945807456970215e-01 2.766583263874053955e-01 3.287073969841003418e-01 -8.472463488578796387e-02 -2.695026397705078125e-01 -1.469319164752960205e-01 2.902316749095916748e-01 1.912749558687210083e-01 -2.240111380815505981e-01 2.422008812427520752e-01 -1.963904798030853271e-01 -1.405536085367202759e-01 2.892561852931976318e-01 -3.091436028480529785e-01 -2.444055229425430298e-01
-2.647279016673564911e-02 2.312161326408386230e-01 -2.897392511367797852e-01 -2.103990018367767334e-01 3.526829779148101807e-01 2.747103571891784668e-01 1.620376855134963989e-01 3.042816519737243652e-01 -2.897290587425231934e-01 -2.952326834201812744e-01 2.504639923572540283e-01 -2.460583597421646118e-01 2.604362666606903076e-01 -2.071315050125122070e-01 -2.641655206680297852e-01 -2.474602162837982178e-01 -3.078626692295074463e-01 -2.642027437686920166e-01 1.780254691839218140e-01 -2.801926434040069580e-01 2.850929498672485352e-01 -1.226442679762840271e-01 1.869285702705383301e-01 2.700620293617248535e-01 -3.328315913677215576e-01 1.965782344341278076e-01 2.247070372104644775e-01 -2.529125213623046875e-01 1.839810013771057129e-01 -2.897090017795562744e-01 -2.662068605422973633e-01 -3.465233445167541504e-01 -2.796989381313323975e-01 2.580220997333526611e-01 -1.751117557287216187e-01 8.207534998655319214e-02 -1.092950478196144104e-01 -1.025134325027465820e-01 3.413680493831634521e-01 -3.481810688972473145e-01 -2.494507879018783569e-01 3.627116680145263672e-01 -2.331354022026062012e-01 2.369441539049148560e-01 -2.359827011823654175e-01 2.057589441537857056e-01 3.658830523490905762e-01 -7.769141346216201782e-02 2.218502759933471680e-01 1.740353703498840332e-01
-2.962372303009033203e-01 2.961720824241638184e-01 2.770702838897705078e-01 2.372660487890243530e-01 -2.064618319272994995e-01 -3.136654198169708252e-01 2.608169913291931152e-01 -2.471935898065567017e-01 -2.118307054042816162e-01 -2.340912967920303345e-01 1.701007485389709473e-01 -2.220614403486251831e-01 -3.310140073299407959e-01 -1.793554127216339111e-01 2.894861996173858643e-01 -2.436312437057495117e-01 3.184750974178314209e-01 2.571173310279846191e-01 -2.412678897380828857e-01 -1.738526970148086548e-01 -2.423068583011627197e-01 -3.103139698505401611e-01 -3.062324821949005127e-01 2.578601241111755371e-01 3.080180883407592773e-01 2.404219061136245728e-01 2.945447862148284912e-01 2.550225853919982910e-01 -2.811511754989624023e-01 -2.352834492921829224e-01 -1.798374652862548828e-01 2.638611793518066406e-01 -2.803855240345001221e-01 3.164961338043212891e-01 -2.335217893123626709e-01 2.667583227157592773e-01 -2.758326828479766846e-01 -2.952695190906524658e-01 -2.804301083087921143e-01 2.979670763015747070e-01 3.245697021484375000e-01 -3.642156720161437988e-01 -1.786337494850158691e-01 -2.947075664997100830e-01 3.297255933284759521e-01 2.997289896011352539e-01 -2.869761586189270020e-01 -2.934575378894805908e-01 -1.771590858697891235e-01 3.011265099048614502e-01
